svm_type c_svc
kernel_type rbf
gamma 0.04
nr_class 8
total_sv 787
rho -0.638969 -0.155567 -2.14228 0.600192 -0.0749245 -1.77807 -2.17747 0.169428 -1.44065 0.709444 0.286469 -1.2734 -1.68499 -1.49068 1.23146 0.105058 -1.0566 -1.85553 2.08624 1.54546 1.1815 -1.04304 -0.852001 -1.98585 -2.24391 -1.46029 -1.7233 -1.50433
label 1 2 3 4 5 6 7 8
nr_sv 92 82 84 125 92 86 99 127
SV
1 0 1 0 1 1 1 0:0 1:0 2:0 3:0 4:0 5:0 6:0 7:0 8:0 9:0 10:1 11:0 12:1 13:0 14:0 15:0 16:0 17:0 18:0 19:1 20:0 21:0 22:0 23:0 24:0 25:0 
1 1 1 1 1 1 1 0:0 1:0 2:0 3:0 4:0 5:0 6:0 7:0 8:0 9:0 10:0 11:0 12:0 13:0 14:0 15:1 16:0 17:0 18:0 19:1 20:0 21:0 22:0 23:0 24:0 25:0 
1 0 0 0 0 0.7243618639674303 0 0:0 1:0 2:0 3:0 4:0 5:0 6:0 7:1 8:0 9:0 10:1 11:0 12:1 13:0 14:0 15:0 16:0 17:1 18:0 19:1 20:0 21:0 22:0 23:0 24:0 25:0 
1 0 0 0 0 0 0 0:1 1:0 2:0 3:0 4:0 5:0 6:0 7:1 8:0 9:0 10:1 11:0 12:1 13:0 14:0 15:0 16:0 17:1 18:0 19:0 20:0 21:0 22:0 23:0 24:1 25:0 
0 1 0.9774852083641621 1 0 1 1 0:1 1:0 2:0 3:0 4:0 5:0 6:0 7:1 8:0 9:0 10:0 11:0 12:0 13:0 14:0 15:0 16:0 17:1 18:0 19:1 20:0 21:0 22:0 23:0 24:0 25:0 
0 1 0 0 0 0 0 0:0 1:0 2:0 3:0 4:0 5:0 6:1 7:0 8:0 9:1 10:0 11:0 12:0 13:0 14:0 15:1 16:0 17:0 18:1 19:1 20:0 21:0 22:1 23:0 24:0 25:0 
1 1 1 1 1 1 1 0:0 1:0 2:0 3:0 4:0 5:0 6:0 7:0 8:0 9:0 10:0 11:0 12:0 13:0 14:0 15:0 16:0 17:0 18:0 19:0 20:0 21:0 22:0 23:0 24:0 25:0 
1 0 1 0 1 1 1 0:0 1:0 2:0 3:0 4:0 5:0 6:0 7:0 8:0 9:1 10:0 11:0 12:0 13:0 14:0 15:0 16:0 17:0 18:0 19:1 20:0 21:0 22:0 23:0 24:0 25:0 
0.2970097538311121 0.7468669446056004 0.5390141782496798 1 1 1 0.7064033137093086 0:0 1:0 2:0 3:0 4:0 5:0 6:0 7:1 8:0 9:0 10:0 11:0 12:0 13:0 14:0 15:1 16:0 17:1 18:0 19:1 20:0 21:0 22:0 23:0 24:0 25:0 
0 1 0 0 0 1 0 0:0 1:0 2:0 3:0 4:0 5:0 6:0 7:0 8:0 9:1 10:0 11:0 12:0 13:0 14:0 15:0 16:0 17:0 18:1 19:1 20:0 21:0 22:0 23:0 24:0 25:0 
0 1 0 0 0 0 0 0:1 1:0 2:0 3:0 4:0 5:1 6:0 7:0 8:0 9:1 10:0 11:0 12:0 13:0 14:0 15:0 16:0 17:0 18:0 19:1 20:0 21:0 22:0 23:0 24:0 25:0 
1 0 1 1 1 1 1 0:0 1:0 2:0 3:0 4:0 5:0 6:0 7:0 8:0 9:0 10:0 11:0 12:0 13:0 14:0 15:0 16:0 17:1 18:0 19:1 20:0 21:0 22:0 23:0 24:0 25:0 
0 1 1 0 0 1 1 0:0 1:0 2:0 3:0 4:0 5:0 6:0 7:0 8:0 9:1 10:0 11:0 12:0 13:0 14:0 15:0 16:0 17:0 18:1 19:0 20:0 21:0 22:0 23:0 24:0 25:0 
1 1 1 1 1 1 1 0:0 1:0 2:0 3:0 4:0 5:1 6:0 7:0 8:0 9:0 10:0 11:0 12:0 13:0 14:0 15:0 16:0 17:0 18:0 19:0 20:0 21:0 22:0 23:0 24:0 25:0 
1 1 1 1 1 1 1 0:0 1:0 2:0 3:0 4:0 5:0 6:0 7:0 8:0 9:0 10:0 11:0 12:0 13:0 14:0 15:1 16:0 17:0 18:0 19:0 20:0 21:0 22:0 23:0 24:0 25:0 
1 1 1 1 1 1 1 0:0 1:0 2:0 3:0 4:1 5:0 6:1 7:0 8:0 9:0 10:0 11:0 12:0 13:0 14:0 15:1 16:0 17:0 18:0 19:0 20:0 21:1 22:1 23:0 24:1 25:0 
0 1 0 0 0 0 0 0:1 1:0 2:0 3:0 4:0 5:1 6:0 7:0 8:0 9:1 10:0 11:0 12:0 13:0 14:0 15:0 16:0 17:0 18:0 19:1 20:0 21:0 22:0 23:0 24:0 25:0 
1 1 1 1 1 1 1 0:0 1:0 2:0 3:0 4:0 5:0 6:0 7:0 8:0 9:0 10:0 11:0 12:0 13:0 14:0 15:0 16:0 17:0 18:0 19:0 20:0 21:0 22:0 23:0 24:0 25:0 
1 0 0.1319362952497521 0 0 1 0.637581034881788 0:0 1:0 2:0 3:0 4:0 5:0 6:0 7:0 8:0 9:1 10:0 11:0 12:0 13:0 14:0 15:0 16:0 17:1 18:0 19:1 20:0 21:0 22:0 23:0 24:0 25:0 
0 1 0 0 0 0 0 0:1 1:0 2:0 3:0 4:0 5:1 6:0 7:0 8:0 9:1 10:0 11:0 12:0 13:0 14:0 15:0 16:0 17:0 18:0 19:1 20:0 21:0 22:0 23:0 24:0 25:0 
0 0 1 0 0.04931975752272044 1 1 0:0 1:0 2:0 3:0 4:0 5:1 6:0 7:0 8:0 9:1 10:0 11:0 12:0 13:0 14:0 15:0 16:0 17:0 18:0 19:0 20:0 21:0 22:0 23:0 24:0 25:0 
0 1 0 1 0 0 0 0:1 1:0 2:0 3:0 4:1 5:1 6:0 7:1 8:0 9:1 10:0 11:0 12:0 13:0 14:0 15:0 16:0 17:0 18:0 19:1 20:0 21:1 22:0 23:0 24:0 25:0 
0 1 0 0 0 0 0 0:0 1:0 2:0 3:0 4:0 5:0 6:1 7:0 8:0 9:1 10:0 11:0 12:0 13:0 14:0 15:1 16:0 17:0 18:1 19:1 20:0 21:0 22:1 23:0 24:0 25:0 
1 0 0 0 0 1 1 0:1 1:0 2:0 3:0 4:0 5:0 6:0 7:1 8:0 9:0 10:0 11:0 12:0 13:0 14:0 15:0 16:0 17:1 18:0 19:1 20:0 21:0 22:0 23:0 24:1 25:0 
1 0 0 0 0 1 0 0:0 1:0 2:0 3:0 4:0 5:0 6:0 7:0 8:0 9:1 10:0 11:0 12:0 13:0 14:0 15:0 16:0 17:1 18:0 19:1 20:0 21:0 22:0 23:0 24:1 25:0 
1 0 0 0 0 0 0 0:0 1:0 2:0 3:0 4:0 5:0 6:0 7:0 8:0 9:1 10:1 11:0 12:1 13:0 14:0 15:0 16:0 17:1 18:0 19:1 20:0 21:0 22:0 23:0 24:0 25:0 
0.05075989338108775 0 0 0 0 0 0 0:1 1:0 2:0 3:0 4:0 5:1 6:0 7:0 8:0 9:0 10:1 11:0 12:1 13:0 14:0 15:0 16:0 17:1 18:0 19:1 20:0 21:0 22:0 23:0 24:0 25:0 
1 0.6493893373547857 1 0 1 1 1 0:0 1:0 2:0 3:0 4:0 5:0 6:0 7:0 8:0 9:1 10:0 11:0 12:0 13:0 14:0 15:0 16:0 17:0 18:0 19:1 20:0 21:0 22:0 23:0 24:0 25:0 
0 1 1 0 1 1 1 0:0 1:0 2:0 3:0 4:0 5:1 6:0 7:0 8:0 9:1 10:0 11:0 12:0 13:0 14:0 15:0 16:0 17:0 18:0 19:0 20:0 21:0 22:0 23:0 24:0 25:0 
0 1 0 0 0 0 0 0:1 1:0 2:0 3:0 4:1 5:1 6:0 7:1 8:0 9:1 10:0 11:0 12:0 13:0 14:0 15:0 16:0 17:1 18:1 19:0 20:0 21:1 22:0 23:0 24:1 25:0 
1 0 1 0.5104169026332624 1 1 1 0:0 1:0 2:0 3:0 4:0 5:0 6:0 7:0 8:0 9:0 10:1 11:0 12:1 13:0 14:0 15:0 16:0 17:0 18:0 19:0 20:0 21:0 22:0 23:0 24:1 25:0 
0 1 0 0 0 0 0 0:0 1:0 2:0 3:0 4:0 5:0 6:1 7:0 8:0 9:1 10:0 11:0 12:0 13:0 14:0 15:1 16:0 17:0 18:0 19:1 20:0 21:0 22:1 23:0 24:0 25:0 
1 0 0 0 1 0 0 0:0 1:0 2:0 3:0 4:0 5:0 6:0 7:0 8:0 9:1 10:1 11:0 12:1 13:0 14:0 15:0 16:0 17:0 18:0 19:0 20:0 21:0 22:0 23:0 24:0 25:0 
0 1 1 0 0 0.4044770341408001 1 0:0 1:0 2:0 3:0 4:0 5:0 6:1 7:0 8:0 9:1 10:0 11:0 12:0 13:0 14:0 15:0 16:0 17:0 18:0 19:0 20:0 21:0 22:1 23:0 24:0 25:0 
1 0 0 0.1731841275310985 0 0 0 0:0 1:0 2:0 3:0 4:0 5:0 6:1 7:0 8:0 9:0 10:0 11:0 12:0 13:0 14:0 15:1 16:0 17:1 18:0 19:1 20:0 21:0 22:1 23:0 24:0 25:0 
0 1 1 0 1 1 1 0:0 1:0 2:0 3:0 4:0 5:1 6:0 7:0 8:0 9:1 10:0 11:0 12:0 13:0 14:0 15:0 16:0 17:0 18:0 19:0 20:0 21:0 22:0 23:0 24:0 25:0 
1 0 1 0 1 1 0.30547741716346 0:0 1:0 2:0 3:0 4:0 5:1 6:0 7:0 8:0 9:0 10:1 11:0 12:1 13:0 14:0 15:0 16:0 17:0 18:0 19:0 20:0 21:0 22:0 23:0 24:0 25:0 
1 1 1 1 1 1 1 0:0 1:0 2:0 3:0 4:0 5:1 6:0 7:0 8:0 9:0 10:0 11:0 12:0 13:0 14:0 15:0 16:0 17:0 18:0 19:0 20:0 21:0 22:0 23:0 24:0 25:0 
0.1971227362888767 1 1 0 0 0.9744523531209351 1 0:0 1:0 2:0 3:0 4:0 5:0 6:1 7:0 8:0 9:1 10:0 11:0 12:0 13:0 14:0 15:0 16:0 17:0 18:0 19:0 20:0 21:0 22:1 23:0 24:0 25:0 
1 1 1 1 1 1 1 0:0 1:0 2:0 3:0 4:0 5:0 6:0 7:0 8:0 9:1 10:0 11:0 12:0 13:0 14:0 15:0 16:0 17:0 18:0 19:0 20:0 21:0 22:0 23:0 24:0 25:0 
0 1 0 1 0 0 0 0:0 1:0 2:0 3:0 4:1 5:0 6:1 7:1 8:0 9:1 10:0 11:0 12:0 13:0 14:0 15:1 16:0 17:1 18:0 19:1 20:0 21:1 22:1 23:0 24:0 25:0 
0 1 0 1 0 0 0 0:1 1:0 2:0 3:0 4:1 5:1 6:0 7:1 8:0 9:1 10:0 11:0 12:0 13:0 14:0 15:0 16:0 17:0 18:0 19:1 20:0 21:1 22:0 23:0 24:0 25:0 
0 1 0 0 0 0 0 0:1 1:0 2:0 3:0 4:1 5:1 6:0 7:1 8:0 9:1 10:0 11:0 12:0 13:0 14:0 15:0 16:0 17:1 18:1 19:1 20:0 21:1 22:0 23:0 24:0 25:0 
0 1 0 1 0 0 0 0:1 1:0 2:0 3:0 4:1 5:1 6:0 7:1 8:0 9:1 10:0 11:0 12:0 13:0 14:0 15:0 16:0 17:1 18:0 19:1 20:0 21:1 22:0 23:0 24:0 25:0 
0 1 0 0 0 0 0 0:1 1:0 2:0 3:0 4:1 5:1 6:0 7:1 8:0 9:1 10:1 11:0 12:1 13:0 14:0 15:0 16:0 17:1 18:0 19:1 20:0 21:1 22:0 23:0 24:0 25:0 
0 1 0 0 0 0 0 0:1 1:0 2:0 3:0 4:0 5:1 6:0 7:0 8:0 9:1 10:0 11:0 12:0 13:0 14:0 15:0 16:0 17:0 18:0 19:1 20:0 21:0 22:0 23:0 24:0 25:0 
0 1 0 0 0.8482599999074284 0 0 0:1 1:0 2:0 3:0 4:0 5:1 6:0 7:0 8:0 9:1 10:0 11:0 12:0 13:0 14:0 15:0 16:0 17:0 18:0 19:0 20:0 21:0 22:0 23:0 24:0 25:0 
1 0 0 0 0 0 0 0:0 1:0 2:0 3:0 4:0 5:0 6:0 7:0 8:0 9:1 10:1 11:0 12:1 13:0 14:0 15:0 16:0 17:0 18:0 19:1 20:0 21:0 22:0 23:0 24:0 25:0 
0 1 0.7023576018256968 1 1 1 0.1432095337262723 0:0 1:0 2:0 3:0 4:1 5:0 6:1 7:1 8:0 9:0 10:0 11:0 12:0 13:0 14:0 15:1 16:0 17:0 18:0 19:0 20:0 21:1 22:1 23:0 24:0 25:0 
0.4618886198682982 1 1 1 1 1 0 0:1 1:1 2:0 3:0 4:0 5:0 6:0 7:1 8:0 9:0 10:0 11:0 12:0 13:1 14:0 15:0 16:0 17:1 18:0 19:1 20:0 21:0 22:0 23:0 24:0 25:0 
0 1 0 0 0 0 0 0:1 1:0 2:0 3:0 4:1 5:1 6:0 7:1 8:0 9:1 10:1 11:0 12:1 13:0 14:0 15:0 16:0 17:0 18:0 19:1 20:0 21:1 22:0 23:0 24:0 25:0 
1 0 0 0 0 1 0 0:0 1:0 2:0 3:0 4:0 5:0 6:0 7:0 8:0 9:0 10:1 11:0 12:1 13:0 14:0 15:0 16:0 17:1 18:0 19:1 20:0 21:0 22:0 23:0 24:0 25:0 
1 1 1 1 1 1 1 0:0 1:0 2:0 3:0 4:0 5:0 6:0 7:0 8:0 9:0 10:0 11:0 12:0 13:0 14:0 15:0 16:0 17:0 18:1 19:0 20:1 21:0 22:0 23:1 24:0 25:0 
1 1 1 1 1 0 1 0:0 1:0 2:0 3:0 4:0 5:0 6:1 7:0 8:0 9:0 10:0 11:0 12:0 13:0 14:0 15:1 16:0 17:1 18:0 19:0 20:0 21:0 22:1 23:0 24:0 25:0 
1 0 0.8656916680715594 0 0 1 1 0:0 1:0 2:0 3:0 4:0 5:0 6:0 7:0 8:0 9:0 10:1 11:0 12:1 13:0 14:0 15:0 16:0 17:0 18:1 19:0 20:0 21:0 22:0 23:0 24:0 25:0 
0.8636320174010637 1 1 1 1 1 1 0:0 1:0 2:0 3:0 4:0 5:0 6:0 7:0 8:0 9:0 10:0 11:0 12:0 13:0 14:0 15:0 16:0 17:0 18:1 19:0 20:1 21:0 22:0 23:1 24:0 25:0 
0 1 0 1 0 0.8065604560198865 0 0:0 1:0 2:0 3:0 4:0 5:0 6:1 7:0 8:0 9:0 10:0 11:0 12:0 13:0 14:0 15:1 16:0 17:0 18:1 19:0 20:1 21:0 22:1 23:1 24:0 25:0 
0 1 0 0 0 0 0 0:1 1:0 2:0 3:0 4:1 5:1 6:0 7:1 8:0 9:1 10:1 11:0 12:1 13:0 14:0 15:0 16:0 17:0 18:1 19:0 20:0 21:1 22:0 23:0 24:0 25:0 
0 1 0.3443474895148461 1 1 0 0 0:0 1:0 2:0 3:0 4:0 5:0 6:1 7:0 8:0 9:0 10:0 11:0 12:0 13:0 14:0 15:1 16:0 17:0 18:1 19:0 20:0 21:0 22:1 23:0 24:0 25:0 
0 1 0 1 0 1 0 0:0 1:0 2:0 3:0 4:0 5:0 6:1 7:0 8:0 9:0 10:0 11:0 12:0 13:0 14:0 15:1 16:0 17:0 18:1 19:0 20:1 21:0 22:1 23:1 24:0 25:0 
0 1 1 1 1 0 0.2830371902229416 0:0 1:0 2:0 3:0 4:0 5:0 6:1 7:0 8:0 9:0 10:0 11:0 12:0 13:0 14:0 15:1 16:0 17:0 18:1 19:0 20:0 21:0 22:1 23:0 24:0 25:0 
0 0 0 0.1090988092571149 0 0 0 0:0 1:0 2:0 3:0 4:0 5:0 6:1 7:0 8:0 9:0 10:1 11:0 12:1 13:0 14:0 15:1 16:0 17:0 18:1 19:0 20:1 21:0 22:1 23:1 24:0 25:0 
0 1 0 1 0 1 0 0:0 1:0 2:0 3:0 4:0 5:0 6:1 7:0 8:0 9:0 10:0 11:0 12:0 13:0 14:0 15:1 16:0 17:0 18:1 19:0 20:1 21:0 22:1 23:1 24:0 25:0 
1 1 1 1 1 1 1 0:0 1:0 2:0 3:0 4:0 5:0 6:0 7:0 8:0 9:0 10:0 11:0 12:0 13:0 14:0 15:0 16:0 17:0 18:0 19:0 20:0 21:0 22:0 23:0 24:0 25:0 
1 0 1 0 0 1 1 0:0 1:0 2:0 3:0 4:0 5:0 6:0 7:0 8:0 9:0 10:1 11:0 12:1 13:0 14:0 15:0 16:0 17:0 18:1 19:0 20:0 21:0 22:0 23:0 24:0 25:0 
0 0 0 1 0 0 0 0:0 1:0 2:0 3:0 4:0 5:0 6:1 7:0 8:0 9:0 10:1 11:0 12:1 13:0 14:0 15:1 16:0 17:0 18:1 19:0 20:1 21:0 22:1 23:1 24:0 25:0 
0 0 0 1 0 1 0 0:0 1:0 2:0 3:0 4:0 5:0 6:0 7:0 8:0 9:0 10:1 11:0 12:1 13:0 14:0 15:0 16:0 17:0 18:1 19:0 20:1 21:0 22:0 23:1 24:0 25:0 
1 1 1 1 1 1 1 0:0 1:0 2:0 3:0 4:0 5:0 6:0 7:0 8:0 9:0 10:0 11:0 12:0 13:0 14:0 15:0 16:0 17:0 18:1 19:0 20:0 21:0 22:0 23:0 24:0 25:0 
1 1 0 1 0 1 0 0:0 1:0 2:0 3:0 4:1 5:0 6:0 7:0 8:0 9:0 10:1 11:0 12:1 13:0 14:0 15:0 16:0 17:0 18:1 19:0 20:0 21:1 22:0 23:0 24:1 25:0 
1 0 0 1 1 1 0.5456477373591795 0:0 1:0 2:0 3:0 4:0 5:0 6:0 7:0 8:0 9:0 10:1 11:1 12:1 13:0 14:0 15:0 16:0 17:0 18:1 19:0 20:0 21:0 22:0 23:0 24:0 25:0 
1 1 0 1 1 0.1424658116942953 0 0:0 1:0 2:0 3:0 4:0 5:0 6:0 7:1 8:0 9:0 10:1 11:0 12:1 13:0 14:0 15:1 16:0 17:0 18:0 19:0 20:0 21:0 22:0 23:0 24:0 25:0 
1 0 1 1 1 1 1 0:0 1:0 2:0 3:0 4:0 5:0 6:0 7:0 8:0 9:0 10:1 11:0 12:1 13:0 14:0 15:0 16:0 17:0 18:0 19:0 20:0 21:0 22:0 23:0 24:0 25:0 
0 0.6410683807928081 0 0 0 0 0 0:0 1:0 2:0 3:0 4:0 5:0 6:1 7:0 8:0 9:0 10:1 11:0 12:1 13:0 14:0 15:1 16:0 17:0 18:1 19:0 20:0 21:0 22:1 23:0 24:0 25:0 
0 1 0.9774712070936138 0.7326654635272688 1 0 1 0:0 1:0 2:0 3:0 4:0 5:0 6:1 7:0 8:0 9:0 10:0 11:0 12:0 13:0 14:0 15:1 16:0 17:0 18:1 19:0 20:0 21:0 22:1 23:0 24:0 25:0 
1 0 0 0 1 0 0 0:1 1:0 2:0 3:0 4:0 5:0 6:0 7:0 8:0 9:0 10:1 11:0 12:1 13:0 14:0 15:0 16:0 17:1 18:0 19:0 20:0 21:0 22:0 23:0 24:1 25:0 
0.1059705000684975 1 1 0.6826231727218991 1 1 1 0:0 1:0 2:0 3:0 4:0 5:1 6:0 7:0 8:0 9:1 10:0 11:0 12:0 13:0 14:0 15:0 16:0 17:0 18:0 19:0 20:0 21:0 22:0 23:0 24:0 25:0 
1 0 0 1 1 0 0 0:1 1:1 2:0 3:0 4:0 5:1 6:0 7:0 8:0 9:0 10:0 11:0 12:0 13:1 14:0 15:0 16:0 17:1 18:0 19:1 20:0 21:0 22:0 23:0 24:1 25:0 
1 0.741866458121173 1 1 1 1 1 0:0 1:0 2:0 3:0 4:0 5:1 6:0 7:0 8:0 9:1 10:0 11:0 12:0 13:0 14:0 15:0 16:0 17:0 18:0 19:0 20:0 21:0 22:0 23:0 24:0 25:0 
0 1 0 0 0 0 0 0:0 1:0 2:0 3:0 4:0 5:0 6:1 7:0 8:0 9:0 10:1 11:0 12:1 13:0 14:0 15:1 16:0 17:0 18:1 19:0 20:0 21:0 22:1 23:0 24:0 25:0 
1 1 1 1 1 1 1 0:0 1:0 2:0 3:0 4:0 5:0 6:0 7:0 8:0 9:0 10:0 11:0 12:0 13:0 14:0 15:0 16:0 17:0 18:0 19:0 20:0 21:0 22:0 23:0 24:1 25:0 
0 1 0 0 0 0 0 0:1 1:0 2:0 3:0 4:0 5:1 6:0 7:0 8:0 9:1 10:0 11:0 12:0 13:0 14:0 15:0 16:0 17:0 18:1 19:1 20:0 21:0 22:0 23:0 24:0 25:0 
1 1 1 1 1 1 1 0:1 1:0 2:0 3:0 4:0 5:0 6:0 7:1 8:0 9:0 10:0 11:0 12:0 13:0 14:0 15:0 16:0 17:0 18:0 19:0 20:0 21:0 22:0 23:0 24:0 25:0 
1 0 0 0.149288783188137 0 1 0 0:0 1:0 2:0 3:0 4:0 5:0 6:0 7:0 8:0 9:0 10:1 11:0 12:1 13:0 14:0 15:0 16:0 17:0 18:1 19:0 20:1 21:0 22:0 23:1 24:1 25:0 
0 1 0 0 0 0 0 0:1 1:0 2:0 3:0 4:0 5:1 6:0 7:0 8:0 9:1 10:0 11:0 12:0 13:0 14:0 15:0 16:0 17:0 18:1 19:0 20:0 21:0 22:0 23:0 24:0 25:0 
0 1 1 0 0 1 1 0:1 1:0 2:0 3:0 4:0 5:1 6:0 7:0 8:0 9:0 10:0 11:0 12:0 13:0 14:0 15:0 16:0 17:0 18:1 19:0 20:0 21:0 22:0 23:0 24:0 25:0 
0.7497237703826667 0 0 0 0 0 0 0:1 1:0 2:0 3:0 4:0 5:1 6:0 7:0 8:0 9:0 10:0 11:0 12:0 13:0 14:0 15:0 16:0 17:1 18:1 19:0 20:0 21:0 22:0 23:0 24:1 25:0 
1 1 1 1 1 1 1 0:1 1:0 2:0 3:0 4:0 5:0 6:0 7:1 8:0 9:0 10:0 11:0 12:0 13:0 14:0 15:0 16:0 17:1 18:0 19:0 20:0 21:0 22:0 23:0 24:1 25:0 
1 0 0 0 0 1 1 0:0 1:0 2:0 3:0 4:0 5:0 6:0 7:0 8:0 9:0 10:1 11:0 12:1 13:0 14:0 15:0 16:0 17:0 18:1 19:0 20:0 21:0 22:0 23:0 24:1 25:0 
0 1 0 0.9246974083176553 1 0 0 0:1 1:1 2:0 3:0 4:0 5:1 6:0 7:0 8:0 9:0 10:1 11:0 12:1 13:1 14:0 15:0 16:0 17:0 18:1 19:0 20:0 21:0 22:0 23:0 24:0 25:0 
1 1 1 1 1 1 1 0:0 1:0 2:0 3:0 4:0 5:0 6:0 7:0 8:0 9:0 10:0 11:0 12:0 13:0 14:0 15:0 16:0 17:0 18:0 19:0 20:0 21:0 22:0 23:0 24:0 25:0 
1 0 1 0 0.3540238233632369 1 1 0:0 1:0 2:0 3:0 4:0 5:0 6:0 7:0 8:0 9:0 10:1 11:0 12:1 13:0 14:0 15:0 16:0 17:0 18:1 19:0 20:0 21:0 22:0 23:0 24:0 25:0 
0 1 0 0 0 0 0 0:1 1:0 2:0 3:0 4:0 5:1 6:0 7:0 8:0 9:1 10:0 11:0 12:0 13:0 14:0 15:0 16:0 17:0 18:0 19:1 20:0 21:0 22:0 23:0 24:0 25:0 
-1 1 1 0 0 1 1 0:0 1:0 2:0 3:0 4:0 5:0 6:0 7:0 8:0 9:0 10:0 11:0 12:0 13:0 14:0 15:0 16:0 17:1 18:0 19:0 20:0 21:0 22:0 23:0 24:1 25:0 
-1 0 0 0 0 1 0 0:0 1:0 2:0 3:0 4:0 5:0 6:0 7:0 8:0 9:0 10:1 11:0 12:1 13:0 14:0 15:0 16:0 17:1 18:0 19:1 20:0 21:0 22:0 23:0 24:1 25:0 
-1 0 0 0 0 1 0 0:0 1:0 2:0 3:0 4:0 5:0 6:0 7:0 8:0 9:0 10:1 11:0 12:1 13:0 14:0 15:0 16:1 17:0 18:0 19:0 20:0 21:0 22:0 23:0 24:1 25:0 
-1 1 1 1 1 1 1 0:0 1:0 2:1 3:0 4:0 5:0 6:0 7:0 8:0 9:0 10:0 11:0 12:0 13:0 14:0 15:0 16:0 17:0 18:0 19:0 20:0 21:0 22:0 23:0 24:1 25:0 
-1 1 1 1 1 0.5133130184090124 0.451193820024268 0:0 1:0 2:1 3:1 4:0 5:0 6:0 7:0 8:0 9:0 10:0 11:1 12:0 13:0 14:0 15:0 16:0 17:0 18:1 19:0 20:0 21:0 22:0 23:0 24:0 25:0 
-1 1 1 1 1 1 1 0:0 1:0 2:0 3:0 4:0 5:0 6:0 7:0 8:0 9:0 10:0 11:0 12:0 13:0 14:0 15:0 16:1 17:0 18:0 19:1 20:0 21:0 22:0 23:0 24:0 25:0 
-1 0.7078990689375899 1 0 1 1 1 0:0 1:0 2:0 3:1 4:0 5:0 6:0 7:0 8:0 9:0 10:0 11:0 12:0 13:0 14:0 15:0 16:0 17:0 18:0 19:1 20:0 21:0 22:0 23:0 24:0 25:0 
-0 0 1 0 1 0 0 0:0 1:0 2:0 3:1 4:0 5:0 6:0 7:0 8:0 9:0 10:0 11:0 12:0 13:0 14:0 15:0 16:1 17:0 18:0 19:0 20:0 21:0 22:0 23:0 24:1 25:0 
-0 0 0 0 1 0 0 0:0 1:1 2:0 3:1 4:0 5:0 6:0 7:0 8:0 9:0 10:1 11:0 12:1 13:1 14:0 15:0 16:0 17:0 18:0 19:0 20:0 21:0 22:0 23:0 24:1 25:0 
-1 1 1 1 1 1 1 0:0 1:0 2:0 3:0 4:0 5:0 6:0 7:0 8:0 9:0 10:0 11:0 12:0 13:0 14:0 15:0 16:0 17:0 18:0 19:0 20:0 21:0 22:0 23:0 24:0 25:0 
-1 1 1 1 1 1 1 0:0 1:0 2:0 3:0 4:0 5:0 6:0 7:0 8:0 9:0 10:1 11:0 12:1 13:0 14:0 15:0 16:0 17:0 18:0 19:0 20:0 21:0 22:0 23:0 24:0 25:0 
-0 0 1 1 1 1 1 0:0 1:0 2:0 3:0 4:0 5:0 6:0 7:0 8:0 9:0 10:0 11:1 12:0 13:0 14:0 15:0 16:1 17:0 18:0 19:0 20:0 21:0 22:0 23:0 24:1 25:0 
-1 1 1 0 0 1 1 0:0 1:0 2:0 3:0 4:0 5:0 6:0 7:0 8:0 9:0 10:0 11:0 12:0 13:0 14:0 15:0 16:0 17:1 18:0 19:0 20:0 21:0 22:0 23:0 24:1 25:0 
-1 1 1 1 1 1 1 0:0 1:0 2:0 3:0 4:0 5:0 6:0 7:0 8:0 9:0 10:0 11:0 12:0 13:0 14:0 15:0 16:0 17:0 18:0 19:0 20:0 21:0 22:0 23:0 24:1 25:0 
-0 1 1 1 1 1 1 0:0 1:0 2:0 3:1 4:0 5:0 6:0 7:0 8:0 9:0 10:0 11:0 12:0 13:0 14:0 15:0 16:0 17:0 18:0 19:0 20:0 21:0 22:0 23:0 24:0 25:0 
-1 1 1 1 1 1 1 0:0 1:0 2:0 3:0 4:0 5:0 6:0 7:0 8:0 9:0 10:1 11:0 12:1 13:0 14:0 15:0 16:0 17:0 18:0 19:0 20:0 21:0 22:0 23:0 24:0 25:0 
-0 0 0 0 0 1 0 0:0 1:0 2:0 3:1 4:0 5:0 6:0 7:0 8:0 9:0 10:0 11:1 12:0 13:0 14:0 15:0 16:0 17:0 18:0 19:1 20:0 21:0 22:0 23:0 24:0 25:0 
-1 0 0 0 0 0 0 0:0 1:0 2:0 3:1 4:0 5:0 6:0 7:0 8:0 9:0 10:1 11:0 12:1 13:0 14:0 15:0 16:0 17:0 18:0 19:0 20:0 21:0 22:0 23:0 24:0 25:0 
-1 1 1 1 1 1 1 0:0 1:0 2:0 3:0 4:0 5:0 6:0 7:0 8:0 9:0 10:0 11:0 12:0 13:0 14:0 15:0 16:1 17:0 18:0 19:0 20:0 21:0 22:0 23:0 24:0 25:0 
-1 0 0 0 1 0 0 0:0 1:0 2:0 3:1 4:0 5:0 6:0 7:0 8:0 9:0 10:1 11:0 12:1 13:0 14:0 15:1 16:0 17:1 18:0 19:0 20:0 21:0 22:0 23:0 24:0 25:0 
-0 0 0 0 0 1 0 0:0 1:0 2:0 3:1 4:0 5:0 6:0 7:0 8:0 9:0 10:0 11:1 12:0 13:0 14:0 15:0 16:0 17:0 18:0 19:1 20:0 21:0 22:0 23:0 24:0 25:0 
-0 1 1 1 1 1 1 0:0 1:0 2:0 3:1 4:0 5:0 6:0 7:0 8:0 9:0 10:0 11:0 12:0 13:0 14:0 15:0 16:0 17:0 18:0 19:0 20:0 21:0 22:0 23:0 24:0 25:0 
-0 0 1 0 0.3677458083819612 0.8857353039860715 1 0:0 1:0 2:0 3:1 4:0 5:0 6:0 7:0 8:0 9:0 10:0 11:0 12:0 13:0 14:0 15:0 16:0 17:0 18:0 19:0 20:0 21:0 22:0 23:0 24:1 25:0 
-0 0 1 1 1 1 1 0:0 1:0 2:0 3:0 4:0 5:0 6:0 7:0 8:0 9:0 10:0 11:1 12:0 13:0 14:0 15:0 16:1 17:0 18:0 19:0 20:0 21:0 22:0 23:0 24:1 25:0 
-0 0 0 0.4871040283497813 0 0 0 0:0 1:0 2:1 3:1 4:0 5:0 6:0 7:0 8:0 9:0 10:0 11:1 12:0 13:0 14:0 15:0 16:0 17:0 18:0 19:0 20:0 21:0 22:0 23:0 24:1 25:0 
-1 1 1 1 1 1 1 0:0 1:0 2:0 3:0 4:0 5:0 6:0 7:0 8:0 9:0 10:0 11:1 12:0 13:0 14:0 15:0 16:0 17:0 18:0 19:1 20:0 21:0 22:0 23:0 24:0 25:0 
-1 0 0.6842054489329618 0 0.2443645351680961 0 0 0:0 1:0 2:0 3:1 4:0 5:0 6:0 7:0 8:0 9:0 10:1 11:0 12:1 13:0 14:0 15:0 16:0 17:0 18:0 19:0 20:0 21:0 22:0 23:0 24:0 25:0 
-0 0 0 0 0.5582696643840435 0 0 0:0 1:0 2:0 3:1 4:0 5:0 6:0 7:0 8:0 9:0 10:1 11:1 12:1 13:0 14:0 15:0 16:1 17:0 18:0 19:0 20:0 21:0 22:0 23:0 24:0 25:0 
-0 0.2664381613392436 1 1 1 0.8897486939913435 0 0:0 1:0 2:0 3:0 4:0 5:0 6:0 7:0 8:0 9:0 10:0 11:1 12:0 13:0 14:1 15:0 16:0 17:1 18:0 19:0 20:0 21:0 22:0 23:0 24:0 25:1 
-1 0 1 0 1 0.5761524909633645 0 0:0 1:0 2:0 3:1 4:0 5:0 6:0 7:0 8:0 9:0 10:1 11:0 12:1 13:0 14:0 15:0 16:0 17:0 18:0 19:0 20:0 21:0 22:0 23:0 24:0 25:0 
-1 1 1 1 1 1 1 0:0 1:0 2:0 3:0 4:0 5:0 6:0 7:0 8:0 9:0 10:1 11:0 12:1 13:0 14:0 15:0 16:0 17:0 18:0 19:0 20:0 21:0 22:0 23:0 24:0 25:0 
-1 0 0 0 0 0 0 0:0 1:0 2:0 3:0 4:0 5:0 6:0 7:0 8:0 9:0 10:1 11:1 12:1 13:0 14:0 15:0 16:0 17:1 18:0 19:0 20:0 21:0 22:0 23:0 24:1 25:0 
-0 0 1 0 1 1 1 0:0 1:0 2:0 3:1 4:0 5:0 6:0 7:0 8:0 9:0 10:0 11:1 12:0 13:0 14:0 15:0 16:0 17:0 18:0 19:0 20:0 21:0 22:0 23:0 24:0 25:0 
-1 1 1 0 1 1 1 0:0 1:0 2:0 3:1 4:0 5:0 6:0 7:0 8:0 9:0 10:0 11:0 12:0 13:0 14:0 15:0 16:0 17:0 18:0 19:1 20:0 21:0 22:0 23:0 24:0 25:0 
-1 1 1 0 1 1 1 0:0 1:0 2:0 3:1 4:0 5:0 6:0 7:0 8:0 9:0 10:0 11:0 12:0 13:0 14:0 15:0 16:0 17:0 18:0 19:1 20:0 21:0 22:0 23:0 24:0 25:0 
-1 1 1 1 1 1 1 0:0 1:0 2:0 3:0 4:0 5:0 6:0 7:0 8:0 9:0 10:1 11:0 12:1 13:0 14:1 15:0 16:0 17:0 18:0 19:0 20:0 21:0 22:0 23:0 24:0 25:1 
-1 1 1 0 1 1 1 0:0 1:0 2:0 3:1 4:0 5:0 6:0 7:0 8:0 9:0 10:0 11:0 12:0 13:0 14:0 15:0 16:0 17:0 18:0 19:1 20:0 21:0 22:0 23:0 24:0 25:0 
-1 1 1 0 0 1 1 0:0 1:0 2:0 3:0 4:0 5:0 6:0 7:0 8:0 9:0 10:0 11:0 12:0 13:0 14:0 15:0 16:0 17:1 18:0 19:0 20:0 21:0 22:0 23:0 24:1 25:0 
-1 1 1 1 1 1 1 0:0 1:0 2:0 3:0 4:0 5:0 6:0 7:0 8:0 9:0 10:0 11:0 12:0 13:0 14:1 15:0 16:0 17:1 18:0 19:0 20:0 21:0 22:0 23:0 24:0 25:1 
-1 1 1 1 1 1 1 0:0 1:0 2:0 3:0 4:0 5:0 6:0 7:0 8:0 9:0 10:0 11:0 12:0 13:0 14:1 15:0 16:0 17:0 18:0 19:1 20:0 21:0 22:0 23:0 24:0 25:1 
-1 0.9187360546501913 0 1 1 1 0 0:1 1:0 2:0 3:1 4:0 5:0 6:0 7:0 8:0 9:0 10:0 11:1 12:0 13:0 14:0 15:0 16:0 17:0 18:0 19:1 20:0 21:0 22:0 23:0 24:0 25:0 
-0 0 0 0 0 0.3606390323356864 0 0:0 1:0 2:0 3:0 4:0 5:0 6:0 7:0 8:0 9:0 10:0 11:1 12:0 13:0 14:0 15:0 16:0 17:1 18:0 19:0 20:0 21:0 22:0 23:0 24:1 25:0 
-0 0 1 1 1 0 0 0:0 1:0 2:1 3:1 4:0 5:0 6:0 7:0 8:0 9:0 10:0 11:0 12:0 13:0 14:0 15:0 16:1 17:0 18:0 19:0 20:0 21:0 22:0 23:0 24:0 25:0 
-1 1 1 1 1 1 1 0:0 1:1 2:0 3:0 4:0 5:0 6:0 7:0 8:0 9:0 10:0 11:0 12:0 13:1 14:0 15:0 16:1 17:0 18:0 19:0 20:0 21:0 22:0 23:0 24:0 25:0 
-0 0 1 0 1 0 0 0:0 1:0 2:0 3:1 4:0 5:0 6:0 7:0 8:0 9:0 10:0 11:0 12:0 13:0 14:0 15:0 16:1 17:0 18:0 19:0 20:0 21:0 22:0 23:0 24:1 25:0 
-1 1 1 1 1 1 1 0:0 1:0 2:0 3:1 4:0 5:0 6:0 7:0 8:0 9:0 10:0 11:0 12:0 13:0 14:0 15:0 16:0 17:0 18:0 19:0 20:0 21:0 22:0 23:0 24:0 25:0 
-1 0 0 1 0 0 0 0:0 1:1 2:0 3:0 4:0 5:0 6:0 7:0 8:0 9:0 10:1 11:0 12:1 13:1 14:0 15:0 16:0 17:1 18:0 19:0 20:0 21:0 22:0 23:0 24:1 25:0 
-1 0 0 0 0 0 0 0:0 1:0 2:0 3:0 4:0 5:0 6:0 7:0 8:0 9:0 10:1 11:0 12:1 13:0 14:0 15:0 16:0 17:1 18:0 19:0 20:0 21:0 22:0 23:0 24:1 25:0 
-1 1 1 1 1 1 1 0:0 1:0 2:0 3:0 4:0 5:0 6:0 7:0 8:0 9:0 10:0 11:0 12:0 13:0 14:0 15:0 16:0 17:0 18:0 19:0 20:0 21:0 22:0 23:0 24:1 25:0 
-0 0 0 1 1 0 0.140172191206326 0:0 1:0 2:0 3:0 4:0 5:0 6:0 7:0 8:0 9:0 10:0 11:0 12:0 13:0 14:1 15:0 16:0 17:1 18:0 19:0 20:0 21:0 22:0 23:0 24:1 25:1 
-1 0 0 0 0 1 0 0:0 1:0 2:0 3:0 4:0 5:0 6:0 7:0 8:0 9:0 10:0 11:1 12:0 13:0 14:0 15:0 16:0 17:1 18:0 19:1 20:0 21:0 22:0 23:0 24:1 25:0 
-1 0 0 0 0 0 0 0:0 1:0 2:0 3:0 4:0 5:0 6:0 7:0 8:0 9:0 10:1 11:1 12:1 13:0 14:0 15:0 16:0 17:1 18:0 19:0 20:0 21:0 22:0 23:0 24:1 25:0 
-0 0 0 0 1 0 0 0:0 1:0 2:0 3:1 4:0 5:0 6:0 7:0 8:0 9:0 10:0 11:1 12:0 13:0 14:1 15:0 16:0 17:1 18:0 19:0 20:0 21:0 22:0 23:0 24:1 25:1 
-0 0 0 1 1 0.3776423446030143 0 0:0 1:0 2:1 3:0 4:0 5:0 6:0 7:0 8:0 9:0 10:1 11:1 12:1 13:0 14:1 15:0 16:0 17:0 18:0 19:0 20:0 21:0 22:0 23:0 24:0 25:1 
-0 0 0 0 1 0 0 0:0 1:0 2:0 3:0 4:0 5:0 6:0 7:0 8:0 9:0 10:0 11:1 12:0 13:0 14:1 15:0 16:0 17:1 18:0 19:0 20:0 21:0 22:0 23:0 24:1 25:1 
-0.2429176559652547 0 0 1 1 0 0.9407777569201901 0:0 1:0 2:0 3:0 4:0 5:0 6:0 7:0 8:0 9:0 10:0 11:0 12:0 13:0 14:1 15:0 16:0 17:1 18:0 19:0 20:0 21:0 22:0 23:0 24:1 25:1 
-0 0 1 1 1 0 1 0:0 1:0 2:0 3:1 4:0 5:0 6:0 7:0 8:0 9:0 10:0 11:0 12:0 13:0 14:0 15:0 16:1 17:0 18:0 19:0 20:0 21:0 22:0 23:0 24:0 25:0 
-0 0 0 0 1 0 0 0:0 1:0 2:0 3:1 4:0 5:0 6:0 7:0 8:0 9:0 10:1 11:1 12:1 13:0 14:1 15:0 16:0 17:0 18:0 19:0 20:0 21:0 22:0 23:0 24:1 25:1 
-0 0 0 0 0 1 0 0:0 1:0 2:0 3:0 4:0 5:0 6:0 7:0 8:0 9:0 10:0 11:1 12:0 13:0 14:0 15:0 16:0 17:1 18:0 19:0 20:0 21:0 22:0 23:0 24:1 25:0 
-1 0 0 0 0.911837340960338 0 0 0:0 1:0 2:0 3:0 4:0 5:0 6:0 7:0 8:0 9:0 10:1 11:0 12:1 13:0 14:1 15:0 16:0 17:1 18:0 19:0 20:0 21:0 22:0 23:0 24:1 25:1 
-0 0 0 0 0 1 0.5357461462179279 0:0 1:0 2:0 3:0 4:0 5:0 6:0 7:0 8:0 9:0 10:0 11:1 12:0 13:0 14:0 15:0 16:0 17:1 18:0 19:0 20:0 21:0 22:0 23:0 24:1 25:0 
-1 1 1 1 1 1 1 0:0 1:0 2:0 3:0 4:0 5:0 6:0 7:0 8:0 9:0 10:1 11:1 12:1 13:0 14:0 15:0 16:0 17:0 18:0 19:0 20:0 21:0 22:0 23:0 24:0 25:0 
-1 1 1 1 1 1 1 0:0 1:0 2:0 3:0 4:0 5:0 6:0 7:0 8:0 9:0 10:0 11:0 12:0 13:0 14:0 15:0 16:0 17:0 18:0 19:0 20:0 21:0 22:0 23:0 24:0 25:0 
-0 0 1 1 1 0.9335957462692253 1 0:0 1:0 2:0 3:1 4:0 5:0 6:0 7:0 8:0 9:0 10:0 11:0 12:0 13:0 14:0 15:0 16:1 17:0 18:0 19:0 20:0 21:0 22:0 23:0 24:0 25:0 
-1 1 1 1 1 1 1 0:0 1:0 2:0 3:0 4:0 5:0 6:0 7:0 8:0 9:0 10:0 11:0 12:0 13:0 14:0 15:0 16:1 17:0 18:0 19:0 20:0 21:0 22:0 23:0 24:0 25:0 
-0 0 0.1731374521107379 0 0 0 0 0:0 1:0 2:0 3:1 4:0 5:0 6:0 7:0 8:0 9:0 10:0 11:1 12:0 13:0 14:0 15:0 16:1 17:1 18:0 19:0 20:0 21:0 22:0 23:0 24:0 25:0 
-1 0 0.9589338294866269 0 1 1 0 0:0 1:0 2:0 3:1 4:0 5:0 6:0 7:0 8:0 9:0 10:1 11:0 12:1 13:0 14:0 15:0 16:0 17:0 18:0 19:0 20:0 21:0 22:0 23:0 24:0 25:0 
-0 0 0 0 1 0 0 0:0 1:0 2:0 3:1 4:0 5:0 6:0 7:0 8:0 9:0 10:1 11:1 12:1 13:0 14:1 15:0 16:1 17:0 18:0 19:0 20:0 21:0 22:0 23:0 24:1 25:1 
-0 0 1 1 1 1 0.7211279844764684 0:0 1:0 2:0 3:0 4:0 5:0 6:0 7:0 8:0 9:0 10:0 11:1 12:0 13:0 14:0 15:0 16:1 17:0 18:0 19:0 20:0 21:0 22:0 23:0 24:1 25:0 
-1 1 1 1 1 1 1 0:0 1:0 2:0 3:0 4:0 5:0 6:0 7:0 8:0 9:0 10:0 11:0 12:0 13:0 14:0 15:0 16:0 17:0 18:0 19:0 20:0 21:0 22:0 23:0 24:0 25:0 
-0.6199652669286204 0 0 0 0 0.9835005866780209 1 0:0 1:0 2:0 3:0 4:0 5:0 6:0 7:0 8:0 9:0 10:0 11:1 12:0 13:0 14:0 15:0 16:0 17:1 18:0 19:0 20:0 21:0 22:0 23:0 24:1 25:0 
-0.8544578826653357 1 1 1 1 1 1 0:0 1:0 2:0 3:1 4:0 5:0 6:0 7:0 8:0 9:0 10:0 11:0 12:0 13:0 14:0 15:0 16:0 17:0 18:0 19:0 20:0 21:0 22:0 23:0 24:0 25:0 
-0 0.729635083036078 1 1 1 0 0 0:0 1:1 2:0 3:1 4:0 5:0 6:0 7:0 8:0 9:0 10:0 11:0 12:0 13:1 14:0 15:0 16:1 17:0 18:0 19:0 20:0 21:0 22:0 23:0 24:0 25:0 
-0 0 1 0.2921745568467067 1 1 1 0:0 1:0 2:0 3:1 4:0 5:0 6:0 7:0 8:0 9:0 10:0 11:1 12:0 13:0 14:0 15:0 16:0 17:0 18:0 19:0 20:0 21:0 22:0 23:0 24:0 25:0 
-0 0 1 0 1 0 1 0:0 1:0 2:0 3:1 4:0 5:0 6:0 7:0 8:0 9:0 10:0 11:0 12:0 13:0 14:0 15:0 16:0 17:1 18:0 19:0 20:0 21:0 22:0 23:0 24:0 25:0 
-0.008766485662391826 1 1 1 1 1 1 0:0 1:0 2:0 3:1 4:0 5:0 6:0 7:0 8:0 9:0 10:0 11:0 12:0 13:0 14:0 15:0 16:0 17:0 18:0 19:0 20:0 21:0 22:0 23:0 24:0 25:0 
-1 0.05599780036259318 0 0.1567518468799299 0 1 0 0:0 1:0 2:0 3:0 4:0 5:0 6:0 7:0 8:0 9:0 10:1 11:1 12:1 13:0 14:0 15:0 16:0 17:1 18:0 19:0 20:0 21:0 22:0 23:0 24:0 25:0 
-1 1 1 1 1 1 1 0:0 1:0 2:0 3:0 4:0 5:0 6:0 7:0 8:0 9:0 10:0 11:0 12:0 13:0 14:0 15:0 16:0 17:0 18:0 19:0 20:0 21:0 22:0 23:0 24:0 25:0 
-1 0 0 0 0 0 0 0:0 1:0 2:0 3:0 4:0 5:0 6:0 7:0 8:0 9:0 10:1 11:0 12:1 13:0 14:0 15:0 16:0 17:1 18:0 19:0 20:0 21:0 22:0 23:0 24:1 25:0 
-0 0 0 0.841466318038992 1 0 0 0:0 1:0 2:0 3:0 4:0 5:0 6:0 7:0 8:0 9:0 10:0 11:1 12:0 13:0 14:1 15:0 16:0 17:1 18:0 19:0 20:0 21:0 22:0 23:0 24:1 25:1 
-0 0 0 0.9977716053357646 1 0 0 0:0 1:0 2:0 3:0 4:0 5:0 6:0 7:0 8:0 9:0 10:0 11:1 12:0 13:0 14:1 15:0 16:0 17:1 18:0 19:0 20:0 21:0 22:0 23:0 24:1 25:1 
-1 1 1 0 0 1 1 0:0 1:0 2:0 3:0 4:0 5:0 6:0 7:0 8:0 9:0 10:0 11:0 12:0 13:0 14:0 15:0 16:0 17:1 18:0 19:0 20:0 21:0 22:0 23:0 24:1 25:0 
-1 -0 1 1 0.6107976873581618 0 0 0:0 1:0 2:0 3:0 4:0 5:0 6:1 7:0 8:1 9:0 10:0 11:0 12:0 13:0 14:0 15:1 16:0 17:0 18:0 19:0 20:0 21:0 22:1 23:0 24:0 25:0 
-1 -0 0 0 0 0 0 0:1 1:0 2:0 3:0 4:1 5:1 6:0 7:1 8:0 9:1 10:0 11:0 12:0 13:0 14:0 15:0 16:0 17:0 18:1 19:1 20:0 21:1 22:0 23:0 24:0 25:0 
-1 -1 1 1 1 1 1 0:1 1:0 2:0 3:0 4:0 5:0 6:0 7:1 8:0 9:0 10:1 11:0 12:1 13:0 14:0 15:0 16:0 17:0 18:0 19:1 20:0 21:0 22:0 23:0 24:0 25:0 
-1 -0 0 0 0 0 0 0:1 1:0 2:0 3:0 4:0 5:1 6:0 7:0 8:1 9:1 10:0 11:0 12:0 13:0 14:0 15:0 16:0 17:0 18:1 19:0 20:0 21:0 22:0 23:0 24:0 25:0 
-1 -0 0 0 0 0 0 0:1 1:0 2:0 3:0 4:1 5:1 6:0 7:1 8:0 9:1 10:0 11:0 12:0 13:0 14:0 15:0 16:0 17:0 18:1 19:1 20:0 21:1 22:0 23:0 24:0 25:0 
-0 -0 1 1 0 1 1 0:0 1:0 2:0 3:0 4:1 5:0 6:0 7:0 8:0 9:0 10:0 11:0 12:0 13:0 14:0 15:0 16:0 17:0 18:0 19:0 20:0 21:1 22:0 23:0 24:0 25:0 
-0 -0 1 1 0 1 1 0:0 1:0 2:0 3:0 4:0 5:0 6:0 7:0 8:1 9:0 10:0 11:0 12:0 13:0 14:0 15:0 16:0 17:0 18:1 19:0 20:0 21:0 22:0 23:0 24:0 25:0 
-1 -0 0 0 0 0 0 0:1 1:0 2:0 3:0 4:0 5:1 6:0 7:0 8:1 9:1 10:0 11:0 12:0 13:0 14:0 15:0 16:0 17:0 18:1 19:1 20:0 21:0 22:0 23:0 24:0 25:0 
-1 -0 0 0 0 0 0 0:1 1:0 2:0 3:0 4:1 5:1 6:0 7:1 8:0 9:1 10:0 11:0 12:0 13:0 14:0 15:0 16:0 17:0 18:0 19:0 20:0 21:1 22:0 23:0 24:0 25:0 
-1 -0 0 1 0 0 0 0:0 1:0 2:0 3:0 4:1 5:0 6:1 7:1 8:0 9:1 10:0 11:0 12:0 13:0 14:0 15:1 16:0 17:0 18:0 19:0 20:0 21:1 22:1 23:0 24:0 25:0 
-1 -0.08400337664763458 1 1 1 1 0.8250388199043626 0:1 1:0 2:0 3:0 4:0 5:1 6:0 7:0 8:1 9:1 10:0 11:0 12:0 13:0 14:0 15:0 16:0 17:0 18:0 19:1 20:0 21:0 22:0 23:0 24:0 25:0 
-0 -0 1 1 0.6362216246405021 1 1 0:0 1:0 2:0 3:0 4:0 5:0 6:0 7:0 8:1 9:0 10:0 11:0 12:0 13:0 14:0 15:0 16:0 17:0 18:1 19:0 20:0 21:0 22:0 23:0 24:0 25:0 
-0 -1 1 1 1 1 1 0:0 1:0 2:0 3:0 4:0 5:0 6:0 7:0 8:1 9:0 10:0 11:0 12:0 13:0 14:0 15:0 16:0 17:0 18:0 19:0 20:0 21:0 22:0 23:0 24:0 25:0 
-0 -0 0 1 0 0 0 0:0 1:0 2:0 3:0 4:1 5:0 6:1 7:0 8:0 9:0 10:0 11:0 12:0 13:0 14:0 15:1 16:0 17:0 18:0 19:0 20:0 21:1 22:1 23:0 24:0 25:0 
-0 -0 0 0.2756394699278691 0 0 0 0:1 1:0 2:0 3:0 4:1 5:1 6:1 7:1 8:0 9:0 10:0 11:0 12:0 13:0 14:0 15:1 16:0 17:0 18:1 19:1 20:0 21:1 22:1 23:0 24:0 25:0 
-1 -0 0 0 0 0 0 0:1 1:0 2:0 3:0 4:1 5:1 6:0 7:1 8:0 9:1 10:0 11:0 12:0 13:0 14:0 15:0 16:0 17:0 18:0 19:1 20:0 21:1 22:0 23:0 24:0 25:0 
-1 -1 1 1 1 1 1 0:0 1:0 2:0 3:0 4:0 5:0 6:0 7:0 8:1 9:0 10:0 11:0 12:0 13:0 14:0 15:0 16:0 17:0 18:0 19:0 20:1 21:0 22:0 23:1 24:0 25:0 
-1 -0 0 0 0 0 0 0:0 1:0 2:0 3:0 4:1 5:0 6:1 7:0 8:0 9:0 10:0 11:0 12:0 13:0 14:0 15:1 16:0 17:0 18:1 19:0 20:0 21:1 22:1 23:0 24:0 25:0 
-1 -0.9203512095134887 1 1 1 1 1 0:0 1:0 2:0 3:0 4:0 5:0 6:1 7:0 8:0 9:0 10:0 11:0 12:0 13:0 14:0 15:1 16:0 17:0 18:0 19:0 20:0 21:0 22:1 23:0 24:0 25:0 
-1 -1 1 1 1 1 1 0:0 1:0 2:0 3:0 4:0 5:0 6:0 7:0 8:0 9:0 10:0 11:0 12:0 13:0 14:0 15:0 16:0 17:0 18:0 19:0 20:0 21:0 22:0 23:0 24:0 25:0 
-0 -0 1 1 0 1 1 0:0 1:0 2:0 3:0 4:1 5:0 6:0 7:0 8:0 9:0 10:0 11:0 12:0 13:0 14:0 15:0 16:0 17:0 18:0 19:0 20:0 21:1 22:0 23:0 24:0 25:0 
-0.5261800401486034 -0 0.1070800510723545 1 1 0 0 0:0 1:1 2:0 3:0 4:0 5:0 6:1 7:0 8:1 9:0 10:0 11:0 12:0 13:1 14:0 15:1 16:0 17:0 18:1 19:0 20:0 21:0 22:1 23:0 24:0 25:0 
-1 -0 0 1 0 0 0 0:0 1:0 2:0 3:0 4:1 5:0 6:1 7:1 8:0 9:1 10:0 11:0 12:0 13:0 14:0 15:1 16:0 17:0 18:0 19:0 20:0 21:1 22:1 23:0 24:0 25:0 
-1 -1 1 0.8996110189269184 1 1 1 0:0 1:0 2:0 3:0 4:0 5:0 6:0 7:0 8:0 9:0 10:0 11:0 12:0 13:0 14:0 15:0 16:0 17:0 18:1 19:0 20:0 21:0 22:0 23:0 24:0 25:0 
-1 -1 1 1 1 1 1 0:1 1:0 2:0 3:0 4:0 5:0 6:0 7:1 8:0 9:0 10:0 11:0 12:0 13:0 14:0 15:0 16:0 17:0 18:0 19:0 20:0 21:0 22:0 23:0 24:0 25:0 
-0.2777218183428034 -0 0 0 0 0 0 0:0 1:0 2:0 3:0 4:1 5:0 6:1 7:1 8:0 9:1 10:0 11:0 12:0 13:0 14:0 15:1 16:0 17:0 18:1 19:0 20:0 21:1 22:1 23:0 24:0 25:0 
-0 -0.5266730997952614 1 1 0.6923966915523486 1 1 0:0 1:0 2:0 3:0 4:1 5:0 6:0 7:0 8:0 9:0 10:0 11:0 12:0 13:0 14:0 15:0 16:0 17:0 18:0 19:0 20:0 21:1 22:0 23:0 24:0 25:0 
-1 -1 1 1 1 1 1 0:0 1:0 2:0 3:0 4:0 5:0 6:0 7:1 8:0 9:0 10:0 11:0 12:0 13:0 14:0 15:1 16:0 17:0 18:0 19:0 20:0 21:0 22:0 23:0 24:0 25:0 
-1 -0 0 1 0 0 0 0:1 1:0 2:0 3:0 4:1 5:1 6:0 7:1 8:0 9:1 10:0 11:0 12:0 13:0 14:0 15:0 16:0 17:0 18:0 19:0 20:0 21:1 22:0 23:0 24:0 25:0 
-0 -0 0 0 0 0.07246850821272727 0 0:0 1:0 2:0 3:0 4:1 5:0 6:0 7:0 8:0 9:0 10:0 11:0 12:0 13:0 14:0 15:0 16:0 17:0 18:1 19:0 20:0 21:1 22:0 23:0 24:0 25:0 
-1 -0 0.8270010520601875 0 0 0 0 0:1 1:0 2:0 3:0 4:0 5:1 6:0 7:0 8:1 9:1 10:0 11:0 12:0 13:0 14:0 15:0 16:0 17:0 18:1 19:0 20:0 21:0 22:0 23:0 24:0 25:0 
-1 -0 0 0 0 0 0 0:0 1:0 2:0 3:0 4:1 5:0 6:1 7:1 8:0 9:1 10:0 11:0 12:0 13:0 14:0 15:1 16:0 17:0 18:1 19:0 20:0 21:1 22:1 23:0 24:0 25:0 
-0 -0 0 0 0 1 0 0:0 1:0 2:0 3:0 4:1 5:0 6:0 7:0 8:0 9:0 10:0 11:0 12:0 13:0 14:0 15:0 16:0 17:0 18:1 19:0 20:0 21:1 22:0 23:0 24:0 25:0 
-0 -1 1 1 1 1 1 0:0 1:0 2:0 3:0 4:1 5:0 6:0 7:0 8:0 9:0 10:0 11:0 12:0 13:0 14:0 15:0 16:0 17:0 18:0 19:0 20:0 21:1 22:0 23:0 24:0 25:0 
-1 -0 0 0.9494572769194624 0 0 0 0:1 1:0 2:0 3:0 4:1 5:1 6:0 7:1 8:0 9:1 10:0 11:0 12:0 13:0 14:0 15:0 16:0 17:0 18:0 19:0 20:0 21:1 22:0 23:0 24:0 25:0 
-1 -0 0 0 0 0 0 0:0 1:0 2:0 3:0 4:1 5:0 6:1 7:1 8:0 9:1 10:0 11:0 12:0 13:0 14:0 15:1 16:0 17:0 18:1 19:1 20:0 21:1 22:1 23:0 24:0 25:0 
-0.743630994306823 -0 0 1 0 0 0 0:0 1:0 2:0 3:0 4:1 5:0 6:1 7:0 8:0 9:0 10:0 11:0 12:0 13:0 14:0 15:1 16:0 17:0 18:1 19:0 20:0 21:1 22:1 23:0 24:0 25:0 
-0.0350470935524609 -1 1 1 1 1 1 0:0 1:0 2:0 3:0 4:1 5:0 6:0 7:0 8:0 9:0 10:0 11:0 12:0 13:0 14:0 15:0 16:0 17:0 18:0 19:0 20:0 21:1 22:0 23:0 24:0 25:0 
-1 -1 1 1 1 1 1 0:0 1:0 2:0 3:0 4:1 5:0 6:0 7:0 8:0 9:0 10:0 11:0 12:0 13:0 14:0 15:0 16:0 17:0 18:0 19:0 20:0 21:1 22:0 23:0 24:0 25:0 
-1 -0 0 0 0 0 0 0:1 1:0 2:0 3:0 4:1 5:1 6:0 7:1 8:0 9:1 10:0 11:0 12:0 13:0 14:0 15:0 16:0 17:0 18:1 19:0 20:0 21:1 22:0 23:0 24:0 25:0 
-0.4404286569584367 -0 0 0.2191997856772442 0 0 0 0:0 1:0 2:0 3:0 4:1 5:0 6:1 7:0 8:0 9:0 10:0 11:0 12:0 13:0 14:0 15:1 16:0 17:0 18:1 19:0 20:0 21:1 22:1 23:0 24:0 25:0 
-0.5300952271143951 -1 1 1 1 1 1 0:0 1:0 2:0 3:0 4:0 5:0 6:0 7:0 8:1 9:0 10:0 11:0 12:0 13:0 14:0 15:0 16:0 17:0 18:0 19:0 20:0 21:0 22:0 23:0 24:0 25:0 
-1 -1 1 1 1 1 1 0:0 1:1 2:0 3:0 4:0 5:0 6:0 7:0 8:1 9:0 10:0 11:0 12:0 13:1 14:0 15:1 16:0 17:0 18:0 19:1 20:0 21:0 22:0 23:0 24:0 25:0 
-0 -0 0 0 0 1 0 0:0 1:0 2:0 3:0 4:1 5:0 6:0 7:0 8:0 9:0 10:0 11:0 12:0 13:0 14:0 15:0 16:0 17:0 18:1 19:0 20:0 21:1 22:0 23:0 24:0 25:0 
-0.1088720312836264 -0 0 0 0 0 0 0:1 1:0 2:0 3:0 4:1 5:1 6:0 7:1 8:0 9:1 10:0 11:0 12:0 13:0 14:0 15:0 16:0 17:0 18:1 19:0 20:0 21:1 22:0 23:0 24:0 25:0 
-1 -1 1 1 1 1 1 0:0 1:0 2:0 3:0 4:0 5:0 6:0 7:0 8:1 9:0 10:0 11:0 12:0 13:0 14:0 15:0 16:0 17:0 18:0 19:0 20:0 21:0 22:0 23:0 24:0 25:0 
-1 -1 1 1 1 1 1 0:1 1:0 2:0 3:0 4:0 5:0 6:0 7:1 8:0 9:0 10:0 11:0 12:0 13:0 14:0 15:0 16:0 17:0 18:0 19:1 20:0 21:0 22:0 23:0 24:0 25:0 
-0.3343058729292901 -0 1 0.1726903016051534 0 0 0.8900114580559009 0:0 1:0 2:0 3:0 4:0 5:1 6:1 7:0 8:1 9:0 10:0 11:0 12:0 13:0 14:0 15:0 16:0 17:0 18:0 19:0 20:0 21:0 22:1 23:0 24:0 25:0 
-1 -1 1 1 1 1 1 0:0 1:0 2:0 3:0 4:0 5:0 6:0 7:0 8:1 9:0 10:0 11:0 12:0 13:0 14:0 15:0 16:0 17:0 18:0 19:0 20:0 21:0 22:0 23:0 24:0 25:0 
-1 -1 1 1 1 1 1 0:0 1:0 2:0 3:0 4:0 5:0 6:0 7:0 8:1 9:0 10:0 11:0 12:0 13:0 14:0 15:0 16:0 17:0 18:0 19:0 20:0 21:0 22:0 23:0 24:0 25:0 
-1 -1 1 0 1 1 1 0:0 1:0 2:0 3:0 4:0 5:0 6:1 7:0 8:0 9:0 10:0 11:0 12:0 13:0 14:0 15:0 16:0 17:0 18:0 19:0 20:0 21:0 22:1 23:0 24:0 25:0 
-1 -1 1 1 1 1 1 0:0 1:1 2:0 3:0 4:0 5:0 6:0 7:0 8:0 9:0 10:0 11:0 12:0 13:1 14:0 15:0 16:0 17:0 18:0 19:0 20:0 21:0 22:0 23:0 24:0 25:0 
-1 -1 0.2953308874548954 0 1 1 1 0:1 1:0 2:0 3:0 4:0 5:1 6:0 7:0 8:0 9:1 10:0 11:0 12:0 13:0 14:0 15:0 16:0 17:0 18:1 19:1 20:0 21:0 22:0 23:0 24:0 25:0 
-0 -0 0 0 0 1 0 0:0 1:0 2:0 3:0 4:1 5:0 6:0 7:0 8:0 9:0 10:0 11:0 12:0 13:0 14:0 15:0 16:0 17:0 18:1 19:0 20:0 21:1 22:0 23:0 24:0 25:0 
-1 -1 1 1 1 1 1 0:0 1:0 2:0 3:0 4:1 5:0 6:0 7:0 8:0 9:0 10:0 11:0 12:0 13:0 14:0 15:0 16:0 17:0 18:0 19:0 20:0 21:1 22:0 23:0 24:0 25:0 
-1 -1 1 1 1 1 1 0:0 1:0 2:0 3:0 4:1 5:0 6:0 7:0 8:0 9:0 10:0 11:0 12:0 13:0 14:0 15:0 16:0 17:0 18:0 19:0 20:0 21:1 22:0 23:0 24:0 25:0 
-0.255680644602637 -1 1 1 1 1 1 0:0 1:0 2:0 3:0 4:0 5:0 6:0 7:0 8:1 9:0 10:0 11:0 12:0 13:0 14:0 15:0 16:0 17:0 18:0 19:0 20:0 21:0 22:0 23:0 24:0 25:0 
-1 -0 0 0 0 0 0 0:1 1:0 2:0 3:0 4:1 5:1 6:0 7:1 8:0 9:1 10:0 11:0 12:0 13:0 14:0 15:0 16:0 17:0 18:0 19:1 20:0 21:1 22:0 23:0 24:0 25:0 
-1 -0 0 0 0 0 0 0:1 1:0 2:0 3:0 4:1 5:1 6:0 7:1 8:0 9:1 10:0 11:0 12:0 13:0 14:0 15:0 16:0 17:0 18:0 19:1 20:0 21:1 22:0 23:0 24:0 25:0 
-1 -0 1 1 1 0 0 0:0 1:0 2:0 3:0 4:0 5:0 6:1 7:0 8:1 9:0 10:0 11:0 12:0 13:0 14:0 15:1 16:0 17:0 18:0 19:0 20:0 21:0 22:1 23:0 24:0 25:0 
-0 -0 0 0.8003607949908323 0 1 0.6631906781512052 0:0 1:0 2:0 3:0 4:1 5:0 6:0 7:0 8:0 9:0 10:0 11:0 12:0 13:0 14:0 15:0 16:0 17:0 18:1 19:0 20:0 21:1 22:0 23:0 24:0 25:0 
-1 -1 1 1 1 1 1 0:0 1:0 2:0 3:0 4:0 5:0 6:1 7:0 8:0 9:0 10:0 11:0 12:0 13:0 14:0 15:1 16:0 17:0 18:0 19:1 20:0 21:0 22:1 23:0 24:0 25:0 
-1 -1 1 1 1 1 1 0:0 1:0 2:0 3:0 4:0 5:0 6:0 7:0 8:0 9:0 10:0 11:0 12:0 13:0 14:0 15:0 16:0 17:0 18:0 19:0 20:0 21:0 22:0 23:0 24:0 25:0 
-1 -0 0 0 0 0 0 0:0 1:0 2:0 3:0 4:0 5:0 6:1 7:0 8:1 9:0 10:0 11:0 12:0 13:0 14:0 15:1 16:0 17:0 18:1 19:0 20:0 21:0 22:1 23:0 24:0 25:0 
-0 -0 0 1 0 0 0 0:1 1:1 2:0 3:0 4:1 5:1 6:0 7:1 8:0 9:0 10:0 11:0 12:0 13:1 14:0 15:0 16:0 17:0 18:1 19:1 20:0 21:1 22:0 23:0 24:0 25:0 
-0.2003450451535763 -0 0 1 0.5669307337171714 0 0 0:1 1:0 2:0 3:0 4:0 5:1 6:1 7:0 8:1 9:0 10:0 11:0 12:0 13:0 14:0 15:1 16:0 17:0 18:0 19:0 20:0 21:0 22:1 23:0 24:0 25:0 
-1 -1 1 0 1 1 1 0:0 1:0 2:0 3:0 4:0 5:0 6:1 7:0 8:0 9:0 10:0 11:0 12:0 13:0 14:0 15:0 16:0 17:0 18:0 19:0 20:0 21:0 22:1 23:0 24:0 25:0 
-1 -0.9723772153684409 1 1 0.721036613258399 1 1 0:0 1:0 2:0 3:0 4:1 5:0 6:0 7:0 8:0 9:0 10:0 11:0 12:0 13:0 14:0 15:0 16:0 17:0 18:0 19:0 20:0 21:1 22:0 23:0 24:0 25:0 
-1 -0.1753012670008705 1 1 1 1 1 0:0 1:0 2:0 3:0 4:0 5:0 6:0 7:0 8:1 9:0 10:0 11:0 12:0 13:0 14:0 15:0 16:0 17:0 18:1 19:0 20:0 21:0 22:0 23:0 24:0 25:0 
-1 -0 0 0 0 0 0 0:1 1:0 2:0 3:0 4:0 5:1 6:0 7:0 8:1 9:1 10:0 11:0 12:0 13:0 14:0 15:0 16:0 17:0 18:1 19:1 20:0 21:0 22:0 23:0 24:0 25:0 
-1 -1 1 1 1 1 1 0:0 1:0 2:0 3:0 4:0 5:0 6:0 7:0 8:0 9:0 10:0 11:0 12:0 13:0 14:0 15:0 16:0 17:0 18:0 19:0 20:0 21:0 22:0 23:0 24:0 25:0 
-1 -1 1 1 1 1 1 0:0 1:0 2:0 3:0 4:0 5:0 6:0 7:0 8:1 9:0 10:1 11:0 12:1 13:0 14:0 15:0 16:0 17:0 18:1 19:0 20:0 21:0 22:0 23:0 24:0 25:0 
-1 -1 1 1 1 1 1 0:0 1:0 2:0 3:0 4:0 5:0 6:0 7:0 8:0 9:0 10:0 11:0 12:0 13:0 14:0 15:0 16:0 17:0 18:0 19:0 20:0 21:0 22:0 23:0 24:0 25:0 
-1 -0 0 0 0 0 0 0:1 1:0 2:0 3:0 4:0 5:1 6:0 7:0 8:1 9:1 10:0 11:0 12:0 13:0 14:0 15:0 16:0 17:0 18:1 19:1 20:0 21:0 22:0 23:0 24:0 25:0 
-0.6568890476266477 -0 0 0 0 0 0 0:1 1:0 2:0 3:0 4:1 5:1 6:1 7:1 8:0 9:1 10:0 11:0 12:0 13:0 14:0 15:1 16:0 17:0 18:1 19:1 20:0 21:1 22:1 23:0 24:0 25:0 
-1 -0 0 0 0 0 0 0:1 1:0 2:0 3:0 4:0 5:1 6:1 7:0 8:1 9:0 10:0 11:0 12:0 13:0 14:0 15:1 16:0 17:0 18:1 19:1 20:0 21:0 22:1 23:0 24:0 25:0 
-0.6699946488550672 -1 1 1 0.9928897619859516 1 1 0:0 1:0 2:0 3:0 4:0 5:0 6:0 7:0 8:1 9:0 10:0 11:0 12:0 13:0 14:0 15:0 16:0 17:0 18:1 19:0 20:0 21:0 22:0 23:0 24:0 25:0 
-1 -0 0 0 0 0 0 0:1 1:0 2:0 3:0 4:1 5:1 6:0 7:1 8:0 9:1 10:0 11:0 12:0 13:0 14:0 15:0 16:0 17:0 18:1 19:1 20:0 21:1 22:0 23:0 24:0 25:0 
-1 -0 0 0 0 0 0 0:1 1:0 2:0 3:0 4:1 5:1 6:0 7:1 8:0 9:1 10:0 11:0 12:0 13:0 14:0 15:0 16:0 17:0 18:1 19:1 20:0 21:1 22:0 23:0 24:0 25:0 
-1 -1 1 0.7428287631064622 1 1 1 0:0 1:0 2:0 3:0 4:0 5:1 6:0 7:0 8:0 9:1 10:0 11:0 12:0 13:0 14:0 15:0 16:0 17:0 18:0 19:0 20:0 21:0 22:0 23:0 24:0 25:0 
-1 -0 0 0 0 0 0 0:1 1:0 2:0 3:0 4:0 5:1 6:1 7:0 8:1 9:0 10:0 11:0 12:0 13:0 14:0 15:1 16:0 17:0 18:1 19:1 20:0 21:0 22:1 23:0 24:0 25:0 
-1 -1 1 1 1 1 1 0:0 1:0 2:0 3:0 4:0 5:0 6:0 7:0 8:0 9:0 10:0 11:0 12:0 13:0 14:0 15:0 16:0 17:0 18:0 19:0 20:0 21:0 22:0 23:0 24:0 25:0 
-1 -1 1 0 1 1 1 0:0 1:0 2:0 3:0 4:0 5:0 6:1 7:0 8:0 9:0 10:0 11:0 12:0 13:0 14:0 15:0 16:0 17:0 18:0 19:0 20:0 21:0 22:1 23:0 24:0 25:0 
-0 -0 0 1 0 0.9852557765674923 1 0:0 1:0 2:0 3:0 4:1 5:0 6:0 7:0 8:0 9:0 10:0 11:0 12:0 13:0 14:0 15:0 16:0 17:0 18:1 19:0 20:0 21:1 22:0 23:0 24:0 25:0 
-0 -0 -0 0 0 1 1 0:0 1:0 2:0 3:0 4:0 5:0 6:0 7:0 8:0 9:0 10:0 11:0 12:0 13:0 14:0 15:0 16:0 17:0 18:0 19:0 20:0 21:0 22:0 23:0 24:0 25:0 
-0 -0 -0 0 0 1 1 0:0 1:0 2:0 3:0 4:0 5:0 6:0 7:0 8:0 9:0 10:0 11:0 12:0 13:0 14:0 15:0 16:0 17:0 18:0 19:0 20:0 21:0 22:0 23:0 24:0 25:0 
-0 -0 -0 0 0 1 1 0:0 1:0 2:0 3:0 4:0 5:0 6:0 7:0 8:0 9:0 10:0 11:0 12:0 13:0 14:0 15:0 16:0 17:0 18:0 19:0 20:0 21:0 22:0 23:0 24:0 25:0 
-0 -0 -0 0 0 1 1 0:0 1:0 2:0 3:0 4:0 5:0 6:0 7:0 8:0 9:0 10:0 11:0 12:0 13:0 14:0 15:0 16:0 17:0 18:0 19:0 20:0 21:0 22:0 23:0 24:0 25:0 
-0 -0 -0 0 0 1 1 0:0 1:0 2:0 3:0 4:0 5:0 6:0 7:0 8:0 9:0 10:0 11:0 12:0 13:0 14:0 15:0 16:0 17:0 18:0 19:0 20:0 21:0 22:0 23:0 24:0 25:0 
-1 -0.9394946565510279 -1 1 1 1 1 0:0 1:0 2:0 3:0 4:0 5:0 6:0 7:0 8:0 9:0 10:0 11:0 12:0 13:0 14:0 15:1 16:0 17:0 18:0 19:0 20:0 21:0 22:0 23:0 24:0 25:0 
-0 -0 -0 0 0 1 1 0:0 1:0 2:0 3:0 4:0 5:0 6:0 7:0 8:0 9:0 10:0 11:0 12:0 13:0 14:0 15:0 16:0 17:0 18:0 19:0 20:0 21:0 22:0 23:0 24:0 25:0 
-0 -0 -0 0 0 1 1 0:0 1:0 2:0 3:0 4:0 5:0 6:0 7:0 8:0 9:0 10:0 11:0 12:0 13:0 14:0 15:0 16:0 17:0 18:0 19:0 20:0 21:0 22:0 23:0 24:0 25:0 
-0 -0 -0 0 0 1 1 0:0 1:0 2:0 3:0 4:0 5:0 6:0 7:0 8:0 9:0 10:0 11:0 12:0 13:0 14:0 15:0 16:0 17:0 18:0 19:0 20:0 21:0 22:0 23:0 24:0 25:0 
-0 -0 -0 0 0 1 1 0:0 1:0 2:0 3:0 4:0 5:0 6:0 7:0 8:0 9:0 10:0 11:0 12:0 13:0 14:0 15:0 16:0 17:0 18:0 19:0 20:0 21:0 22:0 23:0 24:0 25:0 
-0 -0 -0 1 0 0 1 0:0 1:0 2:0 3:0 4:0 5:0 6:0 7:0 8:0 9:0 10:0 11:0 12:0 13:0 14:0 15:0 16:1 17:0 18:0 19:0 20:0 21:0 22:0 23:0 24:0 25:0 
-0 -0 -0 0 0 1 1 0:0 1:0 2:0 3:0 4:0 5:0 6:0 7:0 8:0 9:0 10:0 11:0 12:0 13:0 14:0 15:0 16:0 17:0 18:0 19:0 20:0 21:0 22:0 23:0 24:0 25:0 
-0 -0 -0 0 0 1 1 0:0 1:0 2:0 3:0 4:0 5:0 6:0 7:0 8:0 9:0 10:0 11:0 12:0 13:0 14:0 15:0 16:0 17:0 18:0 19:0 20:0 21:0 22:0 23:0 24:0 25:0 
-0 -0 -0 0 0 1 1 0:0 1:0 2:0 3:0 4:0 5:0 6:0 7:0 8:0 9:0 10:0 11:0 12:0 13:0 14:0 15:0 16:0 17:0 18:0 19:0 20:0 21:0 22:0 23:0 24:0 25:0 
-0 -0 -0 0 0 1 1 0:0 1:0 2:0 3:0 4:0 5:0 6:0 7:0 8:0 9:0 10:0 11:0 12:0 13:0 14:0 15:0 16:0 17:0 18:0 19:0 20:0 21:0 22:0 23:0 24:0 25:0 
-0 -0 -0 0 0 1 1 0:0 1:0 2:0 3:0 4:0 5:0 6:0 7:0 8:0 9:0 10:0 11:0 12:0 13:0 14:0 15:0 16:0 17:0 18:0 19:0 20:0 21:0 22:0 23:0 24:0 25:0 
-0 -0 -0 0 0 1 1 0:0 1:0 2:0 3:0 4:0 5:0 6:0 7:0 8:0 9:0 10:0 11:0 12:0 13:0 14:0 15:0 16:0 17:0 18:0 19:0 20:0 21:0 22:0 23:0 24:0 25:0 
-0 -0 -0 0 0 1 1 0:0 1:0 2:0 3:0 4:0 5:0 6:0 7:0 8:0 9:0 10:0 11:0 12:0 13:0 14:0 15:0 16:0 17:0 18:0 19:0 20:0 21:0 22:0 23:0 24:0 25:0 
-0 -0 -0 0 0 1 1 0:0 1:0 2:0 3:0 4:0 5:0 6:0 7:0 8:0 9:0 10:0 11:0 12:0 13:0 14:0 15:0 16:0 17:0 18:0 19:0 20:0 21:0 22:0 23:0 24:0 25:0 
-0 -0 -0 0 0 1 1 0:0 1:0 2:0 3:0 4:0 5:0 6:0 7:0 8:0 9:0 10:0 11:0 12:0 13:0 14:0 15:0 16:0 17:0 18:0 19:0 20:0 21:0 22:0 23:0 24:0 25:0 
-0 -0 -0 0 0 1 1 0:0 1:0 2:0 3:0 4:0 5:0 6:0 7:0 8:0 9:0 10:0 11:0 12:0 13:0 14:0 15:0 16:0 17:0 18:0 19:0 20:0 21:0 22:0 23:0 24:0 25:0 
-0 -0 -0 0 0 1 1 0:0 1:0 2:0 3:0 4:0 5:0 6:0 7:0 8:0 9:0 10:0 11:0 12:0 13:0 14:0 15:0 16:0 17:0 18:0 19:0 20:0 21:0 22:0 23:0 24:0 25:0 
-0 -0 -0 0 0 1 1 0:0 1:0 2:0 3:0 4:0 5:0 6:0 7:0 8:0 9:0 10:0 11:0 12:0 13:0 14:0 15:0 16:0 17:0 18:0 19:0 20:0 21:0 22:0 23:0 24:0 25:0 
-0 -0 -0 0 0 1 1 0:0 1:0 2:0 3:0 4:0 5:0 6:0 7:0 8:0 9:0 10:0 11:0 12:0 13:0 14:0 15:0 16:0 17:0 18:0 19:0 20:0 21:0 22:0 23:0 24:0 25:0 
-0 -0 -0 0 0 1 1 0:0 1:0 2:0 3:0 4:0 5:0 6:0 7:0 8:0 9:0 10:0 11:0 12:0 13:0 14:0 15:0 16:0 17:0 18:0 19:0 20:0 21:0 22:0 23:0 24:0 25:0 
-0 -0 -0 0 0 1 1 0:0 1:0 2:0 3:0 4:0 5:0 6:0 7:0 8:0 9:0 10:0 11:0 12:0 13:0 14:0 15:0 16:0 17:0 18:0 19:0 20:0 21:0 22:0 23:0 24:0 25:0 
-0 -0 -0 0 0 1 1 0:0 1:0 2:0 3:0 4:0 5:0 6:0 7:0 8:0 9:0 10:0 11:0 12:0 13:0 14:0 15:0 16:0 17:0 18:0 19:0 20:0 21:0 22:0 23:0 24:0 25:0 
-0 -0 -0 0 0 1 1 0:0 1:0 2:0 3:0 4:0 5:0 6:0 7:0 8:0 9:0 10:0 11:0 12:0 13:0 14:0 15:0 16:0 17:0 18:0 19:0 20:0 21:0 22:0 23:0 24:0 25:0 
-0 -0 -0 0 0 1 1 0:0 1:0 2:0 3:0 4:0 5:0 6:0 7:0 8:0 9:0 10:0 11:0 12:0 13:0 14:0 15:0 16:0 17:0 18:0 19:0 20:0 21:0 22:0 23:0 24:0 25:0 
-0 -0 -0 0 0 1 1 0:0 1:0 2:0 3:0 4:0 5:0 6:0 7:0 8:0 9:0 10:0 11:0 12:0 13:0 14:0 15:0 16:0 17:0 18:0 19:0 20:0 21:0 22:0 23:0 24:0 25:0 
-0 -0 -0 0 0 1 1 0:0 1:0 2:0 3:0 4:0 5:0 6:0 7:0 8:0 9:0 10:0 11:0 12:0 13:0 14:0 15:0 16:0 17:0 18:0 19:0 20:0 21:0 22:0 23:0 24:0 25:0 
-1 -0 -1 1 0.5840402472964309 0.4934260797434019 1 0:0 1:0 2:0 3:0 4:0 5:0 6:1 7:0 8:0 9:0 10:0 11:0 12:0 13:0 14:0 15:0 16:0 17:0 18:0 19:0 20:0 21:0 22:1 23:0 24:0 25:0 
-0 -0 -0 0 0 1 1 0:0 1:0 2:0 3:0 4:0 5:0 6:0 7:0 8:0 9:0 10:0 11:0 12:0 13:0 14:0 15:0 16:0 17:0 18:0 19:0 20:0 21:0 22:0 23:0 24:0 25:0 
-0 -0 -0 0 0 1 1 0:0 1:0 2:0 3:0 4:0 5:0 6:0 7:0 8:0 9:0 10:0 11:0 12:0 13:0 14:0 15:0 16:0 17:0 18:0 19:0 20:0 21:0 22:0 23:0 24:0 25:0 
-0 -0 -0 0 0 1 1 0:0 1:0 2:0 3:0 4:0 5:0 6:0 7:0 8:0 9:0 10:0 11:0 12:0 13:0 14:0 15:0 16:0 17:0 18:0 19:0 20:0 21:0 22:0 23:0 24:0 25:0 
-1 -0.5749597894206743 -1 1 0.6480510438295064 0 1 0:0 1:0 2:0 3:0 4:0 5:0 6:1 7:0 8:0 9:0 10:0 11:0 12:0 13:0 14:0 15:0 16:1 17:0 18:0 19:0 20:0 21:0 22:1 23:0 24:0 25:0 
-0 -0 -1 1 0 0 1 0:0 1:0 2:0 3:0 4:0 5:0 6:0 7:0 8:1 9:0 10:0 11:0 12:0 13:0 14:0 15:0 16:0 17:0 18:0 19:0 20:0 21:0 22:0 23:0 24:0 25:0 
-0 -0 -1 1 0 0 1 0:0 1:0 2:0 3:0 4:0 5:0 6:0 7:0 8:1 9:0 10:0 11:0 12:0 13:0 14:0 15:0 16:0 17:0 18:0 19:0 20:0 21:0 22:0 23:0 24:0 25:0 
-0 -1 -0 0 1 0 1 0:0 1:0 2:0 3:1 4:0 5:0 6:0 7:0 8:0 9:0 10:0 11:0 12:0 13:0 14:0 15:0 16:0 17:0 18:0 19:0 20:0 21:0 22:0 23:0 24:0 25:0 
-0 -0 -0 0 0 1 1 0:0 1:0 2:0 3:0 4:0 5:0 6:0 7:0 8:0 9:0 10:0 11:0 12:0 13:0 14:0 15:0 16:0 17:0 18:0 19:0 20:0 21:0 22:0 23:0 24:0 25:0 
-0 -1 -0 0 1 0 1 0:0 1:0 2:0 3:1 4:0 5:0 6:0 7:0 8:0 9:0 10:0 11:0 12:0 13:0 14:0 15:0 16:0 17:0 18:0 19:0 20:0 21:0 22:0 23:0 24:0 25:0 
-1 -0.3178017890642612 -1 1 1 0.1515285057529477 1 0:0 1:0 2:0 3:0 4:0 5:0 6:0 7:0 8:1 9:0 10:0 11:0 12:0 13:0 14:0 15:1 16:0 17:0 18:0 19:0 20:0 21:0 22:0 23:0 24:0 25:0 
-0.2198139850970109 -1 -1 1 1 0 1 0:0 1:0 2:0 3:1 4:0 5:0 6:0 7:0 8:1 9:0 10:0 11:0 12:0 13:0 14:0 15:0 16:0 17:0 18:0 19:0 20:0 21:0 22:0 23:0 24:0 25:0 
-0 -0 -0 0 1 0 1 0:0 1:1 2:0 3:0 4:0 5:0 6:0 7:0 8:0 9:0 10:0 11:0 12:0 13:1 14:0 15:0 16:0 17:0 18:0 19:0 20:0 21:0 22:0 23:0 24:0 25:0 
-0 -0 -1 1 1 0 0.3352275061857597 0:0 1:1 2:0 3:0 4:0 5:0 6:0 7:0 8:1 9:0 10:0 11:0 12:0 13:1 14:0 15:0 16:0 17:0 18:0 19:0 20:0 21:0 22:0 23:0 24:0 25:0 
-0 -1 -0 0 1 0 1 0:0 1:0 2:0 3:1 4:0 5:0 6:0 7:0 8:0 9:0 10:0 11:0 12:0 13:0 14:0 15:0 16:0 17:0 18:0 19:0 20:0 21:0 22:0 23:0 24:0 25:0 
-0 -0 -1 1 0 0 1 0:0 1:0 2:0 3:0 4:0 5:0 6:0 7:0 8:1 9:0 10:0 11:0 12:0 13:0 14:0 15:0 16:0 17:0 18:0 19:0 20:0 21:0 22:0 23:0 24:0 25:0 
-0 -0 -1 1 1 0 1 0:0 1:1 2:0 3:0 4:0 5:0 6:0 7:0 8:1 9:0 10:0 11:0 12:0 13:1 14:0 15:0 16:0 17:0 18:0 19:0 20:0 21:0 22:0 23:0 24:0 25:0 
-0 -0 -0 0 0 1 1 0:0 1:0 2:0 3:0 4:0 5:0 6:0 7:0 8:0 9:0 10:0 11:0 12:0 13:0 14:0 15:0 16:0 17:0 18:0 19:0 20:0 21:0 22:0 23:0 24:0 25:0 
-0 -0 -0 0 0 1 1 0:0 1:0 2:0 3:0 4:0 5:0 6:0 7:0 8:0 9:0 10:0 11:0 12:0 13:0 14:0 15:0 16:0 17:0 18:0 19:0 20:0 21:0 22:0 23:0 24:0 25:0 
-0 -0 -0 0 0 1 1 0:0 1:0 2:0 3:0 4:0 5:0 6:0 7:0 8:0 9:0 10:0 11:0 12:0 13:0 14:0 15:0 16:0 17:0 18:0 19:0 20:0 21:0 22:0 23:0 24:0 25:0 
-0 -0 -0 0 0 1 1 0:0 1:0 2:0 3:0 4:0 5:0 6:0 7:0 8:0 9:0 10:0 11:0 12:0 13:0 14:0 15:0 16:0 17:0 18:0 19:0 20:0 21:0 22:0 23:0 24:0 25:0 
-0 -0 -0 0.6173313582562326 1 0 1 0:0 1:1 2:0 3:0 4:0 5:0 6:0 7:0 8:0 9:0 10:0 11:0 12:0 13:1 14:0 15:0 16:0 17:0 18:0 19:0 20:0 21:0 22:0 23:0 24:0 25:0 
-0 -1 -0 0 1 0 1 0:0 1:0 2:0 3:1 4:0 5:0 6:0 7:0 8:0 9:0 10:0 11:0 12:0 13:0 14:0 15:0 16:0 17:0 18:0 19:0 20:0 21:0 22:0 23:0 24:0 25:0 
-0.5192706855477817 -0 -1 1 1 0 0.994032257060839 0:0 1:1 2:0 3:0 4:0 5:0 6:0 7:0 8:1 9:0 10:0 11:0 12:0 13:1 14:0 15:0 16:0 17:0 18:0 19:0 20:0 21:0 22:0 23:0 24:0 25:0 
-0 -0 -1 1 1 0 1 0:0 1:0 2:0 3:0 4:0 5:0 6:0 7:0 8:1 9:0 10:0 11:0 12:0 13:0 14:0 15:0 16:0 17:0 18:0 19:0 20:0 21:0 22:0 23:0 24:0 25:0 
-0 -0 -0 0 0 1 1 0:0 1:0 2:0 3:0 4:0 5:0 6:0 7:0 8:0 9:0 10:0 11:0 12:0 13:0 14:0 15:0 16:0 17:0 18:0 19:0 20:0 21:0 22:0 23:0 24:0 25:0 
-0.1469232685243547 -0 -0 0 0 1 1 0:0 1:0 2:0 3:0 4:0 5:0 6:0 7:0 8:0 9:0 10:0 11:0 12:0 13:0 14:0 15:0 16:0 17:0 18:0 19:0 20:0 21:0 22:0 23:0 24:0 25:0 
-1 -0 -0 0 0 1 1 0:0 1:0 2:0 3:0 4:0 5:0 6:0 7:0 8:0 9:0 10:0 11:0 12:0 13:0 14:0 15:0 16:0 17:0 18:0 19:0 20:0 21:0 22:0 23:0 24:0 25:0 
-1 -0 -0 0 0 1 1 0:0 1:0 2:0 3:0 4:0 5:0 6:0 7:0 8:0 9:0 10:0 11:0 12:0 13:0 14:0 15:0 16:0 17:0 18:0 19:0 20:0 21:0 22:0 23:0 24:0 25:0 
-1 -0 -0 0 0 1 1 0:0 1:0 2:0 3:0 4:0 5:0 6:0 7:0 8:0 9:0 10:0 11:0 12:0 13:0 14:0 15:0 16:0 17:0 18:0 19:0 20:0 21:0 22:0 23:0 24:0 25:0 
-1 -0 -0 0 0 1 1 0:0 1:0 2:0 3:0 4:0 5:0 6:0 7:0 8:0 9:0 10:0 11:0 12:0 13:0 14:0 15:0 16:0 17:0 18:0 19:0 20:0 21:0 22:0 23:0 24:0 25:0 
-0 -0 -0 1 0 0 1 0:0 1:0 2:0 3:0 4:0 5:0 6:0 7:0 8:0 9:0 10:0 11:0 12:0 13:0 14:0 15:0 16:1 17:0 18:0 19:0 20:0 21:0 22:0 23:0 24:0 25:0 
-0 -0 -0 1 0 0 1 0:0 1:0 2:0 3:0 4:0 5:0 6:0 7:0 8:0 9:0 10:0 11:0 12:0 13:0 14:0 15:0 16:1 17:0 18:0 19:0 20:0 21:0 22:0 23:0 24:0 25:0 
-1 -0 -0 0 0 1 1 0:0 1:0 2:0 3:0 4:0 5:0 6:0 7:0 8:0 9:0 10:0 11:0 12:0 13:0 14:0 15:0 16:0 17:0 18:0 19:0 20:0 21:0 22:0 23:0 24:0 25:0 
-1 -0.7166253031150739 -1 1 0.8896484627825288 0.9545887572662133 1 0:0 1:0 2:0 3:0 4:0 5:0 6:1 7:0 8:0 9:0 10:0 11:0 12:0 13:0 14:0 15:0 16:0 17:0 18:0 19:0 20:0 21:0 22:1 23:0 24:0 25:0 
-0 -1 -0 0.1438775981042928 1 0 0.04759001916649145 0:0 1:0 2:0 3:1 4:0 5:0 6:0 7:0 8:0 9:0 10:0 11:0 12:0 13:0 14:0 15:0 16:1 17:0 18:0 19:0 20:0 21:0 22:0 23:0 24:0 25:0 
-1 -0 -0 0 0 1 1 0:0 1:0 2:0 3:0 4:0 5:0 6:0 7:0 8:0 9:0 10:0 11:0 12:0 13:0 14:0 15:0 16:0 17:0 18:0 19:0 20:0 21:0 22:0 23:0 24:0 25:0 
-0 -1 -0 1 0.2958177020353105 0 1 0:0 1:0 2:0 3:0 4:0 5:0 6:0 7:0 8:0 9:0 10:0 11:0 12:0 13:0 14:0 15:0 16:1 17:0 18:0 19:0 20:0 21:0 22:0 23:0 24:0 25:0 
-1 -0 -0.6422078865045449 0 0 1 1 0:0 1:0 2:0 3:0 4:0 5:0 6:0 7:0 8:0 9:0 10:0 11:0 12:0 13:0 14:0 15:0 16:0 17:0 18:0 19:0 20:0 21:0 22:0 23:0 24:0 25:0 
-0 -0 -0 1 1 0 0 0:0 1:1 2:0 3:0 4:0 5:0 6:0 7:0 8:0 9:0 10:0 11:0 12:0 13:1 14:0 15:0 16:1 17:0 18:0 19:0 20:0 21:0 22:0 23:0 24:0 25:0 
-0 -1 -0 1 1 0 1 0:0 1:0 2:0 3:0 4:0 5:0 6:0 7:0 8:0 9:0 10:0 11:0 12:0 13:0 14:0 15:0 16:1 17:0 18:0 19:0 20:0 21:0 22:0 23:0 24:0 25:0 
-0 -1 -0 1 1 0 1 0:0 1:0 2:0 3:0 4:0 5:0 6:0 7:0 8:0 9:0 10:0 11:0 12:0 13:0 14:0 15:0 16:1 17:0 18:0 19:0 20:0 21:0 22:0 23:0 24:0 25:0 
-0 -1 -0 0 1 0 1 0:0 1:0 2:0 3:1 4:0 5:0 6:0 7:0 8:0 9:0 10:0 11:0 12:0 13:0 14:0 15:0 16:0 17:0 18:0 19:0 20:0 21:0 22:0 23:0 24:0 25:0 
-0 -0 -0 1 1 0 1 0:0 1:1 2:0 3:0 4:0 5:0 6:0 7:0 8:0 9:0 10:0 11:0 12:0 13:1 14:0 15:0 16:0 17:0 18:0 19:0 20:0 21:0 22:0 23:0 24:0 25:0 
-0 -1 -0 1 1 0 1 0:0 1:0 2:0 3:0 4:0 5:0 6:0 7:0 8:0 9:0 10:0 11:0 12:0 13:0 14:0 15:0 16:1 17:0 18:0 19:0 20:0 21:0 22:0 23:0 24:0 25:0 
-1 -0 -1 0 0 1 1 0:0 1:0 2:0 3:0 4:0 5:0 6:0 7:0 8:0 9:0 10:0 11:0 12:0 13:0 14:0 15:0 16:0 17:0 18:0 19:0 20:0 21:0 22:0 23:0 24:0 25:0 
-1 -0 -1 0 0 1 1 0:0 1:0 2:0 3:0 4:0 5:0 6:0 7:0 8:0 9:0 10:0 11:0 12:0 13:0 14:0 15:0 16:0 17:0 18:0 19:0 20:0 21:0 22:0 23:0 24:0 25:0 
-0 -0 -0 1 1 0 1 0:0 1:1 2:0 3:0 4:0 5:0 6:0 7:0 8:0 9:0 10:0 11:0 12:0 13:1 14:0 15:0 16:0 17:0 18:0 19:0 20:0 21:0 22:0 23:0 24:0 25:0 
-0 -1 -0 1 1 0 1 0:0 1:0 2:0 3:0 4:0 5:0 6:0 7:0 8:0 9:0 10:0 11:0 12:0 13:0 14:0 15:0 16:1 17:0 18:0 19:0 20:0 21:0 22:0 23:0 24:0 25:0 
-0 -1 -0 1 1 0 1 0:0 1:0 2:0 3:0 4:0 5:0 6:0 7:0 8:0 9:0 10:0 11:0 12:0 13:0 14:0 15:0 16:1 17:0 18:0 19:0 20:0 21:0 22:0 23:0 24:0 25:0 
-1 -0 -1 0 0 1 1 0:0 1:0 2:0 3:0 4:0 5:0 6:0 7:0 8:0 9:0 10:0 11:0 12:0 13:0 14:0 15:0 16:0 17:0 18:0 19:0 20:0 21:0 22:0 23:0 24:0 25:0 
-0 -0 -0 1 1 0 0 0:0 1:1 2:0 3:0 4:0 5:0 6:0 7:0 8:0 9:0 10:0 11:0 12:0 13:1 14:0 15:0 16:1 17:0 18:0 19:0 20:0 21:0 22:0 23:0 24:0 25:0 
-0 -1 -0 1 1 0 1 0:0 1:0 2:0 3:0 4:0 5:0 6:0 7:0 8:0 9:0 10:0 11:0 12:0 13:0 14:0 15:0 16:1 17:0 18:0 19:0 20:0 21:0 22:0 23:0 24:0 25:0 
-1 -1 -1 0 0 1 1 0:0 1:0 2:0 3:0 4:0 5:0 6:0 7:0 8:0 9:0 10:0 11:0 12:0 13:0 14:0 15:0 16:0 17:0 18:0 19:0 20:0 21:0 22:0 23:0 24:0 25:0 
-1 -1 -1 0 0 1 1 0:0 1:0 2:0 3:0 4:0 5:0 6:0 7:0 8:0 9:0 10:0 11:0 12:0 13:0 14:0 15:0 16:0 17:0 18:0 19:0 20:0 21:0 22:0 23:0 24:0 25:0 
-0 -1 -0 1 1 0.758088888707236 1 0:0 1:0 2:0 3:0 4:0 5:0 6:0 7:0 8:0 9:0 10:0 11:0 12:0 13:0 14:0 15:0 16:1 17:0 18:0 19:0 20:0 21:0 22:0 23:0 24:0 25:0 
-0 -0 -0 1 1 0 1 0:0 1:1 2:0 3:0 4:0 5:0 6:0 7:0 8:0 9:0 10:0 11:0 12:0 13:1 14:0 15:0 16:0 17:0 18:0 19:0 20:0 21:0 22:0 23:0 24:0 25:0 
-0 -1 -0 1 1 1 1 0:0 1:0 2:0 3:0 4:0 5:0 6:0 7:0 8:0 9:0 10:0 11:0 12:0 13:0 14:0 15:0 16:1 17:0 18:0 19:0 20:0 21:0 22:0 23:0 24:0 25:0 
-1 -1 -1 0 0 1 1 0:0 1:0 2:0 3:0 4:0 5:0 6:0 7:0 8:0 9:0 10:0 11:0 12:0 13:0 14:0 15:0 16:0 17:0 18:0 19:0 20:0 21:0 22:0 23:0 24:0 25:0 
-0 -0.5838810377145028 -0 1 1 0 0 0:0 1:1 2:0 3:0 4:0 5:0 6:0 7:0 8:0 9:0 10:0 11:0 12:0 13:1 14:0 15:0 16:1 17:0 18:0 19:0 20:0 21:0 22:0 23:0 24:0 25:0 
-1 -1 -1 0 0 1 1 0:0 1:0 2:0 3:0 4:0 5:0 6:0 7:0 8:0 9:0 10:0 11:0 12:0 13:0 14:0 15:0 16:0 17:0 18:0 19:0 20:0 21:0 22:0 23:0 24:0 25:0 
-1 -1 -1 0 0 1 1 0:0 1:0 2:0 3:0 4:0 5:0 6:0 7:0 8:0 9:0 10:0 11:0 12:0 13:0 14:0 15:0 16:0 17:0 18:0 19:0 20:0 21:0 22:0 23:0 24:0 25:0 
-0.4907430740265547 -0.7961010139850184 -0.2342348331842217 1 1 0 0 0:0 1:1 2:0 3:0 4:0 5:0 6:0 7:0 8:0 9:0 10:0 11:0 12:0 13:1 14:0 15:0 16:1 17:0 18:0 19:0 20:0 21:0 22:0 23:0 24:0 25:0 
-1 -1 -1 0 0 1 1 0:0 1:0 2:0 3:0 4:0 5:0 6:0 7:0 8:0 9:0 10:0 11:0 12:0 13:0 14:0 15:0 16:0 17:0 18:0 19:0 20:0 21:0 22:0 23:0 24:0 25:0 
-1 -1 -1 0 0 1 1 0:0 1:0 2:0 3:0 4:0 5:0 6:0 7:0 8:0 9:0 10:0 11:0 12:0 13:0 14:0 15:0 16:0 17:0 18:0 19:0 20:0 21:0 22:0 23:0 24:0 25:0 
-1 -1 -1 0 0 1 1 0:0 1:0 2:0 3:0 4:0 5:0 6:0 7:0 8:0 9:0 10:0 11:0 12:0 13:0 14:0 15:0 16:0 17:0 18:0 19:0 20:0 21:0 22:0 23:0 24:0 25:0 
-1 -1 -1 0 0 1 1 0:0 1:0 2:0 3:0 4:0 5:0 6:0 7:0 8:0 9:0 10:0 11:0 12:0 13:0 14:0 15:0 16:0 17:0 18:0 19:0 20:0 21:0 22:0 23:0 24:0 25:0 
-0 -0 -1 1 1 0 1 0:0 1:0 2:0 3:0 4:0 5:0 6:0 7:0 8:1 9:0 10:0 11:0 12:0 13:0 14:0 15:0 16:0 17:0 18:0 19:0 20:0 21:0 22:0 23:0 24:0 25:0 
-1 -1 -1 0 0 1 1 0:0 1:0 2:0 3:0 4:0 5:0 6:0 7:0 8:0 9:0 10:0 11:0 12:0 13:0 14:0 15:0 16:0 17:0 18:0 19:0 20:0 21:0 22:0 23:0 24:0 25:0 
-0 -0 -1 1 1 0 1 0:0 1:0 2:0 3:0 4:0 5:0 6:0 7:0 8:1 9:0 10:0 11:0 12:0 13:0 14:0 15:0 16:0 17:0 18:0 19:0 20:0 21:0 22:0 23:0 24:0 25:0 
-1 -1 -1 0 0 1 1 0:0 1:0 2:0 3:0 4:0 5:0 6:0 7:0 8:0 9:0 10:0 11:0 12:0 13:0 14:0 15:0 16:0 17:0 18:0 19:0 20:0 21:0 22:0 23:0 24:0 25:0 
-1 -1 -1 0 0 1 1 0:0 1:0 2:0 3:0 4:0 5:0 6:0 7:0 8:0 9:0 10:0 11:0 12:0 13:0 14:0 15:0 16:0 17:0 18:0 19:0 20:0 21:0 22:0 23:0 24:0 25:0 
-1 -1 -1 0 0 1 1 0:0 1:0 2:0 3:0 4:0 5:0 6:0 7:0 8:0 9:0 10:0 11:0 12:0 13:0 14:0 15:0 16:0 17:0 18:0 19:0 20:0 21:0 22:0 23:0 24:0 25:0 
-1 -1 -1 0 0 1 1 0:0 1:0 2:0 3:0 4:0 5:0 6:0 7:0 8:0 9:0 10:0 11:0 12:0 13:0 14:0 15:0 16:0 17:0 18:0 19:0 20:0 21:0 22:0 23:0 24:0 25:0 
-1 -1 -1 0 0.4367130264777072 1 1 0:0 1:0 2:0 3:0 4:0 5:0 6:0 7:0 8:0 9:0 10:0 11:0 12:0 13:0 14:0 15:0 16:0 17:0 18:0 19:0 20:0 21:0 22:0 23:0 24:0 25:0 
-1 -1 -1 1 1 1 1 0:0 1:0 2:0 3:0 4:0 5:0 6:0 7:0 8:0 9:0 10:0 11:0 12:0 13:0 14:0 15:0 16:0 17:0 18:0 19:0 20:0 21:0 22:0 23:0 24:0 25:0 
-1 -1 -1 1 1 1 1 0:0 1:0 2:0 3:0 4:0 5:0 6:0 7:0 8:0 9:0 10:0 11:0 12:0 13:0 14:0 15:0 16:0 17:0 18:0 19:0 20:0 21:0 22:0 23:0 24:0 25:0 
-1 -1 -1 1 1 1 1 0:0 1:0 2:0 3:0 4:0 5:0 6:0 7:0 8:0 9:0 10:0 11:0 12:0 13:0 14:0 15:0 16:0 17:0 18:0 19:0 20:0 21:0 22:0 23:0 24:0 25:0 
-1 -1 -1 1 1 1 1 0:0 1:0 2:0 3:0 4:0 5:0 6:0 7:0 8:0 9:0 10:0 11:0 12:0 13:0 14:0 15:0 16:0 17:0 18:0 19:0 20:0 21:0 22:0 23:0 24:0 25:0 
-1 -1 -1 1 1 1 1 0:0 1:0 2:0 3:0 4:0 5:0 6:0 7:0 8:0 9:0 10:0 11:0 12:0 13:0 14:0 15:0 16:0 17:0 18:0 19:0 20:0 21:0 22:0 23:0 24:0 25:0 
-1 -1 -1 1 1 1 1 0:0 1:0 2:0 3:0 4:0 5:0 6:0 7:0 8:0 9:0 10:0 11:0 12:0 13:0 14:0 15:0 16:0 17:0 18:0 19:0 20:0 21:0 22:0 23:0 24:0 25:0 
-0 -0 -1 1 1 0.5863252240127697 1 0:0 1:0 2:0 3:0 4:0 5:0 6:0 7:0 8:1 9:0 10:0 11:0 12:0 13:0 14:0 15:0 16:0 17:0 18:0 19:0 20:0 21:0 22:0 23:0 24:0 25:0 
-0 -0.908050335262568 -0 1 1 0.9346122868455187 1 0:0 1:0 2:0 3:0 4:0 5:0 6:0 7:0 8:0 9:0 10:0 11:0 12:0 13:0 14:0 15:0 16:1 17:0 18:0 19:0 20:0 21:0 22:0 23:0 24:0 25:0 
-1 -1 -1 1 1 1 1 0:0 1:0 2:0 3:0 4:0 5:0 6:0 7:0 8:0 9:0 10:0 11:0 12:0 13:0 14:0 15:0 16:0 17:0 18:0 19:0 20:0 21:0 22:0 23:0 24:0 25:0 
-0.9945676590465861 -0.9793628054172 -1 0.7495817937868833 1 1 1 0:0 1:0 2:0 3:0 4:0 5:0 6:0 7:0 8:0 9:0 10:0 11:0 12:0 13:0 14:0 15:0 16:0 17:0 18:0 19:0 20:0 21:0 22:0 23:0 24:0 25:0 
-0 -0 -0 1 1 0.4450358839614825 1 0:0 1:1 2:0 3:0 4:0 5:0 6:0 7:0 8:0 9:0 10:0 11:0 12:0 13:1 14:0 15:0 16:0 17:0 18:0 19:0 20:0 21:0 22:0 23:0 24:0 25:0 
-0 -0 -1 1 0.8952674122983568 1 1 0:0 1:0 2:0 3:0 4:0 5:0 6:0 7:0 8:1 9:0 10:0 11:0 12:0 13:0 14:0 15:0 16:0 17:0 18:0 19:0 20:0 21:0 22:0 23:0 24:0 25:0 
-0 -1 -0 0 1 0 0 0:0 1:1 2:0 3:1 4:0 5:0 6:0 7:0 8:0 9:0 10:0 11:0 12:0 13:1 14:0 15:0 16:0 17:0 18:0 19:0 20:0 21:0 22:0 23:0 24:0 25:0 
-0 -1 -0 0 1 0 1 0:0 1:0 2:0 3:1 4:0 5:0 6:0 7:0 8:0 9:0 10:0 11:0 12:0 13:0 14:0 15:0 16:0 17:0 18:0 19:0 20:0 21:0 22:0 23:0 24:0 25:0 
-0.2868283676111524 -1 -0.1563876963280058 1 1 0 0.9892562954673393 0:0 1:0 2:0 3:1 4:0 5:0 6:0 7:0 8:0 9:0 10:0 11:0 12:0 13:0 14:0 15:0 16:1 17:0 18:0 19:0 20:0 21:0 22:0 23:0 24:0 25:0 
-0.7066982204760097 -0 -0 1 1 1 1 0:0 1:1 2:0 3:0 4:0 5:0 6:0 7:0 8:0 9:0 10:0 11:0 12:0 13:1 14:0 15:0 16:0 17:0 18:0 19:0 20:0 21:0 22:0 23:0 24:0 25:0 
-0 -1 -0 0 1 1 1 0:0 1:0 2:0 3:1 4:0 5:0 6:0 7:0 8:0 9:0 10:0 11:0 12:0 13:0 14:0 15:0 16:0 17:0 18:0 19:0 20:0 21:0 22:0 23:0 24:0 25:0 
-0.3320578395754128 -1 -0 0 1 0.7344495198812719 1 0:0 1:0 2:0 3:1 4:0 5:0 6:0 7:0 8:0 9:0 10:0 11:0 12:0 13:0 14:0 15:0 16:0 17:0 18:0 19:0 20:0 21:0 22:0 23:0 24:0 25:0 
-0.8414005484644468 -1 -0.1965815745706652 0.5976597501848081 1 0 0 0:0 1:1 2:0 3:1 4:0 5:0 6:0 7:0 8:0 9:0 10:0 11:0 12:0 13:1 14:0 15:0 16:0 17:0 18:0 19:0 20:0 21:0 22:0 23:0 24:0 25:0 
-1 -0 -0 -0 0 0 0 0:0 1:0 2:1 3:0 4:0 5:0 6:1 7:0 8:0 9:0 10:1 11:0 12:1 13:0 14:0 15:1 16:1 17:0 18:1 19:0 20:1 21:0 22:1 23:1 24:0 25:0 
-1 -1 -1 -1 1 1 1 0:0 1:1 2:1 3:0 4:0 5:0 6:0 7:0 8:0 9:0 10:0 11:0 12:0 13:1 14:0 15:0 16:0 17:0 18:0 19:0 20:0 21:0 22:0 23:0 24:0 25:0 
-0 -0 -0 -0.4241071706746584 0 0 0 0:0 1:1 2:1 3:0 4:0 5:0 6:0 7:0 8:1 9:0 10:0 11:0 12:0 13:1 14:0 15:0 16:1 17:0 18:0 19:0 20:0 21:0 22:0 23:0 24:0 25:0 
-1 -1 -1 -1 1 1 1 0:0 1:0 2:0 3:0 4:0 5:0 6:0 7:0 8:0 9:0 10:0 11:0 12:0 13:0 14:0 15:1 16:0 17:0 18:0 19:0 20:0 21:0 22:0 23:0 24:0 25:0 
-0 -0 -0 -0 0.01490907806417803 0.8588753364601092 0 0:0 1:0 2:1 3:0 4:0 5:0 6:0 7:0 8:0 9:0 10:0 11:0 12:0 13:0 14:1 15:0 16:0 17:0 18:1 19:0 20:1 21:0 22:0 23:1 24:0 25:1 
-1 -1 -1 -1 1 1 1 0:1 1:0 2:0 3:0 4:0 5:0 6:0 7:1 8:1 9:0 10:0 11:0 12:0 13:0 14:0 15:0 16:0 17:1 18:0 19:0 20:0 21:0 22:0 23:0 24:0 25:0 
-0.2924361966739575 -0 -0 -0 0 0 0 0:1 1:1 2:0 3:0 4:1 5:1 6:0 7:1 8:0 9:0 10:0 11:0 12:0 13:1 14:0 15:0 16:1 17:0 18:1 19:0 20:1 21:1 22:0 23:1 24:0 25:0 
-0 -1 -0 -0 1 0 0.2198095650926162 0:1 1:0 2:1 3:0 4:0 5:0 6:0 7:0 8:0 9:0 10:0 11:0 12:0 13:0 14:1 15:0 16:0 17:0 18:0 19:0 20:0 21:0 22:0 23:0 24:0 25:1 
-1 -0.1666600533166837 -1 -0.2388726676095231 0 1 1 0:0 1:0 2:0 3:0 4:1 5:0 6:0 7:0 8:0 9:0 10:0 11:0 12:0 13:0 14:0 15:0 16:0 17:0 18:1 19:0 20:1 21:1 22:0 23:1 24:0 25:0 
-0 -0 -0.08461946662571745 -0 0 0 0 0:1 1:0 2:0 3:0 4:1 5:1 6:0 7:1 8:0 9:0 10:0 11:0 12:0 13:0 14:1 15:0 16:0 17:0 18:1 19:0 20:1 21:1 22:0 23:1 24:0 25:1 
-0 -1 -0.8342494033677043 -1 1 1 1 0:0 1:0 2:1 3:0 4:0 5:0 6:0 7:0 8:0 9:0 10:0 11:0 12:0 13:0 14:0 15:0 16:1 17:0 18:0 19:0 20:0 21:0 22:0 23:0 24:0 25:0 
-0 -1 -0 -1 1 1 0.974539595936016 0:0 1:0 2:0 3:0 4:0 5:0 6:0 7:0 8:0 9:0 10:0 11:1 12:0 13:0 14:0 15:0 16:1 17:0 18:0 19:0 20:1 21:0 22:0 23:1 24:0 25:0 
-1 -1 -1 -1 1 1 1 0:0 1:0 2:0 3:0 4:0 5:0 6:0 7:0 8:1 9:0 10:0 11:1 12:0 13:0 14:0 15:0 16:0 17:0 18:0 19:0 20:0 21:0 22:0 23:0 24:0 25:0 
-0.5622564519285546 -1 -0 -1 1 1 1 0:0 1:0 2:0 3:0 4:0 5:0 6:0 7:0 8:0 9:0 10:0 11:1 12:0 13:0 14:1 15:0 16:0 17:0 18:0 19:0 20:0 21:0 22:0 23:0 24:0 25:1 
-1 -1 -1 -1 1 1 1 0:0 1:0 2:0 3:0 4:0 5:0 6:0 7:0 8:0 9:0 10:0 11:1 12:0 13:0 14:0 15:1 16:0 17:0 18:0 19:0 20:0 21:0 22:0 23:0 24:0 25:0 
-0 -1 -0 -0 1 0 0 0:0 1:0 2:1 3:0 4:0 5:0 6:0 7:0 8:0 9:0 10:0 11:1 12:0 13:0 14:1 15:0 16:0 17:0 18:0 19:0 20:0 21:0 22:0 23:0 24:0 25:1 
-0 -1 -1 -1 1 0.1276825881928609 0.723900053738724 0:0 1:1 2:0 3:0 4:0 5:0 6:0 7:0 8:1 9:0 10:0 11:1 12:0 13:1 14:0 15:0 16:0 17:0 18:0 19:0 20:0 21:0 22:0 23:0 24:0 25:0 
-1 -1 -1 -1 1 1 1 0:0 1:0 2:0 3:0 4:0 5:0 6:0 7:0 8:1 9:0 10:0 11:0 12:0 13:0 14:0 15:0 16:0 17:0 18:0 19:0 20:0 21:0 22:0 23:0 24:0 25:0 
-1 -1 -1 -1 1 1 1 0:0 1:0 2:0 3:0 4:1 5:0 6:0 7:0 8:0 9:0 10:0 11:1 12:0 13:0 14:0 15:0 16:0 17:0 18:0 19:0 20:0 21:1 22:0 23:0 24:0 25:0 
-0 -0.7399444341360376 -0 -0 0 1 0 0:0 1:0 2:0 3:0 4:1 5:0 6:0 7:0 8:0 9:0 10:0 11:1 12:0 13:0 14:0 15:0 16:0 17:0 18:0 19:0 20:1 21:1 22:0 23:1 24:0 25:0 
-1 -1 -0.1329436814112368 -0.08904652242327978 1 1 0 0:1 1:0 2:0 3:0 4:0 5:0 6:0 7:1 8:0 9:0 10:0 11:1 12:0 13:0 14:1 15:0 16:0 17:0 18:0 19:0 20:0 21:0 22:0 23:0 24:0 25:1 
-1 -1 -1 -1 1 1 1 0:0 1:0 2:0 3:0 4:0 5:0 6:0 7:0 8:0 9:0 10:0 11:0 12:0 13:0 14:0 15:0 16:0 17:0 18:0 19:0 20:0 21:0 22:0 23:0 24:0 25:0 
-1 -0.7092290740003203 -1 -0.1606250811468884 0 0.2074704895847461 0 0:1 1:0 2:1 3:0 4:0 5:0 6:0 7:1 8:0 9:0 10:0 11:0 12:0 13:0 14:0 15:0 16:1 17:0 18:0 19:1 20:0 21:0 22:0 23:0 24:0 25:0 
-1 -0 -0.5084311454104513 -0 0 1 0 0:0 1:0 2:0 3:0 4:1 5:0 6:0 7:1 8:0 9:0 10:0 11:1 12:0 13:0 14:0 15:0 16:0 17:0 18:0 19:1 20:1 21:1 22:0 23:1 24:0 25:0 
-0 -0 -0 -1 1 1 0 0:0 1:1 2:0 3:0 4:0 5:0 6:0 7:0 8:1 9:0 10:0 11:0 12:0 13:1 14:0 15:0 16:0 17:0 18:0 19:0 20:1 21:0 22:0 23:1 24:0 25:0 
-1 -0 -1 -1 1 1 1 0:0 1:0 2:0 3:0 4:0 5:0 6:0 7:0 8:1 9:0 10:0 11:0 12:0 13:0 14:0 15:0 16:0 17:0 18:0 19:0 20:1 21:0 22:0 23:1 24:0 25:0 
-1 -1 -1 -1 1 1 1 0:0 1:0 2:0 3:0 4:0 5:0 6:0 7:0 8:0 9:0 10:0 11:0 12:0 13:0 14:1 15:0 16:0 17:0 18:0 19:0 20:0 21:0 22:0 23:0 24:1 25:1 
-1 -0 -1 -1 0 1 1 0:0 1:0 2:0 3:0 4:1 5:0 6:0 7:0 8:0 9:0 10:0 11:0 12:0 13:0 14:0 15:0 16:0 17:0 18:0 19:0 20:1 21:1 22:0 23:1 24:0 25:0 
-1 -1 -1 -1 1 1 1 0:0 1:0 2:0 3:0 4:0 5:0 6:0 7:0 8:0 9:0 10:1 11:0 12:1 13:0 14:0 15:0 16:0 17:0 18:0 19:0 20:0 21:0 22:0 23:0 24:0 25:0 
-1 -0.3648588104885854 -1 -1 1 1 1 0:0 1:0 2:0 3:0 4:0 5:0 6:0 7:0 8:1 9:0 10:0 11:0 12:0 13:0 14:0 15:1 16:0 17:0 18:0 19:0 20:0 21:0 22:0 23:0 24:0 25:0 
-0 -0.9555836913119027 -0 -0 0 1 0 0:0 1:0 2:1 3:0 4:0 5:0 6:0 7:0 8:0 9:0 10:0 11:0 12:0 13:0 14:0 15:0 16:1 17:0 18:0 19:1 20:1 21:0 22:0 23:1 24:0 25:0 
-0 -0 -1 -0 1 0 0 0:1 1:1 2:0 3:0 4:1 5:1 6:0 7:1 8:0 9:0 10:0 11:0 12:0 13:1 14:1 15:0 16:0 17:0 18:0 19:0 20:0 21:1 22:0 23:0 24:0 25:1 
-0 -0 -0 -0 1 0 0 0:0 1:1 2:1 3:0 4:0 5:0 6:0 7:0 8:0 9:0 10:0 11:0 12:0 13:1 14:1 15:1 16:0 17:0 18:0 19:0 20:0 21:0 22:0 23:0 24:0 25:1 
-0 -0 -0 -0 0.4050595903906956 0 0 0:1 1:1 2:1 3:0 4:0 5:1 6:0 7:0 8:0 9:0 10:0 11:0 12:0 13:1 14:1 15:0 16:0 17:0 18:0 19:1 20:1 21:0 22:0 23:1 24:0 25:1 
-1 -0 -0 -0 0 0 0 0:1 1:1 2:1 3:0 4:0 5:1 6:0 7:0 8:1 9:0 10:0 11:0 12:0 13:1 14:0 15:0 16:0 17:1 18:1 19:0 20:1 21:0 22:0 23:1 24:0 25:0 
-1 -1 -1 -1 1 1 1 0:1 1:0 2:0 3:0 4:0 5:0 6:0 7:1 8:0 9:0 10:0 11:0 12:0 13:0 14:1 15:0 16:0 17:0 18:0 19:0 20:0 21:0 22:0 23:0 24:0 25:1 
-0 -0.2711299447875151 -0 -0 0 0 0 0:0 1:0 2:1 3:0 4:1 5:0 6:0 7:0 8:0 9:0 10:1 11:0 12:1 13:0 14:0 15:0 16:1 17:0 18:1 19:0 20:1 21:1 22:0 23:1 24:0 25:0 
-1 -1 -1 -1 1 1 1 0:0 1:1 2:0 3:0 4:0 5:0 6:0 7:0 8:1 9:0 10:0 11:0 12:0 13:1 14:0 15:0 16:0 17:0 18:0 19:0 20:0 21:0 22:0 23:0 24:0 25:0 
-0.7751730699808363 -0 -1 -0 0 0 0 0:0 1:0 2:0 3:0 4:1 5:0 6:1 7:1 8:1 9:0 10:0 11:0 12:0 13:0 14:0 15:1 16:1 17:0 18:0 19:1 20:0 21:1 22:1 23:0 24:0 25:0 
-0 -1 -0 -1 0.2932673213716665 1 1 0:0 1:0 2:1 3:0 4:0 5:0 6:0 7:1 8:0 9:0 10:0 11:0 12:0 13:0 14:0 15:0 16:1 17:0 18:0 19:0 20:0 21:0 22:0 23:0 24:0 25:0 
-0 -0 -0 -0 1 0 0 0:1 1:1 2:1 3:0 4:0 5:0 6:0 7:1 8:0 9:0 10:0 11:0 12:0 13:1 14:1 15:0 16:0 17:0 18:0 19:1 20:0 21:0 22:0 23:0 24:0 25:1 
-1 -1 -0 -1 1 0.909622381347033 0 0:0 1:1 2:0 3:0 4:0 5:0 6:0 7:0 8:0 9:0 10:1 11:0 12:1 13:1 14:1 15:0 16:0 17:0 18:0 19:0 20:0 21:0 22:0 23:0 24:0 25:1 
-0 -0.612386119294666 -0.8574734431570038 -0 1 0 0.4102265831112298 0:0 1:0 2:1 3:0 4:0 5:0 6:0 7:0 8:1 9:0 10:0 11:1 12:0 13:0 14:0 15:0 16:0 17:0 18:0 19:0 20:0 21:0 22:0 23:0 24:0 25:0 
-0 -0 -1 -1 0 1 1 0:0 1:0 2:1 3:0 4:0 5:0 6:0 7:0 8:1 9:0 10:0 11:0 12:0 13:0 14:0 15:0 16:0 17:0 18:0 19:0 20:0 21:0 22:0 23:0 24:0 25:0 
-0 -0 -0 -0 1 0 0 0:0 1:0 2:1 3:0 4:0 5:0 6:0 7:0 8:1 9:0 10:0 11:0 12:0 13:0 14:1 15:1 16:0 17:0 18:0 19:0 20:0 21:0 22:0 23:0 24:0 25:1 
-1 -0 -1 -0 0 0 0 0:1 1:0 2:0 3:0 4:1 5:1 6:0 7:1 8:1 9:0 10:1 11:0 12:1 13:0 14:0 15:0 16:0 17:0 18:0 19:0 20:1 21:1 22:0 23:1 24:0 25:0 
-0.03378535475141739 -0 -0 -0 0 0 0 0:1 1:0 2:1 3:0 4:0 5:1 6:0 7:0 8:0 9:0 10:0 11:0 12:0 13:0 14:1 15:0 16:0 17:0 18:0 19:1 20:1 21:0 22:0 23:1 24:0 25:1 
-0 -0 -1 -0 1 0 0 0:0 1:0 2:0 3:0 4:1 5:0 6:1 7:0 8:0 9:0 10:0 11:1 12:0 13:0 14:1 15:1 16:0 17:0 18:0 19:0 20:0 21:1 22:1 23:0 24:0 25:1 
-1 -0 -1 -0 1 0.3192336950511426 0 0:1 1:0 2:0 3:0 4:0 5:1 6:1 7:0 8:1 9:0 10:0 11:0 12:0 13:0 14:0 15:1 16:0 17:0 18:0 19:1 20:1 21:0 22:1 23:1 24:0 25:0 
-0 -0 -0 -0 0.3656491929862798 0 0 0:0 1:0 2:0 3:0 4:1 5:0 6:0 7:0 8:0 9:0 10:0 11:0 12:0 13:0 14:1 15:0 16:0 17:0 18:0 19:0 20:1 21:1 22:0 23:1 24:0 25:1 
-0 -0.4720118402442654 -1 -0 0.4755957466494193 0 1 0:0 1:0 2:0 3:0 4:1 5:0 6:0 7:0 8:1 9:0 10:0 11:1 12:0 13:0 14:0 15:0 16:0 17:0 18:0 19:0 20:0 21:1 22:0 23:0 24:0 25:0 
-0.6907109721354555 -0 -0 -0 0 0 0 0:0 1:0 2:1 3:0 4:1 5:0 6:1 7:1 8:0 9:0 10:0 11:0 12:0 13:0 14:0 15:1 16:0 17:1 18:0 19:0 20:1 21:1 22:1 23:1 24:0 25:0 
-1 -0.1711916422761772 -1 -0 0.84953445721411 0 0 0:0 1:0 2:0 3:0 4:1 5:0 6:0 7:1 8:0 9:0 10:0 11:0 12:0 13:0 14:1 15:1 16:0 17:1 18:0 19:1 20:0 21:1 22:0 23:0 24:0 25:1 
-1 -0.4458206063422772 -1 -1 1 1 1 0:0 1:0 2:0 3:0 4:1 5:0 6:1 7:0 8:0 9:0 10:0 11:0 12:0 13:0 14:0 15:1 16:0 17:0 18:1 19:0 20:0 21:1 22:1 23:0 24:0 25:0 
-1 -1 -1 -1 1 1 1 0:0 1:0 2:0 3:0 4:0 5:0 6:0 7:0 8:0 9:0 10:0 11:0 12:0 13:0 14:1 15:1 16:0 17:0 18:0 19:0 20:0 21:0 22:0 23:0 24:0 25:1 
-0.4022155695970491 -0 -1 -0 1 0 0 0:0 1:0 2:0 3:0 4:1 5:0 6:1 7:0 8:0 9:0 10:0 11:0 12:0 13:0 14:1 15:1 16:0 17:0 18:0 19:0 20:0 21:1 22:1 23:0 24:0 25:1 
-0 -0 -0 -1 0 0 0 0:0 1:1 2:1 3:0 4:0 5:0 6:0 7:0 8:1 9:0 10:0 11:0 12:0 13:1 14:0 15:0 16:1 17:0 18:0 19:0 20:0 21:0 22:0 23:0 24:0 25:0 
-0 -0 -0 -1 0.02022955431233019 0 0 0:0 1:1 2:1 3:0 4:0 5:0 6:0 7:0 8:1 9:0 10:0 11:0 12:0 13:1 14:0 15:0 16:1 17:0 18:0 19:0 20:0 21:0 22:0 23:0 24:0 25:0 
-1 -1 -1 -1 1 1 0.853639982840288 0:0 1:0 2:0 3:0 4:0 5:0 6:0 7:1 8:0 9:0 10:0 11:0 12:0 13:0 14:0 15:1 16:1 17:1 18:0 19:0 20:0 21:0 22:0 23:0 24:0 25:0 
-0 -0.3911631246942862 -1 -1 1 0 1 0:0 1:1 2:0 3:0 4:0 5:0 6:0 7:0 8:1 9:0 10:0 11:0 12:0 13:1 14:0 15:0 16:1 17:0 18:0 19:0 20:0 21:0 22:0 23:0 24:0 25:0 
-0 -0 -0 -0 1 0 0 0:0 1:0 2:1 3:0 4:0 5:0 6:0 7:0 8:0 9:0 10:0 11:0 12:0 13:0 14:0 15:1 16:1 17:0 18:0 19:0 20:0 21:0 22:0 23:0 24:0 25:0 
-0 -0 -0 -1 0 0 0 0:0 1:0 2:1 3:0 4:0 5:0 6:0 7:0 8:1 9:0 10:0 11:0 12:0 13:0 14:0 15:0 16:1 17:0 18:0 19:0 20:0 21:0 22:0 23:0 24:0 25:0 
-1 -1 -0 -1 1 0.9094433717332233 1 0:0 1:0 2:1 3:0 4:0 5:0 6:0 7:0 8:0 9:0 10:0 11:0 12:0 13:0 14:0 15:0 16:1 17:1 18:0 19:0 20:0 21:0 22:0 23:0 24:0 25:0 
-0 -0 -0 -1 0 0 0 0:0 1:0 2:1 3:0 4:0 5:0 6:0 7:0 8:1 9:0 10:0 11:0 12:0 13:0 14:0 15:0 16:1 17:0 18:0 19:0 20:0 21:0 22:0 23:0 24:0 25:0 
-1 -1 -1 -1 1 1 1 0:0 1:0 2:0 3:0 4:0 5:0 6:0 7:0 8:0 9:0 10:0 11:0 12:0 13:0 14:0 15:1 16:0 17:0 18:0 19:0 20:0 21:0 22:0 23:0 24:0 25:0 
-1 -1 -1 -1 1 1 1 0:0 1:0 2:0 3:0 4:0 5:0 6:0 7:0 8:0 9:0 10:0 11:0 12:0 13:0 14:0 15:0 16:0 17:0 18:0 19:0 20:0 21:0 22:0 23:0 24:0 25:0 
-0 -0.475289014558458 -0 -1 1 1 0 0:0 1:1 2:0 3:0 4:0 5:0 6:0 7:0 8:0 9:0 10:0 11:0 12:0 13:1 14:0 15:0 16:1 17:0 18:0 19:0 20:1 21:0 22:0 23:1 24:0 25:0 
-0 -0 -1 -0 0 1 0 0:0 1:0 2:0 3:0 4:1 5:0 6:0 7:0 8:1 9:0 10:0 11:0 12:0 13:0 14:0 15:0 16:0 17:0 18:0 19:0 20:1 21:1 22:0 23:1 24:0 25:0 
-0 -1 -1 -0.4593442375659068 0.9983770601795174 0.9561301661523687 0.8904092250874343 0:0 1:0 2:0 3:0 4:1 5:0 6:0 7:0 8:1 9:0 10:0 11:1 12:0 13:0 14:0 15:0 16:0 17:0 18:0 19:0 20:0 21:1 22:0 23:0 24:0 25:0 
-0 -0 -0 -1 0 0 0 0:0 1:0 2:1 3:0 4:0 5:0 6:0 7:0 8:1 9:0 10:0 11:0 12:0 13:0 14:0 15:0 16:1 17:0 18:0 19:0 20:0 21:0 22:0 23:0 24:0 25:0 
-1 -0 -0 -0 0 0 0 0:0 1:0 2:1 3:0 4:0 5:0 6:1 7:0 8:0 9:0 10:0 11:0 12:0 13:0 14:0 15:1 16:1 17:0 18:1 19:0 20:1 21:0 22:1 23:1 24:0 25:0 
-0 -0 -1 -1 0 1 1 0:0 1:0 2:1 3:0 4:0 5:0 6:0 7:0 8:1 9:0 10:0 11:0 12:0 13:0 14:0 15:0 16:0 17:0 18:0 19:0 20:0 21:0 22:0 23:0 24:0 25:0 
-0 -0 -0 -0 0 0.004862105126601388 0 0:0 1:0 2:1 3:0 4:1 5:0 6:0 7:0 8:0 9:0 10:0 11:0 12:0 13:0 14:0 15:0 16:0 17:0 18:0 19:0 20:1 21:1 22:0 23:1 24:0 25:0 
-1 -0 -1 -1 1 0 0 0:0 1:0 2:0 3:0 4:1 5:0 6:1 7:0 8:0 9:0 10:0 11:0 12:0 13:0 14:0 15:1 16:1 17:0 18:0 19:0 20:0 21:1 22:1 23:0 24:0 25:0 
-1 -1 -1 -1 1 1 1 0:0 1:0 2:0 3:0 4:0 5:0 6:0 7:0 8:0 9:0 10:0 11:0 12:0 13:0 14:0 15:1 16:0 17:0 18:0 19:0 20:0 21:0 22:0 23:0 24:0 25:0 
-1 -0 -1 -0.903394987676178 0.472011961523948 0 0 0:0 1:0 2:0 3:0 4:1 5:0 6:1 7:0 8:0 9:0 10:0 11:0 12:0 13:0 14:0 15:1 16:1 17:0 18:1 19:0 20:0 21:1 22:1 23:0 24:0 25:0 
-1 -1 -1 -1 1 1 1 0:0 1:0 2:0 3:0 4:0 5:0 6:0 7:0 8:0 9:0 10:0 11:0 12:0 13:0 14:0 15:1 16:0 17:0 18:0 19:0 20:0 21:0 22:0 23:0 24:0 25:0 
-0 -0 -1 -0 0 0 0 0:0 1:0 2:1 3:0 4:1 5:0 6:0 7:0 8:1 9:0 10:0 11:0 12:0 13:0 14:0 15:0 16:0 17:0 18:0 19:0 20:0 21:1 22:0 23:0 24:0 25:0 
-0 -0 -0 -1 0 0 0 0:0 1:0 2:1 3:0 4:0 5:0 6:0 7:0 8:1 9:0 10:0 11:0 12:0 13:0 14:0 15:0 16:1 17:0 18:0 19:0 20:0 21:0 22:0 23:0 24:0 25:0 
-0 -0 -0 -0.8330598332357824 0 0 0 0:0 1:0 2:1 3:0 4:0 5:0 6:0 7:0 8:1 9:0 10:0 11:0 12:0 13:0 14:0 15:0 16:1 17:0 18:0 19:0 20:0 21:0 22:0 23:0 24:0 25:0 
-0 -0 -0.645137995544753 -1 1 0 0 0:0 1:1 2:1 3:0 4:0 5:0 6:0 7:0 8:1 9:0 10:0 11:0 12:0 13:1 14:0 15:0 16:0 17:0 18:0 19:0 20:0 21:0 22:0 23:0 24:0 25:0 
-1 -0 -1 -0 0 0 0 0:1 1:0 2:1 3:0 4:1 5:1 6:0 7:1 8:0 9:0 10:0 11:0 12:0 13:0 14:0 15:0 16:0 17:0 18:1 19:0 20:1 21:1 22:0 23:1 24:0 25:0 
-0 -0 -1 -0 0 1 0 0:0 1:0 2:1 3:0 4:1 5:0 6:0 7:0 8:0 9:0 10:0 11:0 12:0 13:0 14:0 15:0 16:0 17:0 18:1 19:0 20:1 21:1 22:0 23:1 24:0 25:0 
-0 -1 -0 -0 1 0 1 0:0 1:0 2:1 3:0 4:0 5:0 6:0 7:0 8:0 9:0 10:0 11:0 12:0 13:0 14:1 15:0 16:0 17:0 18:0 19:0 20:0 21:0 22:0 23:0 24:0 25:1 
-0 -0 -0 -0 1 0 0 0:0 1:0 2:1 3:0 4:0 5:0 6:0 7:0 8:1 9:0 10:0 11:0 12:0 13:0 14:1 15:0 16:0 17:0 18:0 19:0 20:0 21:0 22:0 23:0 24:0 25:1 
-0 -1 -1 -1 1 0 0 0:0 1:1 2:0 3:1 4:0 5:0 6:0 7:0 8:1 9:0 10:0 11:0 12:0 13:1 14:0 15:0 16:1 17:0 18:0 19:0 20:0 21:0 22:0 23:0 24:0 25:0 
-1 -1 -1 -1 1 0.8638189745275301 1 0:0 1:1 2:1 3:0 4:0 5:0 6:0 7:0 8:0 9:0 10:0 11:0 12:0 13:1 14:0 15:0 16:0 17:0 18:0 19:0 20:0 21:0 22:0 23:0 24:0 25:0 
-0.9765721669349831 -1 -1 -1 1 1 1 0:0 1:0 2:1 3:0 4:0 5:0 6:0 7:0 8:0 9:0 10:0 11:0 12:0 13:0 14:0 15:0 16:1 17:0 18:0 19:0 20:0 21:0 22:0 23:0 24:0 25:0 
-0 -0 -0 -0 0 1 0 0:0 1:0 2:1 3:0 4:0 5:0 6:0 7:0 8:0 9:0 10:0 11:0 12:0 13:0 14:0 15:0 16:1 17:0 18:0 19:0 20:1 21:0 22:0 23:1 24:0 25:0 
-0 -1 -0 -0 0 0.6560861201525821 0 0:0 1:0 2:1 3:0 4:0 5:0 6:0 7:0 8:0 9:0 10:0 11:0 12:0 13:0 14:0 15:0 16:1 17:1 18:0 19:0 20:1 21:0 22:0 23:1 24:0 25:0 
-0.5488248851741823 -0 -0 -0 0.4427522353873453 0 0 0:0 1:0 2:1 3:0 4:0 5:0 6:0 7:1 8:0 9:0 10:0 11:0 12:0 13:0 14:0 15:1 16:1 17:1 18:0 19:0 20:0 21:0 22:0 23:0 24:0 25:0 
-0 -1 -0.9969322756370752 -1 1 1 1 0:0 1:0 2:1 3:0 4:0 5:0 6:0 7:0 8:0 9:0 10:0 11:0 12:0 13:0 14:0 15:0 16:1 17:0 18:0 19:0 20:0 21:0 22:0 23:0 24:0 25:0 
-0 -0 -1 -0 -1 0 0 0:0 1:0 2:0 3:0 4:0 5:0 6:1 7:0 8:0 9:0 10:0 11:1 12:0 13:0 14:1 15:1 16:0 17:0 18:0 19:0 20:0 21:0 22:1 23:0 24:0 25:1 
-0 -1 -0 -0 -0.8611600964209587 1 0 0:0 1:0 2:0 3:0 4:0 5:0 6:0 7:0 8:0 9:0 10:1 11:1 12:1 13:0 14:1 15:0 16:0 17:0 18:0 19:0 20:0 21:0 22:0 23:0 24:0 25:1 
-0 -1 -0 -0 -0 0 0 0:0 1:0 2:0 3:0 4:0 5:0 6:0 7:0 8:0 9:0 10:1 11:1 12:1 13:0 14:1 15:1 16:0 17:0 18:0 19:0 20:0 21:0 22:0 23:0 24:0 25:1 
-1 -0.05175294296358788 -1 -0 -1 0 0 0:0 1:0 2:0 3:0 4:0 5:0 6:1 7:0 8:0 9:0 10:0 11:0 12:0 13:0 14:1 15:1 16:0 17:0 18:0 19:0 20:0 21:0 22:1 23:0 24:1 25:1 
-1 -1 -1 -1 -0 1 1 0:0 1:0 2:0 3:1 4:0 5:0 6:0 7:0 8:0 9:0 10:0 11:0 12:0 13:0 14:0 15:0 16:0 17:0 18:0 19:0 20:0 21:0 22:0 23:0 24:0 25:0 
-1 -1 -1 -1 -1 1 1 0:0 1:0 2:0 3:0 4:0 5:0 6:0 7:0 8:0 9:0 10:0 11:0 12:0 13:0 14:0 15:0 16:0 17:0 18:0 19:0 20:0 21:0 22:0 23:0 24:0 25:0 
-1 -1 -1 -1 -1 1 1 0:0 1:0 2:0 3:0 4:0 5:0 6:0 7:0 8:0 9:0 10:0 11:0 12:0 13:0 14:0 15:0 16:0 17:0 18:0 19:0 20:0 21:0 22:0 23:0 24:0 25:0 
-1 -1 -1 -1 -1 1 1 0:0 1:0 2:0 3:0 4:0 5:0 6:0 7:0 8:0 9:0 10:0 11:0 12:0 13:0 14:0 15:0 16:0 17:0 18:0 19:0 20:0 21:0 22:0 23:0 24:0 25:0 
-0 -0 -1 -1 -1 0 0 0:0 1:1 2:0 3:1 4:0 5:0 6:0 7:0 8:1 9:0 10:0 11:0 12:0 13:1 14:0 15:1 16:0 17:0 18:0 19:0 20:0 21:0 22:0 23:0 24:0 25:0 
-0 -0 -0 -0 -0.2384664793542589 0 0 0:0 1:1 2:0 3:1 4:0 5:0 6:1 7:0 8:0 9:0 10:0 11:0 12:0 13:1 14:1 15:1 16:0 17:0 18:0 19:0 20:0 21:0 22:1 23:0 24:0 25:1 
-0.9438403399633901 -1 -0 -0 -1 1 0.09151187871869264 0:0 1:0 2:0 3:0 4:0 5:0 6:0 7:0 8:0 9:0 10:1 11:1 12:1 13:0 14:1 15:0 16:0 17:0 18:0 19:0 20:0 21:0 22:0 23:0 24:0 25:1 
-1 -0 -1 -1 -1 1 1 0:0 1:0 2:0 3:0 4:0 5:0 6:0 7:0 8:1 9:0 10:0 11:0 12:0 13:0 14:0 15:1 16:0 17:0 18:0 19:0 20:0 21:0 22:0 23:0 24:0 25:0 
-1 -1 -1 -1 -1 1 1 0:0 1:0 2:0 3:0 4:0 5:0 6:0 7:0 8:1 9:0 10:0 11:0 12:0 13:0 14:0 15:0 16:0 17:0 18:0 19:0 20:0 21:0 22:0 23:0 24:0 25:0 
-0 -1 -0 -0 -0 0 0 0:0 1:0 2:0 3:1 4:0 5:0 6:0 7:0 8:0 9:0 10:1 11:1 12:1 13:0 14:1 15:1 16:0 17:0 18:0 19:0 20:0 21:0 22:0 23:0 24:0 25:1 
-0 -1 -0.600567956042768 -1 -1 1 1 0:0 1:1 2:0 3:0 4:0 5:0 6:0 7:0 8:0 9:0 10:0 11:0 12:0 13:1 14:0 15:0 16:1 17:0 18:0 19:0 20:0 21:0 22:0 23:0 24:0 25:0 
-1 -1 -1 -1 -0.03217421743073846 0.4245513991837473 0.6354795509975306 0:0 1:1 2:0 3:1 4:0 5:1 6:0 7:0 8:0 9:1 10:0 11:0 12:0 13:1 14:0 15:0 16:0 17:0 18:0 19:0 20:0 21:0 22:0 23:0 24:0 25:0 
-0 -0 -0 -0 -0.59275823634686 0 0 0:0 1:0 2:0 3:0 4:0 5:0 6:0 7:0 8:0 9:0 10:0 11:0 12:0 13:0 14:1 15:1 16:0 17:0 18:0 19:0 20:0 21:0 22:0 23:0 24:0 25:1 
-0 -1 -0 -0 -0 0 0 0:0 1:0 2:0 3:1 4:0 5:0 6:0 7:0 8:0 9:0 10:0 11:1 12:0 13:0 14:1 15:0 16:0 17:0 18:0 19:0 20:0 21:0 22:0 23:0 24:0 25:1 
-1 -1 -1 -1 -1 1 1 0:0 1:0 2:0 3:0 4:0 5:0 6:0 7:0 8:0 9:0 10:0 11:0 12:0 13:0 14:0 15:1 16:1 17:0 18:0 19:0 20:0 21:0 22:0 23:0 24:0 25:0 
-0 -0 -0 -1 -0 0 0 0:0 1:1 2:0 3:1 4:0 5:0 6:0 7:0 8:0 9:0 10:0 11:0 12:0 13:1 14:1 15:0 16:0 17:0 18:0 19:0 20:0 21:0 22:0 23:0 24:0 25:1 
-0 -0 -0 -0 -0.7429325670515897 0 0 0:0 1:1 2:0 3:0 4:0 5:0 6:0 7:0 8:0 9:0 10:0 11:1 12:0 13:1 14:1 15:0 16:0 17:0 18:0 19:0 20:0 21:0 22:0 23:0 24:0 25:1 
-1 -1 -1 -1 -1 1 1 0:0 1:0 2:0 3:0 4:0 5:0 6:0 7:0 8:0 9:0 10:0 11:0 12:0 13:0 14:0 15:1 16:1 17:0 18:0 19:0 20:0 21:0 22:0 23:0 24:0 25:0 
-1 -0.4925042666937047 -1 -1 -1 1 1 0:0 1:1 2:0 3:0 4:0 5:0 6:0 7:0 8:1 9:0 10:0 11:0 12:0 13:1 14:0 15:0 16:0 17:0 18:0 19:0 20:0 21:0 22:0 23:0 24:0 25:0 
-0 -1 -0 -0 -0 0 0 0:0 1:0 2:0 3:1 4:0 5:0 6:0 7:0 8:0 9:0 10:0 11:0 12:0 13:0 14:1 15:0 16:0 17:0 18:0 19:0 20:0 21:0 22:0 23:0 24:0 25:1 
-0.6127934842936729 -1 -1 -1 -1 1 1 0:0 1:0 2:0 3:1 4:0 5:0 6:0 7:0 8:1 9:0 10:0 11:0 12:0 13:0 14:0 15:0 16:0 17:0 18:0 19:0 20:0 21:0 22:0 23:0 24:0 25:0 
-0 -0 -0 -0 -1 0 0 0:0 1:0 2:0 3:0 4:0 5:0 6:0 7:0 8:0 9:0 10:0 11:0 12:0 13:0 14:1 15:1 16:0 17:0 18:0 19:0 20:0 21:0 22:0 23:0 24:0 25:1 
-0 -1 -0 -0.1637046988645945 -0 0 0 0:0 1:0 2:0 3:1 4:0 5:0 6:0 7:0 8:0 9:0 10:0 11:0 12:0 13:0 14:1 15:0 16:0 17:0 18:0 19:0 20:0 21:0 22:0 23:0 24:0 25:1 
-0 -1 -0 -1 -0 0 0 0:0 1:0 2:0 3:1 4:0 5:0 6:0 7:0 8:0 9:0 10:0 11:0 12:0 13:0 14:0 15:1 16:1 17:0 18:0 19:0 20:0 21:0 22:0 23:0 24:0 25:0 
-0 -1 -0 -1 -0 0 0 0:0 1:0 2:0 3:1 4:0 5:0 6:0 7:0 8:0 9:0 10:0 11:0 12:0 13:0 14:1 15:0 16:0 17:0 18:0 19:0 20:0 21:0 22:0 23:0 24:0 25:1 
-0 -0 -0 -0 -1 0 0 0:0 1:0 2:0 3:0 4:0 5:0 6:0 7:0 8:0 9:0 10:0 11:0 12:0 13:0 14:1 15:1 16:0 17:0 18:0 19:0 20:0 21:0 22:0 23:0 24:0 25:1 
-0 -0 -0 -0 -1 0 0 0:0 1:0 2:0 3:0 4:0 5:0 6:0 7:0 8:0 9:0 10:0 11:0 12:0 13:0 14:1 15:1 16:0 17:0 18:0 19:0 20:0 21:0 22:0 23:0 24:0 25:1 
-0 -1 -0 -1 -0 0 0.2871946799585479 0:0 1:0 2:0 3:1 4:0 5:0 6:0 7:0 8:0 9:0 10:0 11:0 12:0 13:0 14:1 15:0 16:0 17:0 18:0 19:0 20:0 21:0 22:0 23:0 24:0 25:1 
-0 -1 -0 -0 -0 0 0 0:0 1:0 2:0 3:1 4:0 5:0 6:0 7:0 8:0 9:0 10:0 11:1 12:0 13:0 14:0 15:1 16:1 17:0 18:0 19:0 20:0 21:0 22:0 23:0 24:1 25:0 
-0 -1 -1 -1 -1 1 1 0:0 1:0 2:0 3:0 4:0 5:0 6:0 7:0 8:0 9:0 10:0 11:0 12:0 13:0 14:1 15:0 16:0 17:0 18:0 19:0 20:0 21:0 22:0 23:0 24:0 25:1 
-0 -1 -0 -1 -1 1 0.6353966103401647 0:0 1:0 2:0 3:0 4:0 5:0 6:0 7:0 8:0 9:0 10:0 11:1 12:0 13:0 14:0 15:1 16:1 17:0 18:0 19:0 20:0 21:0 22:0 23:0 24:0 25:0 
-1 -1 -1 -1 -1 1 1 0:0 1:0 2:0 3:0 4:0 5:0 6:0 7:0 8:0 9:0 10:0 11:1 12:0 13:0 14:0 15:1 16:0 17:0 18:0 19:0 20:0 21:0 22:0 23:0 24:0 25:0 
-0 -0 -0 -1 -1 0 0 0:0 1:1 2:0 3:0 4:0 5:0 6:0 7:0 8:0 9:0 10:0 11:0 12:0 13:1 14:1 15:0 16:0 17:0 18:0 19:0 20:0 21:0 22:0 23:0 24:0 25:1 
-0.3249945046732073 -0 -0 -0 -0 0 0 0:0 1:0 2:0 3:0 4:0 5:0 6:0 7:0 8:0 9:0 10:1 11:0 12:1 13:0 14:1 15:1 16:0 17:0 18:0 19:0 20:0 21:0 22:0 23:0 24:0 25:1 
-1 -1 -0.7125787498198385 -1 -0.5254948328492107 0.265917963703019 0 0:1 1:0 2:0 3:1 4:0 5:0 6:0 7:0 8:0 9:0 10:1 11:0 12:1 13:0 14:0 15:0 16:1 17:0 18:0 19:0 20:0 21:0 22:0 23:0 24:0 25:0 
-0 -1 -1 -1 -1 1 1 0:0 1:0 2:0 3:0 4:0 5:0 6:0 7:0 8:0 9:0 10:0 11:0 12:0 13:0 14:1 15:0 16:0 17:0 18:0 19:0 20:0 21:0 22:0 23:0 24:0 25:1 
-1 -1 -1 -1 -1 1 1 0:0 1:0 2:0 3:0 4:0 5:0 6:0 7:0 8:0 9:0 10:0 11:1 12:0 13:0 14:0 15:0 16:1 17:0 18:0 19:0 20:0 21:0 22:0 23:0 24:0 25:0 
-0 -1 -0 -0 -0 0 0 0:1 1:0 2:0 3:1 4:0 5:0 6:0 7:0 8:0 9:0 10:0 11:0 12:0 13:0 14:1 15:0 16:0 17:0 18:0 19:0 20:0 21:0 22:0 23:0 24:1 25:1 
-1 -1 -0 -1 -1 1 1 0:0 1:1 2:0 3:0 4:0 5:0 6:0 7:0 8:0 9:0 10:0 11:0 12:0 13:1 14:0 15:0 16:1 17:0 18:0 19:0 20:0 21:0 22:0 23:0 24:1 25:0 
-0 -1 -0 -0 -0 0.4339912942176706 0.8866662236031255 0:0 1:0 2:0 3:1 4:0 5:0 6:0 7:0 8:0 9:0 10:0 11:0 12:0 13:0 14:1 15:0 16:0 17:0 18:0 19:0 20:0 21:0 22:0 23:0 24:1 25:1 
-1 -0 -0 -0 -0 0 0 0:0 1:0 2:0 3:0 4:0 5:0 6:0 7:0 8:0 9:0 10:1 11:0 12:1 13:0 14:1 15:1 16:0 17:0 18:0 19:0 20:0 21:0 22:0 23:0 24:0 25:1 
-0 -1 -1 -1 -1 1 1 0:0 1:0 2:0 3:0 4:0 5:0 6:0 7:0 8:0 9:0 10:0 11:0 12:0 13:0 14:1 15:0 16:0 17:0 18:0 19:0 20:0 21:0 22:0 23:0 24:0 25:1 
-1 -0 -0 -0 -0 0 0 0:0 1:0 2:0 3:0 4:0 5:0 6:0 7:0 8:0 9:0 10:1 11:0 12:1 13:0 14:1 15:1 16:0 17:0 18:0 19:0 20:0 21:0 22:0 23:0 24:0 25:1 
-1 -1 -1 -1 -1 1 1 0:0 1:0 2:0 3:0 4:0 5:0 6:0 7:0 8:0 9:0 10:0 11:0 12:0 13:0 14:0 15:0 16:0 17:0 18:0 19:0 20:0 21:0 22:0 23:0 24:0 25:0 
-0.3695476506692572 -1 -0.1805813261579559 -1 -0 1 1 0:0 1:0 2:0 3:0 4:0 5:0 6:0 7:0 8:0 9:0 10:0 11:0 12:0 13:0 14:1 15:0 16:0 17:0 18:0 19:0 20:0 21:0 22:0 23:0 24:1 25:1 
-1 -0 -1 -1 -1 1 1 0:1 1:0 2:0 3:0 4:0 5:0 6:0 7:0 8:1 9:0 10:0 11:0 12:0 13:0 14:0 15:1 16:0 17:0 18:0 19:0 20:0 21:0 22:0 23:0 24:0 25:0 
-1 -1 -1 -1 -1 1 1 0:1 1:0 2:0 3:0 4:0 5:0 6:0 7:1 8:0 9:0 10:0 11:0 12:0 13:0 14:0 15:0 16:0 17:0 18:0 19:0 20:0 21:0 22:0 23:0 24:0 25:0 
-0 -1 -0 -0 -0 0 0 0:1 1:0 2:0 3:1 4:0 5:0 6:0 7:0 8:0 9:0 10:0 11:0 12:0 13:0 14:1 15:0 16:0 17:0 18:0 19:0 20:0 21:0 22:0 23:0 24:1 25:1 
-0 -0 -0 -0 -0.20315398343122 0 0 0:1 1:0 2:0 3:0 4:0 5:0 6:0 7:0 8:0 9:0 10:0 11:0 12:0 13:0 14:1 15:1 16:0 17:0 18:0 19:0 20:0 21:0 22:0 23:0 24:0 25:1 
-0 -0 -0 -1 -1 0 0 0:0 1:1 2:0 3:0 4:0 5:0 6:0 7:0 8:0 9:0 10:0 11:0 12:0 13:1 14:1 15:0 16:0 17:0 18:0 19:0 20:0 21:0 22:0 23:0 24:0 25:1 
-0 -0 -1 -1 -1 0 0.2685124133388206 0:1 1:1 2:0 3:0 4:0 5:0 6:0 7:0 8:1 9:0 10:0 11:1 12:0 13:1 14:0 15:0 16:0 17:0 18:0 19:0 20:0 21:0 22:0 23:0 24:0 25:0 
-1 -0 -0.1708669122901888 -0 -1 0 0 0:1 1:0 2:0 3:0 4:0 5:1 6:0 7:0 8:0 9:1 10:0 11:1 12:0 13:0 14:1 15:0 16:0 17:0 18:0 19:0 20:0 21:0 22:0 23:0 24:0 25:1 
-0 -0 -0 -0 -1 0 0 0:0 1:0 2:0 3:0 4:0 5:0 6:0 7:0 8:0 9:0 10:0 11:0 12:0 13:0 14:1 15:1 16:0 17:0 18:0 19:0 20:0 21:0 22:0 23:0 24:0 25:1 
-0 -1 -0 -1 -0 1 0 0:0 1:0 2:0 3:1 4:0 5:0 6:0 7:0 8:0 9:0 10:1 11:1 12:1 13:0 14:0 15:0 16:1 17:0 18:0 19:0 20:0 21:0 22:0 23:0 24:0 25:0 
-1 -1 -1 -1 -1 1 1 0:0 1:0 2:0 3:0 4:0 5:0 6:0 7:0 8:0 9:0 10:0 11:0 12:0 13:0 14:0 15:0 16:0 17:0 18:0 19:0 20:0 21:0 22:0 23:0 24:0 25:0 
-0 -1 -0 -1 -1 1 1 0:1 1:0 2:0 3:1 4:0 5:0 6:0 7:0 8:0 9:0 10:0 11:0 12:0 13:0 14:0 15:0 16:1 17:0 18:0 19:0 20:0 21:0 22:0 23:0 24:0 25:0 
-1 -1 -1 -1 -1 1 1 0:0 1:0 2:1 3:0 4:0 5:0 6:0 7:0 8:0 9:0 10:0 11:1 12:0 13:0 14:0 15:0 16:1 17:0 18:0 19:0 20:0 21:0 22:0 23:0 24:0 25:0 
-0.6592957531820047 -1 -1 -1 -1 1 1 0:0 1:0 2:0 3:0 4:0 5:0 6:0 7:0 8:1 9:0 10:0 11:1 12:0 13:0 14:0 15:1 16:0 17:0 18:0 19:0 20:0 21:0 22:0 23:0 24:0 25:0 
-0.8477754452511403 -0.3265443700247638 -0.6436905436993796 -0.9402330520323549 -1 0 0 0:0 1:1 2:0 3:1 4:0 5:0 6:1 7:0 8:0 9:0 10:0 11:1 12:0 13:1 14:0 15:1 16:0 17:0 18:0 19:0 20:0 21:0 22:1 23:0 24:0 25:0 
-1 -1 -1 -1 -1 1 1 0:0 1:1 2:0 3:0 4:0 5:0 6:0 7:0 8:1 9:0 10:0 11:0 12:0 13:1 14:0 15:0 16:0 17:0 18:0 19:0 20:0 21:0 22:0 23:0 24:1 25:0 
-1 -1 -1 -1 -1 1 1 0:0 1:0 2:0 3:0 4:0 5:0 6:0 7:0 8:0 9:0 10:1 11:0 12:1 13:0 14:0 15:1 16:1 17:0 18:0 19:0 20:0 21:0 22:0 23:0 24:0 25:0 
-1 -1 -0 -0 -1 0 0 0:0 1:1 2:0 3:0 4:0 5:0 6:0 7:0 8:0 9:0 10:0 11:0 12:0 13:1 14:1 15:1 16:0 17:1 18:0 19:1 20:0 21:0 22:0 23:0 24:1 25:1 
-1 -1 -1 -1 -0 1 1 0:0 1:0 2:0 3:1 4:0 5:0 6:0 7:0 8:0 9:0 10:0 11:0 12:0 13:0 14:0 15:0 16:0 17:0 18:0 19:0 20:0 21:0 22:0 23:0 24:0 25:0 
-1 -1 -0.9119876245024037 -0 -0.6826950643317258 1 1 0:1 1:0 2:0 3:0 4:0 5:0 6:0 7:0 8:0 9:0 10:0 11:0 12:0 13:0 14:1 15:0 16:0 17:0 18:0 19:0 20:0 21:0 22:0 23:0 24:1 25:1 
-1 -1 -1 -1 -0.06492900766702064 1 1 0:0 1:0 2:0 3:1 4:0 5:0 6:0 7:0 8:0 9:0 10:0 11:0 12:0 13:0 14:0 15:0 16:0 17:0 18:0 19:0 20:0 21:0 22:0 23:0 24:0 25:0 
-0 -0 -0 -0 -0.7464986985130659 0 0 0:0 1:1 2:0 3:0 4:0 5:0 6:0 7:0 8:0 9:0 10:0 11:1 12:0 13:1 14:1 15:0 16:0 17:0 18:0 19:0 20:0 21:0 22:0 23:0 24:0 25:1 
-0.493356402760713 -1 -0 -0.7461572086333764 -0 0 0 0:0 1:0 2:0 3:1 4:0 5:0 6:0 7:0 8:0 9:0 10:1 11:0 12:1 13:0 14:0 15:1 16:1 17:0 18:0 19:0 20:0 21:0 22:0 23:0 24:0 25:0 
-1 -1 -1 -1 -1 1 1 0:0 1:1 2:0 3:0 4:0 5:0 6:0 7:0 8:0 9:0 10:0 11:0 12:0 13:1 14:0 15:0 16:0 17:0 18:0 19:0 20:0 21:0 22:0 23:0 24:0 25:0 
-1 -1 -1 -1 -1 1 1 0:0 1:0 2:0 3:0 4:0 5:0 6:0 7:0 8:0 9:0 10:0 11:0 12:0 13:0 14:0 15:0 16:0 17:0 18:0 19:0 20:0 21:0 22:0 23:0 24:0 25:0 
-1 -1 -1 -1 -1 1 1 0:0 1:0 2:0 3:0 4:0 5:0 6:0 7:0 8:0 9:0 10:0 11:0 12:0 13:0 14:0 15:1 16:1 17:0 18:0 19:0 20:1 21:0 22:0 23:1 24:0 25:0 
-1 -0.2114157692123825 -0 -0 -0 0 0 0:0 1:0 2:0 3:0 4:0 5:0 6:0 7:0 8:0 9:0 10:1 11:0 12:1 13:0 14:1 15:1 16:0 17:0 18:0 19:0 20:0 21:0 22:0 23:0 24:0 25:1 
-0 -0 -0 -0 -0 0 0.6152572350513278 0:0 1:0 2:0 3:0 4:0 5:0 6:0 7:0 8:0 9:0 10:0 11:0 12:0 13:0 14:1 15:1 16:0 17:0 18:0 19:0 20:0 21:0 22:0 23:0 24:1 25:1 
-1 -1 -1 -1 -1 1 1 0:0 1:0 2:0 3:1 4:0 5:0 6:0 7:0 8:0 9:0 10:0 11:0 12:0 13:0 14:0 15:0 16:0 17:0 18:0 19:0 20:0 21:0 22:0 23:0 24:0 25:0 
-0 -0 -0 -1 -1 0 0 0:1 1:1 2:0 3:0 4:0 5:0 6:0 7:0 8:0 9:0 10:0 11:0 12:0 13:1 14:0 15:1 16:1 17:0 18:0 19:0 20:0 21:0 22:0 23:0 24:0 25:0 
-0 -0 -0 -1 -0.6471230146828415 1 0 0:0 1:1 2:0 3:0 4:0 5:0 6:0 7:0 8:0 9:0 10:0 11:1 12:0 13:1 14:0 15:1 16:0 17:0 18:0 19:0 20:0 21:0 22:0 23:0 24:0 25:0 
-0 -0 -0 -0.8994429351895148 -0 0 0 0:0 1:1 2:0 3:1 4:0 5:0 6:0 7:0 8:0 9:0 10:0 11:0 12:0 13:1 14:1 15:0 16:0 17:0 18:0 19:0 20:0 21:0 22:0 23:0 24:0 25:1 
-0 -1 -0 -1 -0 0 0 0:0 1:1 2:0 3:1 4:0 5:0 6:0 7:0 8:0 9:0 10:0 11:1 12:0 13:1 14:0 15:0 16:1 17:0 18:0 19:0 20:0 21:0 22:0 23:0 24:0 25:0 
-0 -1 -0 -0 -1 1 1 0:0 1:0 2:0 3:0 4:0 5:0 6:0 7:0 8:0 9:0 10:0 11:1 12:0 13:0 14:1 15:0 16:0 17:0 18:0 19:0 20:0 21:0 22:0 23:0 24:0 25:1 
-0 -1 -0 -0 -0 0 0 0:0 1:1 2:0 3:1 4:0 5:0 6:0 7:0 8:0 9:0 10:1 11:0 12:1 13:1 14:1 15:0 16:0 17:0 18:0 19:0 20:0 21:0 22:0 23:0 24:0 25:1 
-1 -1 -1 -1 -1 1 1 0:0 1:0 2:0 3:1 4:0 5:0 6:0 7:0 8:0 9:0 10:0 11:0 12:0 13:0 14:0 15:0 16:0 17:0 18:0 19:0 20:0 21:0 22:0 23:0 24:0 25:0 
-1 -1 -1 -1 -1 1 1 0:0 1:0 2:0 3:0 4:0 5:0 6:0 7:0 8:0 9:0 10:0 11:0 12:0 13:0 14:0 15:0 16:0 17:0 18:0 19:0 20:0 21:0 22:0 23:0 24:0 25:0 
-1 -1 -1 -1 -1 1 1 0:1 1:0 2:0 3:0 4:0 5:1 6:0 7:0 8:0 9:1 10:0 11:0 12:0 13:0 14:0 15:0 16:0 17:1 18:0 19:0 20:0 21:0 22:0 23:0 24:0 25:0 
-1 -1 -0 -0 -0.9151576187896563 -0 0.7168385900987466 0:0 1:0 2:0 3:0 4:0 5:0 6:0 7:0 8:0 9:0 10:0 11:0 12:0 13:0 14:0 15:0 16:0 17:1 18:0 19:1 20:0 21:0 22:0 23:0 24:1 25:0 
-1 -1 -0 -0 -0 -0 0 0:0 1:0 2:0 3:0 4:0 5:0 6:0 7:0 8:0 9:0 10:1 11:0 12:1 13:0 14:0 15:0 16:0 17:0 18:0 19:1 20:0 21:0 22:0 23:0 24:0 25:0 
-1 -0 -0 -0 -1 -0 0 0:0 1:0 2:0 3:0 4:0 5:0 6:0 7:0 8:0 9:0 10:0 11:0 12:0 13:0 14:0 15:0 16:0 17:0 18:1 19:0 20:1 21:0 22:0 23:1 24:0 25:0 
-1 -1 -0 -1 -0 -0 1 0:0 1:0 2:0 3:0 4:0 5:0 6:0 7:0 8:0 9:0 10:0 11:0 12:0 13:0 14:0 15:0 16:0 17:0 18:0 19:0 20:0 21:0 22:0 23:0 24:1 25:0 
-1 -1 -0.1488056188658269 -0 -0.9571417966497687 -0 1 0:0 1:0 2:0 3:0 4:0 5:0 6:0 7:0 8:0 9:0 10:0 11:0 12:0 13:0 14:0 15:0 16:0 17:1 18:0 19:1 20:0 21:0 22:0 23:0 24:1 25:0 
-0 -0 -0 -1 -0 -0 1 0:0 1:0 2:0 3:0 4:0 5:0 6:0 7:0 8:0 9:0 10:0 11:0 12:0 13:0 14:0 15:0 16:0 17:0 18:0 19:1 20:0 21:0 22:0 23:0 24:0 25:0 
-1 -1 -1 -1 -0 -0.7539628243705184 1 0:0 1:0 2:0 3:0 4:0 5:0 6:0 7:0 8:0 9:0 10:0 11:0 12:0 13:0 14:0 15:0 16:0 17:0 18:1 19:0 20:0 21:0 22:0 23:0 24:1 25:0 
-1 -1 -1 -0 -1 -0.6805198990604694 0.7913580136693378 0:0 1:0 2:0 3:0 4:1 5:0 6:0 7:0 8:0 9:0 10:0 11:0 12:0 13:0 14:0 15:0 16:0 17:0 18:0 19:0 20:1 21:1 22:0 23:1 24:1 25:0 
-1 -0 -1 -0 -0 -0 1 0:0 1:0 2:0 3:0 4:0 5:0 6:0 7:0 8:0 9:0 10:0 11:0 12:0 13:0 14:0 15:0 16:0 17:0 18:1 19:1 20:0 21:0 22:0 23:0 24:0 25:0 
-0 -0 -0 -1 -0 -0 1 0:0 1:0 2:0 3:0 4:0 5:0 6:0 7:0 8:0 9:0 10:0 11:0 12:0 13:0 14:0 15:0 16:0 17:0 18:0 19:0 20:0 21:0 22:0 23:0 24:0 25:0 
-0 -0 -0 -1 -0 -0 1 0:0 1:0 2:0 3:0 4:0 5:0 6:0 7:0 8:0 9:0 10:0 11:0 12:0 13:0 14:0 15:0 16:0 17:0 18:0 19:0 20:0 21:0 22:0 23:0 24:0 25:0 
-1 -0.3619545135598022 -1 -0 -1 -0 0 0:0 1:0 2:0 3:0 4:1 5:0 6:0 7:1 8:0 9:0 10:0 11:0 12:0 13:0 14:0 15:0 16:0 17:0 18:0 19:1 20:0 21:1 22:0 23:0 24:0 25:0 
-1 -0 -0.7873046729589511 -1 -1 -0 1 0:0 1:0 2:0 3:0 4:0 5:0 6:0 7:1 8:0 9:0 10:0 11:0 12:0 13:0 14:0 15:0 16:0 17:0 18:0 19:1 20:0 21:0 22:0 23:0 24:0 25:0 
-0 -0 -0 -1 -0 -0 1 0:0 1:0 2:0 3:0 4:0 5:0 6:0 7:0 8:0 9:0 10:0 11:0 12:0 13:0 14:0 15:0 16:0 17:0 18:0 19:1 20:0 21:0 22:0 23:0 24:0 25:0 
-1 -0 -1 -1 -1 -0.6710500336845152 1 0:0 1:0 2:0 3:0 4:1 5:0 6:0 7:0 8:0 9:0 10:0 11:0 12:0 13:0 14:0 15:0 16:0 17:0 18:0 19:0 20:0 21:1 22:0 23:0 24:0 25:0 
-1 -1 -0.8765250991849469 -0 -0 -0 0 0:0 1:0 2:0 3:0 4:0 5:0 6:0 7:0 8:0 9:0 10:1 11:0 12:1 13:0 14:0 15:0 16:0 17:0 18:0 19:1 20:0 21:0 22:0 23:0 24:0 25:0 
-1 -0 -1 -1 -0 -0 1 0:0 1:0 2:0 3:0 4:0 5:0 6:0 7:0 8:0 9:0 10:0 11:0 12:0 13:0 14:0 15:0 16:0 17:0 18:1 19:0 20:0 21:0 22:0 23:0 24:0 25:0 
-1 -0 -1 -1 -0 -0 1 0:0 1:0 2:0 3:0 4:0 5:0 6:0 7:0 8:0 9:0 10:0 11:0 12:0 13:0 14:0 15:0 16:0 17:0 18:1 19:0 20:0 21:0 22:0 23:0 24:0 25:0 
-0 -0 -0 -1 -0 -0 1 0:0 1:0 2:0 3:0 4:0 5:0 6:0 7:0 8:0 9:0 10:0 11:0 12:0 13:0 14:0 15:0 16:0 17:0 18:0 19:0 20:0 21:0 22:0 23:0 24:0 25:0 
-0 -0 -0 -1 -1 -0 1 0:0 1:0 2:0 3:0 4:0 5:0 6:0 7:0 8:0 9:0 10:0 11:0 12:0 13:0 14:0 15:0 16:0 17:0 18:0 19:0 20:1 21:0 22:0 23:1 24:0 25:0 
-1 -1 -0.03161697433615637 -1 -1 -1 1 0:0 1:0 2:0 3:0 4:0 5:0 6:0 7:0 8:0 9:0 10:1 11:0 12:1 13:0 14:0 15:0 16:0 17:0 18:0 19:0 20:0 21:0 22:0 23:0 24:0 25:0 
-0 -0 -0 -1 -1 -0 1 0:0 1:0 2:0 3:0 4:0 5:0 6:0 7:0 8:0 9:0 10:0 11:0 12:0 13:0 14:0 15:0 16:0 17:0 18:0 19:0 20:1 21:0 22:0 23:1 24:0 25:0 
-0 -0 -0 -1 -0 -0 1 0:0 1:0 2:0 3:0 4:0 5:0 6:0 7:0 8:0 9:0 10:0 11:0 12:0 13:0 14:0 15:0 16:0 17:0 18:0 19:0 20:0 21:0 22:0 23:0 24:0 25:0 
-0 -0 -0 -1 -1 -0 1 0:0 1:0 2:0 3:0 4:0 5:0 6:0 7:0 8:0 9:0 10:0 11:0 12:0 13:0 14:0 15:0 16:0 17:0 18:0 19:0 20:1 21:0 22:0 23:1 24:0 25:0 
-0 -0 -0 -1 -0 -0 1 0:0 1:0 2:0 3:0 4:0 5:0 6:0 7:0 8:0 9:0 10:0 11:0 12:0 13:0 14:0 15:0 16:0 17:0 18:0 19:0 20:0 21:0 22:0 23:0 24:0 25:0 
-0 -0 -0 -1 -0 -0 1 0:0 1:0 2:0 3:0 4:0 5:0 6:0 7:0 8:0 9:0 10:0 11:0 12:0 13:0 14:0 15:0 16:0 17:0 18:0 19:0 20:0 21:0 22:0 23:0 24:0 25:0 
-0 -0 -0 -1 -0 -0 1 0:0 1:0 2:0 3:0 4:0 5:0 6:0 7:0 8:0 9:0 10:0 11:0 12:0 13:0 14:0 15:0 16:0 17:0 18:0 19:0 20:0 21:0 22:0 23:0 24:0 25:0 
-0 -0 -0 -1 -0 -0 1 0:0 1:0 2:0 3:0 4:0 5:0 6:0 7:0 8:0 9:0 10:0 11:0 12:0 13:0 14:0 15:0 16:0 17:0 18:0 19:0 20:0 21:0 22:0 23:0 24:0 25:0 
-1 -0 -1 -1 -1 -1 1 0:0 1:0 2:0 3:0 4:0 5:0 6:0 7:1 8:0 9:0 10:0 11:0 12:0 13:0 14:0 15:0 16:0 17:0 18:0 19:0 20:0 21:0 22:0 23:0 24:0 25:0 
-0 -1 -0 -1 -1 -1 1 0:0 1:0 2:0 3:0 4:0 5:0 6:0 7:0 8:0 9:0 10:0 11:1 12:0 13:0 14:0 15:0 16:0 17:0 18:0 19:0 20:0 21:0 22:0 23:0 24:0 25:0 
-1 -0 -0.8251879775023623 -0 -1 -0 0.09650864221904998 0:0 1:0 2:0 3:0 4:0 5:0 6:0 7:0 8:0 9:0 10:0 11:0 12:0 13:0 14:0 15:0 16:0 17:0 18:1 19:0 20:1 21:0 22:0 23:1 24:0 25:0 
-0 -0 -1 -1 -0 -0 1 0:0 1:0 2:0 3:0 4:0 5:0 6:0 7:0 8:0 9:0 10:0 11:0 12:0 13:0 14:0 15:0 16:0 17:0 18:0 19:0 20:0 21:0 22:0 23:0 24:0 25:0 
-0 -0 -1 -1 -0 -0 1 0:0 1:0 2:0 3:0 4:0 5:0 6:0 7:0 8:0 9:0 10:0 11:0 12:0 13:0 14:0 15:0 16:0 17:0 18:0 19:0 20:0 21:0 22:0 23:0 24:0 25:0 
-0 -1 -0 -0 -0 -0 0 0:0 1:0 2:0 3:0 4:0 5:0 6:0 7:0 8:0 9:0 10:0 11:1 12:0 13:0 14:0 15:0 16:0 17:0 18:0 19:1 20:0 21:0 22:0 23:0 24:0 25:0 
-1 -0 -1 -1 -0.01945776025112626 -0 1 0:0 1:0 2:0 3:0 4:0 5:0 6:0 7:0 8:0 9:0 10:0 11:0 12:0 13:0 14:0 15:0 16:0 17:0 18:1 19:0 20:0 21:0 22:0 23:0 24:0 25:0 
-0 -0 -0 -1 -0 -0 1 0:0 1:0 2:0 3:0 4:0 5:0 6:0 7:0 8:0 9:0 10:0 11:0 12:0 13:0 14:0 15:0 16:0 17:0 18:0 19:1 20:0 21:0 22:0 23:0 24:0 25:0 
-0 -0 -0 -1 -0 -0 1 0:0 1:0 2:0 3:0 4:0 5:0 6:0 7:0 8:0 9:0 10:0 11:0 12:0 13:0 14:0 15:0 16:0 17:0 18:0 19:1 20:0 21:0 22:0 23:0 24:0 25:0 
-1 -0.4358262194343194 -1 -0 -0 -0 0.5318515930015898 0:0 1:0 2:0 3:0 4:0 5:0 6:0 7:0 8:0 9:0 10:0 11:0 12:0 13:0 14:0 15:0 16:0 17:0 18:1 19:1 20:0 21:0 22:0 23:0 24:0 25:0 
-1 -1 -0 -0 -0 -0.9071913655324421 0 0:0 1:0 2:0 3:0 4:0 5:0 6:0 7:0 8:0 9:0 10:1 11:0 12:1 13:0 14:0 15:0 16:0 17:0 18:0 19:1 20:0 21:0 22:0 23:0 24:0 25:0 
-0.3794057829794469 -1 -0 -1 -1 -1 0 0:0 1:0 2:0 3:0 4:0 5:0 6:0 7:0 8:0 9:0 10:0 11:1 12:0 13:0 14:0 15:0 16:0 17:0 18:0 19:0 20:1 21:0 22:0 23:1 24:0 25:0 
-0 -0 -0 -1 -1 -0 1 0:0 1:0 2:0 3:0 4:0 5:0 6:0 7:0 8:0 9:0 10:0 11:0 12:0 13:0 14:0 15:0 16:0 17:0 18:0 19:0 20:1 21:0 22:0 23:1 24:0 25:0 
-0 -0.541619402944074 -1 -1 -0 -1 1 0:0 1:0 2:0 3:0 4:0 5:0 6:0 7:0 8:0 9:0 10:0 11:0 12:0 13:0 14:0 15:0 16:0 17:0 18:0 19:0 20:0 21:0 22:0 23:0 24:0 25:0 
-0 -0 -0 -1 -1 -0 1 0:0 1:0 2:0 3:0 4:0 5:0 6:0 7:0 8:0 9:0 10:0 11:0 12:0 13:0 14:0 15:0 16:0 17:0 18:0 19:0 20:1 21:0 22:0 23:1 24:0 25:0 
-1 -0.7007477059368743 -1 -1 -1 -1 1 0:0 1:0 2:0 3:0 4:0 5:0 6:0 7:1 8:0 9:0 10:0 11:0 12:0 13:0 14:0 15:0 16:0 17:0 18:0 19:0 20:0 21:0 22:0 23:0 24:0 25:0 
-0 -1 -0 -1 -1 -1 1 0:0 1:0 2:0 3:0 4:0 5:0 6:0 7:0 8:0 9:0 10:0 11:1 12:0 13:0 14:0 15:0 16:0 17:0 18:0 19:0 20:0 21:0 22:0 23:0 24:0 25:0 
-0.7109867570198921 -0 -0 -1 -1 -0 1 0:0 1:0 2:0 3:0 4:0 5:0 6:0 7:0 8:0 9:0 10:0 11:0 12:0 13:0 14:0 15:0 16:0 17:0 18:0 19:0 20:1 21:0 22:0 23:1 24:0 25:0 
-0.3165623105313347 -0 -0 -0 -0 -0 0 0:0 1:0 2:0 3:0 4:0 5:0 6:0 7:0 8:0 9:0 10:0 11:0 12:0 13:0 14:0 15:0 16:0 17:0 18:0 19:1 20:1 21:0 22:0 23:1 24:0 25:0 
-0 -1 -1 -1 -0 -1 1 0:0 1:0 2:0 3:0 4:0 5:0 6:0 7:0 8:0 9:0 10:0 11:0 12:0 13:0 14:0 15:0 16:0 17:0 18:0 19:0 20:0 21:0 22:0 23:0 24:0 25:0 
-0 -1 -1 -1 -0 -1 1 0:0 1:0 2:0 3:0 4:0 5:0 6:0 7:0 8:0 9:0 10:0 11:0 12:0 13:0 14:0 15:0 16:0 17:0 18:0 19:0 20:0 21:0 22:0 23:0 24:0 25:0 
-0 -1 -1 -1 -0 -1 1 0:0 1:0 2:0 3:0 4:0 5:0 6:0 7:0 8:0 9:0 10:0 11:0 12:0 13:0 14:0 15:0 16:0 17:0 18:0 19:0 20:0 21:0 22:0 23:0 24:0 25:0 
-0 -1 -1 -1 -0 -1 1 0:0 1:0 2:0 3:0 4:0 5:0 6:0 7:0 8:0 9:0 10:0 11:0 12:0 13:0 14:0 15:0 16:0 17:0 18:0 19:0 20:0 21:0 22:0 23:0 24:0 25:0 
-0 -1 -1 -1 -0 -1 1 0:0 1:0 2:0 3:0 4:0 5:0 6:0 7:0 8:0 9:0 10:0 11:0 12:0 13:0 14:0 15:0 16:0 17:0 18:0 19:0 20:0 21:0 22:0 23:0 24:0 25:0 
-0 -0 -0 -1 -0 -0 1 0:0 1:0 2:0 3:0 4:0 5:0 6:0 7:0 8:0 9:0 10:0 11:0 12:0 13:0 14:0 15:0 16:0 17:0 18:0 19:1 20:0 21:0 22:0 23:0 24:0 25:0 
-0 -1 -1 -1 -0 -1 1 0:0 1:0 2:0 3:0 4:0 5:0 6:0 7:0 8:0 9:0 10:0 11:0 12:0 13:0 14:0 15:0 16:0 17:0 18:0 19:0 20:0 21:0 22:0 23:0 24:0 25:0 
-1 -0.1488541449600171 -1 -1 -0.4635866927125499 -0 1 0:0 1:0 2:0 3:0 4:0 5:0 6:0 7:1 8:0 9:0 10:0 11:0 12:0 13:0 14:0 15:0 16:0 17:0 18:0 19:1 20:0 21:0 22:0 23:0 24:0 25:0 
-0 -1 -1 -1 -1 -1 1 0:0 1:0 2:0 3:0 4:0 5:0 6:0 7:0 8:0 9:0 10:0 11:0 12:0 13:0 14:0 15:0 16:0 17:0 18:0 19:0 20:0 21:0 22:0 23:0 24:0 25:0 
-0 -0 -0 -1 -0 -0 1 0:0 1:0 2:0 3:0 4:0 5:0 6:0 7:0 8:0 9:0 10:0 11:0 12:0 13:0 14:0 15:0 16:0 17:0 18:0 19:1 20:0 21:0 22:0 23:0 24:0 25:0 
-0 -1 -1 -1 -1 -1 1 0:0 1:0 2:0 3:0 4:0 5:0 6:0 7:0 8:0 9:0 10:0 11:0 12:0 13:0 14:0 15:0 16:0 17:0 18:0 19:0 20:0 21:0 22:0 23:0 24:0 25:0 
-1 -1 -1 -1 -1 -1 1 0:0 1:0 2:0 3:0 4:0 5:0 6:0 7:0 8:0 9:0 10:0 11:0 12:0 13:0 14:0 15:0 16:0 17:0 18:0 19:0 20:0 21:0 22:0 23:0 24:0 25:0 
-1 -1 -1 -1 -1 -1 1 0:0 1:0 2:0 3:0 4:0 5:0 6:0 7:0 8:0 9:0 10:1 11:0 12:1 13:0 14:0 15:0 16:0 17:0 18:0 19:0 20:0 21:0 22:0 23:0 24:0 25:0 
-1 -1 -1 -1 -1 -1 1 0:0 1:0 2:0 3:0 4:0 5:0 6:0 7:0 8:0 9:0 10:0 11:0 12:0 13:0 14:0 15:0 16:0 17:0 18:0 19:0 20:0 21:0 22:0 23:0 24:0 25:0 
-1 -1 -1 -1 -1 -1 1 0:0 1:0 2:0 3:0 4:0 5:0 6:0 7:0 8:0 9:0 10:0 11:0 12:0 13:0 14:0 15:0 16:0 17:0 18:0 19:0 20:0 21:0 22:0 23:0 24:0 25:0 
-1 -1 -0 -1 -0 -0.9111600143121683 1 0:0 1:0 2:0 3:0 4:0 5:0 6:0 7:0 8:0 9:0 10:0 11:0 12:0 13:0 14:0 15:0 16:0 17:0 18:0 19:0 20:0 21:0 22:0 23:0 24:1 25:0 
-1 -1 -0 -1 -0 -1 1 0:0 1:0 2:0 3:0 4:0 5:0 6:0 7:0 8:0 9:0 10:0 11:0 12:0 13:0 14:0 15:0 16:0 17:0 18:0 19:0 20:0 21:0 22:0 23:0 24:1 25:0 
-1 -1 -1 -1 -1 -1 1 0:0 1:0 2:0 3:0 4:0 5:0 6:0 7:0 8:0 9:0 10:0 11:0 12:0 13:0 14:0 15:0 16:0 17:0 18:0 19:0 20:0 21:0 22:0 23:0 24:0 25:0 
-0 -0 -0 -1 -0 -0 1 0:0 1:0 2:0 3:0 4:0 5:0 6:0 7:0 8:0 9:0 10:0 11:0 12:0 13:0 14:0 15:0 16:0 17:0 18:0 19:1 20:0 21:0 22:0 23:0 24:0 25:0 
-1 -1 -0 -1 -0 -1 1 0:0 1:0 2:0 3:0 4:0 5:0 6:0 7:0 8:0 9:0 10:0 11:0 12:0 13:0 14:0 15:0 16:0 17:0 18:0 19:0 20:0 21:0 22:0 23:0 24:1 25:0 
-1 -0.240233973549095 -1 -1 -1 -0.03437279866503234 1 0:0 1:0 2:0 3:0 4:0 5:0 6:0 7:0 8:0 9:0 10:0 11:0 12:0 13:0 14:0 15:0 16:0 17:0 18:1 19:0 20:0 21:0 22:0 23:0 24:0 25:0 
-0 -1 -0 -1 -1 -1 1 0:0 1:0 2:0 3:0 4:0 5:0 6:0 7:0 8:0 9:0 10:0 11:1 12:0 13:0 14:0 15:0 16:0 17:0 18:0 19:0 20:0 21:0 22:0 23:0 24:0 25:0 
-1 -1 -1 -1 -1 -1 1 0:0 1:0 2:0 3:0 4:0 5:0 6:0 7:0 8:0 9:0 10:0 11:0 12:0 13:0 14:0 15:0 16:0 17:0 18:0 19:0 20:0 21:0 22:0 23:0 24:0 25:0 
-1 -0 -0 -1 -1 -0 1 0:0 1:0 2:0 3:0 4:0 5:0 6:0 7:0 8:0 9:0 10:0 11:0 12:0 13:0 14:0 15:0 16:0 17:0 18:0 19:0 20:1 21:0 22:0 23:1 24:0 25:0 
-0 -0 -0 -1 -0 -0 1 0:0 1:0 2:0 3:0 4:0 5:0 6:0 7:0 8:0 9:0 10:0 11:0 12:0 13:0 14:0 15:0 16:0 17:0 18:0 19:1 20:0 21:0 22:0 23:0 24:0 25:0 
-1 -1 -0.9378602914625394 -1 -1 -1 1 0:0 1:0 2:0 3:0 4:0 5:0 6:0 7:0 8:0 9:0 10:0 11:0 12:0 13:0 14:0 15:0 16:1 17:0 18:0 19:1 20:0 21:0 22:0 23:0 24:0 25:0 
-1 -1 -0 -1 -0 -1 1 0:0 1:0 2:0 3:0 4:0 5:0 6:0 7:0 8:0 9:0 10:0 11:0 12:0 13:0 14:0 15:0 16:0 17:0 18:0 19:0 20:0 21:0 22:0 23:0 24:1 25:0 
-1 -1 -1 -1 -1 -1 1 0:0 1:0 2:0 3:0 4:0 5:0 6:0 7:0 8:0 9:0 10:0 11:0 12:0 13:0 14:0 15:0 16:0 17:0 18:0 19:0 20:0 21:0 22:0 23:0 24:0 25:0 
-1 -1 -1 -1 -1 -1 1 0:0 1:0 2:0 3:0 4:0 5:0 6:0 7:0 8:0 9:0 10:0 11:0 12:0 13:0 14:0 15:0 16:0 17:0 18:0 19:0 20:0 21:0 22:0 23:0 24:0 25:0 
-1 -1 -1 -1 -1 -1 1 0:0 1:0 2:0 3:0 4:0 5:0 6:0 7:0 8:0 9:0 10:0 11:0 12:0 13:0 14:0 15:0 16:0 17:0 18:0 19:0 20:0 21:0 22:0 23:0 24:0 25:0 
-1 -1 -1 -1 -1 -1 1 0:0 1:0 2:0 3:0 4:0 5:0 6:0 7:0 8:0 9:0 10:1 11:0 12:1 13:0 14:0 15:0 16:0 17:0 18:0 19:0 20:0 21:0 22:0 23:0 24:0 25:0 
-0 -0 -0 -1 -0 -0 1 0:0 1:0 2:0 3:0 4:0 5:0 6:0 7:0 8:0 9:0 10:0 11:0 12:0 13:0 14:0 15:0 16:0 17:0 18:0 19:1 20:0 21:0 22:0 23:0 24:0 25:0 
-0 -0 -0 -1 -0 -0 1 0:0 1:0 2:0 3:0 4:0 5:0 6:0 7:0 8:0 9:0 10:0 11:0 12:0 13:0 14:0 15:0 16:0 17:0 18:0 19:1 20:0 21:0 22:0 23:0 24:0 25:0 
-1 -0 -0 -1 -0 -0 1 0:0 1:0 2:0 3:0 4:0 5:0 6:0 7:0 8:0 9:0 10:0 11:0 12:0 13:0 14:0 15:0 16:0 17:0 18:0 19:1 20:0 21:0 22:0 23:0 24:0 25:0 
-1 -1 -0 -1 -0 -0 1 0:0 1:0 2:0 3:0 4:0 5:0 6:0 7:0 8:0 9:0 10:0 11:0 12:0 13:0 14:0 15:0 16:0 17:0 18:0 19:1 20:0 21:0 22:0 23:0 24:0 25:0 
-0.5519097155021138 -1 -0 -1 -0 -0 1 0:0 1:0 2:0 3:0 4:0 5:0 6:0 7:0 8:0 9:0 10:0 11:0 12:0 13:0 14:0 15:0 16:0 17:0 18:0 19:1 20:0 21:0 22:0 23:0 24:0 25:0 
-1 -1 -1 -1 -1 -1 1 0:0 1:0 2:0 3:0 4:0 5:0 6:0 7:0 8:0 9:0 10:0 11:0 12:0 13:0 14:0 15:0 16:0 17:0 18:0 19:0 20:0 21:0 22:0 23:0 24:0 25:0 
-1 -1 -1 -1 -1 -1 1 0:0 1:0 2:0 3:0 4:0 5:0 6:0 7:0 8:0 9:0 10:0 11:0 12:0 13:0 14:0 15:0 16:0 17:0 18:0 19:0 20:0 21:0 22:0 23:0 24:0 25:0 
-1 -1 -1 -1 -1 -1 1 0:0 1:0 2:0 3:0 4:0 5:0 6:0 7:0 8:0 9:0 10:0 11:0 12:0 13:0 14:0 15:0 16:0 17:0 18:0 19:0 20:0 21:0 22:0 23:0 24:0 25:0 
-0 -1 -0 -0 -0 -1 0 0:0 1:0 2:0 3:0 4:0 5:0 6:0 7:0 8:0 9:0 10:0 11:1 12:0 13:0 14:0 15:0 16:0 17:0 18:0 19:1 20:0 21:0 22:0 23:0 24:0 25:0 
-1 -1 -1 -1 -1 -1 1 0:0 1:0 2:0 3:0 4:0 5:0 6:0 7:0 8:0 9:0 10:0 11:0 12:0 13:0 14:0 15:0 16:0 17:0 18:0 19:0 20:0 21:0 22:0 23:0 24:0 25:0 
-0 -0.09109125685155628 -0 -1 -0 -0 1 0:0 1:0 2:0 3:0 4:0 5:0 6:0 7:0 8:0 9:0 10:0 11:0 12:0 13:0 14:0 15:0 16:0 17:0 18:0 19:1 20:0 21:0 22:0 23:0 24:0 25:0 
-1 -1 -1 -1 -0.1733088740608306 -1 1 0:0 1:0 2:0 3:0 4:0 5:0 6:0 7:0 8:0 9:0 10:0 11:0 12:0 13:0 14:0 15:0 16:0 17:0 18:0 19:0 20:0 21:0 22:0 23:0 24:0 25:0 
-0.4183549076457928 -1 -0 -0 -1 -0.1432351833317503 0 0:0 1:0 2:0 3:0 4:0 5:0 6:0 7:0 8:0 9:0 10:0 11:1 12:0 13:0 14:0 15:0 16:0 17:0 18:0 19:1 20:1 21:0 22:0 23:1 24:0 25:0 
-1 -0 -1 -0.06474811460478022 -1 -0 1 0:0 1:0 2:0 3:0 4:0 5:0 6:0 7:0 8:0 9:0 10:0 11:0 12:0 13:0 14:0 15:0 16:0 17:0 18:1 19:0 20:1 21:0 22:0 23:1 24:0 25:0 
-0 -0 -0 -1 -0 -0 1 0:0 1:0 2:0 3:0 4:0 5:0 6:0 7:0 8:0 9:0 10:0 11:0 12:0 13:0 14:0 15:0 16:0 17:0 18:0 19:1 20:0 21:0 22:0 23:0 24:0 25:0 
-0.2293162698228588 -1 -0.05259285643217366 -1 -1 -1 1 0:0 1:0 2:0 3:0 4:0 5:0 6:0 7:0 8:0 9:0 10:0 11:1 12:0 13:0 14:0 15:0 16:0 17:0 18:0 19:0 20:0 21:0 22:0 23:0 24:0 25:0 
-1 -1 -0.9852557765674923 -1 -1 -1 1 0:0 1:0 2:0 3:0 4:0 5:0 6:0 7:0 8:0 9:0 10:0 11:1 12:0 13:0 14:0 15:0 16:0 17:0 18:0 19:0 20:0 21:0 22:0 23:0 24:0 25:0 
-0.3580601701685869 -1 -0 -0 -0.2845724858642656 -0.8109263398657693 0 0:0 1:0 2:0 3:0 4:0 5:0 6:0 7:0 8:0 9:0 10:0 11:1 12:0 13:0 14:0 15:0 16:0 17:0 18:0 19:1 20:0 21:0 22:0 23:0 24:0 25:0 
-1 -0 -0.7629666951146793 -0.9933070315660615 -1 -0.5355062819036687 1 0:0 1:0 2:0 3:0 4:0 5:0 6:0 7:0 8:0 9:0 10:0 11:0 12:0 13:0 14:0 15:0 16:0 17:0 18:1 19:0 20:1 21:0 22:0 23:1 24:0 25:0 
-0 -0 -0 -1 -0 -0 1 0:0 1:0 2:0 3:0 4:0 5:0 6:0 7:0 8:0 9:0 10:0 11:0 12:0 13:0 14:0 15:0 16:0 17:0 18:0 19:1 20:0 21:0 22:0 23:0 24:0 25:0 
-0.08772160527332144 -1 -0.6496083223550915 -1 -0 -0.6765359163781026 1 0:0 1:0 2:0 3:0 4:0 5:0 6:0 7:0 8:0 9:0 10:0 11:0 12:0 13:0 14:0 15:0 16:0 17:0 18:0 19:0 20:0 21:0 22:0 23:0 24:0 25:0 
-0 -0 -0 -0.323845906512893 -0 -0 -0 0:0 1:0 2:0 3:0 4:0 5:0 6:0 7:0 8:0 9:0 10:0 11:0 12:0 13:0 14:0 15:0 16:0 17:0 18:0 19:0 20:0 21:0 22:0 23:0 24:0 25:0 
-0 -0 -0 -1 -0 -0 -0 0:0 1:0 2:0 3:0 4:0 5:0 6:0 7:0 8:0 9:0 10:0 11:0 12:0 13:0 14:0 15:0 16:0 17:0 18:0 19:0 20:0 21:0 22:0 23:0 24:0 25:0 
-0 -0 -0 -1 -0 -0 -0 0:0 1:0 2:0 3:0 4:0 5:0 6:0 7:0 8:0 9:0 10:0 11:0 12:0 13:0 14:0 15:0 16:0 17:0 18:0 19:0 20:0 21:0 22:0 23:0 24:0 25:0 
-0 -0 -0 -1 -0 -0 -0 0:0 1:0 2:0 3:0 4:0 5:0 6:0 7:0 8:0 9:0 10:0 11:0 12:0 13:0 14:0 15:0 16:0 17:0 18:0 19:0 20:0 21:0 22:0 23:0 24:0 25:0 
-0 -0 -1 -1 -1 -1 -0 0:0 1:0 2:0 3:0 4:0 5:0 6:0 7:0 8:1 9:0 10:0 11:0 12:0 13:0 14:0 15:0 16:0 17:0 18:0 19:0 20:0 21:0 22:0 23:0 24:0 25:0 
-0 -0 -0 -1 -0 -0 -0 0:0 1:0 2:0 3:0 4:0 5:0 6:0 7:0 8:0 9:0 10:0 11:0 12:0 13:0 14:0 15:0 16:0 17:0 18:0 19:0 20:0 21:0 22:0 23:0 24:0 25:0 
-1 -0 -1 -0 -0.4662496697871689 -0 -1 0:0 1:0 2:0 3:0 4:0 5:0 6:0 7:0 8:0 9:0 10:0 11:0 12:0 13:0 14:0 15:0 16:0 17:0 18:1 19:0 20:0 21:0 22:0 23:0 24:0 25:0 
-0 -0 -1 -1 -1 -1 -0 0:0 1:0 2:0 3:0 4:0 5:0 6:0 7:0 8:1 9:0 10:0 11:0 12:0 13:0 14:0 15:0 16:0 17:0 18:0 19:0 20:0 21:0 22:0 23:0 24:0 25:0 
-0 -0 -0 -1 -0 -0 -0 0:0 1:0 2:0 3:0 4:0 5:0 6:0 7:0 8:0 9:0 10:0 11:0 12:0 13:0 14:0 15:0 16:0 17:0 18:0 19:0 20:0 21:0 22:0 23:0 24:0 25:0 
-0 -0 -0 -1 -0 -0 -0 0:0 1:0 2:0 3:0 4:0 5:0 6:0 7:0 8:0 9:0 10:0 11:0 12:0 13:0 14:0 15:0 16:0 17:0 18:0 19:0 20:0 21:0 22:0 23:0 24:0 25:0 
-0 -0 -1 -1 -1 -1 -0 0:0 1:0 2:0 3:0 4:0 5:0 6:0 7:0 8:1 9:0 10:0 11:0 12:0 13:0 14:0 15:0 16:0 17:0 18:0 19:0 20:0 21:0 22:0 23:0 24:0 25:0 
-0 -0 -0 -1 -0 -0 -0 0:0 1:0 2:0 3:0 4:0 5:0 6:0 7:0 8:0 9:0 10:0 11:0 12:0 13:0 14:0 15:0 16:0 17:0 18:0 19:0 20:0 21:0 22:0 23:0 24:0 25:0 
-0 -0 -0 -1 -0 -0 -0 0:0 1:0 2:0 3:0 4:0 5:0 6:0 7:0 8:0 9:0 10:0 11:0 12:0 13:0 14:0 15:0 16:0 17:0 18:0 19:0 20:0 21:0 22:0 23:0 24:0 25:0 
-0 -0 -1 -1 -1 -1 -0 0:0 1:0 2:0 3:0 4:0 5:0 6:0 7:0 8:1 9:0 10:0 11:0 12:0 13:0 14:0 15:0 16:0 17:0 18:0 19:0 20:0 21:0 22:0 23:0 24:0 25:0 
-0 -0 -0 -1 -0 -0 -0 0:0 1:0 2:0 3:0 4:0 5:0 6:0 7:0 8:0 9:0 10:0 11:0 12:0 13:0 14:0 15:0 16:0 17:0 18:0 19:0 20:0 21:0 22:0 23:0 24:0 25:0 
-0.758768516171121 -0.3694789398611842 -1 -1 -1 -1 -0.4450241463857038 0:0 1:0 2:0 3:0 4:0 5:0 6:0 7:0 8:1 9:0 10:0 11:0 12:0 13:0 14:0 15:0 16:0 17:0 18:0 19:0 20:0 21:0 22:0 23:0 24:0 25:0 
-0 -0 -0 -1 -0 -0 -0 0:0 1:0 2:0 3:0 4:0 5:0 6:0 7:0 8:0 9:0 10:0 11:0 12:0 13:0 14:0 15:0 16:0 17:0 18:0 19:0 20:0 21:0 22:0 23:0 24:0 25:0 
-0 -0 -0 -1 -0 -0 -0 0:0 1:0 2:0 3:0 4:0 5:0 6:0 7:0 8:0 9:0 10:0 11:0 12:0 13:0 14:0 15:0 16:0 17:0 18:0 19:0 20:0 21:0 22:0 23:0 24:0 25:0 
-1 -0 -1 -0 -1 -0 -1 0:0 1:0 2:0 3:0 4:0 5:0 6:0 7:0 8:0 9:0 10:0 11:0 12:0 13:0 14:0 15:0 16:0 17:0 18:1 19:0 20:0 21:0 22:0 23:0 24:0 25:0 
-1 -1 -1 -0.03265378815046345 -0.8601601411025213 -0.3932853881027798 -1 0:0 1:0 2:0 3:0 4:0 5:0 6:0 7:0 8:0 9:0 10:0 11:0 12:0 13:0 14:0 15:0 16:0 17:0 18:0 19:1 20:0 21:0 22:0 23:0 24:0 25:0 
-1 -0.8021777662532809 -1 -0.3719042719922441 -1 -0.4200173267132015 -1 0:0 1:0 2:0 3:0 4:0 5:0 6:0 7:0 8:0 9:0 10:0 11:0 12:0 13:0 14:0 15:0 16:0 17:0 18:1 19:0 20:0 21:0 22:0 23:0 24:0 25:0 
-1 -1 -1 -1 -0.791347681351068 -0.9892302675992444 -1 0:0 1:0 2:0 3:0 4:0 5:0 6:0 7:0 8:0 9:0 10:0 11:0 12:0 13:0 14:0 15:0 16:0 17:0 18:0 19:1 20:0 21:0 22:0 23:0 24:0 25:0 
