svm_type c_svc
kernel_type rbf
gamma 0.0526316
nr_class 8
total_sv 826
rho -0.259576 -1.07116 -1.74654 -0.137535 -0.252363 -0.643954 -1.72446 -0.340037 -1.85906 0.318826 0.348624 -0.720292 -1.87123 -1.47128 0.441065 0.306239 -0.337738 -1.31505 2.21967 2.35538 1.61293 0.420842 -0.0593517 -0.880903 -1.88579 -0.912087 -2.04428 -1.36465
label 1 2 3 4 5 6 7 8
nr_sv 91 100 74 128 103 106 86 138
SV
0 1 0 0 0 0 0 0:0 1:1 2:1 3:0 4:0 5:0 6:1 7:0 8:1 9:0 10:1 11:0 12:0 13:0 14:1 15:0 16:0 17:0 18:1 19:1 
0 0 0 1 0 1 0 0:0 1:1 2:1 3:0 4:0 5:1 6:0 7:1 8:0 9:1 10:1 11:1 12:0 13:0 14:1 15:0 16:0 17:0 18:0 19:1 
1 0 0 0 0 1 0 0:0 1:0 2:1 3:0 4:0 5:0 6:0 7:0 8:0 9:0 10:0 11:0 12:1 13:0 14:0 15:1 16:0 17:0 18:0 19:1 
0 1 0 0 0 0 0 0:0 1:1 2:1 3:0 4:0 5:1 6:0 7:0 8:0 9:0 10:0 11:0 12:1 13:0 14:0 15:0 16:0 17:0 18:0 19:1 
1 1 1 1 1 1 1 0:0 1:0 2:0 3:0 4:0 5:0 6:0 7:0 8:0 9:0 10:0 11:0 12:0 13:0 14:0 15:0 16:0 17:0 18:0 19:0 
0 0 0.252324257393085 0 0 1 1 0:0 1:0 2:1 3:0 4:0 5:0 6:0 7:0 8:0 9:0 10:0 11:0 12:1 13:0 14:0 15:0 16:0 17:0 18:0 19:1 
0 0.4244892318524397 0 0 0 1 1 0:1 1:1 2:1 3:0 4:0 5:1 6:0 7:0 8:0 9:0 10:0 11:0 12:1 13:0 14:0 15:0 16:0 17:0 18:0 19:1 
0 1 0 1 1 0 0 0:0 1:0 2:1 3:0 4:1 5:0 6:0 7:0 8:1 9:0 10:0 11:0 12:0 13:1 14:0 15:0 16:1 17:1 18:1 19:1 
0 1 1 1 0 1 1 0:0 1:1 2:1 3:0 4:0 5:1 6:0 7:0 8:0 9:0 10:0 11:0 12:0 13:0 14:0 15:0 16:0 17:0 18:0 19:0 
1 1 1 1 1 1 1 0:0 1:0 2:0 3:0 4:0 5:0 6:0 7:0 8:0 9:0 10:0 11:0 12:0 13:0 14:0 15:0 16:0 17:0 18:0 19:0 
1 1 1 1 1 1 1 0:0 1:1 2:0 3:0 4:0 5:0 6:0 7:0 8:0 9:0 10:0 11:0 12:0 13:0 14:0 15:1 16:0 17:0 18:0 19:0 
1 1 1 1 1 1 1 0:0 1:0 2:0 3:0 4:0 5:0 6:0 7:0 8:0 9:0 10:0 11:0 12:0 13:0 14:0 15:1 16:0 17:0 18:0 19:0 
0 1 0 0 0 0 0 0:0 1:0 2:1 3:0 4:0 5:0 6:0 7:0 8:1 9:0 10:0 11:0 12:0 13:1 14:0 15:0 16:0 17:1 18:1 19:1 
1 0 0 0 0 0 0 0:0 1:0 2:1 3:0 4:0 5:0 6:0 7:0 8:0 9:0 10:1 11:0 12:1 13:0 14:1 15:0 16:0 17:0 18:0 19:1 
1 0 0 0 1 1 0.05234805538442321 0:1 1:0 2:1 3:0 4:0 5:0 6:0 7:0 8:0 9:0 10:0 11:0 12:1 13:0 14:0 15:1 16:0 17:0 18:0 19:1 
0 0 0 0 0.9266599641454986 0 0 0:0 1:0 2:0 3:0 4:0 5:0 6:0 7:0 8:0 9:0 10:1 11:0 12:0 13:1 14:1 15:0 16:0 17:1 18:1 19:1 
1 1 1 1 1 1 1 0:1 1:0 2:0 3:0 4:0 5:0 6:1 7:0 8:0 9:0 10:0 11:0 12:0 13:0 14:0 15:0 16:0 17:0 18:0 19:0 
0 0 0 1 0 1 0 0:0 1:1 2:1 3:0 4:0 5:1 6:0 7:1 8:0 9:1 10:1 11:1 12:0 13:0 14:1 15:0 16:0 17:0 18:0 19:1 
0 1 0.7242194894960257 0 0 0 0 0:0 1:0 2:1 3:0 4:0 5:0 6:1 7:0 8:1 9:0 10:0 11:0 12:0 13:0 14:0 15:0 16:0 17:1 18:1 19:1 
0 1 0 0 0 0 0 0:0 1:0 2:1 3:0 4:0 5:0 6:1 7:0 8:1 9:0 10:0 11:0 12:1 13:1 14:0 15:0 16:0 17:1 18:1 19:1 
0 0 0 0 1 0 0 0:0 1:0 2:1 3:0 4:0 5:0 6:0 7:0 8:0 9:0 10:1 11:0 12:0 13:0 14:1 15:0 16:0 17:0 18:0 19:1 
0 1 0 0 0 0 0.1486541476546795 0:0 1:1 2:1 3:0 4:0 5:1 6:0 7:0 8:0 9:0 10:0 11:0 12:1 13:0 14:0 15:0 16:0 17:0 18:0 19:1 
1 0 0 0 0 0 0 0:0 1:0 2:1 3:0 4:0 5:0 6:0 7:0 8:0 9:0 10:1 11:0 12:1 13:0 14:1 15:1 16:0 17:0 18:0 19:1 
0 1 1 1 1 1 1 0:0 1:0 2:1 3:0 4:0 5:0 6:0 7:0 8:0 9:0 10:0 11:0 12:0 13:0 14:0 15:0 16:0 17:0 18:0 19:1 
1 0 0 0 0 0 0 0:0 1:0 2:1 3:0 4:0 5:0 6:0 7:0 8:0 9:0 10:1 11:0 12:1 13:0 14:1 15:1 16:0 17:0 18:0 19:1 
1 0 0 0 0 0 0 0:0 1:0 2:0 3:0 4:0 5:0 6:0 7:0 8:0 9:0 10:1 11:0 12:1 13:1 14:1 15:1 16:0 17:1 18:1 19:1 
0.2091087627788429 0.9378486223602764 1 0 0 1 1 0:0 1:0 2:1 3:0 4:0 5:0 6:0 7:0 8:0 9:0 10:0 11:0 12:1 13:0 14:0 15:0 16:0 17:0 18:0 19:1 
1 0 0 1 1 1 0 0:0 1:1 2:0 3:0 4:0 5:0 6:0 7:0 8:0 9:0 10:1 11:0 12:0 13:0 14:1 15:1 16:0 17:0 18:0 19:0 
1 1 1 1 1 1 1 0:0 1:0 2:0 3:0 4:0 5:0 6:0 7:0 8:0 9:0 10:0 11:0 12:0 13:0 14:0 15:0 16:0 17:0 18:0 19:0 
1 0 1 0.8810359159202935 1 1 1 0:1 1:0 2:0 3:0 4:0 5:0 6:0 7:0 8:0 9:0 10:1 11:0 12:1 13:0 14:1 15:0 16:0 17:0 18:0 19:0 
1 1 1 0.5811212073628799 0 1 1 0:0 1:0 2:1 3:0 4:0 5:0 6:0 7:0 8:0 9:0 10:0 11:0 12:1 13:0 14:0 15:0 16:0 17:0 18:0 19:1 
1 0 1 1 1 1 0 0:0 1:0 2:0 3:0 4:0 5:0 6:0 7:0 8:0 9:0 10:1 11:0 12:0 13:0 14:1 15:1 16:0 17:0 18:0 19:0 
1 1 1 1 1 1 1 0:0 1:0 2:0 3:0 4:0 5:0 6:0 7:0 8:0 9:0 10:0 11:0 12:0 13:0 14:0 15:0 16:0 17:0 18:0 19:0 
1 1 1 1 1 1 1 0:0 1:0 2:0 3:0 4:0 5:0 6:0 7:0 8:0 9:0 10:0 11:0 12:0 13:0 14:0 15:1 16:0 17:0 18:0 19:0 
1 0.9602250403771052 0.819852403167789 1 1 0.4333038615032002 0 0:0 1:0 2:0 3:0 4:0 5:0 6:1 7:0 8:0 9:0 10:1 11:0 12:0 13:1 14:1 15:1 16:0 17:0 18:0 19:0 
1 1 1 1 1 1 1 0:0 1:0 2:0 3:0 4:0 5:0 6:0 7:0 8:0 9:0 10:0 11:0 12:0 13:0 14:0 15:0 16:0 17:0 18:0 19:0 
1 1 1 1 1 1 1 0:0 1:0 2:0 3:0 4:0 5:0 6:0 7:0 8:0 9:0 10:0 11:0 12:0 13:0 14:0 15:0 16:0 17:0 18:0 19:0 
0 1 0 0 0 0 0 0:0 1:1 2:1 3:0 4:0 5:1 6:0 7:0 8:0 9:0 10:0 11:0 12:0 13:0 14:0 15:1 16:0 17:0 18:0 19:1 
1 0 0 0 0.6933974291595009 1 0 0:0 1:0 2:1 3:0 4:0 5:0 6:0 7:0 8:0 9:0 10:0 11:0 12:1 13:0 14:0 15:1 16:0 17:0 18:0 19:1 
0 1 0 0 0 0 0 0:0 1:1 2:1 3:0 4:1 5:1 6:1 7:0 8:1 9:0 10:0 11:0 12:0 13:1 14:0 15:1 16:0 17:1 18:1 19:1 
0 1 0 0.9873792025324376 1 0 0 0:0 1:0 2:1 3:0 4:1 5:0 6:1 7:0 8:1 9:0 10:0 11:0 12:0 13:1 14:0 15:1 16:0 17:1 18:1 19:1 
0 1 0 0 1 0 0 0:0 1:0 2:1 3:0 4:0 5:0 6:0 7:0 8:1 9:0 10:0 11:0 12:1 13:1 14:0 15:0 16:0 17:1 18:1 19:0 
1 0 0 0 1 0 0 0:0 1:0 2:1 3:0 4:0 5:0 6:0 7:0 8:0 9:0 10:1 11:0 12:1 13:0 14:1 15:0 16:0 17:0 18:0 19:0 
0.485360984548369 0 0 0 0 0 0 0:0 1:0 2:1 3:0 4:0 5:0 6:0 7:0 8:0 9:0 10:1 11:0 12:1 13:0 14:1 15:0 16:0 17:0 18:0 19:1 
1 1 1 1 1 1 1 0:0 1:0 2:1 3:0 4:0 5:0 6:0 7:0 8:0 9:0 10:0 11:0 12:0 13:0 14:0 15:0 16:0 17:0 18:0 19:0 
0 0.2052985281556916 0 0 0 0 0 0:0 1:0 2:1 3:0 4:0 5:0 6:0 7:0 8:1 9:0 10:0 11:0 12:1 13:1 14:0 15:0 16:0 17:1 18:1 19:1 
1 0 0 0 0.4106159425308035 0 0 0:0 1:1 2:0 3:0 4:0 5:1 6:0 7:0 8:0 9:0 10:1 11:0 12:0 13:0 14:1 15:1 16:0 17:0 18:0 19:0 
1 0 0 0 0 0 0 0:0 1:0 2:1 3:0 4:0 5:0 6:0 7:0 8:0 9:0 10:1 11:0 12:1 13:0 14:1 15:1 16:0 17:0 18:0 19:1 
0 1 0 1 1 0 0 0:0 1:1 2:0 3:0 4:1 5:1 6:0 7:0 8:1 9:0 10:0 11:0 12:0 13:1 14:0 15:1 16:0 17:1 18:0 19:0 
1 0 0 1 0.6866685152482219 1 1 0:0 1:1 2:0 3:0 4:0 5:1 6:0 7:0 8:0 9:0 10:0 11:0 12:1 13:0 14:0 15:1 16:0 17:0 18:0 19:0 
1 0.118501509029829 1 1 1 1 1 0:0 1:0 2:0 3:0 4:0 5:0 6:0 7:1 8:0 9:1 10:0 11:1 12:1 13:0 14:0 15:1 16:0 17:0 18:0 19:0 
0 1 0 1 1 1 1 0:0 1:1 2:0 3:0 4:1 5:1 6:0 7:0 8:0 9:0 10:0 11:0 12:0 13:1 14:0 15:0 16:0 17:1 18:0 19:0 
0 1 0.4409894595467588 1 1 1 1 0:0 1:1 2:0 3:0 4:1 5:1 6:0 7:0 8:0 9:0 10:0 11:0 12:0 13:1 14:0 15:0 16:0 17:1 18:0 19:0 
0 0.6639853948143205 0 0 0 0 0 0:0 1:1 2:1 3:0 4:0 5:1 6:1 7:0 8:1 9:0 10:1 11:0 12:0 13:1 14:1 15:0 16:0 17:1 18:1 19:0 
1 1 1 1 1 1 1 0:0 1:1 2:0 3:0 4:0 5:1 6:0 7:0 8:0 9:0 10:0 11:0 12:0 13:0 14:0 15:0 16:0 17:0 18:0 19:0 
1 1 1 1 1 1 1 0:0 1:0 2:0 3:0 4:0 5:0 6:0 7:0 8:0 9:0 10:1 11:0 12:0 13:0 14:1 15:0 16:0 17:0 18:0 19:0 
1 0 0 0 1 0 0 0:0 1:1 2:1 3:0 4:0 5:0 6:0 7:0 8:0 9:0 10:1 11:0 12:0 13:0 14:1 15:0 16:0 17:0 18:0 19:0 
1 0 0 1 0.609960198963897 0.1823311949403835 0 0:0 1:1 2:0 3:1 4:0 5:1 6:0 7:0 8:0 9:0 10:1 11:0 12:0 13:0 14:1 15:0 16:0 17:0 18:0 19:0 
1 1 1 1 1 1 1 0:0 1:1 2:0 3:0 4:0 5:1 6:0 7:0 8:0 9:0 10:0 11:0 12:0 13:0 14:0 15:0 16:0 17:0 18:0 19:0 
1 1 1 1 1 1 1 0:0 1:0 2:0 3:0 4:0 5:0 6:0 7:0 8:0 9:0 10:0 11:0 12:0 13:0 14:0 15:0 16:1 17:0 18:0 19:0 
0.6337878535995076 0 0 0 0 0 0 0:0 1:1 2:0 3:0 4:0 5:1 6:0 7:0 8:0 9:0 10:1 11:0 12:0 13:0 14:1 15:0 16:0 17:0 18:0 19:0 
0 0.8978400770558989 0 0 1 0 0 0:0 1:1 2:0 3:0 4:1 5:1 6:0 7:0 8:1 9:0 10:1 11:0 12:0 13:1 14:1 15:0 16:0 17:1 18:0 19:0 
1 1 0 0 0 0 0.5729879456803565 0:0 1:1 2:0 3:0 4:0 5:1 6:0 7:0 8:0 9:0 10:1 11:0 12:0 13:0 14:1 15:0 16:0 17:0 18:0 19:0 
0 1 0 0 0 0 0 0:0 1:1 2:0 3:0 4:0 5:1 6:1 7:0 8:1 9:0 10:1 11:0 12:0 13:1 14:1 15:0 16:0 17:1 18:0 19:0 
0 1 0 0 0 0 0 0:0 1:1 2:0 3:0 4:0 5:1 6:0 7:0 8:0 9:0 10:1 11:0 12:0 13:1 14:1 15:0 16:0 17:0 18:0 19:0 
1 1 1 1 1 1 1 0:0 1:1 2:0 3:0 4:0 5:0 6:0 7:0 8:0 9:0 10:1 11:0 12:0 13:0 14:1 15:0 16:0 17:0 18:0 19:0 
1 1 0 0 0 0 1 0:0 1:1 2:0 3:0 4:0 5:1 6:0 7:0 8:0 9:0 10:1 11:0 12:0 13:0 14:1 15:0 16:0 17:0 18:0 19:0 
1 1 1 1 1 1 1 0:0 1:1 2:0 3:0 4:0 5:1 6:0 7:0 8:0 9:0 10:0 11:0 12:0 13:0 14:0 15:0 16:1 17:0 18:0 19:0 
1 1 1 1 1 1 1 0:0 1:0 2:0 3:0 4:0 5:0 6:0 7:0 8:0 9:0 10:0 11:0 12:0 13:0 14:0 15:0 16:0 17:0 18:0 19:0 
0.8596063624343633 1 1 1 1 1 1 0:0 1:0 2:0 3:0 4:0 5:0 6:0 7:0 8:0 9:0 10:0 11:0 12:0 13:1 14:0 15:0 16:0 17:1 18:1 19:1 
1 1 1 1 1 1 1 0:0 1:0 2:0 3:0 4:0 5:0 6:0 7:0 8:0 9:0 10:0 11:0 12:0 13:0 14:0 15:0 16:0 17:0 18:0 19:0 
1 1 0 0 0 1 1 0:0 1:1 2:0 3:0 4:0 5:1 6:0 7:0 8:0 9:0 10:1 11:0 12:0 13:0 14:1 15:0 16:0 17:0 18:0 19:0 
0.9836346083398597 0.588492013903653 0 0.5537309922336846 0 0.9758540494050834 0.9966969145087716 0:0 1:1 2:0 3:0 4:0 5:1 6:0 7:0 8:0 9:0 10:1 11:0 12:0 13:0 14:1 15:0 16:0 17:0 18:0 19:0 
1 1 1 1 1 1 1 0:0 1:0 2:0 3:0 4:0 5:0 6:0 7:0 8:1 9:0 10:0 11:0 12:1 13:1 14:0 15:0 16:0 17:1 18:0 19:0 
1 0 0.08767671033930326 1 1 0 0 0:0 1:0 2:0 3:0 4:0 5:0 6:0 7:0 8:0 9:0 10:1 11:0 12:0 13:1 14:1 15:0 16:0 17:1 18:1 19:0 
1 0 0 1 1 0 0 0:0 1:1 2:0 3:0 4:1 5:0 6:0 7:0 8:0 9:0 10:1 11:0 12:0 13:1 14:1 15:0 16:0 17:1 18:0 19:0 
1 0 0 0 0 0.6373586258631443 0 0:0 1:1 2:0 3:0 4:0 5:1 6:0 7:0 8:0 9:0 10:1 11:0 12:1 13:0 14:1 15:0 16:0 17:0 18:0 19:0 
0 0 0 0 1 0 0 0:0 1:0 2:1 3:0 4:0 5:0 6:0 7:0 8:1 9:0 10:0 11:0 12:1 13:1 14:0 15:1 16:0 17:1 18:1 19:0 
0 1 0 0 0 0 0 0:0 1:1 2:1 3:0 4:0 5:1 6:0 7:0 8:1 9:0 10:0 11:0 12:1 13:1 14:0 15:0 16:0 17:1 18:1 19:0 
0 0 0 1 0.1241845848572064 0 0 0:0 1:1 2:0 3:0 4:1 5:1 6:0 7:0 8:0 9:0 10:1 11:0 12:0 13:1 14:1 15:0 16:0 17:1 18:0 19:0 
0 1 0 0 0 0 0 0:0 1:1 2:1 3:0 4:0 5:1 6:0 7:0 8:1 9:0 10:0 11:0 12:0 13:1 14:0 15:0 16:0 17:1 18:1 19:0 
0 1 0 0 0 0 0.4009925308170869 0:0 1:1 2:0 3:0 4:0 5:1 6:0 7:0 8:0 9:0 10:0 11:0 12:1 13:1 14:0 15:0 16:0 17:1 18:1 19:0 
0 1 0 1 0 1 1 0:0 1:1 2:0 3:0 4:0 5:1 6:0 7:0 8:0 9:0 10:0 11:0 12:0 13:1 14:0 15:0 16:0 17:1 18:1 19:0 
0 1 0 0 0 0 0.07374961954857438 0:0 1:1 2:1 3:0 4:0 5:0 6:1 7:0 8:1 9:0 10:0 11:0 12:1 13:0 14:0 15:0 16:0 17:1 18:1 19:0 
1 0.991501869377256 0.847340182956938 1 0 1 1 0:0 1:0 2:1 3:0 4:0 5:0 6:0 7:0 8:0 9:0 10:0 11:0 12:1 13:0 14:0 15:0 16:0 17:0 18:0 19:1 
1 0 0 0.07833409599298562 1 1 0.3865515558621806 0:0 1:1 2:0 3:0 4:0 5:0 6:0 7:0 8:0 9:0 10:1 11:0 12:0 13:0 14:1 15:0 16:0 17:0 18:0 19:1 
0 1 0 0 0 0 0 0:0 1:1 2:1 3:0 4:0 5:1 6:0 7:0 8:1 9:0 10:0 11:0 12:0 13:1 14:0 15:1 16:0 17:1 18:1 19:0 
1 1 1 1 1 1 1 0:0 1:0 2:0 3:0 4:0 5:0 6:0 7:0 8:0 9:0 10:0 11:0 12:0 13:0 14:0 15:1 16:0 17:0 18:0 19:0 
0 1 0 0 1 0 0 0:0 1:0 2:1 3:0 4:0 5:0 6:0 7:0 8:1 9:0 10:0 11:0 12:0 13:1 14:0 15:1 16:0 17:1 18:1 19:0 
0 1 0 0 0 0 0 0:0 1:0 2:1 3:0 4:0 5:0 6:0 7:0 8:1 9:0 10:0 11:0 12:0 13:1 14:0 15:0 16:0 17:1 18:1 19:1 
0.02705552747593535 0 0 0 1 0 0 0:0 1:0 2:1 3:0 4:0 5:0 6:1 7:0 8:1 9:0 10:0 11:0 12:1 13:0 14:0 15:1 16:0 17:1 18:1 19:0 
-0 0 0 0 0 1 0 0:0 1:1 2:0 3:0 4:0 5:0 6:0 7:0 8:0 9:1 10:0 11:1 12:1 13:0 14:0 15:1 16:1 17:0 18:0 19:0 
-0 0 0 1 1 1 0 0:0 1:0 2:0 3:0 4:0 5:0 6:0 7:0 8:0 9:1 10:0 11:1 12:0 13:0 14:0 15:1 16:0 17:0 18:0 19:0 
-1 0 0 1 0 1 0 0:0 1:1 2:0 3:0 4:0 5:0 6:0 7:0 8:0 9:1 10:1 11:1 12:0 13:0 14:1 15:0 16:0 17:0 18:0 19:1 
-1 1 1 1 1 1 1 0:0 1:0 2:0 3:1 4:0 5:0 6:0 7:0 8:0 9:0 10:0 11:0 12:0 13:0 14:0 15:0 16:0 17:0 18:0 19:0 
-0.2627416471334216 0 0 0 0 0 0 0:0 1:0 2:0 3:0 4:0 5:0 6:0 7:1 8:0 9:0 10:1 11:0 12:1 13:0 14:1 15:1 16:0 17:0 18:0 19:0 
-0.8129647619371546 0 0 1 0 1 0.8766616802115643 0:0 1:0 2:0 3:0 4:0 5:0 6:0 7:1 8:0 9:0 10:0 11:0 12:1 13:0 14:0 15:1 16:0 17:0 18:0 19:0 
-1 1 1 1 1 1 1 0:0 1:1 2:0 3:0 4:1 5:0 6:0 7:1 8:0 9:0 10:0 11:0 12:0 13:0 14:0 15:0 16:0 17:0 18:0 19:0 
-0.4030092561567598 0 0 0 0 0 0 0:0 1:1 2:0 3:0 4:1 5:0 6:0 7:1 8:0 9:0 10:1 11:0 12:0 13:0 14:1 15:1 16:0 17:0 18:0 19:0 
-1 0 0 0 0 0 0 0:0 1:1 2:0 3:0 4:0 5:0 6:0 7:0 8:0 9:0 10:1 11:0 12:0 13:0 14:1 15:1 16:0 17:0 18:0 19:0 
-0 0 0 1 1 1 0 0:0 1:0 2:0 3:0 4:1 5:0 6:0 7:1 8:0 9:1 10:0 11:1 12:0 13:0 14:0 15:0 16:0 17:0 18:0 19:0 
-0 0 0 0 0.5272735797070489 0 0 0:0 1:0 2:0 3:0 4:1 5:0 6:0 7:0 8:0 9:1 10:1 11:1 12:0 13:0 14:1 15:0 16:0 17:0 18:0 19:0 
-0 0 0 0 1 0 0 0:0 1:0 2:0 3:0 4:1 5:0 6:0 7:0 8:0 9:1 10:0 11:1 12:1 13:0 14:0 15:0 16:1 17:0 18:0 19:0 
-0 0.7593313741515146 0 1 0 0 0 0:0 1:1 2:0 3:0 4:1 5:0 6:0 7:1 8:0 9:0 10:0 11:0 12:0 13:0 14:0 15:1 16:0 17:0 18:0 19:0 
-0 1 0 1 0 1 1 0:0 1:1 2:0 3:0 4:1 5:0 6:0 7:0 8:0 9:1 10:0 11:1 12:0 13:0 14:0 15:0 16:0 17:0 18:0 19:0 
-0.6194278636899511 0 0 1 1 0 0 0:0 1:0 2:0 3:1 4:1 5:0 6:0 7:0 8:0 9:0 10:1 11:0 12:0 13:0 14:1 15:0 16:0 17:0 18:0 19:0 
-1 0 0 0.1723486017325409 1 1 0 0:0 1:0 2:0 3:0 4:0 5:0 6:0 7:1 8:0 9:0 10:1 11:0 12:1 13:0 14:1 15:0 16:0 17:0 18:0 19:0 
-0 0 0 0 1 0 0 0:1 1:0 2:0 3:0 4:1 5:0 6:0 7:0 8:0 9:1 10:0 11:1 12:1 13:0 14:0 15:0 16:1 17:0 18:0 19:0 
-0 0 0 0 0 1 0 0:0 1:0 2:0 3:0 4:1 5:0 6:0 7:0 8:0 9:1 10:0 11:1 12:1 13:0 14:0 15:0 16:0 17:0 18:0 19:1 
-0 0 0 1 0 0 0 0:0 1:1 2:0 3:1 4:1 5:0 6:0 7:0 8:0 9:1 10:1 11:1 12:0 13:0 14:1 15:0 16:0 17:0 18:0 19:0 
-0 0 0 0.4200617880279484 0 1 0.3723602702840509 0:1 1:0 2:0 3:0 4:0 5:0 6:0 7:1 8:0 9:1 10:0 11:1 12:1 13:0 14:0 15:0 16:0 17:0 18:0 19:0 
-1 0 0 0 0 0 0 0:0 1:0 2:0 3:0 4:0 5:0 6:0 7:0 8:0 9:0 10:1 11:0 12:1 13:0 14:1 15:1 16:0 17:0 18:0 19:0 
-0 0.2457200761107745 0 1 0 1 0 0:0 1:0 2:0 3:0 4:1 5:0 6:0 7:0 8:0 9:1 10:0 11:1 12:0 13:0 14:0 15:0 16:0 17:0 18:0 19:1 
-1 0.09781141579456443 0 1 1 0 0 0:1 1:1 2:1 3:1 4:1 5:0 6:0 7:0 8:1 9:1 10:0 11:1 12:1 13:0 14:0 15:0 16:0 17:0 18:0 19:0 
-0 0 0 0 1 0 0 0:0 1:0 2:0 3:0 4:1 5:0 6:0 7:0 8:0 9:0 10:0 11:0 12:1 13:0 14:0 15:1 16:1 17:0 18:0 19:0 
-1 1 1 1 1 1 1 0:0 1:0 2:0 3:0 4:0 5:0 6:0 7:1 8:0 9:0 10:0 11:0 12:1 13:0 14:0 15:0 16:0 17:0 18:0 19:0 
-0 1 1 1 1 1 1 0:0 1:0 2:0 3:1 4:1 5:0 6:0 7:0 8:0 9:0 10:0 11:0 12:0 13:0 14:0 15:0 16:0 17:0 18:0 19:0 
-0 0 0 1 1 0.2717433333090426 0 0:0 1:0 2:0 3:1 4:1 5:0 6:0 7:0 8:0 9:1 10:0 11:1 12:0 13:0 14:0 15:0 16:0 17:0 18:0 19:0 
-0 0 0 1 1 0 0 0:0 1:0 2:0 3:0 4:1 5:0 6:0 7:1 8:0 9:0 10:0 11:0 12:0 13:0 14:0 15:1 16:0 17:0 18:0 19:0 
-0 0 0 0 0 1 1 0:1 1:0 2:0 3:0 4:0 5:0 6:0 7:0 8:0 9:1 10:0 11:1 12:1 13:0 14:0 15:0 16:0 17:0 18:0 19:1 
-0 0 1 1 1 1 0 0:0 1:0 2:0 3:0 4:1 5:0 6:0 7:0 8:0 9:1 10:0 11:1 12:0 13:0 14:0 15:0 16:0 17:0 18:0 19:0 
-0 0 0 0 1 0 0 0:0 1:0 2:0 3:0 4:1 5:0 6:0 7:0 8:0 9:1 10:1 11:1 12:0 13:0 14:1 15:0 16:0 17:0 18:0 19:0 
-1 0 0 1 1 0 0 0:0 1:1 2:0 3:0 4:1 5:0 6:0 7:1 8:0 9:0 10:1 11:0 12:0 13:0 14:1 15:0 16:1 17:0 18:0 19:0 
-0.5062567938565291 0 1 1 1 0 1 0:0 1:0 2:0 3:0 4:1 5:0 6:0 7:0 8:0 9:0 10:0 11:0 12:0 13:0 14:0 15:1 16:0 17:0 18:0 19:0 
-1 1 1 1 1 1 1 0:0 1:0 2:0 3:0 4:0 5:0 6:0 7:0 8:0 9:0 10:1 11:0 12:0 13:0 14:1 15:0 16:0 17:0 18:0 19:1 
-1 0 0 0 0 1 0 0:1 1:0 2:0 3:0 4:0 5:0 6:0 7:0 8:0 9:0 10:1 11:0 12:1 13:0 14:1 15:0 16:0 17:0 18:0 19:1 
-0 0 0 0 1 1 0 0:1 1:0 2:0 3:0 4:1 5:0 6:0 7:0 8:0 9:1 10:0 11:1 12:1 13:0 14:0 15:0 16:1 17:0 18:0 19:1 
-0 0 0 0 1 0.2463476407542458 0 0:1 1:0 2:0 3:0 4:0 5:0 6:0 7:0 8:0 9:1 10:1 11:1 12:1 13:0 14:1 15:0 16:1 17:0 18:0 19:0 
-0 0 0 0 0 1 0 0:0 1:0 2:0 3:0 4:1 5:0 6:0 7:0 8:0 9:1 10:0 11:1 12:1 13:0 14:0 15:0 16:0 17:0 18:0 19:1 
-0 0 0 0.1970611806679645 1 0 0 0:0 1:0 2:0 3:0 4:1 5:0 6:0 7:0 8:0 9:1 10:0 11:1 12:0 13:0 14:0 15:1 16:1 17:0 18:0 19:0 
-0 0 0 1 1 0 0 0:0 1:0 2:0 3:0 4:1 5:0 6:0 7:1 8:0 9:0 10:0 11:0 12:0 13:0 14:0 15:1 16:0 17:0 18:0 19:0 
-0.08131005775681238 0.6438514261690162 1 0 1 1 1 0:1 1:0 2:0 3:0 4:0 5:0 6:0 7:0 8:0 9:0 10:0 11:0 12:1 13:0 14:0 15:0 16:0 17:0 18:0 19:0 
-0 0 0 0 1 1 0 0:1 1:0 2:0 3:0 4:0 5:0 6:0 7:0 8:0 9:1 10:0 11:1 12:1 13:0 14:0 15:1 16:1 17:0 18:0 19:0 
-1 0.8423629414722378 1 1 1 1 1 0:0 1:0 2:0 3:0 4:0 5:0 6:0 7:0 8:0 9:1 10:0 11:1 12:0 13:0 14:0 15:0 16:1 17:0 18:0 19:1 
-0.7552868091366721 0 0 1 1 0 0 0:0 1:0 2:0 3:0 4:1 5:0 6:0 7:0 8:0 9:1 10:0 11:1 12:1 13:0 14:0 15:0 16:1 17:0 18:1 19:1 
-0 0 0 0 0 1 0 0:1 1:0 2:0 3:0 4:0 5:0 6:0 7:0 8:0 9:1 10:0 11:1 12:1 13:0 14:0 15:1 16:0 17:0 18:0 19:0 
-1 1 1 0 1 1 1 0:1 1:0 2:0 3:0 4:0 5:0 6:0 7:0 8:0 9:0 10:0 11:0 12:1 13:0 14:0 15:0 16:0 17:0 18:0 19:0 
-0 0 0 1 0 1 1 0:1 1:1 2:0 3:1 4:1 5:0 6:0 7:1 8:0 9:0 10:0 11:0 12:1 13:0 14:0 15:0 16:0 17:0 18:0 19:0 
-1 1 1 1 1 1 1 0:1 1:0 2:0 3:0 4:0 5:0 6:0 7:0 8:0 9:0 10:0 11:0 12:0 13:0 14:0 15:0 16:0 17:0 18:0 19:0 
-1 1 1 1 1 1 1 0:0 1:0 2:0 3:0 4:0 5:0 6:0 7:0 8:0 9:0 10:0 11:0 12:0 13:0 14:0 15:1 16:0 17:0 18:0 19:0 
-1 1 1 1 1 1 1 0:0 1:0 2:0 3:0 4:0 5:0 6:0 7:0 8:0 9:0 10:0 11:0 12:0 13:0 14:0 15:1 16:0 17:0 18:0 19:0 
-0 1 1 1 1 1 1 0:0 1:0 2:0 3:0 4:1 5:0 6:0 7:1 8:0 9:0 10:0 11:0 12:0 13:0 14:0 15:0 16:0 17:0 18:0 19:0 
-1 1 1 0 0 1 1 0:1 1:1 2:0 3:0 4:0 5:0 6:0 7:0 8:0 9:0 10:0 11:0 12:1 13:0 14:0 15:0 16:0 17:0 18:0 19:1 
-1 0 0 0 0.5059365884212217 1 0 0:1 1:0 2:0 3:0 4:0 5:0 6:0 7:0 8:0 9:0 10:1 11:0 12:1 13:0 14:1 15:0 16:0 17:0 18:0 19:1 
-0 0 0 1 1 0.84042966382324 0 0:0 1:0 2:0 3:0 4:1 5:0 6:0 7:1 8:0 9:0 10:0 11:0 12:0 13:0 14:0 15:1 16:0 17:0 18:0 19:0 
-1 0 0 0 1 0 0 0:0 1:0 2:0 3:0 4:1 5:0 6:0 7:0 8:0 9:0 10:1 11:0 12:0 13:0 14:1 15:1 16:0 17:0 18:0 19:0 
-1 0 0 1 0 1 0 0:0 1:0 2:0 3:0 4:0 5:0 6:0 7:0 8:0 9:1 10:0 11:1 12:0 13:0 14:0 15:1 16:0 17:0 18:0 19:1 
-0 0.6442420501811221 0 1 1 0 0 0:0 1:1 2:0 3:0 4:1 5:0 6:0 7:0 8:0 9:1 10:0 11:1 12:0 13:0 14:0 15:0 16:1 17:0 18:0 19:0 
-1 0 0.8605396711526221 1 1 0 0 0:0 1:0 2:0 3:1 4:0 5:0 6:0 7:0 8:0 9:0 10:1 11:0 12:0 13:0 14:1 15:0 16:1 17:0 18:0 19:0 
-1 1 1 1 1 1 1 0:0 1:0 2:0 3:0 4:0 5:0 6:0 7:0 8:0 9:0 10:0 11:0 12:1 13:0 14:0 15:0 16:0 17:0 18:0 19:0 
-0 0 0 1 1 1 0 0:0 1:0 2:0 3:0 4:0 5:0 6:0 7:0 8:0 9:1 10:0 11:1 12:1 13:0 14:0 15:0 16:1 17:0 18:0 19:0 
-0.4610069410161498 0 0 1 1 1 0.6051372728857954 0:0 1:1 2:0 3:0 4:0 5:0 6:0 7:0 8:0 9:1 10:0 11:1 12:1 13:0 14:0 15:0 16:1 17:0 18:0 19:0 
-1 0 0 0 1 0 0 0:0 1:1 2:0 3:0 4:0 5:0 6:0 7:0 8:0 9:0 10:1 11:0 12:0 13:0 14:1 15:1 16:0 17:0 18:0 19:0 
-0 0 0 0.5019169207620192 1 0 0 0:0 1:0 2:0 3:0 4:1 5:0 6:0 7:0 8:0 9:1 10:1 11:1 12:0 13:0 14:1 15:0 16:1 17:0 18:0 19:0 
-1 1 1 1 1 1 1 0:0 1:0 2:0 3:0 4:0 5:0 6:0 7:0 8:0 9:0 10:0 11:0 12:0 13:0 14:0 15:0 16:0 17:0 18:0 19:0 
-1 0 0 0 0.9446738135581583 0 0 0:0 1:1 2:0 3:0 4:0 5:0 6:0 7:0 8:0 9:0 10:1 11:0 12:0 13:0 14:1 15:1 16:0 17:0 18:0 19:0 
-0 0 0 1 1 0.6775263616007173 0 0:0 1:0 2:0 3:0 4:1 5:0 6:0 7:0 8:0 9:1 10:0 11:1 12:0 13:0 14:0 15:0 16:1 17:0 18:0 19:0 
-1 0 0 0 1 0 0 0:0 1:0 2:0 3:0 4:0 5:0 6:0 7:0 8:0 9:0 10:1 11:0 12:0 13:0 14:1 15:1 16:0 17:0 18:0 19:0 
-1 1 1 1 1 1 1 0:0 1:0 2:0 3:0 4:0 5:0 6:0 7:0 8:0 9:0 10:1 11:0 12:0 13:0 14:1 15:0 16:0 17:0 18:0 19:0 
-0 0 0.1506906699304813 1 1 1 0 0:0 1:0 2:0 3:0 4:0 5:0 6:0 7:0 8:0 9:1 10:0 11:1 12:0 13:0 14:0 15:1 16:0 17:0 18:0 19:0 
-1 1 1 1 1 1 1 0:0 1:0 2:0 3:0 4:0 5:0 6:0 7:0 8:0 9:0 10:1 11:0 12:0 13:0 14:1 15:0 16:0 17:0 18:0 19:0 
-1 0 0 0 0 0 0.1654640861449712 0:0 1:1 2:0 3:0 4:0 5:0 6:0 7:0 8:0 9:0 10:1 11:0 12:1 13:0 14:1 15:0 16:0 17:0 18:0 19:0 
-0 0 0 1 1 0 0 0:0 1:0 2:0 3:0 4:1 5:0 6:0 7:0 8:0 9:1 10:0 11:1 12:0 13:0 14:0 15:1 16:1 17:0 18:0 19:0 
-1 0 0 0 0 0.8123361831830397 1 0:1 1:1 2:0 3:0 4:0 5:0 6:0 7:0 8:0 9:0 10:1 11:0 12:1 13:0 14:1 15:0 16:0 17:0 18:0 19:0 
-1 1 1 1 1 1 1 0:0 1:1 2:0 3:0 4:0 5:0 6:0 7:0 8:0 9:0 10:0 11:0 12:0 13:0 14:0 15:1 16:0 17:0 18:0 19:0 
-1 0 0 0 1 1 0 0:0 1:0 2:0 3:0 4:0 5:0 6:0 7:0 8:0 9:0 10:1 11:0 12:1 13:0 14:1 15:0 16:0 17:0 18:0 19:0 
-1 1 1 1 1 1 1 0:0 1:0 2:0 3:0 4:0 5:0 6:0 7:0 8:0 9:0 10:0 11:0 12:0 13:0 14:0 15:0 16:0 17:0 18:0 19:0 
-0 0 0 0 0 1 0 0:1 1:0 2:0 3:0 4:1 5:0 6:0 7:1 8:0 9:1 10:0 11:1 12:1 13:0 14:0 15:0 16:0 17:0 18:0 19:0 
-1 0.5917005759333801 0 0 0 0 0.9976544383124014 0:0 1:1 2:0 3:0 4:0 5:0 6:0 7:0 8:0 9:0 10:1 11:0 12:1 13:0 14:1 15:0 16:0 17:0 18:0 19:0 
-1 1 1 1 1 1 1 0:0 1:0 2:0 3:0 4:0 5:0 6:0 7:0 8:0 9:0 10:1 11:0 12:0 13:0 14:1 15:0 16:0 17:0 18:0 19:0 
-1 1 1 1 1 1 1 0:0 1:0 2:0 3:0 4:0 5:0 6:0 7:0 8:0 9:0 10:0 11:0 12:0 13:0 14:0 15:1 16:0 17:0 18:0 19:0 
-0 0 1 1 1 1 1 0:1 1:0 2:0 3:0 4:0 5:0 6:0 7:0 8:0 9:0 10:0 11:0 12:0 13:0 14:0 15:1 16:0 17:0 18:0 19:0 
-1 1 1 1 1 1 1 0:0 1:0 2:0 3:0 4:0 5:0 6:0 7:0 8:0 9:0 10:0 11:0 12:0 13:0 14:0 15:1 16:0 17:0 18:0 19:0 
-1 1 1 1 1 1 1 0:0 1:0 2:0 3:0 4:0 5:0 6:0 7:0 8:0 9:0 10:0 11:0 12:0 13:0 14:0 15:0 16:0 17:0 18:0 19:0 
-1 1 1 1 1 1 1 0:0 1:0 2:0 3:0 4:0 5:0 6:0 7:0 8:0 9:0 10:0 11:0 12:0 13:0 14:0 15:0 16:0 17:0 18:0 19:0 
-1 1 1 1 1 1 1 0:0 1:0 2:0 3:0 4:0 5:0 6:0 7:0 8:0 9:0 10:0 11:0 12:0 13:0 14:0 15:1 16:0 17:0 18:0 19:0 
-0 0 1 0 1 0.02679235187291223 1 0:1 1:0 2:0 3:0 4:1 5:0 6:0 7:0 8:0 9:0 10:0 11:0 12:1 13:0 14:0 15:0 16:0 17:0 18:0 19:0 
-0 0 1 0 1 1 1 0:1 1:0 2:0 3:0 4:0 5:0 6:0 7:0 8:0 9:0 10:0 11:0 12:1 13:0 14:0 15:1 16:0 17:0 18:0 19:0 
-1 1 1 1 1 1 1 0:0 1:0 2:0 3:0 4:0 5:0 6:0 7:0 8:0 9:0 10:0 11:0 12:0 13:0 14:0 15:0 16:0 17:0 18:0 19:0 
-0.2965499684934277 0 0 0 1 1 1 0:1 1:0 2:0 3:0 4:0 5:0 6:0 7:0 8:0 9:0 10:1 11:0 12:1 13:0 14:1 15:0 16:0 17:0 18:0 19:0 
-1 1 1 1 1 1 1 0:1 1:0 2:0 3:0 4:0 5:0 6:0 7:0 8:0 9:0 10:0 11:0 12:0 13:0 14:0 15:0 16:0 17:0 18:0 19:0 
-1 0 0 0 0 0 0 0:0 1:0 2:0 3:0 4:0 5:0 6:0 7:0 8:0 9:0 10:1 11:0 12:1 13:0 14:1 15:1 16:0 17:0 18:0 19:0 
-0 1 1 1 1 1 1 0:0 1:0 2:0 3:0 4:0 5:0 6:0 7:0 8:0 9:1 10:0 11:1 12:0 13:0 14:0 15:0 16:1 17:0 18:0 19:0 
-0 0 0 1 0 1 0 0:0 1:0 2:0 3:0 4:0 5:0 6:0 7:1 8:0 9:1 10:0 11:1 12:1 13:0 14:0 15:0 16:0 17:0 18:0 19:0 
-1 1 1 1 1 1 1 0:0 1:1 2:0 3:0 4:0 5:0 6:0 7:0 8:0 9:0 10:0 11:0 12:0 13:0 14:0 15:0 16:0 17:0 18:0 19:0 
-1 0 1 0 1 1 1 0:0 1:0 2:0 3:0 4:0 5:0 6:0 7:0 8:0 9:0 10:0 11:0 12:1 13:0 14:0 15:1 16:0 17:0 18:0 19:0 
-0 0.9703746468216119 1 1 1 1 0.1995423437832345 0:0 1:0 2:0 3:0 4:1 5:0 6:0 7:0 8:0 9:1 10:0 11:1 12:0 13:0 14:0 15:0 16:0 17:0 18:0 19:0 
-1 1 1 1 1 1 1 0:0 1:0 2:0 3:0 4:0 5:0 6:0 7:0 8:0 9:0 10:1 11:0 12:0 13:0 14:1 15:0 16:0 17:0 18:0 19:0 
-0 0 0 0 1 0 0 0:1 1:0 2:0 3:0 4:0 5:0 6:0 7:0 8:0 9:1 10:1 11:1 12:1 13:0 14:1 15:1 16:1 17:0 18:0 19:0 
-0 0 0 0 1 1 1 0:1 1:1 2:0 3:0 4:0 5:0 6:0 7:0 8:0 9:1 10:0 11:1 12:1 13:0 14:0 15:0 16:1 17:0 18:0 19:0 
-1 1 1 1 1 1 1 0:0 1:1 2:0 3:0 4:0 5:0 6:0 7:0 8:0 9:0 10:0 11:0 12:0 13:0 14:0 15:1 16:0 17:0 18:0 19:0 
-1 -0 0 0 1 0 0 0:0 1:0 2:0 3:0 4:0 5:0 6:0 7:0 8:1 9:0 10:0 11:0 12:0 13:1 14:0 15:0 16:0 17:1 18:0 19:0 
-1 -0 1 1 0 0 0 0:0 1:0 2:0 3:0 4:0 5:0 6:1 7:0 8:0 9:0 10:0 11:0 12:0 13:1 14:0 15:0 16:0 17:1 18:0 19:0 
-0 -0 0 1 1 0 0 0:0 1:1 2:0 3:0 4:1 5:1 6:0 7:1 8:1 9:0 10:0 11:0 12:0 13:1 14:0 15:0 16:0 17:0 18:0 19:0 
-1 -0 0 0 0 0 0 0:0 1:1 2:1 3:0 4:0 5:1 6:0 7:0 8:1 9:0 10:0 11:0 12:0 13:1 14:0 15:0 16:0 17:0 18:1 19:1 
-1 -1 1 1 1 1 1 0:0 1:0 2:1 3:0 4:0 5:0 6:0 7:0 8:0 9:0 10:0 11:0 12:0 13:0 14:0 15:0 16:0 17:0 18:0 19:0 
-1 -0 0 0 0 0 0 0:0 1:0 2:1 3:0 4:0 5:0 6:1 7:0 8:1 9:0 10:0 11:0 12:0 13:1 14:0 15:0 16:0 17:1 18:1 19:1 
-1 -0 0 0 0 0.4376451582819718 1 0:0 1:1 2:1 3:0 4:0 5:1 6:0 7:0 8:0 9:0 10:0 11:0 12:0 13:0 14:0 15:0 16:0 17:0 18:0 19:0 
-1 -1 1 1 1 1 1 0:0 1:0 2:0 3:0 4:0 5:0 6:0 7:0 8:0 9:0 10:0 11:0 12:0 13:0 14:0 15:0 16:0 17:0 18:0 19:0 
-1 -1 1 1 0.09323398169091891 1 1 0:0 1:1 2:0 3:0 4:0 5:1 6:0 7:0 8:0 9:0 10:0 11:0 12:0 13:0 14:0 15:0 16:0 17:0 18:0 19:0 
-0 -1 1 1 1 1 1 0:0 1:0 2:0 3:0 4:0 5:0 6:1 7:0 8:0 9:0 10:0 11:0 12:0 13:0 14:0 15:0 16:0 17:0 18:0 19:0 
-1 -0 0 0 1 0 0.374062997935652 0:0 1:0 2:0 3:0 4:0 5:0 6:0 7:0 8:1 9:0 10:0 11:0 12:0 13:1 14:0 15:0 16:0 17:1 18:0 19:0 
-1 -1 1 1 1 1 1 0:0 1:1 2:0 3:0 4:0 5:1 6:0 7:0 8:0 9:0 10:0 11:0 12:0 13:0 14:0 15:0 16:0 17:0 18:0 19:0 
-0 -0 1 0 0 0 0 0:0 1:0 2:0 3:0 4:0 5:0 6:1 7:0 8:1 9:0 10:0 11:0 12:0 13:1 14:0 15:0 16:0 17:0 18:0 19:0 
-1 -0 0 0.5143930557531315 0 1 1 0:0 1:1 2:1 3:0 4:0 5:1 6:0 7:0 8:0 9:0 10:0 11:0 12:0 13:0 14:0 15:0 16:0 17:0 18:0 19:0 
-1 -1 1 1 1 1 1 0:0 1:1 2:0 3:0 4:0 5:1 6:0 7:0 8:0 9:0 10:0 11:0 12:0 13:0 14:0 15:0 16:0 17:0 18:0 19:0 
-1 -0 0 0 0 0 0 0:0 1:0 2:1 3:0 4:0 5:0 6:1 7:0 8:1 9:0 10:0 11:0 12:0 13:1 14:0 15:0 16:0 17:1 18:1 19:1 
-1 -1 0 1 1 0 0 0:0 1:0 2:0 3:0 4:1 5:0 6:0 7:0 8:1 9:0 10:0 11:0 12:0 13:1 14:0 15:0 16:0 17:1 18:0 19:0 
-0 -0 0 1 0 0 0 0:0 1:1 2:0 3:0 4:1 5:1 6:1 7:1 8:0 9:0 10:0 11:0 12:0 13:1 14:0 15:0 16:0 17:0 18:0 19:0 
-1 -0 0 0.2959827272969993 1 0.1701715795999977 1 0:0 1:0 2:0 3:0 4:0 5:0 6:0 7:0 8:1 9:0 10:0 11:0 12:0 13:1 14:0 15:0 16:0 17:1 18:0 19:0 
-1 -1 1 1 1 1 1 0:0 1:0 2:0 3:0 4:0 5:0 6:0 7:0 8:0 9:0 10:0 11:0 12:0 13:0 14:0 15:0 16:0 17:0 18:0 19:0 
-1 -0.6390455530328897 1 1 1 0.7215349714769796 0 0:0 1:0 2:0 3:0 4:1 5:0 6:1 7:1 8:1 9:0 10:0 11:0 12:0 13:0 14:0 15:0 16:0 17:1 18:0 19:0 
-1 -0.1769619389716355 1 0 0.9465302762189397 0 0 0:0 1:0 2:0 3:0 4:0 5:0 6:1 7:0 8:1 9:0 10:0 11:0 12:1 13:1 14:0 15:0 16:0 17:0 18:0 19:0 
-0 -0 0 1 1 0 0 0:0 1:0 2:0 3:0 4:1 5:0 6:1 7:1 8:1 9:0 10:0 11:0 12:0 13:1 14:0 15:0 16:0 17:0 18:0 19:0 
-1 -1 1 1 1 1 1 0:0 1:0 2:0 3:0 4:1 5:0 6:1 7:0 8:0 9:1 10:1 11:1 12:0 13:0 14:1 15:0 16:0 17:0 18:1 19:0 
-1 -1 1 1 1 1 1 0:0 1:0 2:1 3:0 4:0 5:0 6:0 7:0 8:0 9:0 10:0 11:0 12:0 13:0 14:0 15:0 16:0 17:0 18:0 19:0 
-1 -1 1 1 1 1 1 0:0 1:1 2:0 3:0 4:0 5:1 6:0 7:0 8:0 9:0 10:0 11:0 12:0 13:0 14:0 15:0 16:0 17:0 18:0 19:0 
-1 -0 0 1 0 0 1 0:0 1:1 2:0 3:0 4:0 5:1 6:0 7:0 8:0 9:0 10:0 11:0 12:0 13:1 14:0 15:0 16:0 17:0 18:0 19:0 
-1 -0 0.5704478035258975 0 1 0 0 0:0 1:0 2:1 3:0 4:0 5:0 6:1 7:0 8:1 9:0 10:0 11:0 12:0 13:0 14:0 15:0 16:0 17:1 18:1 19:0 
-1 -0 0 1 0 1 1 0:0 1:1 2:1 3:0 4:0 5:1 6:0 7:0 8:0 9:0 10:0 11:0 12:0 13:0 14:0 15:0 16:0 17:0 18:0 19:0 
-1 -0 0 0 0 0 0 0:0 1:1 2:1 3:0 4:0 5:0 6:1 7:0 8:1 9:0 10:0 11:0 12:0 13:0 14:0 15:0 16:0 17:0 18:1 19:0 
-1 -0 0.01462197275565868 1 0 1 1 0:0 1:1 2:1 3:0 4:0 5:1 6:0 7:0 8:0 9:0 10:0 11:0 12:0 13:0 14:0 15:0 16:0 17:0 18:0 19:0 
-1 -0 0 0 0 0 0 0:0 1:0 2:1 3:0 4:0 5:0 6:1 7:0 8:1 9:0 10:0 11:0 12:0 13:1 14:0 15:0 16:0 17:1 18:1 19:0 
-1 -0.6873074691628235 0 0 0 1 1 0:0 1:1 2:1 3:0 4:0 5:1 6:0 7:0 8:0 9:0 10:0 11:0 12:0 13:0 14:0 15:0 16:0 17:0 18:0 19:1 
-1 -1 1 1 1 1 1 0:0 1:1 2:0 3:0 4:0 5:1 6:0 7:0 8:0 9:0 10:0 11:0 12:0 13:0 14:0 15:0 16:0 17:0 18:0 19:0 
-0 -0 1 0 0 0 0 0:0 1:0 2:0 3:0 4:0 5:0 6:1 7:0 8:1 9:0 10:0 11:0 12:0 13:1 14:0 15:0 16:0 17:0 18:0 19:0 
-1 -0 1 0 1 0 0 0:0 1:0 2:1 3:0 4:0 5:0 6:1 7:0 8:1 9:0 10:0 11:0 12:0 13:0 14:0 15:0 16:0 17:0 18:1 19:0 
-0 -1 1 0 1 1 1 0:0 1:1 2:0 3:0 4:0 5:0 6:0 7:0 8:1 9:0 10:0 11:0 12:0 13:0 14:0 15:0 16:0 17:0 18:0 19:0 
-1 -1 1 1 1 1 1 0:0 1:1 2:0 3:0 4:0 5:0 6:0 7:0 8:0 9:0 10:0 11:0 12:0 13:0 14:0 15:0 16:0 17:0 18:0 19:1 
-0 -0 1 0 0 0 0 0:0 1:0 2:0 3:0 4:0 5:0 6:1 7:0 8:1 9:0 10:0 11:0 12:0 13:1 14:0 15:0 16:0 17:0 18:0 19:0 
-1 -0 0 1 1 1 1 0:0 1:0 2:0 3:0 4:0 5:0 6:0 7:0 8:1 9:0 10:0 11:0 12:0 13:1 14:0 15:0 16:0 17:1 18:0 19:0 
-1 -0 0 0 0 0 0 0:0 1:1 2:1 3:0 4:0 5:0 6:1 7:0 8:1 9:0 10:0 11:0 12:0 13:0 14:0 15:0 16:0 17:0 18:1 19:1 
-1 -1 1 1 1 1 1 0:0 1:0 2:0 3:0 4:0 5:0 6:0 7:0 8:0 9:0 10:0 11:0 12:0 13:0 14:0 15:0 16:0 17:0 18:0 19:0 
-1 -1 1 1 1 1 1 0:0 1:0 2:0 3:0 4:0 5:0 6:0 7:0 8:0 9:0 10:0 11:0 12:0 13:0 14:0 15:0 16:0 17:0 18:0 19:0 
-0.83136300336651 -1 1 0.7007975841564194 1 1 1 0:0 1:1 2:0 3:0 4:0 5:0 6:0 7:0 8:1 9:0 10:0 11:0 12:0 13:0 14:0 15:0 16:0 17:0 18:0 19:0 
-0 -1 1 1 1 1 1 0:0 1:0 2:0 3:0 4:0 5:0 6:1 7:0 8:0 9:0 10:0 11:0 12:0 13:0 14:0 15:0 16:0 17:0 18:0 19:0 
-1 -1 1 1 1 1 1 0:0 1:0 2:0 3:0 4:0 5:0 6:0 7:0 8:0 9:0 10:0 11:0 12:0 13:0 14:0 15:0 16:0 17:0 18:0 19:0 
-1 -0 0 0 0 0 0 0:0 1:1 2:1 3:0 4:0 5:1 6:0 7:0 8:1 9:0 10:0 11:0 12:0 13:1 14:0 15:0 16:0 17:0 18:1 19:1 
-0 -0 1 0 0 0 0 0:0 1:0 2:0 3:0 4:0 5:0 6:1 7:0 8:1 9:0 10:0 11:0 12:0 13:1 14:0 15:0 16:0 17:0 18:0 19:0 
-1 -0.2920795454668729 0 0.9901124442560846 1 1 0.9588039164898652 0:0 1:0 2:0 3:0 4:0 5:0 6:0 7:0 8:1 9:0 10:0 11:0 12:0 13:1 14:0 15:0 16:0 17:1 18:0 19:0 
-1 -1 1 1 0.9963028266685723 1 1 0:0 1:1 2:0 3:0 4:0 5:1 6:0 7:0 8:0 9:0 10:0 11:0 12:0 13:0 14:0 15:0 16:0 17:0 18:0 19:0 
-0.5743556551642708 -0 0 0 0 0 0 0:0 1:0 2:1 3:0 4:0 5:0 6:1 7:0 8:1 9:0 10:0 11:0 12:0 13:1 14:0 15:0 16:0 17:0 18:1 19:1 
-0 -1 1 1 1 1 1 0:0 1:0 2:0 3:0 4:0 5:0 6:1 7:0 8:0 9:0 10:0 11:0 12:0 13:0 14:0 15:0 16:0 17:0 18:0 19:0 
-1 -1 1 1 1 1 1 0:0 1:0 2:0 3:0 4:0 5:0 6:0 7:0 8:0 9:0 10:0 11:0 12:0 13:1 14:0 15:0 16:0 17:1 18:0 19:0 
-1 -1 1 1 1 1 1 0:0 1:0 2:0 3:0 4:0 5:0 6:0 7:0 8:0 9:0 10:0 11:0 12:0 13:0 14:0 15:0 16:0 17:0 18:0 19:1 
-0 -1 1 1 1 1 1 0:0 1:0 2:0 3:0 4:0 5:0 6:1 7:0 8:0 9:0 10:0 11:0 12:0 13:0 14:0 15:0 16:0 17:0 18:0 19:0 
-1 -0 0 1 0 0.8943479728666137 1 0:0 1:1 2:0 3:0 4:0 5:1 6:0 7:0 8:0 9:0 10:0 11:0 12:0 13:1 14:0 15:0 16:0 17:0 18:0 19:0 
-0 -1 1 1 1 1 1 0:0 1:0 2:0 3:0 4:0 5:0 6:1 7:0 8:0 9:0 10:0 11:0 12:0 13:0 14:0 15:0 16:0 17:0 18:0 19:0 
-0 -0 0 1 1 0 0 0:0 1:0 2:0 3:0 4:1 5:0 6:1 7:1 8:1 9:0 10:0 11:0 12:0 13:1 14:0 15:0 16:0 17:1 18:0 19:0 
-1 -0 0 0 1 0 0 0:0 1:0 2:1 3:0 4:0 5:0 6:0 7:0 8:1 9:0 10:0 11:0 12:0 13:1 14:0 15:0 16:0 17:1 18:1 19:1 
-1 -1 1 1 1 1 1 0:0 1:0 2:0 3:0 4:0 5:0 6:0 7:0 8:0 9:0 10:0 11:0 12:0 13:0 14:0 15:0 16:0 17:0 18:0 19:0 
-1 -1 0 1 1 0 0 0:0 1:1 2:0 3:0 4:1 5:1 6:0 7:0 8:1 9:0 10:1 11:0 12:0 13:1 14:1 15:0 16:0 17:0 18:0 19:0 
-1 -1 1 1 1 1 1 0:0 1:0 2:0 3:0 4:1 5:0 6:0 7:1 8:0 9:0 10:0 11:0 12:0 13:1 14:0 15:0 16:0 17:1 18:0 19:0 
-1 -1 1 1 1 1 1 0:0 1:0 2:0 3:0 4:0 5:0 6:1 7:0 8:0 9:0 10:0 11:0 12:0 13:0 14:0 15:0 16:0 17:0 18:0 19:0 
-1 -0 0 0 0 0 0 0:0 1:1 2:1 3:0 4:0 5:1 6:0 7:0 8:1 9:0 10:0 11:0 12:0 13:1 14:0 15:0 16:0 17:0 18:1 19:1 
-1 -0 0 0 0 0.234136515921921 0 0:0 1:1 2:0 3:0 4:0 5:1 6:0 7:0 8:0 9:0 10:0 11:0 12:0 13:1 14:0 15:0 16:0 17:0 18:1 19:1 
-0.9478992243002347 -0 0 0 0 0 0 0:0 1:1 2:1 3:0 4:0 5:1 6:1 7:0 8:1 9:0 10:0 11:0 12:0 13:1 14:0 15:0 16:0 17:0 18:1 19:1 
-1 -1 1 1 1 1 1 0:0 1:0 2:0 3:0 4:0 5:0 6:0 7:0 8:0 9:0 10:0 11:0 12:0 13:0 14:0 15:0 16:0 17:0 18:0 19:0 
-0.4345644040954549 -1 1 1 1 1 1 0:0 1:0 2:0 3:0 4:0 5:0 6:1 7:0 8:0 9:0 10:0 11:0 12:0 13:0 14:0 15:0 16:0 17:0 18:0 19:0 
-1 -0 0 0.7608998888846983 0 1 0.1734511076380414 0:0 1:1 2:0 3:0 4:0 5:1 6:0 7:0 8:0 9:0 10:0 11:0 12:0 13:1 14:0 15:0 16:0 17:0 18:1 19:1 
-1 -0 0 0.8153025706634115 0 0.8909484173232227 1 0:0 1:1 2:0 3:0 4:0 5:1 6:0 7:0 8:0 9:0 10:0 11:0 12:0 13:1 14:0 15:0 16:0 17:0 18:1 19:1 
-0 -1 1 1 1 1 1 0:0 1:0 2:0 3:0 4:0 5:0 6:1 7:0 8:0 9:0 10:0 11:0 12:0 13:0 14:0 15:0 16:0 17:0 18:0 19:0 
-1 -0 0 1 1 0 0 0:0 1:1 2:0 3:0 4:1 5:1 6:0 7:0 8:1 9:0 10:0 11:0 12:0 13:1 14:0 15:0 16:1 17:0 18:0 19:0 
-1 -1 1 1 1 1 1 0:0 1:0 2:0 3:0 4:0 5:0 6:0 7:0 8:0 9:0 10:0 11:0 12:0 13:0 14:0 15:0 16:0 17:0 18:0 19:0 
-1 -0 0 0 0 0 0 0:0 1:1 2:0 3:0 4:0 5:1 6:1 7:0 8:0 9:0 10:1 11:0 12:0 13:1 14:1 15:0 16:0 17:0 18:0 19:0 
-0 -0 -0.0506600176008706 0 0 0 0 0:0 1:0 2:0 3:0 4:0 5:0 6:1 7:0 8:0 9:0 10:0 11:0 12:0 13:0 14:0 15:0 16:0 17:0 18:0 19:0 
-0 -0 -0 0 0 0 1 0:0 1:0 2:0 3:0 4:0 5:0 6:0 7:0 8:0 9:0 10:0 11:0 12:0 13:0 14:0 15:0 16:0 17:0 18:0 19:0 
-0 -0 -0 0 0 0 1 0:0 1:0 2:0 3:0 4:0 5:0 6:0 7:0 8:0 9:0 10:0 11:0 12:0 13:0 14:0 15:0 16:0 17:0 18:0 19:0 
-0 -0 -0 0 0 0 1 0:0 1:0 2:0 3:0 4:0 5:0 6:0 7:0 8:0 9:0 10:0 11:0 12:0 13:0 14:0 15:0 16:0 17:0 18:0 19:0 
-0 -0 -1 0 0 0 0 0:0 1:0 2:0 3:0 4:0 5:0 6:1 7:0 8:0 9:0 10:0 11:0 12:0 13:0 14:0 15:0 16:0 17:0 18:0 19:0 
-0 -0 -0 0 0 0 1 0:0 1:0 2:0 3:0 4:0 5:0 6:0 7:0 8:0 9:0 10:0 11:0 12:0 13:0 14:0 15:0 16:0 17:0 18:0 19:0 
-1 -1 -1 1 1 1 0.728502597349553 0:0 1:0 2:0 3:0 4:0 5:0 6:1 7:0 8:1 9:0 10:0 11:0 12:0 13:0 14:0 15:0 16:0 17:0 18:0 19:0 
-0 -0 -0 0 0 0 1 0:0 1:0 2:0 3:0 4:0 5:0 6:0 7:0 8:0 9:0 10:0 11:0 12:0 13:0 14:0 15:0 16:0 17:0 18:0 19:0 
-0 -0 -0 0 0 0 1 0:0 1:0 2:0 3:0 4:0 5:0 6:0 7:0 8:0 9:0 10:0 11:0 12:0 13:0 14:0 15:0 16:0 17:0 18:0 19:0 
-0 -0 -0 0 0 0 1 0:0 1:0 2:0 3:0 4:0 5:0 6:0 7:0 8:0 9:0 10:0 11:0 12:0 13:0 14:0 15:0 16:0 17:0 18:0 19:0 
-0 -0 -0 0 0 0 1 0:0 1:0 2:0 3:0 4:0 5:0 6:0 7:0 8:0 9:0 10:0 11:0 12:0 13:0 14:0 15:0 16:0 17:0 18:0 19:0 
-0 -0 -1 0 0 0 0 0:0 1:0 2:0 3:0 4:0 5:0 6:1 7:0 8:0 9:0 10:0 11:0 12:0 13:0 14:0 15:0 16:0 17:0 18:0 19:0 
-0 -0 -0 0 0 0 1 0:0 1:0 2:0 3:0 4:0 5:0 6:0 7:0 8:0 9:0 10:0 11:0 12:0 13:0 14:0 15:0 16:0 17:0 18:0 19:0 
-0 -0 -0 0 0 0 1 0:0 1:0 2:0 3:0 4:0 5:0 6:0 7:0 8:0 9:0 10:0 11:0 12:0 13:0 14:0 15:0 16:0 17:0 18:0 19:0 
-0 -0 -0 0 0 0 1 0:0 1:0 2:0 3:0 4:0 5:0 6:0 7:0 8:0 9:0 10:0 11:0 12:0 13:0 14:0 15:0 16:0 17:0 18:0 19:0 
-0 -0 -0 0 0 0 1 0:0 1:0 2:0 3:0 4:0 5:0 6:0 7:0 8:0 9:0 10:0 11:0 12:0 13:0 14:0 15:0 16:0 17:0 18:0 19:0 
-0 -0 -0 0 0 0 1 0:0 1:0 2:0 3:0 4:0 5:0 6:0 7:0 8:0 9:0 10:0 11:0 12:0 13:0 14:0 15:0 16:0 17:0 18:0 19:0 
-0 -0 -0 0 0 0 1 0:0 1:0 2:0 3:0 4:0 5:0 6:0 7:0 8:0 9:0 10:0 11:0 12:0 13:0 14:0 15:0 16:0 17:0 18:0 19:0 
-0 -0 -0 0 0 0 1 0:0 1:0 2:0 3:0 4:0 5:0 6:0 7:0 8:0 9:0 10:0 11:0 12:0 13:0 14:0 15:0 16:0 17:0 18:0 19:0 
-0 -0 -0 0 0 0 1 0:0 1:0 2:0 3:0 4:0 5:0 6:0 7:0 8:0 9:0 10:0 11:0 12:0 13:0 14:0 15:0 16:0 17:0 18:0 19:0 
-0 -0 -0 0 0 0 1 0:0 1:0 2:0 3:0 4:0 5:0 6:0 7:0 8:0 9:0 10:0 11:0 12:0 13:0 14:0 15:0 16:0 17:0 18:0 19:0 
-0 -0 -0 0 0 0 1 0:0 1:0 2:0 3:0 4:0 5:0 6:0 7:0 8:0 9:0 10:0 11:0 12:0 13:0 14:0 15:0 16:0 17:0 18:0 19:0 
-0 -0 -0 0 0 0 1 0:1 1:0 2:0 3:0 4:0 5:0 6:0 7:0 8:0 9:0 10:0 11:0 12:0 13:0 14:0 15:0 16:0 17:0 18:0 19:0 
-0 -0 -0 0 0 0 1 0:0 1:0 2:0 3:0 4:0 5:0 6:0 7:0 8:0 9:0 10:0 11:0 12:0 13:0 14:0 15:0 16:0 17:0 18:0 19:0 
-0 -0 -0 0 0 0 1 0:0 1:0 2:0 3:0 4:0 5:0 6:0 7:0 8:0 9:0 10:0 11:0 12:0 13:0 14:0 15:0 16:0 17:0 18:0 19:0 
-0 -0 -0 0 0 0 1 0:0 1:0 2:0 3:0 4:0 5:0 6:0 7:0 8:0 9:0 10:0 11:0 12:0 13:0 14:0 15:0 16:0 17:0 18:0 19:0 
-0 -0 -0 0 0 0 1 0:0 1:0 2:0 3:0 4:0 5:0 6:0 7:0 8:0 9:0 10:0 11:0 12:0 13:0 14:0 15:0 16:0 17:0 18:0 19:0 
-0 -0 -0 0 0 0 1 0:0 1:0 2:0 3:0 4:0 5:0 6:0 7:0 8:0 9:0 10:0 11:0 12:0 13:0 14:0 15:0 16:0 17:0 18:0 19:0 
-0 -0 -1 0 0 0 0 0:0 1:0 2:0 3:0 4:0 5:0 6:1 7:0 8:0 9:0 10:0 11:0 12:0 13:0 14:0 15:0 16:0 17:0 18:0 19:0 
-0 -0 -0 0 0 0 1 0:0 1:0 2:0 3:0 4:0 5:0 6:0 7:0 8:0 9:0 10:0 11:0 12:0 13:0 14:0 15:0 16:0 17:0 18:0 19:0 
-0 -0 -0 0 0 0 1 0:0 1:0 2:0 3:0 4:0 5:0 6:0 7:0 8:0 9:0 10:0 11:0 12:0 13:0 14:0 15:0 16:0 17:0 18:0 19:0 
-0 -0 -0 0 0 0 1 0:0 1:0 2:0 3:0 4:0 5:0 6:0 7:0 8:0 9:0 10:0 11:0 12:0 13:0 14:0 15:0 16:0 17:0 18:0 19:0 
-0 -0 -0 0 0 0 1 0:0 1:0 2:0 3:0 4:0 5:0 6:0 7:0 8:0 9:0 10:0 11:0 12:0 13:0 14:0 15:0 16:0 17:0 18:0 19:0 
-0 -0 -0 0 0 0 1 0:0 1:0 2:0 3:0 4:0 5:0 6:0 7:0 8:0 9:0 10:0 11:0 12:0 13:0 14:0 15:0 16:0 17:0 18:0 19:0 
-0 -0 -0 0 0 0 1 0:0 1:0 2:0 3:0 4:0 5:0 6:0 7:0 8:0 9:0 10:0 11:0 12:0 13:0 14:0 15:0 16:0 17:0 18:0 19:0 
-0 -0 -0 0 0 0 1 0:0 1:0 2:0 3:0 4:0 5:0 6:0 7:0 8:0 9:0 10:0 11:0 12:0 13:0 14:0 15:0 16:0 17:0 18:0 19:0 
-0 -0 -0 0 0 0 1 0:1 1:0 2:0 3:0 4:0 5:0 6:0 7:0 8:0 9:0 10:0 11:0 12:0 13:0 14:0 15:0 16:0 17:0 18:0 19:0 
-0 -0 -0 0 0 0 1 0:0 1:0 2:0 3:0 4:0 5:0 6:0 7:0 8:0 9:0 10:0 11:0 12:0 13:0 14:0 15:0 16:0 17:0 18:0 19:0 
-0 -0 -0 0 0 0 1 0:1 1:0 2:0 3:0 4:0 5:0 6:0 7:0 8:0 9:0 10:0 11:0 12:0 13:0 14:0 15:0 16:0 17:0 18:0 19:0 
-0 -0 -0 0 0 0 1 0:0 1:0 2:0 3:0 4:0 5:0 6:0 7:0 8:0 9:0 10:0 11:0 12:0 13:0 14:0 15:0 16:0 17:0 18:0 19:0 
-0 -0 -1 0 0 0 0 0:0 1:0 2:0 3:0 4:0 5:0 6:1 7:0 8:0 9:0 10:0 11:0 12:0 13:0 14:0 15:0 16:0 17:0 18:0 19:0 
-0 -0 -0 0 0 0 1 0:0 1:0 2:0 3:0 4:0 5:0 6:0 7:0 8:0 9:0 10:0 11:0 12:0 13:0 14:0 15:0 16:0 17:0 18:0 19:0 
-0 -0 -0 0 0 0 1 0:0 1:0 2:0 3:0 4:0 5:0 6:0 7:0 8:0 9:0 10:0 11:0 12:0 13:0 14:0 15:0 16:0 17:0 18:0 19:0 
-0 -0 -0 0 0 0 1 0:0 1:0 2:0 3:0 4:0 5:0 6:0 7:0 8:0 9:0 10:0 11:0 12:0 13:0 14:0 15:0 16:0 17:0 18:0 19:0 
-0 -0 -0 0 0 0 1 0:1 1:0 2:0 3:0 4:0 5:0 6:0 7:0 8:0 9:0 10:0 11:0 12:0 13:0 14:0 15:0 16:0 17:0 18:0 19:0 
-0 -0 -1 0 0 0 0 0:0 1:0 2:0 3:0 4:0 5:0 6:1 7:0 8:0 9:0 10:0 11:0 12:0 13:0 14:0 15:0 16:0 17:0 18:0 19:0 
-0 -0 -0 0 0 0 1 0:0 1:0 2:0 3:0 4:0 5:0 6:0 7:0 8:0 9:0 10:0 11:0 12:0 13:0 14:0 15:0 16:0 17:0 18:0 19:0 
-0 -0 -0 0 0 0 1 0:0 1:0 2:0 3:0 4:0 5:0 6:0 7:0 8:0 9:0 10:0 11:0 12:0 13:0 14:0 15:0 16:0 17:0 18:0 19:0 
-0 -0 -0 0 0 0 1 0:0 1:0 2:0 3:0 4:0 5:0 6:0 7:0 8:0 9:0 10:0 11:0 12:0 13:0 14:0 15:0 16:0 17:0 18:0 19:0 
-0 -0 -1 0 0 0 0 0:0 1:0 2:0 3:0 4:0 5:0 6:1 7:0 8:0 9:0 10:0 11:0 12:0 13:0 14:0 15:0 16:0 17:0 18:0 19:0 
-0 -0 -0 0 0 0 1 0:1 1:0 2:0 3:0 4:0 5:0 6:0 7:0 8:0 9:0 10:0 11:0 12:0 13:0 14:0 15:0 16:0 17:0 18:0 19:0 
-0.2772361164187822 -0 -0 0 0 0 1 0:1 1:0 2:0 3:0 4:0 5:0 6:1 7:0 8:0 9:0 10:0 11:0 12:0 13:0 14:0 15:0 16:0 17:0 18:0 19:0 
-0 -0 -1 0 0 0 0.66625289278096 0:0 1:0 2:0 3:0 4:0 5:0 6:1 7:0 8:0 9:0 10:0 11:0 12:0 13:0 14:0 15:0 16:0 17:0 18:0 19:0 
-0 -0 -1 0 0 0 1 0:0 1:0 2:0 3:0 4:0 5:0 6:1 7:0 8:0 9:0 10:0 11:0 12:0 13:0 14:0 15:0 16:0 17:0 18:0 19:0 
-0 -0 -1 0 0 0 1 0:0 1:0 2:0 3:0 4:0 5:0 6:1 7:0 8:0 9:0 10:0 11:0 12:0 13:0 14:0 15:0 16:0 17:0 18:0 19:0 
-0 -0 -0 0 0 0 1 0:0 1:0 2:0 3:0 4:0 5:0 6:0 7:0 8:0 9:0 10:0 11:0 12:0 13:0 14:0 15:0 16:0 17:0 18:0 19:0 
-0 -0 -0 0 0 0 1 0:1 1:0 2:0 3:0 4:0 5:0 6:0 7:0 8:0 9:0 10:0 11:0 12:0 13:0 14:0 15:0 16:0 17:0 18:0 19:0 
-0 -0 -0 0 0 0 1 0:0 1:0 2:0 3:0 4:0 5:0 6:0 7:0 8:0 9:0 10:0 11:0 12:0 13:0 14:0 15:0 16:0 17:0 18:0 19:0 
-0 -0 -0 0 0 0 1 0:0 1:0 2:0 3:0 4:0 5:0 6:0 7:0 8:0 9:0 10:0 11:0 12:0 13:0 14:0 15:0 16:0 17:0 18:0 19:0 
-0 -0 -0 0 0 0 1 0:0 1:0 2:0 3:0 4:0 5:0 6:0 7:0 8:0 9:0 10:0 11:0 12:0 13:0 14:0 15:0 16:0 17:0 18:0 19:0 
-0 -0.4530374437829896 -0 0 0.1853317624362608 0 1 0:1 1:0 2:0 3:0 4:0 5:0 6:0 7:0 8:0 9:0 10:0 11:0 12:0 13:0 14:0 15:0 16:0 17:0 18:0 19:0 
-0 -0 -0 0 0 0 1 0:0 1:0 2:0 3:0 4:0 5:0 6:0 7:0 8:0 9:0 10:0 11:0 12:0 13:0 14:0 15:0 16:0 17:0 18:0 19:0 
-0 -1 -0 0 1 0.1867233279993177 1 0:1 1:0 2:0 3:0 4:0 5:0 6:0 7:0 8:0 9:0 10:0 11:0 12:0 13:0 14:0 15:0 16:0 17:0 18:0 19:0 
-0 -0 -0 0 0 0 1 0:0 1:0 2:0 3:0 4:0 5:0 6:0 7:0 8:0 9:0 10:0 11:0 12:0 13:0 14:0 15:0 16:0 17:0 18:0 19:0 
-0 -0 -0 0 0 0 1 0:0 1:0 2:0 3:0 4:0 5:0 6:0 7:0 8:0 9:0 10:0 11:0 12:0 13:0 14:0 15:0 16:0 17:0 18:0 19:0 
-0 -0 -1 0 0 0 1 0:0 1:0 2:0 3:0 4:0 5:0 6:1 7:0 8:0 9:0 10:0 11:0 12:0 13:0 14:0 15:0 16:0 17:0 18:0 19:0 
-0 -0 -0 0 0 0 1 0:0 1:0 2:0 3:0 4:0 5:0 6:0 7:0 8:0 9:0 10:0 11:0 12:0 13:0 14:0 15:0 16:0 17:0 18:0 19:0 
-0 -0 -0 0 0 0 1 0:0 1:0 2:0 3:0 4:0 5:0 6:0 7:0 8:0 9:0 10:0 11:0 12:0 13:0 14:0 15:0 16:0 17:0 18:0 19:0 
-0 -0 -0 0 0 0 1 0:0 1:0 2:0 3:0 4:0 5:0 6:0 7:0 8:0 9:0 10:0 11:0 12:0 13:0 14:0 15:0 16:0 17:0 18:0 19:0 
-0 -0 -0 0 0 0 1 0:0 1:0 2:0 3:0 4:0 5:0 6:0 7:0 8:0 9:0 10:0 11:0 12:0 13:0 14:0 15:0 16:0 17:0 18:0 19:0 
-0 -0 -0 0 0 0 1 0:0 1:0 2:0 3:0 4:0 5:0 6:0 7:0 8:0 9:0 10:0 11:0 12:0 13:0 14:0 15:0 16:0 17:0 18:0 19:0 
-0 -0 -0 0 0 0.4492113736298019 1 0:0 1:0 2:0 3:0 4:0 5:0 6:0 7:0 8:0 9:0 10:0 11:0 12:0 13:0 14:0 15:0 16:0 17:0 18:0 19:0 
-0 -0 -0 0 0 1 1 0:0 1:0 2:0 3:0 4:0 5:0 6:0 7:0 8:0 9:0 10:0 11:0 12:0 13:0 14:0 15:0 16:0 17:0 18:0 19:0 
-0 -1 -0 0 1 1 1 0:1 1:0 2:0 3:0 4:0 5:0 6:0 7:0 8:0 9:0 10:0 11:0 12:0 13:0 14:0 15:0 16:0 17:0 18:0 19:0 
-0 -0 -0 0 0 1 1 0:0 1:0 2:0 3:0 4:0 5:0 6:0 7:0 8:0 9:0 10:0 11:0 12:0 13:0 14:0 15:0 16:0 17:0 18:0 19:0 
-0 -0 -1 0 0 0 1 0:0 1:0 2:0 3:0 4:0 5:0 6:1 7:0 8:0 9:0 10:0 11:0 12:0 13:0 14:0 15:0 16:0 17:0 18:0 19:0 
-0 -1 -0 0 1 1 1 0:1 1:0 2:0 3:0 4:0 5:0 6:0 7:0 8:0 9:0 10:0 11:0 12:0 13:0 14:0 15:0 16:0 17:0 18:0 19:0 
-0 -1 -0 0 1 1 1 0:1 1:0 2:0 3:0 4:0 5:0 6:0 7:0 8:0 9:0 10:0 11:0 12:0 13:0 14:0 15:0 16:0 17:0 18:0 19:0 
-0 -0 -0 0.3836070198354034 0 1 1 0:0 1:0 2:0 3:0 4:0 5:0 6:0 7:0 8:0 9:0 10:0 11:0 12:0 13:0 14:0 15:0 16:0 17:0 18:0 19:0 
-0 -0 -0 1 0 1 1 0:0 1:0 2:0 3:0 4:0 5:0 6:0 7:0 8:0 9:0 10:0 11:0 12:0 13:0 14:0 15:0 16:0 17:0 18:0 19:0 
-0 -0 -0 1 0.7308114250481317 1 1 0:0 1:0 2:0 3:0 4:0 5:0 6:0 7:0 8:0 9:0 10:0 11:0 12:0 13:0 14:0 15:0 16:0 17:0 18:0 19:0 
-1 -0 -0 0 0 0 1 0:1 1:0 2:0 3:0 4:0 5:0 6:1 7:0 8:0 9:0 10:0 11:0 12:0 13:0 14:0 15:0 16:0 17:0 18:0 19:0 
-0 -0 -0 1 1 1 1 0:0 1:0 2:0 3:0 4:0 5:0 6:0 7:0 8:0 9:0 10:0 11:0 12:0 13:0 14:0 15:0 16:0 17:0 18:0 19:0 
-0 -1 -0 0 1 1 1 0:1 1:0 2:0 3:0 4:0 5:0 6:0 7:0 8:0 9:0 10:0 11:0 12:0 13:0 14:0 15:0 16:0 17:0 18:0 19:0 
-0.5405381347804145 -0.5615673265629191 -0.5893448263115793 0.7672554938887197 0.7618084071300483 0.4387633155816351 1 0:1 1:0 2:0 3:0 4:0 5:0 6:1 7:0 8:0 9:0 10:0 11:0 12:0 13:0 14:0 15:0 16:0 17:0 18:0 19:0 
-0 -0 -0 1 1 1 1 0:0 1:0 2:0 3:0 4:0 5:0 6:0 7:0 8:0 9:0 10:0 11:0 12:0 13:0 14:0 15:0 16:0 17:0 18:0 19:0 
-0 -0 -0 1 1 1 1 0:0 1:0 2:0 3:0 4:0 5:0 6:0 7:0 8:0 9:0 10:0 11:0 12:0 13:0 14:0 15:0 16:0 17:0 18:0 19:0 
-0 -0 -0 1 1 1 1 0:0 1:0 2:0 3:0 4:0 5:0 6:0 7:0 8:0 9:0 10:0 11:0 12:0 13:0 14:0 15:0 16:0 17:0 18:0 19:0 
-0 -0 -0 1 1 1 1 0:0 1:0 2:0 3:0 4:0 5:0 6:0 7:0 8:0 9:0 10:0 11:0 12:0 13:0 14:0 15:0 16:0 17:0 18:0 19:0 
-0 -0 -0 1 1 1 1 0:0 1:0 2:0 3:0 4:0 5:0 6:0 7:0 8:0 9:0 10:0 11:0 12:0 13:0 14:0 15:0 16:0 17:0 18:0 19:0 
-0 -1 -0 0 1 1 1 0:1 1:0 2:0 3:0 4:0 5:0 6:0 7:0 8:0 9:0 10:0 11:0 12:0 13:0 14:0 15:0 16:0 17:0 18:0 19:0 
-0 -0.009909576589720075 -0 1 1 1 1 0:0 1:0 2:0 3:0 4:0 5:0 6:0 7:0 8:0 9:0 10:0 11:0 12:0 13:0 14:0 15:0 16:0 17:0 18:0 19:0 
-0 -1 -0 1 1 1 1 0:0 1:0 2:0 3:0 4:0 5:0 6:0 7:0 8:0 9:0 10:0 11:0 12:0 13:0 14:0 15:0 16:0 17:0 18:0 19:0 
-0 -0 -1 0 0 0 1 0:0 1:0 2:0 3:0 4:0 5:0 6:1 7:0 8:0 9:0 10:0 11:0 12:0 13:0 14:0 15:0 16:0 17:0 18:0 19:0 
-0.8913695181154261 -1 -0 1 1 1 1 0:0 1:0 2:0 3:0 4:0 5:0 6:0 7:0 8:0 9:0 10:0 11:0 12:0 13:0 14:0 15:0 16:0 17:0 18:0 19:0 
-1 -1 -0 1 1 1 1 0:0 1:0 2:0 3:0 4:0 5:0 6:0 7:0 8:0 9:0 10:0 11:0 12:0 13:0 14:0 15:0 16:0 17:0 18:0 19:0 
-0 -0 -1 0 0 0 1 0:0 1:0 2:0 3:0 4:0 5:0 6:1 7:0 8:0 9:0 10:0 11:0 12:0 13:0 14:0 15:0 16:0 17:0 18:0 19:0 
-1 -1 -0 1 1 1 1 0:0 1:0 2:0 3:0 4:0 5:0 6:0 7:0 8:0 9:0 10:0 11:0 12:0 13:0 14:0 15:0 16:0 17:0 18:0 19:0 
-1 -1 -0 1 1 1 1 0:0 1:0 2:0 3:0 4:0 5:0 6:0 7:0 8:0 9:0 10:0 11:0 12:0 13:0 14:0 15:0 16:0 17:0 18:0 19:0 
-1 -1 -0 1 1 1 1 0:0 1:0 2:0 3:0 4:0 5:0 6:0 7:0 8:0 9:0 10:0 11:0 12:0 13:0 14:0 15:0 16:0 17:0 18:0 19:0 
-1 -1 -0 1 1 1 1 0:0 1:0 2:0 3:0 4:0 5:0 6:0 7:0 8:0 9:0 10:0 11:0 12:0 13:0 14:0 15:0 16:0 17:0 18:0 19:0 
-1 -1 -0.3071661719841423 1 1 1 1 0:0 1:0 2:0 3:0 4:0 5:0 6:0 7:0 8:0 9:0 10:0 11:0 12:0 13:0 14:0 15:0 16:0 17:0 18:0 19:0 
-1 -1 -1 1 1 1 1 0:0 1:0 2:0 3:0 4:0 5:0 6:0 7:0 8:0 9:0 10:0 11:0 12:0 13:0 14:0 15:0 16:0 17:0 18:0 19:0 
-1 -1 -1 1 1 1 1 0:0 1:0 2:0 3:0 4:0 5:0 6:0 7:0 8:0 9:0 10:0 11:0 12:0 13:0 14:0 15:0 16:0 17:0 18:0 19:0 
-1 -1 -1 1 1 1 1 0:0 1:0 2:0 3:0 4:0 5:0 6:0 7:0 8:0 9:0 10:0 11:0 12:0 13:0 14:0 15:0 16:0 17:0 18:0 19:0 
-0 -0 -1 0.2379960601691169 0 0 1 0:0 1:0 2:0 3:0 4:0 5:0 6:1 7:0 8:0 9:0 10:0 11:0 12:0 13:0 14:0 15:0 16:0 17:0 18:0 19:0 
-1 -1 -1 1 1 1 1 0:0 1:0 2:0 3:0 4:0 5:0 6:0 7:0 8:0 9:0 10:0 11:0 12:0 13:0 14:0 15:0 16:0 17:0 18:0 19:0 
-1 -1 -1 1 1 1 1 0:0 1:0 2:0 3:0 4:0 5:0 6:0 7:0 8:0 9:0 10:0 11:0 12:0 13:0 14:0 15:0 16:0 17:0 18:0 19:0 
-1 -1 -1 1 1 1 1 0:0 1:0 2:0 3:0 4:0 5:0 6:0 7:0 8:0 9:0 10:0 11:0 12:0 13:0 14:0 15:0 16:0 17:0 18:0 19:0 
-1 -1 -1 1 1 1 1 0:0 1:0 2:0 3:0 4:0 5:0 6:0 7:0 8:0 9:0 10:0 11:0 12:0 13:0 14:0 15:0 16:0 17:0 18:0 19:0 
-0.4875549855019469 -1 -0 0.9311164286088451 1 1 1 0:1 1:0 2:0 3:0 4:0 5:0 6:0 7:0 8:0 9:0 10:0 11:0 12:0 13:0 14:0 15:0 16:0 17:0 18:0 19:0 
-1 -1 -1 1 1 1 1 0:0 1:0 2:0 3:0 4:0 5:0 6:0 7:0 8:0 9:0 10:0 11:0 12:0 13:0 14:0 15:1 16:0 17:0 18:0 19:0 
-1 -1 -1 1 1 1 1 0:0 1:0 2:0 3:0 4:0 5:0 6:0 7:0 8:0 9:0 10:0 11:0 12:0 13:0 14:0 15:0 16:0 17:0 18:0 19:0 
-1 -1 -1 1 1 1 1 0:0 1:0 2:0 3:0 4:0 5:0 6:0 7:0 8:0 9:0 10:0 11:0 12:0 13:0 14:0 15:0 16:0 17:0 18:0 19:0 
-1 -1 -1 1 1 1 1 0:0 1:0 2:0 3:0 4:0 5:0 6:0 7:0 8:0 9:0 10:0 11:0 12:0 13:0 14:0 15:0 16:0 17:0 18:0 19:0 
-1 -1 -1 1 1 1 1 0:0 1:0 2:0 3:0 4:0 5:0 6:0 7:0 8:0 9:0 10:0 11:0 12:0 13:0 14:0 15:0 16:0 17:0 18:0 19:0 
-1 -1 -1 1 1 1 1 0:0 1:0 2:0 3:0 4:0 5:0 6:0 7:0 8:0 9:0 10:0 11:0 12:0 13:0 14:0 15:0 16:0 17:0 18:0 19:0 
-0 -0 -1 1 0 0 1 0:0 1:0 2:0 3:0 4:0 5:0 6:1 7:0 8:0 9:0 10:0 11:0 12:0 13:0 14:0 15:0 16:0 17:0 18:0 19:0 
-1 -1 -1 1 1 1 1 0:0 1:0 2:0 3:0 4:0 5:0 6:0 7:0 8:0 9:0 10:0 11:0 12:0 13:0 14:0 15:0 16:0 17:0 18:0 19:0 
-1 -1 -1 1 1 1 1 0:0 1:0 2:0 3:0 4:0 5:0 6:0 7:0 8:0 9:0 10:0 11:0 12:0 13:0 14:0 15:0 16:0 17:0 18:0 19:0 
-1 -1 -1 1 1 1 1 0:0 1:0 2:0 3:0 4:0 5:0 6:0 7:0 8:0 9:0 10:0 11:0 12:0 13:0 14:0 15:0 16:0 17:0 18:0 19:0 
-1 -0.9867159941474746 -0.7128877300778007 0 0.3402312669440458 0.6109171978962287 1 0:1 1:0 2:0 3:0 4:0 5:0 6:0 7:0 8:0 9:0 10:0 11:0 12:0 13:0 14:0 15:0 16:0 17:0 18:0 19:0 
-1 -1 -1 1 1 1 1 0:0 1:0 2:0 3:0 4:0 5:0 6:0 7:0 8:0 9:0 10:0 11:0 12:0 13:0 14:0 15:0 16:0 17:0 18:0 19:0 
-1 -1 -1 1 1 1 1 0:0 1:0 2:0 3:0 4:0 5:0 6:0 7:0 8:0 9:0 10:0 11:0 12:0 13:0 14:0 15:0 16:0 17:0 18:0 19:0 
-1 -1 -1 1 1 1 1 0:0 1:0 2:0 3:0 4:0 5:0 6:0 7:0 8:0 9:0 10:0 11:0 12:0 13:0 14:0 15:0 16:0 17:0 18:0 19:0 
-1 -1 -1 1 1 1 1 0:0 1:0 2:0 3:0 4:0 5:0 6:0 7:0 8:0 9:0 10:0 11:0 12:0 13:0 14:0 15:0 16:0 17:0 18:0 19:0 
-0.899553221133079 -0 -0.9250110303071635 0.5627544736337067 0.05923217264858328 0 0.9799616751168135 0:0 1:0 2:0 3:0 4:0 5:0 6:1 7:0 8:0 9:0 10:0 11:0 12:0 13:0 14:0 15:0 16:0 17:0 18:0 19:0 
-0.07615052695025155 -1 -1 1 1 1 1 0:0 1:0 2:0 3:0 4:0 5:0 6:0 7:0 8:0 9:0 10:0 11:0 12:0 13:0 14:0 15:0 16:0 17:0 18:0 19:0 
-1 -1 -1 -1 1 1 1 0:0 1:1 2:0 3:0 4:0 5:1 6:0 7:0 8:0 9:0 10:1 11:0 12:0 13:0 14:1 15:0 16:0 17:0 18:0 19:0 
-0 -0 -0 -1 0 0 1 0:0 1:0 2:0 3:1 4:0 5:0 6:0 7:0 8:0 9:0 10:0 11:0 12:0 13:0 14:0 15:0 16:0 17:0 18:0 19:0 
-1 -1 -0 -1 1 1 1 0:0 1:0 2:0 3:0 4:0 5:0 6:0 7:1 8:0 9:0 10:0 11:0 12:0 13:0 14:0 15:1 16:0 17:0 18:0 19:0 
-0 -0.08156232413486017 -0 -0 0 0 0 0:0 1:0 2:0 3:1 4:1 5:0 6:0 7:1 8:0 9:0 10:0 11:0 12:0 13:0 14:0 15:0 16:0 17:0 18:0 19:0 
-1 -1 -1 -1 1 1 1 0:0 1:0 2:0 3:0 4:0 5:0 6:0 7:0 8:0 9:0 10:0 11:0 12:0 13:0 14:0 15:1 16:0 17:0 18:0 19:0 
-0 -1 -0 -1 1 1 1 0:0 1:0 2:0 3:0 4:1 5:0 6:0 7:0 8:0 9:1 10:0 11:1 12:0 13:0 14:0 15:0 16:0 17:0 18:1 19:0 
-0.9090797351413504 -1 -1 -0 1 1 1 0:0 1:1 2:0 3:0 4:0 5:1 6:0 7:0 8:0 9:1 10:0 11:1 12:0 13:0 14:0 15:0 16:1 17:0 18:0 19:0 
-0 -0 -0 -0 1 0 0 0:0 1:0 2:0 3:1 4:1 5:0 6:0 7:0 8:0 9:0 10:0 11:0 12:0 13:1 14:0 15:0 16:1 17:0 18:0 19:0 
-0 -1 -0 -0 1 0 0 0:0 1:0 2:0 3:1 4:1 5:0 6:0 7:0 8:0 9:1 10:0 11:1 12:0 13:0 14:0 15:0 16:1 17:0 18:1 19:0 
-1 -1 -1 -1 1 1 1 0:0 1:0 2:0 3:0 4:1 5:0 6:0 7:0 8:0 9:0 10:0 11:0 12:0 13:1 14:0 15:0 16:0 17:0 18:0 19:0 
-0 -0 -0 -0 1 0 0 0:0 1:0 2:0 3:1 4:0 5:0 6:0 7:0 8:0 9:1 10:0 11:1 12:0 13:0 14:0 15:0 16:1 17:0 18:0 19:0 
-0.950222060824552 -1 -1 -0 1 1 1 0:0 1:1 2:0 3:0 4:0 5:1 6:0 7:0 8:0 9:1 10:0 11:1 12:0 13:0 14:0 15:0 16:1 17:0 18:0 19:0 
-0 -1 -0 -0 1 0 0 0:0 1:0 2:0 3:1 4:1 5:0 6:0 7:0 8:0 9:0 10:0 11:0 12:0 13:0 14:0 15:0 16:0 17:0 18:0 19:0 
-1 -1 -1 -1 1 1 1 0:0 1:0 2:0 3:0 4:0 5:0 6:0 7:0 8:0 9:0 10:0 11:0 12:0 13:0 14:0 15:0 16:0 17:0 18:0 19:0 
-0 -0 -0 -1 0 0 1 0:0 1:0 2:0 3:1 4:0 5:0 6:0 7:0 8:0 9:0 10:0 11:0 12:0 13:0 14:0 15:0 16:0 17:0 18:0 19:0 
-0 -0 -0 -0 1 0 0 0:0 1:0 2:0 3:1 4:0 5:0 6:0 7:0 8:0 9:0 10:0 11:0 12:0 13:0 14:0 15:0 16:1 17:0 18:0 19:0 
-0 -0.09602625144856294 -0 -0 0 0 0 0:0 1:1 2:0 3:1 4:1 5:0 6:1 7:0 8:0 9:0 10:0 11:0 12:0 13:0 14:0 15:0 16:1 17:0 18:0 19:0 
-1 -1 -1 -1 1 1 1 0:0 1:1 2:0 3:0 4:0 5:0 6:0 7:0 8:0 9:0 10:0 11:0 12:0 13:0 14:0 15:0 16:0 17:0 18:0 19:0 
-1 -1 -1 -1 1 1 1 0:0 1:0 2:0 3:0 4:0 5:0 6:0 7:0 8:0 9:0 10:0 11:0 12:0 13:0 14:0 15:0 16:0 17:0 18:0 19:0 
-1 -1 -1 -1 1 1 1 0:0 1:0 2:0 3:0 4:0 5:0 6:0 7:0 8:0 9:0 10:0 11:0 12:0 13:0 14:0 15:0 16:0 17:0 18:0 19:0 
-1 -1 -1 -1 1 1 1 0:0 1:0 2:1 3:0 4:0 5:0 6:0 7:0 8:0 9:1 10:0 11:1 12:0 13:0 14:0 15:0 16:0 17:0 18:0 19:1 
-1 -0 -1 -1 1 1 1 0:0 1:0 2:0 3:0 4:0 5:0 6:0 7:0 8:0 9:0 10:0 11:0 12:0 13:1 14:0 15:0 16:0 17:1 18:0 19:0 
-0 -0 -1 -0.2443415946998301 1 0 0 0:0 1:0 2:0 3:0 4:1 5:0 6:1 7:0 8:0 9:0 10:0 11:0 12:0 13:1 14:0 15:0 16:1 17:0 18:0 19:0 
-0 -1 -0 -0 1 1 0 0:0 1:0 2:0 3:0 4:1 5:0 6:0 7:1 8:0 9:1 10:0 11:1 12:0 13:1 14:0 15:0 16:0 17:1 18:0 19:0 
-1 -0 -1 -1 1 0 1 0:0 1:0 2:0 3:0 4:1 5:0 6:0 7:0 8:0 9:0 10:0 11:0 12:0 13:1 14:0 15:0 16:0 17:1 18:0 19:0 
-1 -0 -1 -0 1 0 0 0:0 1:0 2:0 3:0 4:1 5:0 6:0 7:0 8:0 9:0 10:0 11:0 12:0 13:1 14:0 15:0 16:1 17:1 18:0 19:0 
-0 -0.3263002906315219 -0 -0 1 0 0 0:0 1:0 2:0 3:1 4:0 5:0 6:0 7:0 8:0 9:1 10:0 11:1 12:0 13:0 14:0 15:0 16:1 17:0 18:0 19:1 
-1 -1 -0 -1 1 1 1 0:0 1:0 2:0 3:0 4:0 5:0 6:0 7:0 8:0 9:0 10:0 11:0 12:0 13:0 14:0 15:1 16:1 17:0 18:0 19:0 
-1 -0.9607529674263737 -1 -0 1 0 0 0:0 1:0 2:0 3:0 4:1 5:0 6:1 7:1 8:0 9:0 10:0 11:0 12:0 13:1 14:0 15:1 16:0 17:1 18:0 19:0 
-0 -1 -0 -0 0 0 0 0:0 1:0 2:0 3:1 4:0 5:0 6:0 7:0 8:0 9:1 10:0 11:1 12:0 13:0 14:0 15:0 16:0 17:0 18:0 19:0 
-1 -1 -1 -0.8769005567417076 1 1 1 0:0 1:1 2:0 3:0 4:1 5:0 6:1 7:0 8:0 9:0 10:1 11:0 12:0 13:0 14:1 15:0 16:0 17:0 18:0 19:0 
-1 -1 -0 -0 0 1 0 0:0 1:0 2:0 3:1 4:0 5:0 6:0 7:1 8:0 9:1 10:1 11:1 12:0 13:0 14:1 15:0 16:0 17:0 18:0 19:1 
-0 -0.9733771521026213 -0 -0 1 0 0 0:0 1:0 2:0 3:1 4:0 5:0 6:0 7:0 8:0 9:1 10:0 11:1 12:0 13:0 14:0 15:0 16:1 17:0 18:0 19:1 
-0 -0 -0 -0 0 1 0 0:0 1:0 2:0 3:1 4:0 5:0 6:0 7:1 8:0 9:1 10:0 11:1 12:0 13:0 14:0 15:0 16:1 17:0 18:0 19:1 
-0 -1 -0.8108774692865998 -0 1 1 0 0:0 1:0 2:0 3:0 4:1 5:0 6:1 7:0 8:0 9:1 10:0 11:1 12:0 13:0 14:0 15:0 16:1 17:0 18:1 19:0 
-1 -0 -1 -0 0 0 0 0:0 1:1 2:0 3:1 4:1 5:1 6:1 7:1 8:0 9:0 10:1 11:0 12:0 13:1 14:1 15:0 16:0 17:0 18:0 19:0 
-0 -1 -0 -0 0 1 0 0:0 1:0 2:0 3:1 4:0 5:0 6:0 7:0 8:0 9:1 10:0 11:1 12:0 13:0 14:0 15:0 16:0 17:0 18:0 19:0 
-0 -1 -0 -1 1 1 1 0:0 1:0 2:0 3:0 4:0 5:0 6:0 7:1 8:0 9:1 10:0 11:1 12:0 13:0 14:0 15:0 16:0 17:0 18:0 19:1 
-1 -1 -0.0805881466877271 -0 1 0 0 0:0 1:0 2:0 3:0 4:1 5:0 6:0 7:0 8:0 9:1 10:1 11:1 12:0 13:1 14:1 15:0 16:0 17:1 18:1 19:0 
-1 -0 -1 -0 0 0 0.8347800675497423 0:0 1:1 2:0 3:1 4:0 5:1 6:0 7:0 8:0 9:0 10:0 11:0 12:0 13:0 14:0 15:0 16:1 17:0 18:0 19:0 
-1 -1 -0 -0 1 0 0 0:0 1:1 2:0 3:1 4:1 5:0 6:1 7:0 8:0 9:0 10:1 11:0 12:0 13:0 14:1 15:0 16:1 17:0 18:0 19:0 
-0 -0 -0 -0 0 0.598110854962899 0 0:0 1:1 2:0 3:1 4:0 5:1 6:0 7:1 8:0 9:1 10:0 11:1 12:0 13:0 14:0 15:0 16:0 17:0 18:0 19:0 
-0 -0 -1 -1 0 0 0 0:0 1:0 2:0 3:1 4:1 5:0 6:1 7:0 8:0 9:0 10:0 11:0 12:0 13:0 14:0 15:0 16:0 17:0 18:0 19:0 
-0 -0 -0 -0 1 0 0 0:0 1:0 2:0 3:1 4:1 5:0 6:0 7:0 8:0 9:1 10:0 11:1 12:0 13:1 14:0 15:0 16:1 17:0 18:1 19:0 
-1 -1 -0 -0 1 0 0 0:0 1:0 2:0 3:0 4:1 5:0 6:0 7:0 8:0 9:1 10:1 11:1 12:0 13:1 14:1 15:0 16:1 17:1 18:1 19:0 
-0 -0 -0 -0 1 0 0 0:0 1:0 2:0 3:1 4:0 5:0 6:0 7:0 8:0 9:1 10:0 11:1 12:0 13:0 14:0 15:0 16:1 17:0 18:0 19:0 
-1 -1 -1 -1 1 1 1 0:0 1:0 2:0 3:0 4:0 5:0 6:0 7:0 8:0 9:0 10:0 11:0 12:0 13:0 14:0 15:0 16:1 17:0 18:0 19:0 
-0 -0 -0 -0 0 1 0 0:0 1:1 2:0 3:1 4:0 5:1 6:0 7:1 8:0 9:1 10:0 11:1 12:0 13:0 14:0 15:0 16:0 17:0 18:0 19:0 
-1 -0.4843242761768589 -1 -0 1 0.6182238082372511 0 0:0 1:0 2:0 3:0 4:1 5:0 6:0 7:0 8:0 9:1 10:0 11:1 12:0 13:1 14:0 15:0 16:0 17:1 18:1 19:1 
-0 -1 -0 -0 1 0.8477434450894338 0.004564729745456742 0:0 1:0 2:0 3:0 4:1 5:0 6:0 7:0 8:0 9:0 10:0 11:0 12:0 13:1 14:0 15:0 16:1 17:0 18:0 19:0 
-1 -1 -1 -1 1 1 1 0:0 1:0 2:0 3:0 4:0 5:0 6:0 7:0 8:0 9:0 10:0 11:0 12:0 13:0 14:0 15:0 16:0 17:0 18:0 19:0 
-0 -1 -0 -0 0 1 0 0:0 1:0 2:0 3:1 4:0 5:0 6:0 7:0 8:0 9:1 10:0 11:1 12:0 13:0 14:0 15:0 16:0 17:0 18:0 19:0 
-0 -0 -0 -0 1 0 0 0:0 1:0 2:0 3:1 4:1 5:0 6:0 7:0 8:0 9:1 10:0 11:1 12:0 13:1 14:0 15:0 16:1 17:0 18:1 19:0 
-0 -1 -1 -0 1 1 0 0:0 1:0 2:0 3:0 4:1 5:0 6:0 7:1 8:0 9:0 10:0 11:0 12:0 13:1 14:0 15:0 16:0 17:0 18:0 19:0 
-0 -1 -0 -0 0 0.7352722775921317 0 0:0 1:1 2:0 3:1 4:0 5:0 6:0 7:0 8:0 9:1 10:0 11:1 12:0 13:0 14:0 15:0 16:1 17:0 18:0 19:1 
-1 -1 -1 -1 1 1 1 0:0 1:1 2:0 3:0 4:0 5:1 6:0 7:0 8:0 9:0 10:0 11:0 12:0 13:0 14:0 15:0 16:0 17:0 18:0 19:0 
-1 -1 -1 -1 1 1 1 0:0 1:0 2:0 3:0 4:1 5:0 6:0 7:0 8:0 9:0 10:0 11:0 12:0 13:1 14:0 15:0 16:0 17:0 18:0 19:0 
-0 -0 -0.7441136613928921 -1 0 1 1 0:0 1:0 2:0 3:1 4:0 5:0 6:0 7:0 8:0 9:0 10:0 11:0 12:0 13:0 14:0 15:0 16:0 17:0 18:0 19:0 
-1 -1 -0.5558474542494876 -1 1 1 1 0:0 1:0 2:0 3:0 4:0 5:0 6:0 7:0 8:0 9:0 10:0 11:0 12:0 13:0 14:0 15:1 16:1 17:0 18:0 19:0 
-1 -1 -1 -1 1 1 1 0:0 1:0 2:0 3:0 4:0 5:0 6:0 7:0 8:0 9:0 10:0 11:0 12:0 13:0 14:0 15:0 16:0 17:0 18:0 19:0 
-0 -1 -0 -0 1 1 0 0:0 1:0 2:0 3:0 4:0 5:0 6:0 7:1 8:0 9:1 10:0 11:1 12:0 13:0 14:0 15:1 16:0 17:0 18:0 19:0 
-0 -0 -1 -0 0 0 0 0:0 1:1 2:0 3:1 4:1 5:1 6:1 7:1 8:0 9:0 10:0 11:0 12:0 13:1 14:0 15:0 16:0 17:0 18:0 19:0 
-0.7369448896893624 -1 -1 -1 1 1 1 0:0 1:0 2:0 3:0 4:0 5:0 6:0 7:1 8:0 9:0 10:0 11:0 12:0 13:0 14:0 15:0 16:0 17:0 18:0 19:0 
-0 -0 -0 -0 0 1 0 0:0 1:0 2:0 3:1 4:0 5:0 6:0 7:1 8:0 9:1 10:0 11:1 12:0 13:0 14:0 15:0 16:0 17:0 18:0 19:0 
-0 -1 -0 -0 0 1 0 0:0 1:0 2:0 3:1 4:0 5:0 6:0 7:0 8:0 9:1 10:0 11:1 12:0 13:0 14:0 15:0 16:0 17:0 18:0 19:0 
-0 -0 -0 -0 0 0.96968090698892 0 0:0 1:0 2:0 3:1 4:0 5:0 6:0 7:1 8:0 9:1 10:0 11:1 12:0 13:0 14:0 15:0 16:0 17:0 18:0 19:0 
-0 -1 -0 -0 0 0 0 0:0 1:0 2:0 3:1 4:0 5:0 6:0 7:1 8:0 9:0 10:0 11:0 12:0 13:0 14:0 15:1 16:0 17:0 18:0 19:0 
-1 -1 -0 -0 1 0.1844234847469697 0 0:0 1:0 2:0 3:1 4:0 5:0 6:0 7:0 8:0 9:1 10:1 11:1 12:0 13:0 14:1 15:0 16:0 17:0 18:0 19:0 
-0 -1 -0 -0 0 0 0 0:0 1:0 2:0 3:1 4:0 5:0 6:0 7:1 8:0 9:0 10:0 11:0 12:0 13:0 14:0 15:1 16:0 17:0 18:0 19:0 
-1 -1 -1 -1 1 1 1 0:0 1:1 2:0 3:0 4:0 5:0 6:0 7:1 8:0 9:0 10:0 11:0 12:0 13:0 14:0 15:0 16:0 17:0 18:0 19:0 
-1 -1 -1 -1 1 1 1 0:0 1:0 2:0 3:0 4:0 5:0 6:0 7:0 8:0 9:0 10:0 11:0 12:0 13:0 14:0 15:0 16:0 17:0 18:0 19:0 
-1 -1 -1 -1 1 1 1 0:0 1:0 2:0 3:0 4:0 5:0 6:0 7:0 8:0 9:0 10:0 11:0 12:0 13:0 14:0 15:0 16:0 17:0 18:0 19:0 
-1 -1 -1 -1 1 1 1 0:0 1:0 2:0 3:0 4:0 5:0 6:0 7:0 8:0 9:0 10:0 11:0 12:0 13:0 14:0 15:0 16:0 17:0 18:0 19:0 
-0.4853547283870164 -0 -1 -0 0 0 0.09524629056553591 0:0 1:1 2:0 3:1 4:0 5:1 6:0 7:1 8:0 9:0 10:0 11:0 12:0 13:0 14:0 15:0 16:0 17:0 18:0 19:0 
-0 -0 -1 -1 0 1 1 0:0 1:0 2:0 3:1 4:0 5:0 6:0 7:0 8:0 9:0 10:0 11:0 12:0 13:0 14:0 15:0 16:0 17:0 18:0 19:0 
-0 -1 -0 -0 1 0 0 0:0 1:0 2:0 3:1 4:1 5:0 6:0 7:0 8:0 9:0 10:0 11:0 12:0 13:0 14:0 15:0 16:0 17:0 18:0 19:0 
-0 -0 -1 -1 0 0.5945087998510291 1 0:0 1:0 2:0 3:1 4:0 5:0 6:0 7:0 8:0 9:0 10:0 11:0 12:0 13:0 14:0 15:0 16:0 17:0 18:0 19:0 
-0 -0 -0.9946908090824216 -1 0 0 1 0:0 1:0 2:0 3:1 4:0 5:0 6:0 7:0 8:0 9:0 10:0 11:0 12:0 13:0 14:0 15:0 16:0 17:0 18:0 19:0 
-1 -1 -0.9207070729767856 -1 1 1 1 0:0 1:0 2:0 3:0 4:0 5:0 6:0 7:1 8:0 9:0 10:0 11:0 12:0 13:0 14:0 15:1 16:0 17:0 18:0 19:0 
-0 -0 -0 -0.01825674634519833 1 0 0 0:0 1:0 2:0 3:1 4:0 5:0 6:0 7:0 8:0 9:0 10:0 11:0 12:0 13:0 14:0 15:0 16:1 17:0 18:0 19:0 
-1 -1 -1 -1 1 1 1 0:0 1:1 2:0 3:0 4:0 5:0 6:0 7:0 8:0 9:0 10:0 11:0 12:0 13:0 14:0 15:0 16:0 17:0 18:0 19:0 
-1 -1 -1 -1 0.6046853178619519 1 1 0:0 1:1 2:0 3:0 4:0 5:1 6:0 7:1 8:0 9:0 10:0 11:0 12:0 13:0 14:0 15:0 16:0 17:0 18:0 19:0 
-0 -0 -0 -1 1 0 0 0:0 1:0 2:0 3:1 4:0 5:0 6:0 7:0 8:0 9:0 10:0 11:0 12:0 13:0 14:0 15:0 16:1 17:0 18:0 19:0 
-1 -1 -1 -1 1 1 1 0:0 1:0 2:0 3:0 4:0 5:0 6:0 7:0 8:0 9:0 10:0 11:0 12:0 13:0 14:0 15:1 16:0 17:0 18:0 19:0 
-1 -1 -0 -1 1 0.7131743903491363 0.569016208120365 0:0 1:0 2:0 3:1 4:0 5:0 6:0 7:0 8:0 9:0 10:0 11:0 12:0 13:0 14:0 15:1 16:0 17:0 18:0 19:0 
-0 -0 -0 -0 0 0.8137951500177544 0 0:0 1:0 2:0 3:1 4:0 5:0 6:0 7:1 8:0 9:0 10:0 11:0 12:0 13:0 14:0 15:0 16:0 17:0 18:0 19:0 
-0 -0 -0 -0 0 1 0 0:0 1:0 2:0 3:1 4:0 5:0 6:0 7:1 8:0 9:0 10:0 11:0 12:0 13:0 14:0 15:0 16:0 17:0 18:0 19:0 
-0 -1 -0.970663657334831 -0 1 1 0 0:0 1:0 2:0 3:0 4:1 5:0 6:0 7:1 8:0 9:0 10:0 11:0 12:0 13:1 14:0 15:0 16:0 17:0 18:0 19:0 
-0 -0 -0 -0 0 1 0 0:0 1:0 2:0 3:1 4:0 5:0 6:0 7:1 8:0 9:0 10:0 11:0 12:0 13:0 14:0 15:0 16:0 17:0 18:0 19:0 
-0 -0 -0 -0 0 1 0 0:0 1:0 2:0 3:1 4:0 5:0 6:0 7:1 8:0 9:0 10:0 11:0 12:0 13:0 14:0 15:0 16:0 17:0 18:0 19:0 
-0 -1 -0 -0.08902474731904471 0.9178081787786543 0.943714936682082 0 0:0 1:0 2:0 3:1 4:0 5:0 6:0 7:0 8:0 9:1 10:0 11:1 12:0 13:0 14:0 15:0 16:0 17:0 18:0 19:0 
-1 -0 -1 -0 0 0.7512746213948436 1 0:0 1:1 2:0 3:1 4:0 5:1 6:0 7:0 8:0 9:0 10:0 11:0 12:0 13:0 14:0 15:0 16:0 17:0 18:0 19:0 
-0 -0 -0 -1 1 0 0.01903609795499894 0:0 1:0 2:0 3:1 4:0 5:0 6:0 7:0 8:0 9:0 10:0 11:0 12:0 13:0 14:0 15:0 16:1 17:0 18:0 19:0 
-0 -0 -1 -0 1 0 0 0:0 1:0 2:0 3:0 4:1 5:0 6:0 7:1 8:0 9:0 10:0 11:0 12:0 13:1 14:0 15:0 16:0 17:1 18:0 19:0 
-0 -0 -0 -1 1 0 1 0:0 1:0 2:0 3:1 4:0 5:0 6:0 7:0 8:0 9:0 10:0 11:0 12:0 13:0 14:0 15:0 16:1 17:0 18:0 19:0 
-0 -0.9794947185822712 -0 -0 0 0 0 0:0 1:0 2:0 3:1 4:1 5:0 6:0 7:1 8:0 9:0 10:0 11:0 12:0 13:0 14:0 15:0 16:0 17:0 18:0 19:0 
-1 -0.3895505106874026 -1 -1 1 0 1 0:0 1:0 2:0 3:0 4:1 5:0 6:0 7:0 8:0 9:0 10:0 11:0 12:0 13:1 14:0 15:0 16:0 17:1 18:0 19:0 
-0 -1 -0 -0 1 0 0.9739483477178652 0:0 1:0 2:0 3:1 4:1 5:0 6:0 7:0 8:0 9:0 10:0 11:0 12:0 13:0 14:0 15:0 16:0 17:0 18:0 19:0 
-0 -1 -0 -0 0.1297210144507788 0 0 0:0 1:0 2:0 3:1 4:0 5:0 6:0 7:1 8:0 9:0 10:0 11:0 12:0 13:0 14:0 15:1 16:0 17:0 18:0 19:0 
-0 -0 -0 -0.6542058310300113 0 1 0.7310407727037544 0:0 1:0 2:0 3:1 4:0 5:0 6:0 7:1 8:0 9:0 10:0 11:0 12:0 13:0 14:0 15:0 16:0 17:0 18:0 19:0 
-1 -0 -1 -0 0 0 0.9860511934058113 0:0 1:1 2:0 3:1 4:0 5:1 6:0 7:1 8:0 9:0 10:0 11:0 12:0 13:0 14:0 15:0 16:0 17:0 18:0 19:0 
-0 -0 -0 -0 0 0.2668654311245693 0 0:0 1:1 2:0 3:1 4:0 5:0 6:0 7:1 8:0 9:1 10:0 11:1 12:0 13:0 14:0 15:0 16:0 17:0 18:0 19:0 
-0 -0 -0 -0 0.7789686597424802 0 0 0:0 1:0 2:0 3:1 4:0 5:0 6:0 7:1 8:0 9:1 10:0 11:1 12:0 13:0 14:0 15:0 16:1 17:0 18:0 19:0 
-0 -1 -0 -0 -0 0.4800867303906475 0 0:0 1:0 2:0 3:0 4:0 5:0 6:0 7:0 8:0 9:0 10:0 11:0 12:0 13:0 14:0 15:1 16:1 17:0 18:0 19:0 
-1 -1 -0 -0 -0 1 1 0:1 1:0 2:0 3:0 4:0 5:0 6:0 7:0 8:0 9:0 10:1 11:0 12:1 13:0 14:1 15:0 16:0 17:0 18:0 19:0 
-0 -1 -0 -0 -0 0 0 0:1 1:0 2:0 3:0 4:1 5:0 6:0 7:0 8:0 9:0 10:0 11:0 12:1 13:0 14:0 15:0 16:1 17:0 18:0 19:0 
-0 -1 -0 -0 -0 0 0 0:0 1:0 2:0 3:0 4:0 5:0 6:0 7:0 8:0 9:1 10:1 11:1 12:0 13:0 14:1 15:0 16:1 17:0 18:0 19:0 
-0 -1 -0 -0 -1 1 0 0:0 1:0 2:0 3:1 4:0 5:0 6:0 7:0 8:0 9:1 10:0 11:1 12:0 13:0 14:0 15:0 16:1 17:0 18:0 19:0 
-1 -1 -0 -0 -1 0 0 0:0 1:0 2:0 3:0 4:0 5:0 6:0 7:0 8:0 9:0 10:1 11:0 12:0 13:1 14:1 15:1 16:0 17:1 18:0 19:0 
-1 -1 -1 -0 -1 0 0 0:0 1:1 2:0 3:0 4:1 5:0 6:0 7:0 8:0 9:0 10:0 11:0 12:0 13:1 14:0 15:0 16:1 17:0 18:0 19:0 
-0 -1 -0 -0 -1 0 0 0:0 1:0 2:0 3:0 4:0 5:0 6:0 7:0 8:0 9:1 10:1 11:1 12:0 13:0 14:1 15:0 16:1 17:0 18:0 19:0 
-0 -1 -0 -0 -1 1 0 0:0 1:0 2:0 3:1 4:0 5:0 6:0 7:0 8:0 9:1 10:0 11:1 12:0 13:0 14:0 15:0 16:1 17:0 18:0 19:0 
-0 -1 -0 -0 -1 0 0 0:0 1:0 2:0 3:1 4:0 5:0 6:0 7:0 8:0 9:0 10:0 11:0 12:0 13:0 14:0 15:1 16:1 17:0 18:0 19:0 
-1 -1 -1 -0 -1 1 0 0:0 1:1 2:1 3:0 4:0 5:0 6:0 7:0 8:0 9:1 10:0 11:1 12:0 13:0 14:0 15:0 16:1 17:0 18:0 19:0 
-0 -1 -0 -1 -0 1 0.7594211571216937 0:0 1:0 2:0 3:0 4:0 5:0 6:0 7:0 8:1 9:0 10:0 11:0 12:0 13:0 14:0 15:1 16:0 17:0 18:0 19:0 
-0.1182857313397186 -1 -0.4715823815133304 -1 -0 1 0.9341559882605101 0:0 1:0 2:0 3:0 4:0 5:0 6:0 7:0 8:1 9:0 10:0 11:0 12:0 13:0 14:0 15:1 16:0 17:0 18:0 19:0 
-1 -1 -1 -1 -1 1 1 0:0 1:0 2:0 3:0 4:0 5:0 6:0 7:0 8:0 9:0 10:0 11:0 12:0 13:0 14:0 15:0 16:0 17:0 18:0 19:0 
-1 -1 -1 -1 -1 1 1 0:1 1:0 2:0 3:0 4:0 5:0 6:0 7:0 8:0 9:0 10:0 11:0 12:1 13:0 14:0 15:0 16:0 17:0 18:0 19:0 
-1 -1 -0 -1 -1 1 1 0:0 1:0 2:0 3:0 4:0 5:0 6:0 7:0 8:0 9:0 10:0 11:0 12:0 13:0 14:0 15:1 16:0 17:0 18:0 19:0 
-1 -1 -1 -1 -1 1 1 0:0 1:0 2:0 3:0 4:0 5:0 6:0 7:0 8:0 9:0 10:0 11:0 12:0 13:0 14:0 15:0 16:0 17:0 18:0 19:0 
-1 -1 -1 -1 -1 1 1 0:0 1:1 2:0 3:0 4:0 5:0 6:0 7:0 8:0 9:0 10:0 11:0 12:0 13:0 14:0 15:0 16:0 17:0 18:0 19:0 
-0 -0 -1 -1 -1 1 1 0:0 1:0 2:0 3:0 4:0 5:0 6:0 7:0 8:0 9:0 10:0 11:0 12:0 13:0 14:0 15:0 16:1 17:0 18:0 19:0 
-1 -0 -0 -0 -0 0 0 0:0 1:1 2:0 3:0 4:1 5:0 6:0 7:0 8:1 9:0 10:1 11:0 12:0 13:0 14:1 15:0 16:1 17:1 18:0 19:0 
-1 -1 -0 -1 -1 1 1 0:0 1:0 2:0 3:0 4:0 5:0 6:0 7:0 8:0 9:0 10:0 11:0 12:0 13:0 14:0 15:1 16:0 17:0 18:0 19:0 
-1 -1 -1 -1 -1 1 1 0:0 1:0 2:0 3:0 4:0 5:0 6:0 7:0 8:0 9:0 10:0 11:0 12:0 13:0 14:0 15:0 16:0 17:0 18:0 19:0 
-0 -0 -0 -0 -1 0 0 0:0 1:0 2:0 3:1 4:1 5:0 6:0 7:1 8:1 9:0 10:0 11:0 12:0 13:1 14:0 15:1 16:0 17:1 18:0 19:0 
-1 -1 -1 -1 -1 1 1 0:0 1:0 2:0 3:0 4:0 5:0 6:0 7:0 8:0 9:0 10:0 11:0 12:0 13:0 14:0 15:0 16:0 17:0 18:0 19:0 
-0 -1 -0 -1 -0 1 1 0:1 1:0 2:0 3:0 4:0 5:0 6:0 7:0 8:0 9:0 10:0 11:0 12:1 13:0 14:0 15:0 16:1 17:0 18:0 19:0 
-1 -1 -1 -1 -1 1 1 0:0 1:0 2:0 3:0 4:0 5:0 6:0 7:0 8:0 9:0 10:0 11:0 12:0 13:0 14:0 15:1 16:0 17:0 18:0 19:0 
-0 -0 -1 -0 -0 0 0 0:0 1:0 2:0 3:0 4:1 5:0 6:0 7:0 8:1 9:0 10:0 11:0 12:0 13:0 14:0 15:0 16:0 17:1 18:0 19:0 
-0 -1 -0 -1 -0 1 1 0:1 1:0 2:0 3:0 4:0 5:0 6:0 7:0 8:0 9:0 10:0 11:0 12:1 13:0 14:0 15:0 16:1 17:0 18:0 19:0 
-0 -0 -0 -0.7726101111132064 -1 0 0 0:0 1:0 2:0 3:0 4:1 5:0 6:0 7:0 8:0 9:0 10:0 11:0 12:0 13:0 14:0 15:0 16:1 17:0 18:0 19:0 
-0 -1 -0 -0 -0 0 0 0:0 1:0 2:0 3:0 4:1 5:0 6:0 7:1 8:1 9:0 10:0 11:0 12:0 13:0 14:0 15:1 16:0 17:1 18:0 19:0 
-0 -0 -1 -1 -0 1 1 0:0 1:0 2:0 3:0 4:0 5:0 6:0 7:0 8:1 9:0 10:0 11:0 12:0 13:0 14:0 15:0 16:0 17:0 18:0 19:0 
-0.004389260442269451 -0 -1 -0 -1 0 0 0:0 1:0 2:0 3:0 4:1 5:0 6:0 7:1 8:1 9:0 10:0 11:0 12:0 13:1 14:0 15:0 16:0 17:1 18:0 19:0 
-0 -1 -1 -1 -1 1 1 0:0 1:0 2:0 3:0 4:1 5:0 6:0 7:0 8:0 9:0 10:0 11:0 12:0 13:0 14:0 15:0 16:0 17:0 18:0 19:0 
-0 -0.4392026435763526 -0 -1 -1 0 1 0:0 1:0 2:0 3:0 4:1 5:0 6:0 7:0 8:0 9:0 10:0 11:0 12:0 13:0 14:0 15:0 16:1 17:0 18:0 19:0 
-1 -0.9028852228162042 -1 -0 -1 0 0 0:0 1:1 2:0 3:0 4:1 5:0 6:0 7:0 8:0 9:0 10:0 11:0 12:0 13:1 14:0 15:0 16:1 17:0 18:0 19:0 
-1 -0 -1 -0.3630415838373076 -0 1 1 0:1 1:0 2:0 3:0 4:0 5:0 6:0 7:0 8:1 9:0 10:0 11:0 12:1 13:0 14:0 15:0 16:0 17:1 18:0 19:0 
-0 -0 -1 -1 -1 1 1 0:0 1:0 2:0 3:0 4:0 5:0 6:0 7:0 8:0 9:0 10:0 11:0 12:0 13:0 14:0 15:0 16:1 17:0 18:0 19:0 
-0 -1 -0 -0 -0 0 0.749308043467424 0:1 1:0 2:0 3:0 4:1 5:0 6:0 7:0 8:0 9:0 10:0 11:0 12:1 13:0 14:0 15:0 16:1 17:0 18:0 19:0 
-0 -1 -0.2696704585550756 -1 -1 1 1 0:1 1:0 2:0 3:0 4:1 5:0 6:0 7:1 8:0 9:0 10:0 11:0 12:1 13:0 14:0 15:0 16:0 17:0 18:0 19:0 
-0 -1 -0 -0 -1 0 0 0:0 1:0 2:0 3:0 4:0 5:0 6:0 7:0 8:0 9:1 10:1 11:1 12:0 13:0 14:1 15:0 16:1 17:0 18:0 19:0 
-0 -0 -1 -1 -1 1 1 0:0 1:0 2:0 3:0 4:0 5:0 6:0 7:0 8:0 9:0 10:0 11:0 12:0 13:0 14:0 15:0 16:1 17:0 18:0 19:0 
-0 -1 -0 -0 -0 0 1 0:1 1:0 2:0 3:0 4:1 5:0 6:0 7:0 8:0 9:0 10:0 11:0 12:1 13:0 14:0 15:0 16:1 17:0 18:0 19:0 
-1 -1 -1 -1 -1 1 1 0:0 1:0 2:0 3:0 4:0 5:0 6:0 7:0 8:0 9:0 10:1 11:0 12:0 13:0 14:1 15:0 16:0 17:0 18:0 19:0 
-0 -1 -0 -0 -0 0 0 0:1 1:0 2:0 3:0 4:1 5:0 6:0 7:0 8:1 9:0 10:0 11:0 12:1 13:0 14:0 15:0 16:1 17:0 18:0 19:0 
-1 -1 -0 -1 -0.2282412868576288 1 1 0:1 1:0 2:0 3:0 4:0 5:0 6:0 7:0 8:0 9:0 10:0 11:0 12:1 13:0 14:0 15:1 16:0 17:0 18:0 19:0 
-1 -1 -0.8654742597510786 -1 -1 1 1 0:0 1:0 2:0 3:0 4:0 5:0 6:0 7:0 8:0 9:0 10:0 11:0 12:0 13:0 14:0 15:1 16:0 17:1 18:0 19:0 
-0.8431444703246628 -0 -1 -0 -0 0 0 0:0 1:0 2:0 3:0 4:1 5:0 6:1 7:0 8:1 9:0 10:0 11:0 12:0 13:0 14:0 15:1 16:0 17:1 18:0 19:0 
-1 -1 -0 -0 -0 0 0 0:0 1:0 2:0 3:0 4:0 5:0 6:0 7:0 8:0 9:0 10:1 11:0 12:0 13:0 14:1 15:0 16:1 17:0 18:0 19:0 
-1 -1 -0 -0 -0 0 0 0:0 1:0 2:0 3:0 4:0 5:0 6:0 7:0 8:0 9:0 10:1 11:0 12:0 13:0 14:1 15:0 16:1 17:0 18:0 19:0 
-0 -1 -0 -0 -0.7287939384686613 1 0 0:0 1:0 2:0 3:0 4:0 5:0 6:0 7:0 8:0 9:0 10:0 11:0 12:0 13:0 14:0 15:1 16:1 17:0 18:0 19:0 
-0 -1 -0 -0 -0.7658607615325775 0 0 0:0 1:0 2:0 3:0 4:0 5:0 6:0 7:0 8:0 9:1 10:1 11:1 12:0 13:0 14:1 15:0 16:1 17:0 18:0 19:0 
-1 -1 -0 -0 -0 0 0 0:0 1:0 2:1 3:0 4:0 5:0 6:0 7:0 8:0 9:1 10:1 11:1 12:0 13:0 14:1 15:0 16:1 17:0 18:0 19:0 
-0 -0.875941874657215 -0 -0 -0 0 0 0:1 1:0 2:0 3:0 4:1 5:0 6:0 7:0 8:1 9:0 10:0 11:0 12:1 13:0 14:0 15:0 16:1 17:0 18:0 19:0 
-1 -1 -0 -0 -0 0 0 0:0 1:0 2:0 3:0 4:0 5:0 6:0 7:0 8:0 9:0 10:1 11:0 12:0 13:0 14:1 15:1 16:1 17:0 18:0 19:0 
-0 -1 -0 -0 -1 1 0 0:0 1:0 2:0 3:0 4:1 5:0 6:0 7:1 8:0 9:1 10:1 11:1 12:0 13:0 14:1 15:0 16:0 17:0 18:1 19:0 
-0 -1 -0 -0 -0.3537996494636678 1 0.6935771924350157 0:1 1:0 2:0 3:0 4:0 5:0 6:0 7:0 8:0 9:1 10:0 11:1 12:1 13:0 14:0 15:0 16:1 17:0 18:0 19:0 
-1 -1 -1 -1 -1 1 1 0:0 1:0 2:0 3:1 4:1 5:0 6:0 7:1 8:0 9:0 10:0 11:0 12:0 13:1 14:0 15:0 16:0 17:0 18:0 19:0 
-0 -0 -0 -0 -1 0 0 0:0 1:0 2:0 3:0 4:1 5:0 6:0 7:0 8:0 9:1 10:0 11:1 12:0 13:0 14:0 15:0 16:1 17:1 18:1 19:0 
-1 -1 -0 -0 -0 0 0 0:0 1:0 2:0 3:0 4:1 5:0 6:0 7:0 8:0 9:0 10:1 11:0 12:0 13:0 14:1 15:1 16:0 17:1 18:0 19:0 
-0 -0 -1 -1 -1 1 1 0:0 1:0 2:0 3:0 4:0 5:0 6:0 7:0 8:0 9:0 10:0 11:0 12:0 13:0 14:0 15:0 16:1 17:0 18:0 19:0 
-0 -1 -0 -0 -1 0 0 0:0 1:0 2:0 3:0 4:1 5:0 6:0 7:0 8:0 9:1 10:0 11:1 12:0 13:0 14:0 15:0 16:1 17:0 18:0 19:0 
-0 -0.6175289125605266 -0 -0 -0 0 0 0:0 1:0 2:0 3:0 4:1 5:0 6:0 7:1 8:1 9:0 10:0 11:0 12:0 13:0 14:0 15:1 16:0 17:1 18:0 19:0 
-0 -1 -0 -1 -1 1 0 0:0 1:0 2:0 3:0 4:0 5:0 6:0 7:0 8:0 9:1 10:0 11:1 12:0 13:0 14:0 15:0 16:1 17:0 18:0 19:0 
-0 -0 -0 -0 -0.7008702576365442 0 0 0:0 1:0 2:0 3:0 4:1 5:0 6:0 7:0 8:0 9:0 10:0 11:0 12:0 13:1 14:0 15:1 16:1 17:1 18:0 19:0 
-1 -1 -0 -1 -0 1 1 0:1 1:0 2:0 3:0 4:0 5:0 6:0 7:0 8:0 9:0 10:1 11:0 12:1 13:0 14:1 15:0 16:0 17:0 18:0 19:0 
-0 -0 -0 -0 -0.3365319692270705 0 0 0:0 1:0 2:0 3:0 4:1 5:0 6:0 7:0 8:1 9:0 10:0 11:0 12:0 13:1 14:0 15:0 16:1 17:0 18:0 19:0 
-1 -1 -0.1447841005090725 -1 -0.04482617786679509 1 1 0:1 1:0 2:0 3:0 4:0 5:0 6:0 7:0 8:0 9:0 10:1 11:0 12:1 13:0 14:1 15:0 16:0 17:0 18:0 19:0 
-1 -1 -1 -1 -1 1 1 0:0 1:0 2:0 3:0 4:0 5:0 6:0 7:0 8:0 9:0 10:1 11:0 12:0 13:0 14:1 15:0 16:0 17:0 18:0 19:0 
-0 -0 -0 -0 -1 0 0 0:0 1:0 2:0 3:0 4:1 5:0 6:0 7:0 8:0 9:0 10:0 11:0 12:0 13:1 14:0 15:1 16:1 17:1 18:0 19:0 
-1 -1 -1 -0.401653953034101 -1 1 1 0:0 1:1 2:0 3:0 4:1 5:0 6:0 7:0 8:0 9:1 10:0 11:1 12:0 13:0 14:0 15:0 16:0 17:0 18:1 19:0 
-0.7792479658529839 -1 -1 -0 -1 0 0 0:0 1:0 2:0 3:0 4:1 5:0 6:1 7:0 8:0 9:1 10:0 11:1 12:0 13:0 14:0 15:0 16:0 17:1 18:1 19:0 
-0 -0 -0 -0 -1 0 0 0:0 1:0 2:0 3:0 4:1 5:0 6:0 7:0 8:0 9:1 10:0 11:1 12:0 13:0 14:0 15:0 16:1 17:1 18:1 19:0 
-1 -0.2369042467202769 -0 -0 -0 0 0 0:0 1:1 2:1 3:0 4:1 5:0 6:0 7:0 8:1 9:1 10:0 11:1 12:0 13:0 14:0 15:0 16:1 17:0 18:1 19:0 
-0 -1 -0 -0 -1 0 0 0:0 1:0 2:0 3:0 4:1 5:0 6:0 7:0 8:0 9:1 10:0 11:1 12:0 13:0 14:0 15:0 16:1 17:0 18:0 19:0 
-0 -0 -0.9642813639783481 -0 -0 0 0 0:0 1:0 2:0 3:0 4:1 5:0 6:0 7:0 8:1 9:0 10:0 11:0 12:0 13:1 14:0 15:0 16:1 17:1 18:0 19:0 
-0.3418811954029361 -1 -0.5934427876298436 -0 -0.2874469983457594 0 0 0:0 1:0 2:1 3:0 4:1 5:0 6:0 7:0 8:1 9:1 10:0 11:1 12:0 13:0 14:0 15:0 16:0 17:0 18:1 19:0 
-0 -0 -0 -0 -1 0 0 0:0 1:0 2:1 3:1 4:1 5:0 6:0 7:0 8:1 9:1 10:0 11:1 12:0 13:1 14:0 15:0 16:1 17:0 18:1 19:0 
-1 -1 -1 -1 -1 1 1 0:0 1:0 2:0 3:0 4:0 5:0 6:0 7:0 8:0 9:0 10:1 11:0 12:0 13:0 14:1 15:0 16:0 17:0 18:0 19:0 
-0 -1 -0 -0.9353909970416635 -1 0 0.1002872294257947 0:0 1:0 2:0 3:0 4:1 5:0 6:0 7:0 8:0 9:0 10:0 11:0 12:0 13:0 14:0 15:0 16:1 17:0 18:0 19:0 
-1 -1 -1 -1 -1 1 1 0:0 1:0 2:0 3:0 4:0 5:0 6:0 7:0 8:0 9:0 10:0 11:0 12:0 13:0 14:0 15:0 16:0 17:0 18:1 19:0 
-0 -1 -0.5171086192158818 -0 -1 0.8777300818262644 0 0:0 1:0 2:0 3:1 4:1 5:0 6:0 7:1 8:0 9:1 10:0 11:1 12:0 13:1 14:0 15:0 16:0 17:1 18:0 19:0 
-1 -1 -0.641533392935602 -1 -1 1 1 0:0 1:0 2:0 3:0 4:0 5:0 6:0 7:0 8:0 9:0 10:0 11:0 12:0 13:0 14:0 15:1 16:0 17:0 18:0 19:0 
-0 -1 -0 -1 -1 1 1 0:0 1:0 2:0 3:0 4:0 5:0 6:0 7:0 8:0 9:1 10:0 11:1 12:0 13:0 14:0 15:1 16:0 17:0 18:0 19:0 
-1 -0 -1 -0 -1 0 0 0:0 1:0 2:0 3:0 4:1 5:0 6:0 7:0 8:1 9:0 10:0 11:0 12:0 13:1 14:0 15:0 16:0 17:1 18:0 19:0 
-0.1636083356204321 -0.9639560717164788 -0.8737724322311917 -0 -0 0 0 0:0 1:0 2:0 3:0 4:1 5:0 6:0 7:1 8:1 9:0 10:1 11:0 12:0 13:0 14:1 15:0 16:0 17:1 18:0 19:0 
-0.1081786205851445 -1 -0 -0 -1 1 0.9422030683971088 0:0 1:0 2:0 3:0 4:0 5:0 6:0 7:0 8:0 9:1 10:0 11:1 12:0 13:0 14:0 15:0 16:1 17:0 18:0 19:1 
-0 -0 -1 -1 -0.07702744110169138 1 1 0:0 1:0 2:0 3:0 4:0 5:0 6:0 7:0 8:1 9:0 10:0 11:0 12:0 13:0 14:0 15:0 16:0 17:0 18:0 19:0 
-0.4321565706174464 -0 -1 -1 -1 1 1 0:0 1:0 2:0 3:0 4:0 5:0 6:0 7:0 8:1 9:0 10:0 11:0 12:0 13:0 14:0 15:0 16:0 17:0 18:0 19:0 
-1 -0.9237056251494961 -1 -1 -1 1 1 0:0 1:0 2:0 3:0 4:0 5:0 6:0 7:0 8:1 9:0 10:0 11:0 12:0 13:0 14:0 15:0 16:0 17:0 18:0 19:0 
-1 -0 -1 -1 -1 1 1 0:0 1:0 2:0 3:0 4:0 5:0 6:0 7:0 8:1 9:0 10:0 11:0 12:0 13:1 14:0 15:0 16:0 17:0 18:0 19:0 
-1 -1 -1 -1 -1 1 1 0:0 1:0 2:0 3:0 4:0 5:0 6:0 7:0 8:0 9:0 10:0 11:0 12:0 13:0 14:0 15:0 16:0 17:0 18:0 19:0 
-0 -0 -0 -0 -1 0 0 0:0 1:0 2:0 3:0 4:1 5:0 6:0 7:0 8:0 9:0 10:0 11:0 12:0 13:1 14:0 15:0 16:1 17:0 18:0 19:0 
-1 -1 -1 -1 -1 1 1 0:0 1:0 2:0 3:0 4:0 5:0 6:0 7:0 8:1 9:0 10:0 11:0 12:0 13:0 14:0 15:0 16:0 17:0 18:0 19:0 
-1 -0 -1 -1 -1 1 1 0:0 1:0 2:0 3:0 4:1 5:0 6:0 7:1 8:0 9:0 10:0 11:0 12:0 13:1 14:0 15:0 16:0 17:1 18:0 19:0 
-0 -0.01775938448987895 -0 -0 -0 0 0 0:0 1:0 2:0 3:0 4:1 5:0 6:0 7:0 8:0 9:0 10:1 11:0 12:0 13:0 14:1 15:1 16:1 17:1 18:0 19:0 
-0 -0 -0.6966870101012094 -1 -1 1 1 0:0 1:0 2:0 3:0 4:0 5:0 6:0 7:0 8:0 9:0 10:0 11:0 12:0 13:0 14:0 15:0 16:1 17:0 18:0 19:0 
-1 -1 -1 -1 -1 1 1 0:0 1:0 2:0 3:0 4:0 5:0 6:0 7:0 8:0 9:0 10:0 11:0 12:0 13:0 14:0 15:0 16:0 17:0 18:0 19:0 
-0 -1 -0 -0 -1 1 0 0:0 1:0 2:0 3:0 4:1 5:0 6:0 7:1 8:0 9:1 10:0 11:1 12:0 13:0 14:0 15:0 16:0 17:1 18:1 19:0 
-1 -1 -0 -0 -1 0 0 0:0 1:0 2:0 3:0 4:1 5:0 6:0 7:0 8:0 9:0 10:0 11:0 12:0 13:1 14:0 15:1 16:0 17:1 18:0 19:0 
-0 -1 -0 -0 -0 1 0 0:0 1:0 2:0 3:0 4:0 5:0 6:0 7:0 8:0 9:0 10:0 11:0 12:0 13:0 14:0 15:1 16:1 17:0 18:0 19:0 
-1 -1 -0.9977302781577972 -1 -0.9077846903334692 1 1 0:0 1:0 2:0 3:0 4:0 5:0 6:0 7:0 8:0 9:0 10:0 11:0 12:0 13:0 14:0 15:1 16:0 17:1 18:0 19:0 
-1 -0 -1 -0 -0 0 0 0:0 1:0 2:0 3:0 4:0 5:0 6:0 7:0 8:1 9:0 10:0 11:0 12:0 13:1 14:0 15:1 16:0 17:1 18:0 19:0 
-0.6605944847195349 -0 -0 -0 -0 0 0 0:0 1:0 2:0 3:0 4:1 5:0 6:0 7:0 8:0 9:0 10:1 11:0 12:0 13:1 14:1 15:1 16:1 17:1 18:0 19:0 
-0 -1 -0 -0.6047183891807912 -1 1 0 0:0 1:0 2:0 3:0 4:0 5:0 6:0 7:0 8:0 9:1 10:0 11:1 12:0 13:0 14:0 15:0 16:1 17:0 18:0 19:0 
-1 -0 -1 -0 -0 0 0 0:0 1:0 2:0 3:0 4:0 5:0 6:0 7:0 8:1 9:0 10:0 11:0 12:0 13:1 14:0 15:1 16:0 17:0 18:0 19:0 
-1 -0 -1 -0 -0 0 0 0:0 1:0 2:1 3:0 4:0 5:0 6:0 7:0 8:1 9:0 10:0 11:0 12:0 13:1 14:0 15:1 16:0 17:0 18:1 19:0 
-1 -1 -0 -0 -0 -0 0 0:0 1:0 2:0 3:0 4:0 5:0 6:0 7:1 8:0 9:1 10:1 11:1 12:1 13:0 14:1 15:0 16:0 17:0 18:0 19:1 
-1 -0.02431071368983758 -1 -0 -1 -0 1 0:0 1:1 2:0 3:0 4:0 5:1 6:0 7:0 8:0 9:1 10:0 11:1 12:0 13:0 14:0 15:0 16:0 17:0 18:0 19:0 
-0 -1 -0 -1 -1 -1 1 0:0 1:0 2:0 3:0 4:0 5:0 6:0 7:0 8:0 9:1 10:0 11:1 12:0 13:0 14:0 15:0 16:0 17:0 18:0 19:0 
-0 -0 -0 -0 -1 -0 0 0:0 1:1 2:0 3:0 4:0 5:0 6:0 7:1 8:0 9:1 10:0 11:1 12:0 13:0 14:0 15:0 16:0 17:0 18:0 19:1 
-0 -1 -0 -0 -0 -1 1 0:1 1:0 2:0 3:0 4:0 5:0 6:0 7:1 8:0 9:0 10:0 11:0 12:1 13:0 14:0 15:1 16:0 17:0 18:0 19:0 
-0.7023538632970222 -1 -1 -1 -1 -1 1 0:0 1:0 2:0 3:0 4:0 5:0 6:0 7:0 8:0 9:0 10:0 11:0 12:0 13:0 14:0 15:0 16:0 17:0 18:0 19:0 
-0 -1 -0 -0 -0 -0 0 0:1 1:0 2:0 3:0 4:0 5:0 6:0 7:1 8:0 9:1 10:0 11:1 12:1 13:0 14:0 15:0 16:0 17:0 18:0 19:0 
-0.5479389345452237 -1 -0 -0 -0 -0.5068771337610172 0 0:1 1:0 2:0 3:0 4:0 5:0 6:0 7:1 8:0 9:1 10:1 11:1 12:1 13:0 14:1 15:0 16:0 17:0 18:0 19:1 
-1 -1 -1 -1 -0 -0.6940228516025764 1 0:1 1:1 2:0 3:0 4:0 5:1 6:0 7:0 8:0 9:0 10:0 11:0 12:1 13:0 14:0 15:0 16:0 17:0 18:0 19:0 
-0 -1 -1 -1 -1 -1 1 0:0 1:0 2:0 3:0 4:0 5:0 6:0 7:0 8:0 9:0 10:0 11:0 12:0 13:0 14:0 15:0 16:1 17:0 18:0 19:0 
-0 -1 -0 -0 -0 -1 1 0:1 1:0 2:0 3:0 4:0 5:0 6:0 7:0 8:0 9:1 10:0 11:1 12:1 13:0 14:0 15:0 16:0 17:0 18:0 19:0 
-1 -1 -0.2574628777663977 -0 -1 -1 1 0:1 1:1 2:0 3:0 4:0 5:0 6:0 7:1 8:0 9:0 10:1 11:0 12:1 13:0 14:1 15:0 16:0 17:0 18:0 19:0 
-0 -1 -0 -1 -0 -0.3234354724481348 1 0:1 1:0 2:0 3:0 4:0 5:0 6:0 7:1 8:0 9:0 10:0 11:0 12:1 13:0 14:0 15:0 16:0 17:0 18:0 19:0 
-1 -1 -1 -1 -1 -1 1 0:0 1:1 2:0 3:0 4:0 5:0 6:0 7:0 8:0 9:0 10:0 11:0 12:0 13:0 14:0 15:0 16:0 17:0 18:0 19:0 
-0 -0 -0 -1 -1 -0 1 0:0 1:0 2:0 3:0 4:0 5:0 6:0 7:1 8:0 9:0 10:0 11:0 12:0 13:0 14:0 15:0 16:0 17:0 18:0 19:0 
-1 -0 -1 -0 -1 -0 0 0:0 1:1 2:0 3:0 4:0 5:1 6:0 7:0 8:0 9:1 10:0 11:1 12:0 13:0 14:0 15:0 16:0 17:0 18:0 19:1 
-0.446777488271755 -1 -0 -1 -0 -1 1 0:1 1:0 2:0 3:0 4:0 5:0 6:0 7:0 8:0 9:0 10:0 11:0 12:1 13:0 14:0 15:0 16:0 17:0 18:0 19:0 
-1 -1 -1 -1 -1 -1 1 0:0 1:0 2:0 3:0 4:0 5:0 6:0 7:0 8:0 9:0 10:0 11:0 12:0 13:0 14:0 15:0 16:0 17:0 18:0 19:0 
-1 -1 -1 -1 -1 -1 1 0:0 1:1 2:0 3:0 4:0 5:0 6:0 7:0 8:0 9:0 10:0 11:0 12:0 13:0 14:0 15:0 16:0 17:0 18:0 19:0 
-0 -1 -0 -0 -0 -0 0 0:1 1:0 2:0 3:0 4:0 5:0 6:0 7:1 8:0 9:1 10:0 11:1 12:1 13:0 14:0 15:0 16:0 17:0 18:0 19:0 
-1 -1 -1 -1 -1 -1 1 0:0 1:0 2:0 3:0 4:0 5:0 6:0 7:0 8:0 9:0 10:0 11:0 12:0 13:0 14:0 15:0 16:1 17:0 18:0 19:0 
-0 -1 -1 -0 -0 -0 1 0:1 1:1 2:0 3:0 4:0 5:1 6:0 7:0 8:0 9:1 10:0 11:1 12:1 13:0 14:0 15:0 16:0 17:0 18:0 19:0 
-0 -0 -0 -0 -1 -0 0 0:0 1:0 2:0 3:0 4:0 5:0 6:0 7:1 8:0 9:1 10:0 11:1 12:0 13:0 14:0 15:0 16:0 17:0 18:0 19:0 
-1 -1 -1 -0 -1 -0 1 0:0 1:1 2:0 3:0 4:0 5:1 6:0 7:1 8:0 9:0 10:0 11:0 12:1 13:0 14:0 15:0 16:0 17:0 18:0 19:0 
-1 -0 -1 -0 -1 -0 1 0:0 1:1 2:0 3:0 4:0 5:1 6:0 7:1 8:0 9:0 10:0 11:0 12:0 13:0 14:0 15:0 16:0 17:0 18:0 19:1 
-1 -1 -0 -0 -1 -1 0 0:0 1:0 2:0 3:0 4:0 5:0 6:0 7:1 8:0 9:1 10:1 11:1 12:0 13:0 14:1 15:0 16:1 17:0 18:0 19:1 
-0 -1 -0 -1 -1 -1 1 0:0 1:0 2:0 3:0 4:0 5:0 6:0 7:0 8:0 9:1 10:0 11:1 12:0 13:0 14:0 15:0 16:0 17:0 18:0 19:0 
-0 -0 -0.3025262192562712 -1 -1 -0.4343643311484663 1 0:0 1:0 2:0 3:0 4:0 5:0 6:0 7:1 8:0 9:0 10:0 11:0 12:0 13:0 14:0 15:0 16:0 17:0 18:0 19:0 
-0 -1 -0 -0 -1 -1 0 0:0 1:0 2:0 3:0 4:0 5:0 6:0 7:1 8:0 9:1 10:0 11:1 12:0 13:0 14:0 15:0 16:1 17:0 18:0 19:0 
-0 -1 -0 -0.4004405216978699 -0 -1 1 0:1 1:0 2:0 3:0 4:0 5:0 6:0 7:0 8:0 9:1 10:0 11:1 12:1 13:0 14:0 15:0 16:0 17:0 18:0 19:0 
-1 -1 -1 -1 -1 -1 1 0:0 1:0 2:0 3:0 4:0 5:0 6:0 7:0 8:0 9:0 10:0 11:0 12:0 13:0 14:0 15:0 16:0 17:0 18:0 19:0 
-0 -1 -0 -0 -0 -0 0 0:1 1:0 2:0 3:0 4:0 5:0 6:0 7:1 8:0 9:1 10:0 11:1 12:1 13:0 14:0 15:0 16:0 17:0 18:0 19:0 
-0.6326860419083664 -1 -0 -1 -0 -1 1 0:1 1:0 2:0 3:0 4:0 5:0 6:0 7:0 8:0 9:0 10:0 11:0 12:1 13:0 14:0 15:0 16:0 17:0 18:0 19:0 
-1 -1 -1 -1 -1 -1 1 0:0 1:0 2:0 3:0 4:0 5:0 6:0 7:0 8:0 9:0 10:0 11:0 12:0 13:0 14:0 15:0 16:0 17:0 18:0 19:0 
-1 -1 -1 -1 -1 -1 1 0:0 1:0 2:0 3:0 4:0 5:0 6:0 7:0 8:0 9:0 10:0 11:0 12:0 13:0 14:0 15:0 16:0 17:0 18:0 19:0 
-1 -1 -1 -1 -1 -1 1 0:0 1:0 2:0 3:0 4:0 5:0 6:0 7:0 8:0 9:0 10:0 11:0 12:0 13:0 14:0 15:0 16:0 17:0 18:0 19:0 
-1 -0 -1 -1 -0 -1 1 0:0 1:0 2:0 3:0 4:0 5:0 6:0 7:0 8:0 9:0 10:0 11:0 12:0 13:0 14:0 15:0 16:0 17:0 18:0 19:1 
-1 -1 -1 -1 -1 -1 1 0:0 1:0 2:0 3:0 4:0 5:0 6:0 7:0 8:0 9:0 10:0 11:0 12:0 13:0 14:0 15:1 16:0 17:0 18:0 19:0 
-1 -1 -1 -1 -1 -1 1 0:0 1:0 2:0 3:0 4:0 5:0 6:0 7:0 8:0 9:0 10:0 11:0 12:0 13:0 14:0 15:0 16:0 17:0 18:0 19:0 
-1 -0.4473705801454468 -1 -1 -0 -1 1 0:0 1:0 2:0 3:0 4:0 5:0 6:0 7:0 8:0 9:0 10:0 11:0 12:0 13:0 14:0 15:0 16:0 17:0 18:0 19:1 
-1 -1 -1 -1 -0 -1 1 0:0 1:0 2:0 3:0 4:0 5:0 6:0 7:0 8:0 9:0 10:0 11:0 12:0 13:0 14:0 15:0 16:0 17:0 18:0 19:1 
-1 -1 -1 -1 -1 -1 1 0:0 1:0 2:0 3:0 4:0 5:0 6:0 7:0 8:0 9:0 10:0 11:0 12:0 13:0 14:0 15:0 16:0 17:0 18:0 19:0 
-1 -1 -1 -1 -1 -1 1 0:0 1:0 2:0 3:0 4:0 5:0 6:0 7:0 8:0 9:0 10:0 11:0 12:0 13:0 14:0 15:0 16:0 17:0 18:0 19:0 
-0 -0 -0 -0 -1 -0 0 0:0 1:0 2:0 3:0 4:0 5:0 6:0 7:1 8:0 9:1 10:0 11:1 12:0 13:0 14:0 15:0 16:0 17:0 18:0 19:0 
-1 -1 -0.05071213381151599 -1 -0.08801477963665492 -1 1 0:1 1:0 2:0 3:0 4:0 5:0 6:0 7:0 8:0 9:0 10:1 11:0 12:1 13:0 14:1 15:0 16:0 17:0 18:0 19:0 
-1 -1 -1 -1 -1 -1 1 0:0 1:0 2:0 3:0 4:0 5:0 6:0 7:0 8:0 9:0 10:0 11:0 12:0 13:0 14:0 15:0 16:0 17:0 18:0 19:0 
-0.7042010524718578 -1 -1 -1 -1 -1 1 0:0 1:0 2:0 3:0 4:0 5:0 6:0 7:0 8:0 9:0 10:0 11:0 12:0 13:0 14:0 15:0 16:1 17:0 18:0 19:0 
-0.3484394497697472 -1 -0 -0.7268764563926784 -1 -1 0 0:0 1:0 2:0 3:0 4:0 5:0 6:0 7:1 8:0 9:0 10:0 11:0 12:0 13:0 14:0 15:1 16:1 17:0 18:0 19:0 
-1 -1 -1 -1 -1 -1 1 0:0 1:0 2:0 3:0 4:0 5:0 6:0 7:0 8:0 9:0 10:0 11:0 12:0 13:0 14:0 15:1 16:0 17:0 18:0 19:0 
-0 -0 -0 -0 -1 -0 0 0:0 1:0 2:0 3:0 4:0 5:0 6:0 7:1 8:0 9:1 10:0 11:1 12:0 13:0 14:0 15:0 16:0 17:0 18:0 19:0 
-1 -1 -1 -1 -1 -1 1 0:0 1:0 2:0 3:0 4:0 5:0 6:0 7:0 8:0 9:0 10:0 11:0 12:0 13:0 14:0 15:1 16:0 17:0 18:0 19:0 
-1 -1 -1 -1 -0.2443680809610501 -1 1 0:0 1:0 2:0 3:0 4:0 5:0 6:0 7:0 8:0 9:0 10:0 11:0 12:0 13:0 14:0 15:0 16:0 17:0 18:0 19:1 
-0 -0 -0 -0 -1 -0 0 0:0 1:0 2:0 3:0 4:0 5:0 6:0 7:1 8:0 9:1 10:0 11:1 12:0 13:0 14:0 15:0 16:0 17:0 18:0 19:0 
-1 -1 -1 -1 -1 -1 1 0:0 1:0 2:0 3:0 4:0 5:0 6:0 7:0 8:0 9:0 10:0 11:0 12:0 13:0 14:0 15:0 16:0 17:0 18:0 19:0 
-0 -0 -1 -1 -1 -1 1 0:0 1:0 2:0 3:0 4:0 5:0 6:0 7:1 8:0 9:0 10:0 11:0 12:0 13:0 14:0 15:0 16:0 17:0 18:0 19:0 
-0 -0 -1 -1 -1 -1 1 0:0 1:0 2:0 3:0 4:0 5:0 6:0 7:1 8:0 9:0 10:0 11:0 12:0 13:0 14:0 15:0 16:0 17:0 18:0 19:0 
-0 -1 -0 -1 -1 -1 1 0:1 1:0 2:0 3:0 4:0 5:0 6:0 7:1 8:0 9:0 10:0 11:0 12:0 13:0 14:0 15:0 16:0 17:0 18:0 19:0 
-1 -1 -0 -1 -0 -0.2523697741580912 1 0:0 1:0 2:0 3:0 4:0 5:0 6:0 7:0 8:0 9:0 10:0 11:0 12:1 13:0 14:0 15:0 16:0 17:0 18:0 19:1 
-1 -1 -1 -1 -0.9763296180038048 -1 1 0:0 1:0 2:0 3:0 4:0 5:0 6:0 7:0 8:0 9:0 10:0 11:0 12:0 13:0 14:0 15:0 16:0 17:0 18:0 19:1 
-1 -1 -0 -1 -1 -1 1 0:0 1:0 2:0 3:0 4:0 5:0 6:0 7:0 8:0 9:0 10:0 11:0 12:1 13:0 14:0 15:1 16:0 17:0 18:0 19:0 
-0 -0 -1 -1 -1 -1 1 0:0 1:0 2:0 3:0 4:0 5:0 6:0 7:1 8:0 9:0 10:0 11:0 12:0 13:0 14:0 15:0 16:0 17:0 18:0 19:0 
-1 -1 -1 -1 -1 -1 1 0:0 1:0 2:0 3:0 4:0 5:0 6:0 7:0 8:0 9:0 10:0 11:0 12:0 13:0 14:0 15:0 16:0 17:0 18:0 19:0 
-1 -1 -0.7536326384222236 -1 -1 -1 0 0:0 1:0 2:0 3:0 4:0 5:0 6:0 7:0 8:0 9:1 10:1 11:1 12:0 13:0 14:1 15:0 16:0 17:0 18:0 19:0 
-0 -1 -0 -0 -0 -0 0 0:1 1:0 2:0 3:0 4:0 5:0 6:0 7:0 8:0 9:1 10:0 11:1 12:1 13:0 14:0 15:0 16:0 17:0 18:0 19:1 
-1 -1 -0 -0 -0.5007510251098835 -1 0 0:1 1:1 2:0 3:0 4:0 5:1 6:0 7:0 8:0 9:1 10:0 11:1 12:1 13:0 14:0 15:1 16:0 17:0 18:0 19:0 
-0 -1 -0 -0 -0 -0 0 0:1 1:0 2:0 3:0 4:0 5:0 6:0 7:0 8:0 9:1 10:0 11:1 12:1 13:0 14:0 15:0 16:0 17:0 18:0 19:1 
-1 -1 -0 -1 -1 -1 1 0:0 1:0 2:0 3:0 4:0 5:0 6:0 7:1 8:0 9:0 10:0 11:0 12:0 13:0 14:0 15:1 16:0 17:0 18:0 19:0 
-0 -0.412419151308451 -0 -0 -0 -0 0 0:0 1:0 2:0 3:0 4:0 5:0 6:0 7:0 8:0 9:1 10:0 11:1 12:0 13:0 14:0 15:0 16:0 17:0 18:0 19:1 
-0 -0.09219235956315076 -0.9844507462142981 -1 -1 -1 1 0:0 1:0 2:0 3:0 4:0 5:0 6:0 7:1 8:0 9:0 10:0 11:0 12:0 13:0 14:0 15:0 16:0 17:0 18:0 19:0 
-0 -0 -0 -0 -1 -0.1231229646805988 0 0:0 1:0 2:0 3:0 4:0 5:0 6:0 7:1 8:0 9:1 10:0 11:1 12:0 13:0 14:0 15:0 16:0 17:0 18:0 19:0 
-1 -1 -1 -1 -1 -1 1 0:0 1:0 2:0 3:0 4:0 5:0 6:0 7:0 8:0 9:0 10:0 11:0 12:0 13:0 14:0 15:0 16:0 17:0 18:0 19:0 
-0 -1 -0 -0 -0 -0 0 0:0 1:0 2:0 3:0 4:0 5:0 6:0 7:0 8:0 9:1 10:0 11:1 12:0 13:0 14:0 15:0 16:0 17:0 18:0 19:1 
-0 -1 -0 -1 -1 -1 1 0:0 1:0 2:0 3:0 4:0 5:0 6:0 7:0 8:0 9:1 10:0 11:1 12:0 13:0 14:0 15:0 16:0 17:0 18:0 19:0 
-0 -0 -0 -0 -0.7547481806304389 -0 0 0:0 1:0 2:0 3:0 4:0 5:0 6:0 7:1 8:0 9:1 10:0 11:1 12:0 13:0 14:0 15:0 16:0 17:0 18:0 19:1 
-0 -1 -0 -0 -0 -0 0 0:0 1:0 2:0 3:0 4:0 5:0 6:0 7:1 8:0 9:1 10:0 11:1 12:1 13:0 14:0 15:0 16:0 17:0 18:0 19:0 
-0.686351782630274 -1 -0 -0 -1 -1 0 0:0 1:1 2:0 3:0 4:0 5:0 6:0 7:0 8:0 9:1 10:0 11:1 12:0 13:0 14:0 15:1 16:0 17:0 18:0 19:1 
-0 -1 -0 -0 -0 -0 0 0:0 1:0 2:0 3:0 4:0 5:0 6:0 7:0 8:0 9:1 10:0 11:1 12:0 13:0 14:0 15:0 16:0 17:0 18:0 19:1 
-1 -0 -1 -1 -1 -1 1 0:0 1:1 2:0 3:0 4:0 5:1 6:0 7:0 8:0 9:0 10:0 11:0 12:0 13:0 14:0 15:0 16:0 17:0 18:0 19:0 
-0 -1 -0 -0 -0.6184274848706054 -0 0 0:0 1:0 2:0 3:0 4:0 5:0 6:0 7:0 8:0 9:1 10:0 11:1 12:0 13:0 14:0 15:0 16:0 17:0 18:0 19:1 
-1 -1 -0 -0 -0.4058906157608872 -1 0.2561237347866759 0:0 1:0 2:0 3:0 4:0 5:0 6:0 7:1 8:0 9:0 10:0 11:0 12:1 13:0 14:0 15:1 16:0 17:0 18:0 19:0 
-0.1600991188175652 -0.4746343544668126 -0 -0 -0 -0 0 0:1 1:1 2:0 3:0 4:0 5:1 6:0 7:0 8:0 9:1 10:0 11:1 12:1 13:0 14:0 15:0 16:0 17:0 18:0 19:1 
-0 -1 -0 -1 -1 -1 1 0:0 1:0 2:0 3:0 4:0 5:0 6:0 7:0 8:0 9:1 10:0 11:1 12:0 13:0 14:0 15:0 16:0 17:0 18:0 19:0 
-1 -1 -1 -0 -1 -0.2656434719668401 1 0:0 1:1 2:0 3:0 4:0 5:1 6:0 7:0 8:0 9:1 10:0 11:1 12:0 13:0 14:0 15:0 16:0 17:0 18:0 19:0 
-0 -0.7776907278354795 -0 -0.4791796790024374 -0.4482583220636942 -0.7579808124511875 0 0:0 1:0 2:0 3:0 4:0 5:0 6:0 7:0 8:0 9:1 10:0 11:1 12:0 13:0 14:0 15:0 16:0 17:0 18:0 19:1 
-1 -0.646557647534019 -1 -1 -1 -1 1 0:0 1:1 2:0 3:0 4:0 5:1 6:0 7:0 8:0 9:0 10:0 11:0 12:0 13:0 14:0 15:0 16:0 17:0 18:0 19:0 
-1 -1 -1 -0.07911855801399779 -0 -0 1 0:1 1:1 2:0 3:0 4:0 5:0 6:0 7:0 8:0 9:0 10:0 11:0 12:1 13:0 14:0 15:0 16:0 17:0 18:0 19:1 
-0 -0 -0 -1 -0 -0 -0 0:0 1:0 2:0 3:0 4:0 5:0 6:0 7:0 8:0 9:0 10:0 11:0 12:0 13:0 14:0 15:0 16:0 17:0 18:0 19:0 
-0 -0 -0 -1 -0 -0 -0 0:0 1:0 2:0 3:0 4:0 5:0 6:0 7:0 8:0 9:0 10:0 11:0 12:0 13:0 14:0 15:0 16:0 17:0 18:0 19:0 
-0 -0 -0 -1 -0 -0 -0 0:1 1:0 2:0 3:0 4:0 5:0 6:0 7:0 8:0 9:0 10:0 11:0 12:0 13:0 14:0 15:0 16:0 17:0 18:0 19:0 
-0 -0 -0 -1 -0 -0 -0 0:0 1:0 2:0 3:0 4:0 5:0 6:0 7:0 8:0 9:0 10:0 11:0 12:0 13:0 14:0 15:0 16:0 17:0 18:0 19:0 
-0 -0 -0 -1 -0 -0 -0 0:0 1:0 2:0 3:0 4:0 5:0 6:0 7:0 8:0 9:0 10:0 11:0 12:0 13:0 14:0 15:0 16:0 17:0 18:0 19:0 
-0 -0 -0 -1 -0 -0 -0 0:0 1:0 2:0 3:0 4:0 5:0 6:0 7:0 8:0 9:0 10:0 11:0 12:0 13:0 14:0 15:0 16:0 17:0 18:0 19:0 
-0 -0 -0 -1 -0 -0 -0 0:0 1:0 2:0 3:0 4:0 5:0 6:0 7:0 8:0 9:0 10:0 11:0 12:0 13:0 14:0 15:0 16:0 17:0 18:0 19:0 
-0 -0 -0 -1 -0 -0 -0 0:1 1:0 2:0 3:0 4:0 5:0 6:0 7:0 8:0 9:0 10:0 11:0 12:0 13:0 14:0 15:0 16:0 17:0 18:0 19:0 
-0 -0 -0 -1 -0 -0 -0 0:1 1:0 2:0 3:0 4:0 5:0 6:0 7:0 8:0 9:0 10:0 11:0 12:0 13:0 14:0 15:0 16:0 17:0 18:0 19:0 
-0 -0 -0 -1 -0 -0 -0 0:1 1:0 2:0 3:0 4:0 5:0 6:0 7:0 8:0 9:0 10:0 11:0 12:0 13:0 14:0 15:0 16:0 17:0 18:0 19:0 
-0 -0 -0 -1 -0 -0 -0 0:1 1:0 2:0 3:0 4:0 5:0 6:0 7:0 8:0 9:0 10:0 11:0 12:0 13:0 14:0 15:0 16:0 17:0 18:0 19:0 
-1 -1 -1 -0 -1 -0.9959603578444349 -1 0:1 1:1 2:0 3:0 4:0 5:1 6:0 7:0 8:0 9:0 10:0 11:0 12:1 13:0 14:0 15:0 16:0 17:0 18:0 19:0 
-0 -1 -0 -0 -0 -1 -1 0:1 1:0 2:0 3:0 4:0 5:0 6:0 7:0 8:0 9:0 10:0 11:0 12:1 13:0 14:0 15:0 16:0 17:0 18:0 19:0 
-0 -0 -0 -1 -0 -0 -0 0:0 1:0 2:0 3:0 4:0 5:0 6:0 7:0 8:0 9:0 10:0 11:0 12:0 13:0 14:0 15:0 16:0 17:0 18:0 19:0 
-0 -0 -1 -0 -0 -0 -0 0:0 1:1 2:0 3:0 4:0 5:0 6:0 7:0 8:0 9:0 10:0 11:0 12:0 13:0 14:0 15:0 16:0 17:0 18:0 19:0 
-0 -1 -0 -0 -0 -1 -1 0:1 1:0 2:0 3:0 4:0 5:0 6:0 7:0 8:0 9:0 10:0 11:0 12:1 13:0 14:0 15:0 16:0 17:0 18:0 19:0 
-0 -0 -0 -1 -0 -0 -0 0:0 1:0 2:0 3:0 4:0 5:0 6:0 7:0 8:0 9:0 10:0 11:0 12:0 13:0 14:0 15:0 16:0 17:0 18:0 19:0 
-0 -0 -0 -1 -0 -0 -0 0:0 1:0 2:0 3:0 4:0 5:0 6:0 7:0 8:0 9:0 10:0 11:0 12:0 13:0 14:0 15:0 16:0 17:0 18:0 19:0 
-0 -0 -0 -1 -0 -0 -0 0:0 1:0 2:0 3:0 4:0 5:0 6:0 7:0 8:0 9:0 10:0 11:0 12:0 13:0 14:0 15:0 16:0 17:0 18:0 19:0 
-0 -0 -0 -1 -0 -0 -0 0:0 1:0 2:0 3:0 4:0 5:0 6:0 7:0 8:0 9:0 10:0 11:0 12:0 13:0 14:0 15:0 16:0 17:0 18:0 19:0 
-0 -0 -0 -1 -0 -0 -0 0:0 1:0 2:0 3:0 4:0 5:0 6:0 7:0 8:0 9:0 10:0 11:0 12:0 13:0 14:0 15:0 16:0 17:0 18:0 19:0 
-0.2836701029666523 -1 -0 -0 -0 -1 -1 0:1 1:0 2:0 3:0 4:0 5:0 6:0 7:0 8:0 9:0 10:0 11:0 12:1 13:0 14:0 15:0 16:0 17:0 18:0 19:0 
-0 -0 -0 -1 -0 -0 -0 0:0 1:0 2:0 3:0 4:0 5:0 6:0 7:0 8:0 9:0 10:0 11:0 12:0 13:0 14:0 15:0 16:0 17:0 18:0 19:0 
-0 -0 -0 -1 -0 -0 -0 0:0 1:0 2:0 3:0 4:0 5:0 6:0 7:0 8:0 9:0 10:0 11:0 12:0 13:0 14:0 15:0 16:0 17:0 18:0 19:0 
-1 -0 -1 -0 -1 -0 -1 0:0 1:1 2:0 3:0 4:0 5:1 6:0 7:0 8:0 9:0 10:0 11:0 12:0 13:0 14:0 15:0 16:0 17:0 18:0 19:0 
-1 -1 -1 -1 -1 -1 -1 0:0 1:0 2:0 3:0 4:0 5:0 6:0 7:0 8:0 9:0 10:0 11:0 12:1 13:0 14:0 15:0 16:0 17:0 18:0 19:1 
-1 -0 -1 -0 -1 -0 -1 0:0 1:1 2:0 3:0 4:0 5:1 6:0 7:0 8:0 9:0 10:0 11:0 12:0 13:0 14:0 15:0 16:0 17:0 18:0 19:0 
-1 -1 -1 -1 -1 -1 -1 0:0 1:0 2:0 3:0 4:0 5:0 6:0 7:0 8:0 9:0 10:0 11:0 12:0 13:0 14:0 15:0 16:0 17:0 18:0 19:1 
-1 -1 -0 -0 -0 -1 -1 0:1 1:0 2:0 3:0 4:0 5:0 6:0 7:0 8:0 9:0 10:0 11:0 12:1 13:0 14:0 15:0 16:0 17:0 18:0 19:0 
-0.8721723412960805 -1 -0 -0 -0 -1 -1 0:1 1:1 2:0 3:0 4:0 5:0 6:0 7:0 8:0 9:0 10:0 11:0 12:1 13:0 14:0 15:0 16:0 17:0 18:0 19:0 
-0 -0 -1 -0 -0 -0 -0 0:0 1:1 2:0 3:0 4:0 5:0 6:0 7:0 8:0 9:0 10:0 11:0 12:0 13:0 14:0 15:0 16:0 17:0 18:0 19:0 
-0 -0 -0 -1 -0 -0 -0 0:0 1:0 2:0 3:0 4:0 5:0 6:0 7:0 8:0 9:0 10:0 11:0 12:0 13:0 14:0 15:0 16:0 17:0 18:0 19:0 
-0 -0 -0 -1 -0 -0 -0 0:1 1:0 2:0 3:0 4:0 5:0 6:0 7:0 8:0 9:0 10:0 11:0 12:0 13:0 14:0 15:0 16:0 17:0 18:0 19:0 
-1 -0 -1 -0 -1 -0 -1 0:0 1:1 2:0 3:0 4:0 5:1 6:0 7:0 8:0 9:0 10:0 11:0 12:0 13:0 14:0 15:0 16:0 17:0 18:0 19:0 
-1 -0 -1 -0 -1 -0 -1 0:0 1:1 2:0 3:0 4:0 5:1 6:0 7:0 8:0 9:0 10:0 11:0 12:0 13:0 14:0 15:0 16:0 17:0 18:0 19:0 
-0 -0 -0 -1 -0 -0 -0 0:0 1:0 2:0 3:0 4:0 5:0 6:0 7:0 8:0 9:0 10:0 11:0 12:0 13:0 14:0 15:0 16:0 17:0 18:0 19:0 
-1 -1 -1 -1 -1 -1 -1 0:0 1:0 2:0 3:0 4:0 5:0 6:0 7:1 8:0 9:0 10:0 11:0 12:0 13:0 14:0 15:0 16:0 17:0 18:0 19:0 
-0 -0.6560107609907062 -1 -1 -0 -0 -0 0:0 1:1 2:0 3:0 4:0 5:0 6:0 7:0 8:0 9:0 10:0 11:0 12:0 13:0 14:0 15:0 16:0 17:0 18:0 19:0 
-1 -1 -0 -0 -0 -0.02469561269465353 -1 0:0 1:1 2:0 3:0 4:0 5:0 6:0 7:0 8:0 9:0 10:0 11:0 12:1 13:0 14:0 15:0 16:0 17:0 18:0 19:0 
-1 -1 -0 -0.5291907065999706 -0 -1 -1 0:1 1:0 2:0 3:0 4:0 5:0 6:0 7:0 8:0 9:0 10:0 11:0 12:1 13:0 14:0 15:0 16:0 17:0 18:0 19:0 
-1 -1 -0 -1 -0 -1 -1 0:0 1:0 2:0 3:0 4:0 5:0 6:0 7:0 8:0 9:0 10:0 11:0 12:1 13:0 14:0 15:0 16:0 17:0 18:0 19:0 
-0 -0 -0 -1 -0 -0 -0 0:0 1:0 2:0 3:0 4:0 5:0 6:0 7:0 8:0 9:0 10:0 11:0 12:0 13:0 14:0 15:0 16:0 17:0 18:0 19:0 
-0 -0 -0 -1 -0 -0 -0 0:0 1:0 2:0 3:0 4:0 5:0 6:0 7:0 8:0 9:0 10:0 11:0 12:0 13:0 14:0 15:0 16:0 17:0 18:0 19:0 
-0 -0 -0 -1 -0 -0 -0 0:0 1:0 2:0 3:0 4:0 5:0 6:0 7:0 8:0 9:0 10:0 11:0 12:0 13:0 14:0 15:0 16:0 17:0 18:0 19:0 
-0 -0 -0 -1 -0 -0 -0 0:0 1:0 2:0 3:0 4:0 5:0 6:0 7:0 8:0 9:0 10:0 11:0 12:0 13:0 14:0 15:0 16:0 17:0 18:0 19:0 
-0 -0 -0 -1 -0 -0 -0 0:0 1:0 2:0 3:0 4:0 5:0 6:0 7:0 8:0 9:0 10:0 11:0 12:0 13:0 14:0 15:0 16:0 17:0 18:0 19:0 
-1 -1 -0 -0.9928679035330306 -0 -1 -1 0:1 1:0 2:0 3:0 4:0 5:0 6:0 7:0 8:0 9:0 10:0 11:0 12:1 13:0 14:0 15:0 16:0 17:0 18:0 19:0 
-0 -0 -0 -1 -0 -0 -0 0:0 1:0 2:0 3:0 4:0 5:0 6:0 7:0 8:0 9:0 10:0 11:0 12:0 13:0 14:0 15:0 16:0 17:0 18:0 19:0 
-0 -0 -0 -1 -0 -0 -0 0:0 1:0 2:0 3:0 4:0 5:0 6:0 7:0 8:0 9:0 10:0 11:0 12:0 13:0 14:0 15:0 16:0 17:0 18:0 19:0 
-0 -0 -0 -1 -0 -0 -0 0:1 1:0 2:0 3:0 4:0 5:0 6:0 7:0 8:0 9:0 10:0 11:0 12:0 13:0 14:0 15:0 16:0 17:0 18:0 19:0 
-0 -0 -0 -1 -0 -0 -0 0:0 1:0 2:0 3:0 4:0 5:0 6:0 7:0 8:0 9:0 10:0 11:0 12:0 13:0 14:0 15:0 16:0 17:0 18:0 19:0 
-0.6295343577374668 -1 -1 -1 -0 -0 -0 0:0 1:1 2:0 3:0 4:0 5:0 6:0 7:0 8:0 9:0 10:0 11:0 12:0 13:0 14:0 15:0 16:0 17:0 18:0 19:0 
-1 -1 -0 -1 -0 -1 -1 0:0 1:0 2:0 3:0 4:0 5:0 6:0 7:0 8:0 9:0 10:0 11:0 12:1 13:0 14:0 15:0 16:0 17:0 18:0 19:0 
-0 -0 -0 -1 -0 -0 -0 0:0 1:0 2:0 3:0 4:0 5:0 6:0 7:0 8:0 9:0 10:0 11:0 12:0 13:0 14:0 15:0 16:0 17:0 18:0 19:0 
-0 -0 -0 -1 -0 -0 -0 0:0 1:0 2:0 3:0 4:0 5:0 6:0 7:0 8:0 9:0 10:0 11:0 12:0 13:0 14:0 15:0 16:0 17:0 18:0 19:0 
-1 -1 -1 -1 -0.98607623140879 -0 -0 0:0 1:1 2:0 3:0 4:0 5:0 6:0 7:0 8:0 9:0 10:0 11:0 12:0 13:0 14:0 15:0 16:0 17:0 18:0 19:0 
-0 -0 -0 -1 -0 -0 -0 0:0 1:0 2:0 3:0 4:0 5:0 6:0 7:0 8:0 9:0 10:0 11:0 12:0 13:0 14:0 15:0 16:0 17:0 18:0 19:0 
-0 -0 -0 -1 -0 -0 -0 0:1 1:0 2:0 3:0 4:0 5:0 6:0 7:0 8:0 9:0 10:0 11:0 12:0 13:0 14:0 15:0 16:0 17:0 18:0 19:0 
-0 -0 -0 -1 -0 -0 -0 0:0 1:0 2:0 3:0 4:0 5:0 6:0 7:0 8:0 9:0 10:0 11:0 12:0 13:0 14:0 15:0 16:0 17:0 18:0 19:0 
-0 -0 -0 -1 -0 -0 -0 0:0 1:0 2:0 3:0 4:0 5:0 6:0 7:0 8:0 9:0 10:0 11:0 12:0 13:0 14:0 15:0 16:0 17:0 18:0 19:0 
-0 -0 -0 -1 -0 -0 -0 0:1 1:0 2:0 3:0 4:0 5:0 6:0 7:0 8:0 9:0 10:0 11:0 12:0 13:0 14:0 15:0 16:0 17:0 18:0 19:0 
-0 -0 -0 -1 -0 -0 -0 0:0 1:0 2:0 3:0 4:0 5:0 6:0 7:0 8:0 9:0 10:0 11:0 12:0 13:0 14:0 15:0 16:0 17:0 18:0 19:0 
-1 -0 -1 -0 -1 -0 -1 0:0 1:1 2:0 3:0 4:0 5:1 6:0 7:0 8:0 9:0 10:0 11:0 12:0 13:0 14:0 15:0 16:0 17:0 18:0 19:0 
-1 -0 -1 -0 -1 -0 -1 0:0 1:1 2:0 3:0 4:0 5:1 6:0 7:0 8:0 9:0 10:0 11:0 12:0 13:0 14:0 15:0 16:0 17:0 18:0 19:0 
-0 -0 -0 -1 -0 -0 -0 0:0 1:0 2:0 3:0 4:0 5:0 6:0 7:0 8:0 9:0 10:0 11:0 12:0 13:0 14:0 15:0 16:0 17:0 18:0 19:0 
-1 -1 -1 -1 -1 -0 -0 0:0 1:1 2:0 3:0 4:0 5:0 6:0 7:0 8:0 9:0 10:0 11:0 12:0 13:0 14:0 15:0 16:0 17:0 18:0 19:0 
-0 -0 -0 -1 -0 -0 -0 0:0 1:0 2:0 3:0 4:0 5:0 6:0 7:0 8:0 9:0 10:0 11:0 12:0 13:0 14:0 15:0 16:0 17:0 18:0 19:0 
-0 -0 -0 -1 -0 -0 -0 0:0 1:0 2:0 3:0 4:0 5:0 6:0 7:0 8:0 9:0 10:0 11:0 12:0 13:0 14:0 15:0 16:0 17:0 18:0 19:0 
-0 -0 -0 -1 -0 -0 -0 0:0 1:0 2:0 3:0 4:0 5:0 6:0 7:0 8:0 9:0 10:0 11:0 12:0 13:0 14:0 15:0 16:0 17:0 18:0 19:0 
-0 -0 -0 -1 -0 -0 -0 0:0 1:0 2:0 3:0 4:0 5:0 6:0 7:0 8:0 9:0 10:0 11:0 12:0 13:0 14:0 15:0 16:0 17:0 18:0 19:0 
-0 -0 -0 -1 -0 -0 -0 0:0 1:0 2:0 3:0 4:0 5:0 6:0 7:0 8:0 9:0 10:0 11:0 12:0 13:0 14:0 15:0 16:0 17:0 18:0 19:0 
-1 -1 -1 -1 -1 -0 -0 0:0 1:1 2:0 3:0 4:0 5:0 6:0 7:0 8:0 9:0 10:0 11:0 12:0 13:0 14:0 15:0 16:0 17:0 18:0 19:0 
-0 -0 -0 -1 -0 -0 -0 0:0 1:0 2:0 3:0 4:0 5:0 6:0 7:0 8:0 9:0 10:0 11:0 12:0 13:0 14:0 15:0 16:0 17:0 18:0 19:0 
-1 -1 -1 -1 -1 -0.07142641777311873 -1 0:0 1:1 2:0 3:0 4:0 5:0 6:0 7:0 8:0 9:0 10:0 11:0 12:0 13:0 14:0 15:0 16:0 17:0 18:0 19:0 
-0 -0 -0 -1 -0 -0 -0 0:0 1:0 2:0 3:0 4:0 5:0 6:0 7:0 8:0 9:0 10:0 11:0 12:0 13:0 14:0 15:0 16:0 17:0 18:0 19:0 
-0 -0 -0 -1 -0 -0 -0 0:0 1:0 2:0 3:0 4:0 5:0 6:0 7:0 8:0 9:0 10:0 11:0 12:0 13:0 14:0 15:0 16:0 17:0 18:0 19:0 
-0 -0 -0 -1 -0 -0 -0 0:0 1:0 2:0 3:0 4:0 5:0 6:0 7:0 8:0 9:0 10:0 11:0 12:0 13:0 14:0 15:0 16:0 17:0 18:0 19:0 
-0 -0 -0 -1 -0 -0 -0 0:0 1:0 2:0 3:0 4:0 5:0 6:0 7:0 8:0 9:0 10:0 11:0 12:0 13:0 14:0 15:0 16:0 17:0 18:0 19:0 
-0 -0 -0 -1 -0 -0 -0 0:0 1:0 2:0 3:0 4:0 5:0 6:0 7:0 8:0 9:0 10:0 11:0 12:0 13:0 14:0 15:0 16:0 17:0 18:0 19:0 
-0 -0 -0 -1 -0 -0 -0 0:0 1:0 2:0 3:0 4:0 5:0 6:0 7:0 8:0 9:0 10:0 11:0 12:0 13:0 14:0 15:0 16:0 17:0 18:0 19:0 
-0 -0 -0 -1 -0 -0 -0 0:0 1:0 2:0 3:0 4:0 5:0 6:0 7:0 8:0 9:0 10:0 11:0 12:0 13:0 14:0 15:0 16:0 17:0 18:0 19:0 
-0 -0 -0 -1 -0 -0 -0 0:1 1:0 2:0 3:0 4:0 5:0 6:0 7:0 8:0 9:0 10:0 11:0 12:0 13:0 14:0 15:0 16:0 17:0 18:0 19:0 
-0 -0 -0 -1 -0 -0 -0 0:0 1:0 2:0 3:0 4:0 5:0 6:0 7:0 8:0 9:0 10:0 11:0 12:0 13:0 14:0 15:0 16:0 17:0 18:0 19:0 
-1 -1 -1 -0.558966772595805 -0.6257259936884716 -0 -0.5249959829456327 0:0 1:1 2:0 3:0 4:0 5:0 6:0 7:0 8:0 9:0 10:0 11:0 12:0 13:0 14:0 15:0 16:0 17:0 18:0 19:0 
-0 -0 -0 -1 -0 -0 -0 0:0 1:0 2:0 3:0 4:0 5:0 6:0 7:0 8:0 9:0 10:0 11:0 12:0 13:0 14:0 15:0 16:0 17:0 18:0 19:0 
-0 -0 -0 -1 -0 -0 -0 0:1 1:0 2:0 3:0 4:0 5:0 6:0 7:0 8:0 9:0 10:0 11:0 12:0 13:0 14:0 15:0 16:0 17:0 18:0 19:0 
-0 -0 -0 -1 -0 -0 -0 0:0 1:0 2:0 3:0 4:0 5:0 6:0 7:0 8:0 9:0 10:0 11:0 12:0 13:0 14:0 15:0 16:0 17:0 18:0 19:0 
-0 -0 -0 -1 -0 -0 -0 0:1 1:0 2:0 3:0 4:0 5:0 6:0 7:0 8:0 9:0 10:0 11:0 12:0 13:0 14:0 15:0 16:0 17:0 18:0 19:0 
-0 -0 -0 -1 -0 -0 -0 0:0 1:0 2:0 3:0 4:0 5:0 6:0 7:0 8:0 9:0 10:0 11:0 12:0 13:0 14:0 15:0 16:0 17:0 18:0 19:0 
-0 -0 -0 -1 -0 -0 -0 0:0 1:0 2:0 3:0 4:0 5:0 6:0 7:0 8:0 9:0 10:0 11:0 12:0 13:0 14:0 15:0 16:0 17:0 18:0 19:0 
-0 -0 -0 -1 -0 -0 -0 0:0 1:0 2:0 3:0 4:0 5:0 6:0 7:0 8:0 9:0 10:0 11:0 12:0 13:0 14:0 15:0 16:0 17:0 18:0 19:0 
-0 -0 -0 -1 -0 -0 -0 0:0 1:0 2:0 3:0 4:0 5:0 6:0 7:0 8:0 9:0 10:0 11:0 12:0 13:0 14:0 15:0 16:0 17:0 18:0 19:0 
-0 -0 -0 -1 -0 -0 -0 0:0 1:0 2:0 3:0 4:0 5:0 6:0 7:0 8:0 9:0 10:0 11:0 12:0 13:0 14:0 15:0 16:0 17:0 18:0 19:0 
-0 -1 -0 -0 -0 -1 -1 0:1 1:1 2:0 3:0 4:0 5:0 6:0 7:0 8:0 9:0 10:0 11:0 12:1 13:0 14:0 15:0 16:0 17:0 18:0 19:0 
-0 -0 -0 -1 -0 -0 -0 0:0 1:0 2:0 3:0 4:0 5:0 6:0 7:0 8:0 9:0 10:0 11:0 12:0 13:0 14:0 15:0 16:0 17:0 18:0 19:0 
-0 -0 -0 -1 -0 -0 -0 0:0 1:0 2:0 3:0 4:0 5:0 6:0 7:0 8:0 9:0 10:0 11:0 12:0 13:0 14:0 15:0 16:0 17:0 18:0 19:0 
-0 -0 -0 -1 -0 -0 -0 0:0 1:0 2:0 3:0 4:0 5:0 6:0 7:0 8:0 9:0 10:0 11:0 12:0 13:0 14:0 15:0 16:0 17:0 18:0 19:0 
-0 -0 -0 -1 -0 -0 -0 0:1 1:0 2:0 3:0 4:0 5:0 6:0 7:0 8:0 9:0 10:0 11:0 12:0 13:0 14:0 15:0 16:0 17:0 18:0 19:0 
-0 -0 -0 -1 -0 -0 -1 0:0 1:0 2:0 3:0 4:0 5:0 6:0 7:0 8:0 9:0 10:0 11:0 12:0 13:0 14:0 15:0 16:0 17:0 18:0 19:0 
-0 -0 -0 -1 -0 -0 -1 0:0 1:0 2:0 3:0 4:0 5:0 6:0 7:0 8:0 9:0 10:0 11:0 12:0 13:0 14:0 15:0 16:0 17:0 18:0 19:0 
-1 -0.5757377396558016 -1 -0.2936917825185205 -1 -0.6622217086980107 -1 0:0 1:1 2:0 3:0 4:0 5:1 6:0 7:0 8:0 9:0 10:0 11:0 12:0 13:0 14:0 15:0 16:0 17:0 18:0 19:0 
-0 -0 -0 -1 -0 -0.327980324593964 -1 0:0 1:0 2:0 3:0 4:0 5:0 6:0 7:0 8:0 9:0 10:0 11:0 12:0 13:0 14:0 15:0 16:0 17:0 18:0 19:0 
-0 -0 -0 -1 -0 -1 -1 0:0 1:0 2:0 3:0 4:0 5:0 6:0 7:0 8:0 9:0 10:0 11:0 12:0 13:0 14:0 15:0 16:0 17:0 18:0 19:0 
-0 -0 -0 -1 -0.974486159027576 -1 -1 0:0 1:0 2:0 3:0 4:0 5:0 6:0 7:0 8:0 9:0 10:0 11:0 12:0 13:0 14:0 15:0 16:0 17:0 18:0 19:0 
-0 -0 -0 -1 -1 -1 -1 0:0 1:0 2:0 3:0 4:0 5:0 6:0 7:0 8:0 9:0 10:0 11:0 12:0 13:0 14:0 15:0 16:0 17:0 18:0 19:0 
-0 -0 -0 -1 -1 -1 -1 0:0 1:0 2:0 3:0 4:0 5:0 6:0 7:0 8:0 9:0 10:0 11:0 12:0 13:0 14:0 15:0 16:0 17:0 18:0 19:0 
-0 -0 -0 -1 -0 -0 -0 0:1 1:0 2:0 3:0 4:0 5:0 6:0 7:0 8:0 9:0 10:0 11:0 12:0 13:0 14:0 15:0 16:0 17:0 18:0 19:0 
-0 -0 -0 -1 -1 -1 -1 0:0 1:0 2:0 3:0 4:0 5:0 6:0 7:0 8:0 9:0 10:0 11:0 12:0 13:0 14:0 15:0 16:0 17:0 18:0 19:0 
-0 -0 -0 -1 -1 -1 -1 0:0 1:0 2:0 3:0 4:0 5:0 6:0 7:0 8:0 9:0 10:0 11:0 12:0 13:0 14:0 15:0 16:0 17:0 18:0 19:0 
-0 -0 -0 -1 -1 -1 -1 0:0 1:0 2:0 3:0 4:0 5:0 6:0 7:0 8:0 9:0 10:0 11:0 12:0 13:0 14:0 15:0 16:0 17:0 18:0 19:0 
-0 -0 -0.1734511076380414 -1 -1 -1 -1 0:0 1:0 2:0 3:0 4:0 5:0 6:0 7:0 8:0 9:0 10:0 11:0 12:0 13:0 14:0 15:0 16:0 17:0 18:0 19:0 
-0 -0 -1 -1 -1 -1 -1 0:0 1:0 2:0 3:0 4:0 5:0 6:0 7:0 8:0 9:0 10:0 11:0 12:0 13:0 14:0 15:0 16:0 17:0 18:0 19:0 
-0 -0 -1 -1 -1 -1 -1 0:0 1:0 2:0 3:0 4:0 5:0 6:0 7:0 8:0 9:0 10:0 11:0 12:0 13:0 14:0 15:0 16:0 17:0 18:0 19:0 
-0 -0.9391110601715816 -0 -1 -0 -0 -0 0:1 1:0 2:0 3:0 4:0 5:0 6:0 7:0 8:0 9:0 10:0 11:0 12:0 13:0 14:0 15:0 16:0 17:0 18:0 19:0 
-0 -1 -1 -1 -1 -1 -1 0:0 1:0 2:0 3:0 4:0 5:0 6:0 7:0 8:0 9:0 10:0 11:0 12:0 13:0 14:0 15:0 16:0 17:0 18:0 19:0 
-0 -1 -0 -1 -0 -0.1892579743506808 -0.2777016309543864 0:1 1:0 2:0 3:0 4:0 5:0 6:0 7:0 8:0 9:0 10:0 11:0 12:0 13:0 14:0 15:0 16:0 17:0 18:0 19:0 
-0 -1 -1 -1 -1 -1 -1 0:0 1:0 2:0 3:0 4:0 5:0 6:0 7:0 8:0 9:0 10:0 11:0 12:0 13:0 14:0 15:0 16:0 17:0 18:0 19:0 
-0 -1 -1 -1 -1 -1 -1 0:0 1:0 2:0 3:0 4:0 5:0 6:0 7:0 8:0 9:0 10:0 11:0 12:0 13:0 14:0 15:0 16:0 17:0 18:0 19:0 
-1 -1 -1 -1 -1 -1 -1 0:0 1:0 2:0 3:0 4:0 5:0 6:0 7:0 8:0 9:0 10:0 11:0 12:0 13:0 14:0 15:0 16:0 17:0 18:0 19:0 
-1 -1 -1 -1 -1 -1 -1 0:0 1:0 2:0 3:0 4:0 5:0 6:0 7:0 8:0 9:0 10:0 11:0 12:0 13:0 14:0 15:0 16:0 17:0 18:0 19:0 
-1 -1 -1 -1 -1 -1 -1 0:0 1:0 2:0 3:0 4:0 5:0 6:0 7:0 8:0 9:0 10:0 11:0 12:0 13:0 14:0 15:0 16:0 17:0 18:0 19:0 
-1 -1 -1 -1 -1 -1 -1 0:0 1:0 2:0 3:0 4:0 5:0 6:0 7:0 8:0 9:0 10:0 11:0 12:0 13:0 14:0 15:0 16:0 17:0 18:0 19:0 
-1 -1 -1 -1 -1 -1 -1 0:0 1:0 2:0 3:0 4:0 5:0 6:0 7:0 8:0 9:0 10:0 11:0 12:0 13:0 14:0 15:0 16:0 17:0 18:0 19:0 
-1 -1 -1 -1 -1 -1 -1 0:0 1:0 2:0 3:0 4:0 5:0 6:0 7:0 8:0 9:0 10:0 11:0 12:0 13:0 14:0 15:0 16:0 17:0 18:0 19:0 
-1 -1 -1 -1 -1 -1 -1 0:0 1:0 2:0 3:0 4:0 5:0 6:0 7:0 8:0 9:0 10:0 11:0 12:0 13:0 14:0 15:0 16:0 17:0 18:0 19:0 
-0 -1 -0 -1 -0 -1 -1 0:1 1:0 2:0 3:0 4:0 5:0 6:0 7:0 8:0 9:0 10:0 11:0 12:0 13:0 14:0 15:0 16:0 17:0 18:0 19:0 
-1 -1 -1 -1 -1 -1 -1 0:0 1:0 2:0 3:0 4:0 5:0 6:0 7:0 8:0 9:0 10:0 11:0 12:0 13:0 14:0 15:0 16:0 17:0 18:0 19:0 
-1 -1 -1 -1 -1 -1 -1 0:0 1:0 2:0 3:0 4:0 5:0 6:0 7:0 8:0 9:0 10:0 11:0 12:0 13:0 14:0 15:0 16:0 17:0 18:0 19:0 
-1 -1 -1 -1 -1 -1 -1 0:0 1:0 2:0 3:0 4:0 5:0 6:0 7:0 8:0 9:0 10:0 11:0 12:0 13:0 14:0 15:0 16:0 17:0 18:0 19:0 
-1 -1 -1 -1 -1 -1 -1 0:0 1:0 2:0 3:0 4:0 5:0 6:0 7:0 8:0 9:0 10:0 11:0 12:0 13:0 14:0 15:0 16:0 17:0 18:0 19:0 
-1 -1 -1 -1 -1 -1 -1 0:0 1:0 2:0 3:0 4:0 5:0 6:0 7:0 8:0 9:0 10:0 11:0 12:0 13:0 14:0 15:0 16:0 17:0 18:0 19:0 
-1 -1 -1 -1 -1 -1 -1 0:0 1:0 2:0 3:0 4:0 5:0 6:0 7:0 8:0 9:0 10:0 11:0 12:0 13:0 14:0 15:0 16:0 17:0 18:0 19:0 
-1 -1 -1 -1 -1 -1 -1 0:0 1:0 2:0 3:0 4:0 5:0 6:0 7:0 8:0 9:0 10:0 11:0 12:0 13:0 14:0 15:0 16:0 17:0 18:0 19:0 
-1 -1 -1 -1 -1 -1 -0.4567931363640588 0:0 1:0 2:0 3:0 4:0 5:0 6:0 7:0 8:0 9:0 10:0 11:0 12:0 13:0 14:0 15:0 16:0 17:0 18:0 19:0 
-0.846603967455873 -0.05094827971248496 -1 -1 -1 -1 -0 0:0 1:0 2:0 3:0 4:0 5:0 6:0 7:0 8:0 9:0 10:0 11:0 12:0 13:0 14:0 15:0 16:0 17:0 18:0 19:0 
-0 -0 -1 -1 -1 -0.9074102831526838 -0 0:0 1:0 2:0 3:0 4:0 5:0 6:0 7:0 8:0 9:0 10:0 11:0 12:0 13:0 14:0 15:0 16:0 17:0 18:0 19:0 
-0 -1 -0 -1 -0 -1 -1 0:1 1:0 2:0 3:0 4:0 5:0 6:0 7:0 8:0 9:0 10:0 11:0 12:0 13:0 14:0 15:0 16:0 17:0 18:0 19:0 
-0 -0.9950122510914432 -0.3328669144255172 -1 -0.6273953236386921 -1 -0.996632984522598 0:1 1:0 2:0 3:0 4:0 5:0 6:0 7:0 8:0 9:0 10:0 11:0 12:0 13:0 14:0 15:0 16:0 17:0 18:0 19:0 
