svm_type c_svc
kernel_type rbf
gamma 0.0909091
nr_class 2
total_sv 241
rho 0.649437
label 1 2
nr_sv 118 123
SV
1 0:0 1:0 2:0 3:0 4:0 5:0 6:0 7:1 8:0 9:0 10:0 11:0 
1 0:1 1:1 2:0 3:1 4:1 5:1 6:0 7:0 8:0 9:0 10:0 11:0 
1 0:0 1:0 2:0 3:0 4:0 5:0 6:0 7:1 8:0 9:0 10:0 11:0 
1 0:0 1:0 2:0 3:0 4:0 5:0 6:0 7:1 8:0 9:0 10:0 11:0 
1 0:0 1:0 2:0 3:0 4:0 5:0 6:0 7:1 8:0 9:0 10:0 11:0 
1 0:1 1:1 2:0 3:1 4:1 5:1 6:1 7:1 8:1 9:0 10:0 11:1 
1 0:0 1:0 2:0 3:0 4:0 5:0 6:0 7:1 8:0 9:0 10:0 11:0 
1 0:1 1:1 2:0 3:1 4:1 5:0 6:0 7:1 8:0 9:0 10:0 11:0 
1 0:1 1:0 2:0 3:0 4:0 5:0 6:0 7:0 8:0 9:0 10:0 11:0 
1 0:1 1:1 2:0 3:1 4:1 5:0 6:0 7:1 8:0 9:0 10:0 11:0 
1 0:1 1:1 2:0 3:0 4:0 5:0 6:0 7:0 8:0 9:0 10:0 11:0 
1 0:1 1:1 2:0 3:1 4:1 5:1 6:1 7:1 8:1 9:0 10:0 11:1 
1 0:1 1:1 2:0 3:1 4:1 5:1 6:1 7:0 8:1 9:0 10:0 11:1 
1 0:1 1:1 2:0 3:1 4:1 5:1 6:1 7:1 8:1 9:0 10:0 11:1 
1 0:1 1:1 2:0 3:1 4:1 5:1 6:1 7:1 8:1 9:0 10:0 11:1 
1 0:1 1:1 2:0 3:1 4:1 5:1 6:1 7:1 8:1 9:0 10:0 11:1 
1 0:1 1:1 2:0 3:1 4:1 5:1 6:1 7:1 8:1 9:0 10:0 11:1 
1 0:1 1:1 2:0 3:1 4:1 5:1 6:1 7:1 8:1 9:0 10:0 11:1 
1 0:1 1:1 2:0 3:1 4:1 5:1 6:1 7:1 8:0 9:0 10:0 11:0 
1 0:1 1:1 2:0 3:1 4:1 5:1 6:1 7:0 8:1 9:0 10:0 11:0 
1 0:1 1:1 2:0 3:1 4:1 5:1 6:1 7:1 8:1 9:0 10:0 11:1 
1 0:1 1:1 2:0 3:1 4:1 5:1 6:1 7:1 8:1 9:0 10:0 11:1 
1 0:1 1:1 2:0 3:1 4:1 5:1 6:1 7:1 8:1 9:0 10:0 11:1 
1 0:1 1:1 2:0 3:1 4:1 5:1 6:1 7:1 8:1 9:0 10:0 11:1 
1 0:1 1:1 2:0 3:1 4:1 5:1 6:1 7:1 8:1 9:0 10:0 11:1 
1 0:1 1:1 2:0 3:1 4:1 5:1 6:1 7:1 8:1 9:0 10:0 11:1 
1 0:1 1:1 2:0 3:1 4:1 5:1 6:1 7:1 8:1 9:0 10:0 11:1 
1 0:1 1:1 2:0 3:1 4:1 5:1 6:1 7:0 8:1 9:0 10:0 11:1 
1 0:1 1:1 2:0 3:1 4:1 5:1 6:1 7:1 8:1 9:0 10:0 11:1 
1 0:1 1:1 2:0 3:1 4:1 5:1 6:0 7:1 8:0 9:0 10:0 11:0 
1 0:1 1:1 2:0 3:1 4:0 5:0 6:0 7:0 8:0 9:0 10:0 11:0 
1 0:1 1:1 2:0 3:0 4:0 5:0 6:0 7:0 8:0 9:0 10:0 11:0 
1 0:1 1:1 2:0 3:1 4:1 5:1 6:1 7:1 8:1 9:0 10:0 11:1 
1 0:1 1:1 2:0 3:1 4:1 5:1 6:0 7:1 8:0 9:0 10:0 11:0 
1 0:1 1:0 2:0 3:0 4:0 5:0 6:0 7:1 8:0 9:0 10:0 11:0 
1 0:1 1:1 2:0 3:1 4:1 5:1 6:1 7:1 8:1 9:0 10:0 11:1 
1 0:0 1:0 2:0 3:0 4:0 5:0 6:0 7:0 8:0 9:0 10:0 11:0 
1 0:1 1:0 2:0 3:0 4:0 5:0 6:0 7:0 8:0 9:0 10:0 11:0 
1 0:1 1:0 2:0 3:0 4:0 5:0 6:0 7:0 8:0 9:0 10:0 11:0 
1 0:1 1:1 2:0 3:1 4:1 5:1 6:1 7:0 8:1 9:0 10:0 11:1 
1 0:1 1:1 2:0 3:1 4:0 5:0 6:0 7:0 8:0 9:0 10:0 11:0 
1 0:1 1:1 2:0 3:1 4:1 5:1 6:1 7:1 8:1 9:0 10:0 11:1 
1 0:1 1:1 2:0 3:1 4:1 5:1 6:1 7:1 8:0 9:0 10:0 11:0 
1 0:1 1:1 2:0 3:1 4:1 5:1 6:1 7:0 8:1 9:0 10:0 11:1 
1 0:1 1:1 2:0 3:1 4:1 5:1 6:1 7:1 8:0 9:0 10:0 11:0 
1 0:1 1:1 2:0 3:0 4:0 5:0 6:0 7:0 8:0 9:0 10:0 11:0 
1 0:1 1:1 2:0 3:1 4:1 5:1 6:1 7:1 8:1 9:0 10:0 11:1 
1 0:0 1:0 2:0 3:0 4:0 5:0 6:0 7:0 8:0 9:0 10:0 11:0 
1 0:1 1:1 2:0 3:1 4:1 5:1 6:1 7:0 8:1 9:0 10:0 11:1 
1 0:0 1:0 2:0 3:0 4:0 5:0 6:0 7:0 8:0 9:0 10:0 11:0 
1 0:1 1:1 2:0 3:1 4:0 5:0 6:0 7:0 8:0 9:0 10:0 11:0 
1 0:0 1:0 2:0 3:0 4:0 5:0 6:0 7:0 8:0 9:0 10:0 11:0 
1 0:1 1:1 2:0 3:0 4:0 5:0 6:0 7:0 8:0 9:0 10:0 11:0 
1 0:1 1:1 2:0 3:0 4:0 5:0 6:0 7:0 8:0 9:0 10:0 11:0 
1 0:1 1:0 2:0 3:0 4:0 5:0 6:0 7:1 8:0 9:0 10:0 11:0 
1 0:1 1:1 2:0 3:1 4:1 5:1 6:1 7:1 8:1 9:0 10:0 11:0 
1 0:1 1:1 2:0 3:1 4:1 5:1 6:1 7:0 8:1 9:0 10:0 11:1 
1 0:1 1:1 2:0 3:0 4:0 5:0 6:0 7:0 8:0 9:0 10:0 11:0 
1 0:1 1:1 2:0 3:0 4:0 5:0 6:0 7:0 8:0 9:0 10:0 11:0 
1 0:1 1:0 2:0 3:0 4:0 5:0 6:0 7:1 8:0 9:0 10:0 11:0 
1 0:1 1:1 2:0 3:1 4:1 5:1 6:1 7:1 8:1 9:0 10:0 11:1 
1 0:1 1:1 2:0 3:1 4:1 5:1 6:1 7:0 8:1 9:0 10:0 11:1 
1 0:1 1:1 2:0 3:1 4:1 5:1 6:1 7:0 8:1 9:0 10:0 11:1 
1 0:1 1:0 2:0 3:0 4:0 5:0 6:0 7:1 8:0 9:0 10:0 11:0 
1 0:1 1:1 2:0 3:1 4:1 5:1 6:1 7:1 8:1 9:0 10:0 11:1 
1 0:1 1:1 2:0 3:1 4:1 5:1 6:1 7:1 8:1 9:0 10:0 11:1 
1 0:1 1:0 2:0 3:0 4:0 5:0 6:0 7:1 8:0 9:0 10:0 11:0 
1 0:1 1:1 2:0 3:1 4:1 5:1 6:1 7:0 8:1 9:0 10:0 11:1 
1 0:1 1:1 2:0 3:1 4:1 5:1 6:1 7:1 8:1 9:0 10:0 11:0 
1 0:1 1:1 2:0 3:1 4:1 5:1 6:1 7:1 8:1 9:0 10:0 11:1 
1 0:1 1:1 2:0 3:1 4:1 5:1 6:1 7:1 8:1 9:0 10:0 11:1 
1 0:1 1:1 2:0 3:1 4:1 5:1 6:1 7:1 8:1 9:0 10:0 11:1 
1 0:1 1:1 2:0 3:1 4:1 5:1 6:1 7:1 8:1 9:0 10:0 11:1 
1 0:1 1:1 2:0 3:1 4:1 5:1 6:1 7:1 8:1 9:0 10:0 11:1 
1 0:1 1:1 2:0 3:1 4:0 5:0 6:0 7:1 8:0 9:0 10:0 11:0 
1 0:0 1:0 2:0 3:0 4:0 5:0 6:0 7:0 8:0 9:0 10:0 11:0 
1 0:1 1:1 2:0 3:1 4:1 5:1 6:1 7:1 8:1 9:0 10:0 11:1 
1 0:0 1:0 2:0 3:0 4:0 5:0 6:0 7:1 8:0 9:0 10:0 11:0 
1 0:1 1:1 2:0 3:1 4:1 5:1 6:1 7:1 8:1 9:0 10:0 11:1 
1 0:1 1:1 2:0 3:1 4:1 5:1 6:1 7:1 8:1 9:0 10:0 11:1 
1 0:1 1:1 2:0 3:1 4:1 5:1 6:1 7:1 8:1 9:0 10:0 11:0 
1 0:1 1:1 2:0 3:1 4:1 5:1 6:1 7:1 8:1 9:0 10:0 11:1 
1 0:1 1:1 2:0 3:1 4:1 5:1 6:1 7:1 8:1 9:0 10:0 11:1 
1 0:1 1:1 2:0 3:1 4:1 5:1 6:1 7:1 8:1 9:0 10:0 11:0 
1 0:1 1:1 2:0 3:1 4:1 5:1 6:1 7:0 8:1 9:0 10:0 11:1 
1 0:1 1:1 2:0 3:1 4:1 5:1 6:0 7:1 8:0 9:0 10:0 11:0 
1 0:1 1:1 2:0 3:1 4:1 5:1 6:1 7:1 8:1 9:0 10:0 11:1 
1 0:1 1:1 2:0 3:1 4:1 5:1 6:1 7:1 8:1 9:0 10:0 11:1 
1 0:1 1:1 2:0 3:1 4:1 5:1 6:1 7:1 8:1 9:0 10:0 11:1 
1 0:1 1:1 2:0 3:1 4:1 5:1 6:1 7:0 8:1 9:0 10:0 11:0 
1 0:1 1:1 2:0 3:0 4:0 5:0 6:0 7:0 8:0 9:0 10:0 11:0 
1 0:1 1:1 2:0 3:1 4:1 5:1 6:1 7:1 8:1 9:0 10:0 11:1 
1 0:1 1:1 2:0 3:1 4:1 5:1 6:1 7:0 8:1 9:0 10:0 11:0 
1 0:1 1:1 2:0 3:0 4:0 5:0 6:0 7:1 8:0 9:0 10:0 11:0 
1 0:1 1:1 2:0 3:1 4:1 5:1 6:1 7:0 8:1 9:0 10:0 11:1 
1 0:1 1:1 2:0 3:1 4:1 5:1 6:0 7:0 8:0 9:0 10:0 11:0 
1 0:1 1:1 2:0 3:0 4:0 5:0 6:0 7:0 8:0 9:0 10:0 11:0 
1 0:1 1:1 2:0 3:1 4:1 5:1 6:1 7:1 8:1 9:0 10:0 11:1 
1 0:1 1:1 2:0 3:1 4:1 5:1 6:1 7:1 8:1 9:0 10:0 11:1 
1 0:1 1:1 2:0 3:1 4:0 5:0 6:0 7:0 8:0 9:0 10:0 11:0 
1 0:1 1:1 2:0 3:1 4:1 5:1 6:1 7:1 8:1 9:0 10:0 11:1 
1 0:1 1:1 2:0 3:1 4:1 5:1 6:1 7:1 8:1 9:0 10:0 11:1 
1 0:1 1:1 2:0 3:1 4:1 5:1 6:1 7:1 8:1 9:0 10:0 11:1 
1 0:1 1:1 2:0 3:1 4:1 5:1 6:1 7:0 8:1 9:0 10:0 11:1 
1 0:1 1:1 2:0 3:1 4:1 5:0 6:0 7:1 8:0 9:0 10:0 11:0 
1 0:1 1:1 2:0 3:1 4:1 5:1 6:1 7:1 8:1 9:0 10:0 11:1 
1 0:1 1:1 2:0 3:1 4:1 5:1 6:1 7:1 8:1 9:0 10:0 11:1 
1 0:1 1:1 2:0 3:1 4:1 5:1 6:1 7:1 8:0 9:0 10:0 11:0 
1 0:1 1:1 2:0 3:1 4:1 5:1 6:1 7:1 8:1 9:0 10:0 11:0 
1 0:1 1:0 2:0 3:0 4:0 5:0 6:0 7:0 8:0 9:0 10:0 11:0 
1 0:1 1:1 2:0 3:1 4:1 5:1 6:0 7:0 8:0 9:0 10:0 11:0 
1 0:1 1:1 2:0 3:1 4:1 5:1 6:1 7:0 8:1 9:0 10:0 11:1 
1 0:0 1:0 2:0 3:0 4:0 5:0 6:0 7:1 8:0 9:0 10:0 11:0 
1 0:1 1:1 2:0 3:1 4:1 5:1 6:1 7:1 8:1 9:0 10:0 11:1 
1 0:1 1:1 2:0 3:1 4:1 5:1 6:1 7:1 8:1 9:0 10:0 11:1 
1 0:1 1:1 2:0 3:1 4:0 5:0 6:0 7:0 8:0 9:0 10:0 11:0 
1 0:1 1:1 2:0 3:1 4:0 5:0 6:0 7:0 8:0 9:0 10:0 11:0 
1 0:1 1:1 2:0 3:1 4:0 5:0 6:0 7:0 8:0 9:0 10:0 11:0 
-1 0:1 1:1 2:0 3:1 4:0 5:0 6:0 7:1 8:0 9:0 10:0 11:0 
-1 0:1 1:1 2:0 3:1 4:0 5:0 6:0 7:1 8:0 9:0 10:0 11:0 
-0.767180821006198 0:1 1:0 2:0 3:0 4:0 5:0 6:0 7:0 8:0 9:0 10:0 11:0 
-1 0:1 1:1 2:0 3:1 4:0 5:0 6:0 7:1 8:0 9:0 10:0 11:0 
-1 0:1 1:1 2:0 3:1 4:1 5:1 6:1 7:1 8:1 9:0 10:0 11:1 
-1 0:1 1:1 2:0 3:1 4:1 5:1 6:1 7:1 8:1 9:0 10:0 11:1 
-1 0:1 1:1 2:0 3:1 4:1 5:1 6:1 7:1 8:1 9:0 10:0 11:1 
-1 0:1 1:1 2:0 3:1 4:1 5:1 6:1 7:0 8:1 9:0 10:0 11:0 
-1 0:1 1:1 2:0 3:1 4:1 5:1 6:1 7:1 8:1 9:0 10:0 11:1 
-1 0:1 1:1 2:0 3:1 4:1 5:1 6:1 7:1 8:1 9:0 10:0 11:1 
-1 0:1 1:1 2:0 3:1 4:1 5:1 6:1 7:1 8:1 9:0 10:0 11:1 
-1 0:1 1:1 2:0 3:1 4:1 5:1 6:1 7:1 8:1 9:0 10:0 11:1 
-1 0:1 1:1 2:0 3:1 4:1 5:1 6:1 7:1 8:1 9:0 10:0 11:1 
-1 0:1 1:1 2:0 3:1 4:1 5:1 6:1 7:1 8:1 9:0 10:0 11:1 
-1 0:1 1:1 2:0 3:1 4:1 5:1 6:1 7:1 8:1 9:0 10:0 11:1 
-1 0:1 1:1 2:0 3:0 4:0 5:0 6:0 7:0 8:0 9:0 10:0 11:0 
-1 0:1 1:1 2:0 3:1 4:1 5:1 6:1 7:1 8:1 9:0 10:0 11:1 
-1 0:1 1:1 2:0 3:1 4:1 5:1 6:1 7:1 8:1 9:0 10:0 11:1 
-1 0:1 1:1 2:0 3:1 4:1 5:1 6:1 7:1 8:1 9:0 10:0 11:1 
-1 0:1 1:0 2:0 3:0 4:0 5:0 6:0 7:1 8:0 9:0 10:0 11:0 
-1 0:1 1:1 2:0 3:1 4:1 5:1 6:1 7:1 8:1 9:0 10:0 11:0 
-1 0:1 1:1 2:0 3:1 4:1 5:1 6:0 7:0 8:0 9:0 10:0 11:0 
-1 0:1 1:0 2:0 3:0 4:0 5:0 6:0 7:0 8:0 9:0 10:0 11:0 
-1 0:1 1:1 2:0 3:1 4:1 5:1 6:0 7:0 8:0 9:0 10:0 11:0 
-1 0:1 1:1 2:0 3:1 4:1 5:1 6:1 7:1 8:0 9:0 10:0 11:0 
-0.1747769762069597 0:1 1:1 2:0 3:1 4:0 5:0 6:0 7:0 8:0 9:0 10:0 11:0 
-1 0:1 1:0 2:0 3:0 4:0 5:0 6:0 7:0 8:0 9:0 10:0 11:0 
-1 0:1 1:1 2:0 3:1 4:1 5:0 6:0 7:1 8:0 9:0 10:0 11:0 
-1 0:1 1:1 2:0 3:1 4:1 5:1 6:0 7:0 8:0 9:0 10:0 11:0 
-1 0:1 1:1 2:0 3:1 4:1 5:1 6:1 7:1 8:1 9:0 10:0 11:1 
-1 0:1 1:1 2:0 3:1 4:1 5:1 6:1 7:0 8:1 9:0 10:0 11:0 
-1 0:1 1:1 2:0 3:1 4:1 5:1 6:1 7:1 8:1 9:0 10:0 11:1 
-1 0:1 1:1 2:0 3:1 4:0 5:0 6:0 7:1 8:0 9:0 10:0 11:0 
-1 0:1 1:1 2:0 3:1 4:0 5:0 6:0 7:1 8:0 9:0 10:0 11:0 
-1 0:1 1:1 2:0 3:1 4:1 5:0 6:0 7:1 8:0 9:0 10:0 11:0 
-1 0:1 1:1 2:0 3:1 4:1 5:1 6:1 7:1 8:0 9:0 10:0 11:0 
-1 0:1 1:1 2:0 3:0 4:0 5:0 6:0 7:0 8:0 9:0 10:0 11:0 
-0.2374185442076575 0:1 1:1 2:0 3:1 4:1 5:1 6:1 7:0 8:1 9:0 10:0 11:1 
-1 0:1 1:1 2:0 3:1 4:1 5:1 6:1 7:0 8:1 9:0 10:0 11:1 
-1 0:1 1:1 2:0 3:1 4:1 5:1 6:1 7:1 8:1 9:0 10:0 11:1 
-1 0:1 1:1 2:0 3:1 4:1 5:1 6:1 7:0 8:1 9:0 10:0 11:0 
-1 0:1 1:1 2:0 3:0 4:0 5:0 6:0 7:0 8:0 9:0 10:0 11:0 
-1 0:1 1:0 2:0 3:0 4:0 5:0 6:0 7:1 8:0 9:0 10:0 11:0 
-0.8440924484903217 0:1 1:1 2:0 3:0 4:0 5:0 6:0 7:1 8:0 9:0 10:0 11:0 
-1 0:1 1:1 2:0 3:1 4:1 5:1 6:1 7:0 8:1 9:0 10:0 11:1 
-1 0:1 1:1 2:0 3:1 4:1 5:1 6:1 7:1 8:1 9:0 10:0 11:1 
-1 0:1 1:1 2:0 3:1 4:1 5:1 6:1 7:0 8:1 9:0 10:0 11:1 
-1 0:1 1:1 2:0 3:1 4:1 5:1 6:1 7:0 8:1 9:0 10:0 11:1 
-1 0:1 1:1 2:0 3:1 4:1 5:1 6:1 7:0 8:1 9:0 10:0 11:1 
-1 0:1 1:1 2:0 3:1 4:1 5:1 6:1 7:0 8:1 9:0 10:0 11:1 
-1 0:1 1:1 2:0 3:0 4:0 5:0 6:0 7:1 8:0 9:0 10:0 11:0 
-1 0:1 1:1 2:0 3:0 4:0 5:0 6:0 7:1 8:0 9:0 10:0 11:0 
-1 0:1 1:0 2:0 3:0 4:0 5:0 6:0 7:0 8:0 9:0 10:0 11:0 
-1 0:1 1:1 2:0 3:0 4:0 5:0 6:0 7:1 8:0 9:0 10:0 11:0 
-1 0:1 1:0 2:0 3:0 4:0 5:0 6:0 7:0 8:0 9:0 10:0 11:0 
-1 0:1 1:1 2:0 3:0 4:0 5:0 6:0 7:0 8:0 9:0 10:0 11:0 
-1 0:1 1:1 2:0 3:1 4:1 5:1 6:1 7:0 8:1 9:0 10:0 11:0 
-0.930928253362435 0:1 1:1 2:0 3:1 4:1 5:1 6:1 7:0 8:0 9:0 10:0 11:0 
-1 0:1 1:1 2:0 3:1 4:1 5:0 6:0 7:1 8:0 9:0 10:0 11:0 
-1 0:1 1:1 2:0 3:1 4:1 5:1 6:1 7:1 8:0 9:0 10:0 11:0 
-0.59798377886543 0:1 1:1 2:0 3:0 4:0 5:0 6:0 7:0 8:0 9:0 10:0 11:0 
-1 0:0 1:0 2:0 3:0 4:0 5:0 6:0 7:1 8:0 9:0 10:0 11:0 
-1 0:0 1:0 2:0 3:0 4:0 5:0 6:0 7:1 8:0 9:0 10:0 11:0 
-1 0:0 1:0 2:0 3:0 4:0 5:0 6:0 7:1 8:0 9:0 10:0 11:0 
-1 0:0 1:0 2:0 3:0 4:0 5:0 6:0 7:1 8:0 9:0 10:0 11:0 
-1 0:1 1:1 2:0 3:1 4:1 5:0 6:0 7:1 8:0 9:0 10:0 11:0 
-1 0:1 1:1 2:0 3:0 4:0 5:0 6:0 7:1 8:0 9:0 10:0 11:0 
-1 0:1 1:1 2:0 3:1 4:1 5:1 6:1 7:0 8:1 9:0 10:0 11:0 
-1 0:0 1:0 2:0 3:0 4:0 5:0 6:0 7:1 8:0 9:0 10:0 11:0 
-1 0:1 1:1 2:0 3:1 4:1 5:1 6:0 7:0 8:0 9:0 10:0 11:0 
-1 0:1 1:1 2:0 3:1 4:1 5:1 6:0 7:1 8:0 9:0 10:0 11:0 
-1 0:0 1:0 2:0 3:0 4:0 5:0 6:0 7:1 8:0 9:0 10:0 11:0 
-1 0:0 1:0 2:0 3:0 4:0 5:0 6:0 7:1 8:0 9:0 10:0 11:0 
-1 0:1 1:1 2:0 3:1 4:1 5:1 6:1 7:0 8:1 9:0 10:0 11:1 
-1 0:1 1:1 2:0 3:1 4:1 5:1 6:1 7:1 8:1 9:0 10:0 11:1 
-1 0:1 1:1 2:0 3:1 4:1 5:1 6:1 7:1 8:1 9:0 10:0 11:0 
-1 0:1 1:1 2:0 3:1 4:1 5:1 6:1 7:1 8:1 9:0 10:0 11:1 
-1 0:1 1:1 2:0 3:1 4:1 5:1 6:1 7:1 8:1 9:0 10:0 11:1 
-1 0:1 1:1 2:0 3:1 4:1 5:1 6:1 7:1 8:1 9:0 10:0 11:1 
-1 0:1 1:1 2:0 3:1 4:1 5:1 6:1 7:0 8:1 9:0 10:0 11:1 
-1 0:1 1:1 2:0 3:1 4:1 5:1 6:1 7:1 8:1 9:0 10:0 11:1 
-1 0:1 1:1 2:0 3:1 4:1 5:1 6:1 7:1 8:1 9:0 10:0 11:1 
-1 0:1 1:1 2:0 3:1 4:1 5:1 6:1 7:1 8:1 9:0 10:0 11:1 
-1 0:1 1:1 2:0 3:1 4:1 5:1 6:1 7:0 8:1 9:0 10:0 11:1 
-1 0:1 1:1 2:0 3:1 4:1 5:1 6:1 7:0 8:1 9:0 10:0 11:1 
-1 0:1 1:1 2:0 3:1 4:1 5:1 6:1 7:1 8:1 9:0 10:0 11:1 
-1 0:1 1:1 2:0 3:1 4:1 5:1 6:1 7:0 8:1 9:0 10:0 11:1 
-1 0:1 1:1 2:0 3:1 4:1 5:1 6:1 7:1 8:1 9:0 10:0 11:1 
-1 0:1 1:1 2:0 3:1 4:1 5:1 6:1 7:0 8:1 9:0 10:0 11:1 
-1 0:1 1:1 2:0 3:1 4:1 5:1 6:1 7:0 8:1 9:0 10:0 11:1 
-1 0:1 1:1 2:0 3:1 4:1 5:1 6:1 7:0 8:1 9:0 10:0 11:1 
-1 0:1 1:1 2:0 3:1 4:1 5:1 6:1 7:0 8:1 9:0 10:0 11:1 
-1 0:1 1:1 2:0 3:1 4:1 5:1 6:1 7:0 8:1 9:0 10:0 11:1 
-1 0:1 1:1 2:0 3:1 4:1 5:1 6:1 7:1 8:1 9:0 10:0 11:1 
-1 0:1 1:1 2:0 3:1 4:1 5:1 6:1 7:0 8:1 9:0 10:0 11:1 
-1 0:1 1:1 2:0 3:1 4:1 5:1 6:1 7:1 8:1 9:0 10:0 11:1 
-1 0:1 1:1 2:0 3:1 4:1 5:1 6:1 7:0 8:1 9:0 10:0 11:1 
-1 0:1 1:1 2:0 3:0 4:0 5:0 6:0 7:1 8:0 9:0 10:0 11:0 
-1 0:0 1:0 2:0 3:0 4:0 5:0 6:0 7:1 8:0 9:0 10:0 11:0 
-1 0:1 1:1 2:0 3:1 4:0 5:0 6:0 7:1 8:0 9:0 10:0 11:0 
-0.3925922486754433 0:1 1:1 2:0 3:1 4:1 5:1 6:0 7:0 8:0 9:0 10:0 11:0 
-0.615204667386158 0:0 1:0 2:0 3:0 4:0 5:0 6:0 7:1 8:0 9:0 10:0 11:0 
-1 0:1 1:0 2:0 3:0 4:0 5:0 6:0 7:0 8:0 9:0 10:0 11:0 
-1 0:1 1:1 2:0 3:1 4:1 5:1 6:1 7:1 8:1 9:0 10:0 11:1 
-1 0:1 1:1 2:0 3:1 4:1 5:1 6:1 7:1 8:1 9:0 10:0 11:1 
-0.7566510562018536 0:1 1:1 2:0 3:1 4:1 5:1 6:1 7:0 8:1 9:0 10:0 11:0 
-0.9877830568997205 0:1 1:0 2:0 3:0 4:0 5:0 6:0 7:0 8:0 9:0 10:0 11:0 
-1 0:1 1:1 2:0 3:1 4:0 5:0 6:0 7:1 8:0 9:0 10:0 11:0 
-1 0:1 1:1 2:0 3:1 4:0 5:0 6:0 7:1 8:0 9:0 10:0 11:0 
-1 0:0 1:0 2:0 3:0 4:0 5:0 6:0 7:0 8:0 9:0 10:0 11:0 
-1 0:0 1:0 2:0 3:0 4:0 5:0 6:0 7:0 8:0 9:0 10:0 11:0 
-0.3547880867278133 0:0 1:0 2:0 3:0 4:0 5:0 6:0 7:0 8:0 9:0 10:0 11:0 
-0.3519661445023234 0:0 1:0 2:0 3:0 4:0 5:0 6:0 7:0 8:0 9:0 10:0 11:0 
-1 0:0 1:0 2:0 3:0 4:0 5:0 6:0 7:0 8:0 9:0 10:0 11:0 
-1 0:1 1:1 2:0 3:1 4:1 5:1 6:1 7:1 8:1 9:0 10:0 11:1 
-1 0:1 1:1 2:0 3:1 4:1 5:1 6:1 7:1 8:1 9:0 10:0 11:1 
-1 0:1 1:1 2:0 3:1 4:1 5:1 6:1 7:0 8:1 9:0 10:0 11:1 
-1 0:1 1:1 2:0 3:1 4:1 5:1 6:1 7:1 8:1 9:0 10:0 11:1 
-1 0:1 1:1 2:0 3:1 4:1 5:1 6:1 7:0 8:1 9:0 10:0 11:1 
-1 0:1 1:1 2:0 3:1 4:1 5:1 6:1 7:0 8:1 9:0 10:0 11:1 
-1 0:1 1:1 2:0 3:1 4:1 5:1 6:1 7:1 8:1 9:0 10:0 11:1 
-1 0:1 1:1 2:0 3:1 4:1 5:1 6:1 7:0 8:1 9:0 10:0 11:1 
-0.988633917467686 0:1 1:1 2:0 3:1 4:1 5:1 6:1 7:0 8:1 9:0 10:0 11:1 
