svm_type c_svc
kernel_type rbf
gamma 0.0526316
nr_class 8
total_sv 671
rho -0.914022 -1.63115 -0.758472 -0.385166 -0.211055 -0.824193 -1.69426 -0.595696 0.0158784 0.461611 0.421939 0.214039 -1.22389 0.563766 1.51164 0.987588 0.521122 -0.811594 0.392844 0.144248 0.153684 -0.994068 -0.219635 -0.521523 -2.47733 -0.256475 -1.02543 -1.0681
label 1 2 3 4 5 6 7 8
nr_sv 94 86 85 52 122 66 71 95
SV
1 0.3347109151663915 0 0 0 0.2441827293696193 1 0:0 1:0 2:0 3:0 4:0 5:0 6:0 7:0 8:0 9:1 10:1 11:0 12:0 13:0 14:0 15:0 16:0 17:1 18:0 19:0 
1 0 0 0 0 1 1 0:0 1:0 2:0 3:0 4:0 5:0 6:0 7:0 8:0 9:1 10:1 11:0 12:1 13:0 14:0 15:0 16:0 17:1 18:0 19:0 
1 1 0 0 0 1 1 0:0 1:0 2:0 3:0 4:0 5:0 6:0 7:0 8:0 9:1 10:1 11:0 12:0 13:0 14:0 15:0 16:0 17:1 18:0 19:0 
1 1 0 0 0 1 1 0:0 1:0 2:0 3:0 4:0 5:0 6:0 7:0 8:0 9:1 10:1 11:0 12:0 13:0 14:0 15:0 16:0 17:1 18:0 19:0 
1 1 0 0.7174447593878531 0 1 1 0:0 1:0 2:0 3:0 4:0 5:0 6:0 7:0 8:0 9:1 10:1 11:0 12:0 13:0 14:0 15:0 16:0 17:1 18:0 19:0 
1 0.9964328013261436 0 0.8765578041036247 0 0.996992925394746 1 0:0 1:0 2:0 3:0 4:0 5:0 6:0 7:0 8:0 9:1 10:1 11:0 12:0 13:0 14:0 15:0 16:0 17:1 18:0 19:0 
0 1 0.4442719684046965 0 0 0 0 0:0 1:0 2:0 3:0 4:1 5:0 6:0 7:0 8:1 9:1 10:0 11:0 12:0 13:0 14:0 15:0 16:0 17:0 18:0 19:0 
0 0 0 0 0 0 1 0:0 1:0 2:0 3:0 4:0 5:0 6:0 7:0 8:1 9:1 10:0 11:0 12:1 13:0 14:0 15:0 16:0 17:0 18:0 19:0 
1 1 0 1 0 1 1 0:0 1:0 2:0 3:0 4:0 5:0 6:0 7:0 8:0 9:0 10:1 11:0 12:0 13:0 14:0 15:0 16:0 17:1 18:0 19:0 
0 1 0 0 0 0 0 0:0 1:0 2:0 3:0 4:1 5:0 6:0 7:0 8:1 9:0 10:1 11:0 12:0 13:0 14:0 15:0 16:0 17:1 18:0 19:0 
1 1 0 1 0 1 1 0:0 1:0 2:0 3:0 4:0 5:0 6:0 7:0 8:0 9:0 10:1 11:0 12:0 13:0 14:0 15:0 16:0 17:1 18:0 19:0 
0 1 0 0.7514370116233685 0 0 0 0:0 1:0 2:0 3:0 4:0 5:0 6:0 7:0 8:1 9:1 10:0 11:1 12:1 13:0 14:0 15:0 16:0 17:0 18:0 19:0 
0 1 0 0 0 0 0 0:0 1:0 2:0 3:0 4:1 5:0 6:0 7:0 8:1 9:0 10:1 11:0 12:0 13:0 14:0 15:0 16:0 17:1 18:0 19:0 
0 1 0 1 1 0 1 0:0 1:0 2:0 3:0 4:0 5:0 6:0 7:0 8:1 9:0 10:0 11:1 12:0 13:0 14:0 15:0 16:0 17:0 18:0 19:0 
1 1 1 1 1 1 1 0:0 1:0 2:0 3:0 4:0 5:0 6:0 7:0 8:1 9:0 10:0 11:0 12:0 13:0 14:0 15:0 16:0 17:0 18:0 19:0 
0 1 0 1 0 0 1 0:0 1:0 2:0 3:0 4:1 5:0 6:0 7:0 8:0 9:0 10:1 11:0 12:0 13:0 14:0 15:0 16:0 17:1 18:0 19:0 
0 1 0 0 0 0 0 0:0 1:0 2:0 3:0 4:0 5:0 6:0 7:0 8:1 9:0 10:1 11:1 12:0 13:1 14:0 15:0 16:0 17:1 18:0 19:0 
1 1 1 1 0 0 1 0:0 1:0 2:0 3:0 4:0 5:0 6:0 7:0 8:1 9:1 10:0 11:0 12:0 13:0 14:0 15:0 16:0 17:0 18:0 19:0 
0 1 0 1 0 0 1 0:0 1:0 2:0 3:0 4:1 5:0 6:0 7:0 8:0 9:0 10:1 11:0 12:0 13:0 14:0 15:0 16:0 17:1 18:0 19:0 
1 1 0 1 1 1 1 0:0 1:0 2:1 3:0 4:0 5:0 6:0 7:0 8:0 9:0 10:0 11:1 12:0 13:1 14:0 15:0 16:0 17:0 18:0 19:0 
0 1 0 0 0 0 0 0:0 1:0 2:0 3:0 4:0 5:0 6:0 7:0 8:1 9:0 10:1 11:1 12:0 13:1 14:0 15:0 16:0 17:1 18:0 19:0 
1 1 0.8016331697198633 1 1 1 1 0:0 1:0 2:0 3:0 4:0 5:0 6:0 7:0 8:0 9:1 10:0 11:0 12:0 13:0 14:0 15:0 16:1 17:1 18:0 19:0 
1 0 0 0 1 0 0 0:0 1:0 2:1 3:0 4:0 5:1 6:0 7:0 8:1 9:0 10:1 11:0 12:0 13:0 14:0 15:0 16:0 17:1 18:0 19:0 
0 0 0 0 0 0 1 0:0 1:0 2:0 3:0 4:0 5:0 6:0 7:0 8:1 9:1 10:0 11:0 12:1 13:0 14:0 15:0 16:0 17:0 18:0 19:0 
1 0 0 0 0 0.7291847026174384 1 0:0 1:0 2:0 3:0 4:0 5:0 6:0 7:0 8:1 9:1 10:0 11:0 12:1 13:0 14:0 15:0 16:0 17:0 18:0 19:0 
1 1 0.002979871173613038 1 0 1 1 0:0 1:0 2:0 3:0 4:0 5:0 6:0 7:0 8:0 9:0 10:1 11:0 12:0 13:0 14:0 15:0 16:0 17:1 18:0 19:0 
0 0 0 0 0 1 0 0:0 1:0 2:0 3:0 4:0 5:0 6:0 7:0 8:1 9:1 10:0 11:0 12:1 13:0 14:0 15:0 16:0 17:0 18:1 19:0 
0 1 0 0 1 0 0 0:0 1:0 2:0 3:0 4:0 5:0 6:0 7:0 8:1 9:0 10:1 11:1 12:0 13:0 14:0 15:0 16:0 17:1 18:0 19:0 
0 1 0.9886311250968454 0 0.4158139606350915 0 0 0:0 1:0 2:0 3:0 4:1 5:0 6:0 7:0 8:1 9:1 10:0 11:0 12:0 13:0 14:0 15:0 16:0 17:0 18:0 19:0 
0 0 0 0 0 1 0 0:0 1:0 2:0 3:0 4:0 5:0 6:0 7:0 8:1 9:1 10:0 11:0 12:1 13:0 14:0 15:0 16:0 17:0 18:1 19:0 
1 1 1 1 1 1 1 0:0 1:0 2:0 3:0 4:0 5:0 6:0 7:0 8:0 9:0 10:0 11:1 12:0 13:0 14:0 15:0 16:0 17:0 18:0 19:0 
0 1 0 0 0 0 0 0:0 1:0 2:0 3:0 4:0 5:0 6:0 7:0 8:1 9:0 10:1 11:0 12:0 13:0 14:0 15:0 16:0 17:1 18:0 19:0 
1 1 1 1 1 1 1 0:0 1:0 2:0 3:0 4:0 5:0 6:0 7:0 8:1 9:0 10:0 11:0 12:0 13:0 14:0 15:0 16:0 17:0 18:0 19:0 
0 1 0 1 0 0 1 0:0 1:0 2:0 3:0 4:1 5:0 6:0 7:0 8:0 9:0 10:1 11:0 12:0 13:0 14:0 15:0 16:0 17:1 18:0 19:0 
1 1 0.9817960477407743 1 1 1 1 0:0 1:0 2:1 3:0 4:0 5:0 6:0 7:0 8:0 9:0 10:0 11:0 12:1 13:0 14:0 15:0 16:0 17:0 18:1 19:0 
0 1 0 0 0 0 1 0:0 1:0 2:0 3:0 4:0 5:0 6:0 7:0 8:1 9:0 10:1 11:0 12:0 13:0 14:0 15:0 16:0 17:1 18:0 19:0 
1 1 1 1 0 0.8806735125256914 1 0:0 1:0 2:0 3:0 4:0 5:0 6:0 7:0 8:1 9:1 10:0 11:0 12:0 13:0 14:0 15:0 16:0 17:0 18:0 19:0 
0 1 0 0 0 0 0.781153336264645 0:0 1:0 2:0 3:0 4:0 5:0 6:0 7:0 8:1 9:0 10:1 11:0 12:0 13:0 14:0 15:0 16:0 17:1 18:0 19:0 
1 1 0 1 1 0 0.3469350193500571 0:0 1:0 2:1 3:0 4:1 5:0 6:0 7:0 8:0 9:1 10:0 11:0 12:0 13:0 14:0 15:0 16:0 17:0 18:0 19:0 
0 1 1 1 1 0 1 0:0 1:0 2:0 3:0 4:1 5:0 6:0 7:0 8:1 9:0 10:0 11:0 12:0 13:0 14:0 15:0 16:0 17:0 18:0 19:0 
1 1 0 1 1 0 1 0:0 1:0 2:0 3:0 4:0 5:0 6:0 7:0 8:0 9:0 10:0 11:1 12:0 13:0 14:0 15:0 16:0 17:1 18:0 19:0 
1 1 1 1 1 1 1 0:0 1:0 2:0 3:0 4:0 5:0 6:0 7:0 8:0 9:0 10:0 11:0 12:0 13:0 14:0 15:0 16:0 17:0 18:0 19:0 
1 0 0 0 0 1 1 0:0 1:0 2:0 3:0 4:0 5:0 6:0 7:0 8:1 9:1 10:0 11:0 12:1 13:0 14:0 15:0 16:0 17:0 18:0 19:0 
1 1 1 1 1 1 1 0:0 1:0 2:0 3:0 4:0 5:0 6:0 7:0 8:1 9:0 10:0 11:0 12:0 13:0 14:0 15:0 16:0 17:0 18:0 19:0 
0.7324263613423323 0 0 0 1 0 0 0:0 1:0 2:1 3:0 4:0 5:0 6:1 7:0 8:1 9:1 10:0 11:1 12:1 13:1 14:0 15:0 16:0 17:0 18:0 19:0 
1 0 0 0 1 0 0 0:0 1:0 2:1 3:0 4:0 5:0 6:0 7:0 8:1 9:1 10:0 11:0 12:0 13:0 14:0 15:0 16:0 17:0 18:0 19:0 
0.9025382779221942 0 0.1222737262150076 0 0 0.9024603208762861 1 0:0 1:0 2:0 3:0 4:0 5:0 6:0 7:0 8:1 9:1 10:0 11:0 12:1 13:0 14:0 15:0 16:0 17:0 18:0 19:0 
1 0 0 0 0 0.8965939309181518 0 0:0 1:0 2:1 3:0 4:0 5:0 6:0 7:0 8:1 9:1 10:0 11:0 12:1 13:1 14:0 15:0 16:0 17:0 18:0 19:0 
0 1 1 1 1 0 0.607056870607635 0:0 1:0 2:0 3:0 4:1 5:0 6:0 7:0 8:1 9:0 10:0 11:0 12:0 13:1 14:0 15:0 16:0 17:0 18:0 19:0 
0 1 0 0 0 0 0 0:0 1:0 2:0 3:0 4:0 5:0 6:0 7:0 8:1 9:0 10:1 11:1 12:0 13:1 14:0 15:0 16:0 17:1 18:0 19:0 
0.2982384927195018 0 0 0 0 0 0 0:0 1:1 2:1 3:0 4:0 5:0 6:0 7:0 8:0 9:1 10:1 11:1 12:1 13:0 14:0 15:0 16:0 17:1 18:0 19:0 
0 0 0 0.4082797371067873 0 0 0 0:0 1:0 2:0 3:0 4:0 5:0 6:0 7:0 8:1 9:1 10:0 11:1 12:1 13:1 14:0 15:0 16:0 17:0 18:0 19:0 
1 1 0 1 1 0 0 0:0 1:0 2:1 3:1 4:1 5:0 6:0 7:0 8:0 9:0 10:1 11:0 12:0 13:0 14:0 15:0 16:0 17:1 18:0 19:0 
1 0 0 0 0 0 0 0:0 1:0 2:1 3:0 4:0 5:0 6:0 7:0 8:1 9:1 10:0 11:0 12:1 13:0 14:0 15:0 16:0 17:0 18:0 19:0 
1 1 0 0 1 0 1 0:0 1:0 2:1 3:0 4:0 5:0 6:0 7:0 8:1 9:0 10:1 11:0 12:0 13:0 14:0 15:0 16:0 17:0 18:0 19:0 
1 0 0 0 1 0 0 0:0 1:1 2:1 3:0 4:0 5:0 6:1 7:0 8:1 9:1 10:0 11:0 12:1 13:0 14:0 15:0 16:0 17:0 18:0 19:0 
0 0 0 0.5912091335026659 0 1 0 0:0 1:1 2:1 3:0 4:0 5:0 6:1 7:0 8:0 9:0 10:1 11:1 12:1 13:1 14:1 15:0 16:0 17:0 18:1 19:1 
1 0 0 0 0 0 0 0:0 1:0 2:1 3:0 4:1 5:0 6:1 7:0 8:0 9:1 10:1 11:0 12:1 13:0 14:0 15:0 16:0 17:1 18:0 19:0 
1 0 0 1 0.3927348586678937 1 0.9558726141600808 0:0 1:1 2:1 3:0 4:0 5:0 6:1 7:0 8:0 9:0 10:1 11:0 12:1 13:0 14:0 15:0 16:0 17:0 18:1 19:0 
1 0 0 1 0 1 0 0:0 1:0 2:1 3:0 4:1 5:0 6:0 7:0 8:0 9:0 10:1 11:0 12:0 13:1 14:0 15:0 16:0 17:0 18:1 19:1 
0.3010665425968732 0 0 0 0 1 0 0:0 1:0 2:1 3:0 4:1 5:0 6:0 7:0 8:0 9:0 10:1 11:0 12:1 13:1 14:1 15:0 16:0 17:0 18:1 19:0 
0 1 0 0.07045247284676699 0 0 0 0:0 1:0 2:0 3:0 4:1 5:0 6:0 7:0 8:1 9:0 10:1 11:0 12:0 13:1 14:0 15:0 16:0 17:0 18:0 19:0 
0 0 0 0 0 1 0 0:0 1:0 2:1 3:0 4:1 5:0 6:0 7:0 8:0 9:0 10:1 11:0 12:0 13:0 14:1 15:1 16:0 17:0 18:1 19:1 
0.7917916471188999 1 0 1 0 1 1 0:0 1:0 2:0 3:0 4:1 5:0 6:0 7:0 8:0 9:0 10:1 11:0 12:0 13:1 14:1 15:0 16:0 17:0 18:0 19:1 
1 0 0 0.9486388811976523 0 1 0 0:0 1:0 2:1 3:0 4:1 5:0 6:1 7:0 8:0 9:0 10:1 11:0 12:1 13:1 14:1 15:0 16:0 17:0 18:1 19:1 
0 0 1 0 0.01115503830612284 1 0 0:0 1:0 2:1 3:0 4:0 5:0 6:1 7:0 8:1 9:0 10:0 11:0 12:1 13:0 14:1 15:1 16:0 17:0 18:1 19:1 
0 0 1 0 0 1 0 0:0 1:0 2:1 3:0 4:1 5:0 6:0 7:0 8:0 9:0 10:1 11:0 12:0 13:0 14:1 15:1 16:0 17:0 18:1 19:1 
0 0 1 0 0 0 0 0:0 1:1 2:0 3:0 4:0 5:0 6:0 7:0 8:1 9:0 10:1 11:1 12:0 13:0 14:1 15:1 16:0 17:0 18:1 19:1 
0 0 0 1 0 0.8080500526264854 0 0:0 1:1 2:1 3:0 4:0 5:0 6:0 7:0 8:0 9:0 10:1 11:1 12:0 13:1 14:1 15:0 16:0 17:0 18:1 19:1 
0 1 0.4619883255133245 1 0 1 1 0:0 1:0 2:0 3:0 4:1 5:0 6:0 7:0 8:0 9:0 10:1 11:0 12:0 13:1 14:1 15:0 16:0 17:1 18:0 19:0 
1 1 0 1 0.78646140437789 1 1 0:0 1:0 2:0 3:0 4:0 5:0 6:0 7:0 8:0 9:0 10:1 11:1 12:1 13:1 14:0 15:0 16:0 17:0 18:0 19:0 
0 0 1 0 0 0 0 0:0 1:0 2:1 3:1 4:1 5:0 6:0 7:0 8:0 9:0 10:1 11:0 12:0 13:0 14:1 15:1 16:0 17:1 18:1 19:0 
1 1 1 1 0 1 1 0:0 1:0 2:0 3:0 4:0 5:0 6:0 7:0 8:0 9:0 10:1 11:0 12:0 13:0 14:1 15:1 16:0 17:0 18:0 19:0 
0 0 0 0 0 0.07180968876124041 0 0:0 1:0 2:1 3:0 4:1 5:0 6:0 7:0 8:0 9:0 10:1 11:0 12:0 13:1 14:1 15:0 16:0 17:1 18:1 19:0 
0 0 0.889178722627365 0.03216897195854972 0.4426161194887819 1 0 0:0 1:0 2:1 3:0 4:1 5:0 6:0 7:0 8:0 9:0 10:1 11:0 12:0 13:0 14:1 15:1 16:0 17:0 18:1 19:1 
1 1 1 1 1 1 1 0:0 1:0 2:0 3:0 4:0 5:0 6:0 7:0 8:0 9:0 10:0 11:1 12:0 13:0 14:0 15:0 16:0 17:0 18:0 19:0 
1 1 0 1 1 0 1 0:0 1:0 2:1 3:0 4:1 5:0 6:0 7:0 8:0 9:0 10:1 11:0 12:0 13:1 14:0 15:0 16:0 17:0 18:0 19:0 
0 1 0 0 0 0 0 0:0 1:1 2:0 3:0 4:0 5:0 6:0 7:0 8:0 9:0 10:1 11:1 12:0 13:0 14:1 15:0 16:0 17:1 18:1 19:0 
0 1 0 0.846229357854041 0 0 0 0:0 1:1 2:0 3:1 4:0 5:0 6:0 7:0 8:1 9:0 10:1 11:1 12:0 13:0 14:0 15:0 16:0 17:0 18:1 19:0 
0 1 0 0 0 0 0 0:0 1:1 2:1 3:0 4:0 5:0 6:0 7:0 8:0 9:0 10:1 11:1 12:0 13:0 14:0 15:0 16:0 17:1 18:1 19:0 
0 1 1 0.9222266563250132 1 0 0 0:0 1:1 2:0 3:0 4:0 5:0 6:0 7:0 8:1 9:0 10:0 11:1 12:0 13:0 14:0 15:0 16:0 17:0 18:1 19:0 
0.02236574629128234 1 1 1 1 1 1 0:0 1:1 2:0 3:0 4:0 5:0 6:0 7:0 8:0 9:0 10:0 11:1 12:0 13:0 14:1 15:0 16:0 17:0 18:1 19:0 
0 1 1 1 0 1 0 0:0 1:1 2:0 3:0 4:0 5:0 6:0 7:0 8:0 9:0 10:1 11:1 12:0 13:0 14:1 15:1 16:0 17:0 18:1 19:1 
0 1 0 1 0.09138669931166168 0 1 0:0 1:0 2:0 3:0 4:1 5:0 6:0 7:0 8:0 9:0 10:1 11:0 12:0 13:0 14:0 15:0 16:0 17:1 18:0 19:0 
0 1 0 1 0 0 1 0:0 1:1 2:0 3:0 4:0 5:0 6:0 7:0 8:0 9:0 10:1 11:1 12:0 13:0 14:1 15:0 16:0 17:1 18:0 19:0 
0 1 0 0.8997772299473676 0.01944431155447758 0 0 0:0 1:0 2:0 3:0 4:0 5:0 6:0 7:0 8:1 9:1 10:0 11:1 12:1 13:0 14:0 15:0 16:0 17:0 18:0 19:0 
0 0.8103897277376547 1 0.1816492441993898 0 1 0 0:0 1:0 2:0 3:0 4:1 5:0 6:0 7:0 8:1 9:0 10:0 11:0 12:0 13:1 14:0 15:0 16:0 17:0 18:1 19:0 
0 0 0 0 0 0.9122313746538627 0 0:0 1:1 2:0 3:0 4:0 5:0 6:0 7:0 8:0 9:0 10:1 11:1 12:0 13:1 14:1 15:0 16:0 17:1 18:1 19:0 
0 0 1 1 0 1 1 0:0 1:1 2:0 3:0 4:0 5:0 6:0 7:0 8:0 9:0 10:0 11:0 12:0 13:0 14:1 15:1 16:0 17:1 18:1 19:0 
0.19329247985786 0 1 0 0.694339635093603 0 0 0:0 1:1 2:1 3:0 4:0 5:0 6:0 7:0 8:0 9:0 10:1 11:1 12:0 13:0 14:1 15:1 16:0 17:0 18:1 19:0 
0 0 1 0 0 0 0.438310108128566 0:0 1:1 2:0 3:0 4:0 5:0 6:0 7:0 8:1 9:0 10:0 11:0 12:0 13:0 14:1 15:0 16:0 17:1 18:1 19:0 
0 0 1 1 1 0 0 0:0 1:1 2:0 3:0 4:0 5:0 6:0 7:0 8:1 9:0 10:0 11:1 12:0 13:0 14:1 15:0 16:1 17:0 18:1 19:0 
0 1 1 0 0 0 0 0:0 1:1 2:0 3:0 4:0 5:0 6:0 7:0 8:1 9:0 10:0 11:1 12:0 13:0 14:1 15:0 16:0 17:0 18:1 19:0 
0 0.2976142395738102 1 1 0 0 0 0:0 1:1 2:0 3:1 4:0 5:0 6:0 7:0 8:1 9:0 10:0 11:1 12:0 13:0 14:1 15:0 16:0 17:0 18:1 19:0 
-1 1 0 1 0 0 1 0:0 1:0 2:1 3:0 4:0 5:0 6:0 7:0 8:0 9:0 10:1 11:0 12:0 13:0 14:0 15:0 16:0 17:1 18:0 19:0 
-0 0 0 1 1 0.2453880137754881 0 0:0 1:0 2:1 3:0 4:0 5:0 6:1 7:1 8:0 9:0 10:0 11:0 12:0 13:1 14:0 15:0 16:1 17:0 18:0 19:0 
-0 0 0 0 1 0 0 0:0 1:0 2:1 3:0 4:0 5:0 6:0 7:0 8:0 9:0 10:0 11:0 12:0 13:0 14:0 15:0 16:1 17:0 18:0 19:0 
-0.08176844398769813 0 0 0 0 0 0 0:0 1:0 2:1 3:0 4:0 5:0 6:0 7:0 8:0 9:0 10:1 11:0 12:0 13:1 14:0 15:0 16:1 17:0 18:0 19:0 
-0 0 0 1 0 1 1 0:0 1:0 2:0 3:0 4:0 5:0 6:1 7:0 8:0 9:0 10:1 11:0 12:1 13:1 14:0 15:0 16:1 17:0 18:0 19:0 
-1 1 0 1 0 0 1 0:0 1:0 2:1 3:0 4:0 5:1 6:0 7:0 8:0 9:0 10:1 11:0 12:0 13:0 14:0 15:0 16:0 17:1 18:0 19:0 
-0 0 0 0 1 0 0 0:0 1:0 2:1 3:0 4:0 5:0 6:0 7:0 8:0 9:0 10:0 11:0 12:0 13:0 14:0 15:0 16:1 17:0 18:0 19:0 
-0.8511896219693457 0 0 1 0 0 0.652880816444924 0:0 1:0 2:1 3:0 4:0 5:1 6:0 7:0 8:0 9:0 10:1 11:0 12:0 13:0 14:0 15:0 16:0 17:0 18:0 19:0 
-0 0 0 0 0.3723422851907555 0 0 0:0 1:0 2:1 3:0 4:0 5:0 6:0 7:0 8:0 9:0 10:1 11:0 12:0 13:0 14:0 15:0 16:1 17:0 18:0 19:0 
-1 1 0 1 0 0 1 0:0 1:0 2:1 3:0 4:0 5:0 6:0 7:0 8:0 9:0 10:1 11:0 12:0 13:0 14:0 15:0 16:0 17:1 18:0 19:0 
-0 0 0 0 0 0.2376919803559297 0 0:0 1:0 2:1 3:0 4:0 5:0 6:1 7:0 8:0 9:1 10:0 11:0 12:0 13:0 14:0 15:0 16:0 17:0 18:0 19:0 
-1 1 0 0 0.4268423705996357 0 1 0:0 1:0 2:1 3:0 4:0 5:0 6:0 7:0 8:0 9:0 10:1 11:0 12:0 13:0 14:0 15:0 16:0 17:0 18:0 19:0 
-1 0.03243426978038043 0 1 0 0 0.5162428263908841 0:0 1:0 2:1 3:0 4:0 5:1 6:0 7:0 8:0 9:0 10:1 11:0 12:0 13:0 14:0 15:0 16:0 17:0 18:0 19:0 
-0 0 0 0 0 1 0 0:0 1:0 2:0 3:0 4:0 5:1 6:1 7:0 8:0 9:1 10:0 11:0 12:1 13:0 14:0 15:0 16:0 17:0 18:0 19:0 
-1 0 0 1 0 1 0 0:0 1:0 2:1 3:0 4:0 5:1 6:0 7:0 8:0 9:0 10:1 11:0 12:0 13:1 14:0 15:0 16:0 17:0 18:0 19:0 
-0 1 0 1 1 0 1 0:0 1:0 2:1 3:0 4:0 5:1 6:0 7:0 8:0 9:0 10:0 11:0 12:0 13:0 14:0 15:0 16:0 17:0 18:0 19:0 
-1 1 1 1 1 1 1 0:0 1:0 2:1 3:0 4:0 5:0 6:0 7:0 8:0 9:0 10:0 11:0 12:0 13:0 14:0 15:0 16:0 17:0 18:0 19:0 
-1 0 0 0 0 0 0 0:0 1:0 2:1 3:0 4:0 5:0 6:1 7:0 8:0 9:1 10:0 11:0 12:1 13:0 14:0 15:0 16:0 17:0 18:0 19:0 
-1 1 0 1 0 1 1 0:0 1:0 2:0 3:0 4:0 5:1 6:0 7:0 8:0 9:0 10:1 11:0 12:0 13:1 14:0 15:0 16:0 17:0 18:0 19:0 
-1 1 0.8267596623108903 1 0 1 1 0:0 1:0 2:1 3:0 4:0 5:0 6:0 7:0 8:0 9:0 10:0 11:0 12:0 13:1 14:0 15:0 16:0 17:0 18:0 19:0 
-0.4497426113361577 0 0 0.9443017982980551 0 1 0 0:0 1:0 2:0 3:0 4:0 5:1 6:1 7:0 8:0 9:1 10:0 11:0 12:1 13:1 14:0 15:0 16:0 17:0 18:0 19:0 
-1 1 1 1 1 1 1 0:0 1:0 2:1 3:0 4:0 5:0 6:0 7:0 8:0 9:0 10:0 11:0 12:0 13:0 14:0 15:0 16:0 17:0 18:0 19:0 
-0 0 0 0.09186494818703378 0 0 0 0:0 1:0 2:1 3:0 4:0 5:0 6:0 7:0 8:0 9:0 10:0 11:0 12:0 13:1 14:0 15:0 16:1 17:0 18:0 19:0 
-0 0 0 0 0 1 0 0:0 1:0 2:1 3:0 4:0 5:1 6:1 7:0 8:0 9:0 10:0 11:0 12:0 13:1 14:0 15:0 16:0 17:0 18:0 19:0 
-0 0 0 0.7491211214982614 1 0 0 0:1 1:0 2:0 3:0 4:0 5:0 6:0 7:0 8:0 9:1 10:0 11:0 12:0 13:0 14:0 15:0 16:1 17:0 18:0 19:0 
-1 1 0.3316835785030403 0.3436428820871542 0.7864928804540617 0 1 0:0 1:0 2:1 3:0 4:0 5:0 6:0 7:0 8:0 9:0 10:1 11:0 12:0 13:0 14:0 15:0 16:0 17:0 18:0 19:0 
-0 0 1 1 1 0 0 0:0 1:0 2:0 3:0 4:0 5:1 6:1 7:1 8:0 9:0 10:0 11:0 12:0 13:0 14:0 15:0 16:1 17:0 18:0 19:0 
-0 1 0 1 0 1 0.3762517302760479 0:0 1:0 2:0 3:0 4:0 5:0 6:1 7:0 8:0 9:0 10:0 11:0 12:0 13:1 14:0 15:0 16:1 17:0 18:0 19:0 
-1 0 0.235586227157444 1 1 1 1 0:1 1:0 2:0 3:0 4:0 5:0 6:0 7:0 8:0 9:1 10:0 11:0 12:1 13:0 14:0 15:0 16:0 17:0 18:0 19:0 
-0 0 0 1 0 0 1 0:0 1:0 2:0 3:0 4:0 5:0 6:1 7:0 8:0 9:0 10:0 11:0 12:1 13:0 14:0 15:0 16:1 17:0 18:0 19:0 
-1 1 0 1 0 1 1 0:0 1:0 2:0 3:0 4:0 5:0 6:0 7:0 8:0 9:1 10:0 11:0 12:1 13:0 14:0 15:0 16:0 17:0 18:0 19:0 
-0 0 0 0 0 1 0 0:0 1:0 2:0 3:0 4:0 5:1 6:1 7:0 8:0 9:1 10:0 11:0 12:1 13:0 14:0 15:0 16:0 17:0 18:0 19:0 
-0.829650249265098 1 1 1 1 1 1 0:1 1:0 2:0 3:0 4:0 5:1 6:0 7:0 8:0 9:0 10:0 11:0 12:0 13:0 14:0 15:0 16:0 17:0 18:0 19:0 
-1 0 0 0 0 0 0 0:0 1:0 2:1 3:0 4:0 5:0 6:1 7:0 8:0 9:1 10:1 11:0 12:1 13:0 14:0 15:0 16:0 17:0 18:0 19:0 
-0.5888607430952226 0 0 0 0 0 0.1412806363997622 0:0 1:0 2:1 3:0 4:0 5:0 6:1 7:0 8:0 9:0 10:0 11:0 12:1 13:0 14:0 15:0 16:0 17:0 18:0 19:0 
-1 0.4336445588025716 0 1 0 1 1 0:0 1:0 2:0 3:0 4:0 5:0 6:0 7:0 8:0 9:1 10:0 11:0 12:1 13:1 14:0 15:0 16:0 17:0 18:0 19:0 
-0 0.8141627654885015 0.3165047007358179 1 1 0 0 0:1 1:0 2:0 3:0 4:0 5:1 6:0 7:0 8:0 9:0 10:0 11:0 12:0 13:0 14:0 15:0 16:1 17:0 18:0 19:0 
-0 0 0.5099351716446364 1 1 0 0 0:1 1:0 2:1 3:0 4:0 5:1 6:0 7:0 8:0 9:0 10:0 11:0 12:0 13:0 14:0 15:0 16:0 17:0 18:0 19:0 
-0 0 0 0 0 1 0 0:0 1:0 2:0 3:0 4:0 5:1 6:1 7:0 8:0 9:1 10:0 11:0 12:1 13:0 14:0 15:0 16:0 17:0 18:0 19:0 
-0 0 0 0 1 0 0 0:0 1:0 2:1 3:0 4:0 5:0 6:0 7:0 8:0 9:0 10:0 11:0 12:0 13:0 14:0 15:0 16:1 17:0 18:0 19:0 
-0 0 1 1 1 0 0 0:1 1:0 2:0 3:0 4:0 5:0 6:0 7:1 8:0 9:1 10:0 11:0 12:1 13:0 14:0 15:0 16:1 17:0 18:0 19:0 
-0 0 0 0 1 0 0 0:0 1:0 2:1 3:0 4:0 5:0 6:0 7:0 8:0 9:0 10:0 11:0 12:0 13:0 14:0 15:0 16:1 17:0 18:0 19:0 
-1 1 1 1 1 1 1 0:0 1:0 2:0 3:0 4:0 5:0 6:0 7:0 8:0 9:0 10:0 11:0 12:1 13:0 14:0 15:0 16:0 17:0 18:0 19:0 
-1 1 1 1 0 1 1 0:0 1:0 2:0 3:0 4:0 5:0 6:1 7:0 8:0 9:0 10:0 11:0 12:1 13:0 14:0 15:0 16:0 17:0 18:0 19:0 
-1 1 1 1 0 1 1 0:0 1:0 2:0 3:0 4:0 5:0 6:1 7:0 8:0 9:0 10:0 11:0 12:0 13:1 14:0 15:0 16:0 17:0 18:0 19:0 
-1 1 1 1 1 1 1 0:0 1:0 2:0 3:0 4:0 5:0 6:0 7:0 8:0 9:0 10:1 11:0 12:0 13:0 14:0 15:0 16:0 17:0 18:0 19:0 
-1 1 1 1 0.8783345578138418 1 1 0:0 1:0 2:0 3:0 4:0 5:0 6:0 7:0 8:0 9:0 10:0 11:0 12:0 13:1 14:0 15:0 16:1 17:0 18:0 19:0 
-0 0 0 0 0.811520460487003 0.89153603168326 0 0:0 1:0 2:1 3:0 4:0 5:0 6:1 7:0 8:0 9:0 10:0 11:0 12:0 13:0 14:0 15:0 16:0 17:0 18:0 19:0 
-1 0.5151612060185231 0 0 0 1 0.2720704204258501 0:0 1:0 2:1 3:0 4:0 5:0 6:1 7:0 8:0 9:0 10:1 11:0 12:0 13:0 14:0 15:0 16:0 17:1 18:0 19:0 
-0 0 0 0 1 1 0 0:0 1:0 2:1 3:0 4:0 5:0 6:1 7:0 8:0 9:0 10:0 11:0 12:0 13:0 14:0 15:0 16:0 17:0 18:0 19:0 
-0 0 0 0 1 1 0 0:0 1:0 2:1 3:0 4:0 5:0 6:1 7:0 8:0 9:0 10:0 11:0 12:0 13:0 14:0 15:0 16:0 17:0 18:0 19:0 
-0 0 0 0 1 0 0 0:1 1:0 2:1 3:0 4:0 5:1 6:1 7:0 8:0 9:0 10:1 11:0 12:0 13:0 14:0 15:0 16:1 17:1 18:0 19:0 
-0.3420969249382388 0 0 0 1 1 0 0:1 1:0 2:1 3:0 4:0 5:0 6:1 7:0 8:0 9:0 10:0 11:0 12:1 13:1 14:0 15:0 16:0 17:0 18:0 19:0 
-1 1 0.501542929577755 0 0 1 1 0:0 1:0 2:0 3:0 4:0 5:0 6:1 7:0 8:0 9:1 10:0 11:0 12:0 13:0 14:0 15:0 16:0 17:0 18:0 19:0 
-0 0 0 0 1 0 0 0:1 1:0 2:1 3:0 4:0 5:1 6:1 7:0 8:0 9:0 10:0 11:0 12:0 13:0 14:0 15:0 16:1 17:0 18:0 19:0 
-0 0 0 0 1 0 0 0:1 1:0 2:1 3:0 4:0 5:1 6:0 7:0 8:0 9:0 10:1 11:0 12:0 13:0 14:0 15:0 16:1 17:0 18:0 19:0 
-1 0 0 0 0 0.05105700517861635 0 0:0 1:0 2:1 3:0 4:0 5:0 6:1 7:0 8:0 9:1 10:1 11:0 12:0 13:0 14:0 15:0 16:0 17:0 18:0 19:0 
-0 1 1 1 1 0 1 0:1 1:0 2:0 3:0 4:0 5:0 6:0 7:0 8:0 9:0 10:1 11:0 12:0 13:0 14:0 15:0 16:1 17:0 18:0 19:0 
-0 0 0 1 1 0 0 0:1 1:0 2:0 3:0 4:0 5:0 6:1 7:0 8:0 9:0 10:0 11:0 12:0 13:0 14:0 15:0 16:1 17:0 18:0 19:0 
-1 0 0 0 0 0 0 0:0 1:0 2:1 3:0 4:0 5:0 6:0 7:0 8:0 9:0 10:1 11:0 12:0 13:0 14:0 15:0 16:1 17:1 18:0 19:0 
-0 0 0 1 0 0 0 0:0 1:0 2:0 3:0 4:0 5:1 6:1 7:0 8:0 9:0 10:0 11:0 12:0 13:0 14:0 15:0 16:1 17:0 18:0 19:0 
-0 0 0 1 0 1 0 0:0 1:0 2:0 3:0 4:0 5:1 6:1 7:0 8:0 9:1 10:0 11:0 12:0 13:0 14:0 15:0 16:0 17:0 18:0 19:0 
-0 1 0 1 1 1 1 0:0 1:0 2:0 3:0 4:0 5:0 6:1 7:0 8:0 9:0 10:0 11:0 12:0 13:0 14:0 15:0 16:1 17:0 18:0 19:0 
-0 0 0 0 1 0 0 0:1 1:0 2:1 3:0 4:0 5:0 6:0 7:0 8:0 9:1 10:0 11:0 12:0 13:0 14:0 15:0 16:1 17:0 18:0 19:0 
-1 0 0 0 0 0 1 0:0 1:0 2:1 3:0 4:0 5:0 6:0 7:0 8:0 9:1 10:0 11:0 12:1 13:0 14:0 15:0 16:0 17:0 18:0 19:0 
-0 0 0 0.8089248400813391 1 0 0 0:1 1:0 2:0 3:0 4:0 5:0 6:0 7:0 8:0 9:1 10:0 11:0 12:0 13:0 14:0 15:0 16:1 17:0 18:0 19:0 
-1 1 0 0 0 0 1 0:0 1:0 2:0 3:0 4:0 5:0 6:0 7:0 8:0 9:1 10:1 11:0 12:0 13:0 14:0 15:0 16:1 17:0 18:0 19:0 
-0 0 0 0 0 0.004184390970489816 0 0:0 1:0 2:1 3:0 4:0 5:0 6:1 7:0 8:0 9:1 10:0 11:0 12:0 13:0 14:0 15:0 16:0 17:0 18:0 19:0 
-0.7364379574653779 0 0 0 0.6051544800882701 0 0 0:1 1:0 2:0 3:0 4:0 5:0 6:0 7:0 8:0 9:1 10:1 11:0 12:0 13:0 14:0 15:0 16:1 17:0 18:0 19:0 
-0 0 0 0 0 0 0.4887536913403888 0:0 1:0 2:0 3:0 4:0 5:0 6:0 7:0 8:0 9:1 10:0 11:0 12:0 13:0 14:0 15:0 16:1 17:0 18:0 19:0 
-0.3619729957918047 0 0 0.2266237277222568 0 0 1 0:0 1:0 2:0 3:0 4:0 5:0 6:0 7:0 8:0 9:1 10:0 11:0 12:0 13:0 14:0 15:0 16:1 17:0 18:0 19:0 
-1 1 0 0.1755042423306698 0 1 1 0:0 1:0 2:0 3:0 4:0 5:0 6:0 7:0 8:0 9:1 10:1 11:0 12:1 13:0 14:0 15:0 16:0 17:0 18:0 19:0 
-1 0 0 0 0 1 0 0:0 1:0 2:0 3:0 4:0 5:0 6:1 7:0 8:0 9:1 10:1 11:0 12:0 13:0 14:0 15:0 16:1 17:1 18:0 19:0 
-1 0 0 1 0 0.2538702987154314 1 0:0 1:0 2:0 3:0 4:0 5:0 6:0 7:0 8:0 9:1 10:0 11:0 12:0 13:0 14:0 15:0 16:1 17:0 18:0 19:0 
-1 1 1 1 0 1 1 0:0 1:0 2:0 3:0 4:0 5:0 6:0 7:0 8:0 9:1 10:0 11:0 12:0 13:0 14:0 15:0 16:0 17:0 18:0 19:0 
-1 0.2695098292744755 0 1 0 1 0.9434151601690173 0:0 1:0 2:0 3:0 4:0 5:0 6:0 7:0 8:0 9:1 10:0 11:0 12:0 13:0 14:0 15:0 16:1 17:0 18:0 19:0 
-1 1 1 1 1 1 1 0:0 1:0 2:0 3:0 4:0 5:0 6:0 7:0 8:0 9:0 10:0 11:0 12:0 13:0 14:0 15:0 16:0 17:0 18:0 19:0 
-0 0 0 1 0.4908736643159866 1 0.510557192883642 0:0 1:0 2:0 3:0 4:0 5:0 6:1 7:0 8:0 9:0 10:0 11:0 12:1 13:0 14:0 15:0 16:1 17:0 18:0 19:1 
-1 1 0.186892528322156 1 0 1 1 0:0 1:0 2:0 3:0 4:0 5:0 6:0 7:0 8:0 9:1 10:0 11:0 12:1 13:0 14:0 15:0 16:0 17:0 18:0 19:0 
-1 1 1 1 0 1 1 0:0 1:0 2:0 3:0 4:0 5:0 6:0 7:0 8:0 9:1 10:0 11:0 12:0 13:0 14:0 15:0 16:0 17:0 18:0 19:0 
-1 0 0 0 0 0 1 0:0 1:0 2:0 3:0 4:0 5:0 6:0 7:0 8:0 9:1 10:0 11:0 12:1 13:0 14:0 15:0 16:1 17:0 18:0 19:0 
-0 1 1 1 1 0 1 0:1 1:0 2:0 3:0 4:0 5:0 6:0 7:0 8:0 9:0 10:0 11:0 12:0 13:0 14:0 15:0 16:1 17:0 18:0 19:0 
-0 1 0.164948017606708 1 1 0 1 0:0 1:0 2:1 3:0 4:0 5:1 6:0 7:0 8:0 9:0 10:0 11:0 12:0 13:0 14:0 15:0 16:0 17:0 18:0 19:0 
-0 0 0 1 0 1 0 0:0 1:0 2:0 3:0 4:0 5:1 6:1 7:0 8:0 9:1 10:0 11:0 12:0 13:0 14:0 15:0 16:0 17:0 18:0 19:0 
-0 0 0 0 0 0.2748628555378763 0 0:0 1:0 2:0 3:0 4:0 5:0 6:1 7:0 8:0 9:1 10:0 11:0 12:0 13:0 14:0 15:0 16:1 17:0 18:0 19:0 
-1 1 0.5212558191212202 1 0 0.7339849495525107 1 0:0 1:0 2:1 3:0 4:0 5:0 6:0 7:0 8:0 9:0 10:1 11:0 12:0 13:0 14:0 15:0 16:0 17:1 18:0 19:0 
-1 -0.2771689368528396 1 1 0 0 1 0:0 1:0 2:0 3:0 4:0 5:0 6:0 7:0 8:1 9:0 10:0 11:0 12:0 13:0 14:0 15:0 16:0 17:0 18:0 19:0 
-0.3972639892205877 -1 0 1 1 0.7885611318465371 1 0:0 1:0 2:1 3:0 4:0 5:0 6:0 7:0 8:0 9:0 10:0 11:1 12:0 13:0 14:0 15:0 16:0 17:0 18:0 19:0 
-0 -0 0 1 0 0 1 0:0 1:0 2:0 3:0 4:0 5:0 6:0 7:0 8:0 9:0 10:0 11:1 12:0 13:0 14:0 15:0 16:0 17:0 18:0 19:0 
-0.0273754634000244 -0 0.1964444532133722 1 1 0.5557077107639928 1 0:0 1:0 2:0 3:0 4:1 5:0 6:0 7:0 8:0 9:0 10:0 11:0 12:0 13:0 14:0 15:0 16:0 17:0 18:0 19:0 
-1 -0 0 1 0 0 1 0:0 1:0 2:0 3:0 4:1 5:0 6:0 7:0 8:0 9:0 10:1 11:0 12:0 13:0 14:0 15:0 16:0 17:0 18:0 19:0 
-0 -0 0 0 0.14677341245761 0 0 0:0 1:0 2:0 3:0 4:0 5:0 6:0 7:0 8:1 9:0 10:0 11:1 12:0 13:0 14:0 15:0 16:0 17:0 18:0 19:0 
-1 -0 0 1 0 0 1 0:0 1:0 2:0 3:0 4:1 5:0 6:0 7:0 8:0 9:0 10:1 11:0 12:0 13:0 14:0 15:0 16:0 17:0 18:0 19:0 
-1 -1 1 1 0 0 1 0:0 1:0 2:0 3:0 4:0 5:0 6:0 7:0 8:1 9:0 10:0 11:0 12:0 13:0 14:0 15:0 16:0 17:0 18:0 19:0 
-0 -1 1 1 0 1 1 0:0 1:0 2:0 3:0 4:0 5:0 6:0 7:0 8:0 9:0 10:0 11:0 12:0 13:0 14:0 15:0 16:0 17:0 18:0 19:0 
-1 -1 1 1 0 0 1 0:0 1:0 2:0 3:0 4:0 5:0 6:0 7:0 8:1 9:0 10:0 11:0 12:0 13:0 14:0 15:0 16:0 17:0 18:0 19:0 
-1 -0.5551609333422349 0 1 0 0 1 0:0 1:0 2:0 3:0 4:1 5:0 6:0 7:0 8:0 9:0 10:1 11:0 12:0 13:0 14:0 15:0 16:0 17:0 18:0 19:0 
-0 -0 0 1 0 0 1 0:0 1:0 2:0 3:0 4:0 5:0 6:0 7:0 8:0 9:0 10:0 11:1 12:0 13:0 14:0 15:0 16:0 17:0 18:0 19:0 
-1 -1 1 1 0 0.9919662522750117 1 0:0 1:0 2:0 3:0 4:0 5:0 6:0 7:0 8:1 9:0 10:0 11:0 12:0 13:0 14:0 15:0 16:0 17:0 18:0 19:0 
-1 -1 0 1 0 0 1 0:0 1:0 2:0 3:0 4:1 5:0 6:0 7:0 8:0 9:0 10:1 11:0 12:0 13:0 14:0 15:0 16:0 17:0 18:0 19:0 
-1 -0 0 0 1 0 0 0:0 1:0 2:0 3:0 4:0 5:0 6:0 7:0 8:1 9:0 10:0 11:1 12:0 13:0 14:0 15:0 16:0 17:0 18:0 19:0 
-1 -1 0 1 1 0 0 0:0 1:0 2:0 3:0 4:0 5:1 6:0 7:0 8:0 9:0 10:1 11:1 12:0 13:0 14:0 15:0 16:0 17:1 18:0 19:0 
-1 -1 0 1 0.6724580151408729 0 1 0:0 1:0 2:0 3:0 4:1 5:0 6:0 7:0 8:0 9:0 10:1 11:0 12:0 13:0 14:0 15:0 16:0 17:0 18:0 19:0 
-1 -1 0 1 1 0 1 0:0 1:0 2:0 3:0 4:1 5:0 6:0 7:0 8:0 9:0 10:1 11:0 12:0 13:0 14:0 15:0 16:0 17:0 18:0 19:0 
-1 -1 1 1 0 1 1 0:0 1:0 2:0 3:0 4:0 5:0 6:0 7:0 8:1 9:0 10:0 11:0 12:0 13:0 14:0 15:0 16:0 17:0 18:0 19:0 
-1 -0 0 0 1 0 0 0:0 1:0 2:0 3:0 4:0 5:0 6:0 7:0 8:1 9:0 10:0 11:1 12:0 13:0 14:0 15:0 16:0 17:0 18:0 19:0 
-0 -0 0 1 0 0 1 0:0 1:0 2:0 3:0 4:0 5:0 6:0 7:0 8:0 9:0 10:0 11:1 12:0 13:0 14:0 15:0 16:0 17:0 18:0 19:0 
-0 -0 0 1 0 0 1 0:0 1:0 2:0 3:0 4:0 5:0 6:0 7:0 8:0 9:0 10:0 11:1 12:0 13:0 14:0 15:0 16:0 17:0 18:0 19:0 
-1 -1 0 1 0.3661387429235218 0.1226073559226798 1 0:0 1:0 2:0 3:0 4:1 5:0 6:0 7:0 8:0 9:0 10:1 11:0 12:0 13:0 14:0 15:0 16:0 17:0 18:0 19:0 
-0 -1 0 1 1 1 1 0:0 1:0 2:0 3:0 4:0 5:1 6:0 7:0 8:0 9:0 10:0 11:1 12:0 13:0 14:0 15:0 16:0 17:0 18:0 19:0 
-0 -1 1 1 0 1 1 0:0 1:0 2:0 3:0 4:0 5:0 6:0 7:0 8:0 9:0 10:0 11:0 12:0 13:0 14:0 15:0 16:0 17:0 18:0 19:0 
-1 -0 0 0 1 0 0.5098942013253348 0:0 1:0 2:0 3:0 4:1 5:0 6:0 7:0 8:1 9:0 10:0 11:0 12:0 13:0 14:0 15:0 16:0 17:0 18:0 19:0 
-1 -0 0 0 0 0 1 0:0 1:0 2:0 3:0 4:1 5:0 6:0 7:0 8:0 9:0 10:1 11:0 12:0 13:0 14:0 15:0 16:0 17:1 18:0 19:0 
-1 -0 1 1 1 0 0 0:0 1:1 2:0 3:1 4:0 5:0 6:0 7:0 8:1 9:0 10:0 11:1 12:0 13:0 14:0 15:0 16:0 17:0 18:0 19:0 
-1 -1 0 1 0 1 1 0:0 1:0 2:0 3:0 4:1 5:0 6:0 7:0 8:0 9:0 10:1 11:0 12:0 13:1 14:0 15:0 16:0 17:1 18:0 19:0 
-1 -0 0 1 0 1 0 0:0 1:0 2:0 3:0 4:0 5:0 6:0 7:0 8:1 9:0 10:0 11:1 12:0 13:1 14:0 15:0 16:0 17:0 18:0 19:0 
-1 -0.1597633171864069 1 1 0.2325300015962259 0.5330793865622325 1 0:0 1:0 2:0 3:1 4:1 5:0 6:0 7:0 8:0 9:0 10:1 11:0 12:0 13:0 14:0 15:0 16:0 17:1 18:0 19:0 
-0 -0 0 1 0.164910636494219 0 1 0:0 1:0 2:0 3:0 4:0 5:0 6:0 7:0 8:0 9:0 10:0 11:1 12:0 13:0 14:0 15:0 16:0 17:0 18:0 19:0 
-1 -0.2999370573202844 1 1 0.1821116014864591 1 0 0:0 1:1 2:0 3:0 4:0 5:0 6:0 7:0 8:0 9:0 10:1 11:1 12:0 13:1 14:0 15:0 16:0 17:0 18:0 19:0 
-1 -0 0 0 1 0 0 0:0 1:0 2:0 3:0 4:0 5:0 6:0 7:0 8:1 9:0 10:0 11:1 12:0 13:0 14:0 15:0 16:0 17:0 18:0 19:0 
-1 -0 0 0 1 0 0 0:0 1:0 2:0 3:0 4:0 5:0 6:0 7:0 8:1 9:0 10:0 11:1 12:0 13:0 14:0 15:0 16:0 17:0 18:0 19:0 
-1 -0 0 0 0 0 1 0:0 1:0 2:0 3:0 4:1 5:0 6:0 7:0 8:0 9:0 10:1 11:0 12:0 13:0 14:0 15:0 16:0 17:1 18:0 19:0 
-0 -0 0 1 1 0 1 0:0 1:0 2:0 3:0 4:0 5:0 6:0 7:0 8:0 9:0 10:0 11:1 12:0 13:0 14:0 15:0 16:0 17:0 18:0 19:0 
-1 -1 0.93141094336414 1 1 1 0 0:0 1:1 2:0 3:0 4:0 5:0 6:0 7:0 8:0 9:0 10:1 11:1 12:0 13:1 14:0 15:0 16:0 17:0 18:0 19:0 
-1 -0 1 1 1 0.852572730346127 1 0:0 1:1 2:0 3:0 4:0 5:0 6:0 7:0 8:0 9:0 10:1 11:1 12:0 13:0 14:1 15:0 16:0 17:0 18:0 19:0 
-1 -0 0 0 0 0 1 0:0 1:0 2:0 3:0 4:1 5:0 6:0 7:0 8:0 9:0 10:1 11:0 12:0 13:0 14:0 15:0 16:0 17:1 18:0 19:0 
-0.8213362456416335 -0 0 0 0 0 0 0:0 1:0 2:0 3:0 4:0 5:0 6:0 7:0 8:0 9:0 10:1 11:1 12:0 13:0 14:0 15:0 16:0 17:1 18:0 19:0 
-0 -0 0 1 0.8551914116821219 0 1 0:0 1:0 2:0 3:0 4:0 5:0 6:0 7:0 8:0 9:0 10:0 11:1 12:0 13:0 14:0 15:0 16:0 17:0 18:0 19:0 
-1 -1 0 1 0 1 1 0:0 1:0 2:0 3:0 4:0 5:0 6:0 7:0 8:0 9:0 10:1 11:1 12:0 13:1 14:0 15:0 16:0 17:1 18:0 19:0 
-1 -0 0 1 0.01243470464058222 0.1013226702478652 0.02848729343214143 0:0 1:0 2:0 3:0 4:0 5:0 6:0 7:0 8:1 9:0 10:0 11:1 12:0 13:1 14:0 15:0 16:0 17:0 18:0 19:0 
-1 -0 0 0 0 0 0 0:0 1:0 2:0 3:0 4:0 5:0 6:0 7:0 8:0 9:0 10:1 11:1 12:0 13:0 14:0 15:0 16:0 17:1 18:0 19:0 
-1 -0 0 0 0 0 0 0:0 1:0 2:0 3:0 4:0 5:0 6:0 7:0 8:0 9:0 10:1 11:1 12:0 13:0 14:0 15:0 16:0 17:1 18:0 19:0 
-1 -0 1 1 1 1 1 0:0 1:0 2:0 3:0 4:1 5:0 6:0 7:0 8:0 9:0 10:0 11:0 12:0 13:0 14:0 15:0 16:0 17:0 18:0 19:0 
-1 -1 1 1 1 1 1 0:0 1:1 2:0 3:0 4:0 5:0 6:0 7:0 8:0 9:0 10:0 11:0 12:0 13:0 14:0 15:0 16:0 17:0 18:0 19:0 
-0 -1 1 1 0 1 1 0:0 1:0 2:0 3:0 4:0 5:0 6:0 7:0 8:0 9:0 10:0 11:0 12:0 13:0 14:0 15:0 16:0 17:0 18:0 19:0 
-1 -0 0 0 0 0 0 0:0 1:0 2:0 3:0 4:0 5:0 6:0 7:0 8:0 9:0 10:1 11:1 12:0 13:0 14:0 15:0 16:0 17:1 18:0 19:0 
-0.3628310329680046 -1 0 1 0 1 1 0:0 1:0 2:0 3:0 4:0 5:0 6:0 7:0 8:0 9:0 10:1 11:1 12:0 13:1 14:0 15:0 16:0 17:0 18:0 19:0 
-1 -0 0 0 1 0 0 0:0 1:0 2:0 3:0 4:0 5:0 6:0 7:0 8:1 9:0 10:0 11:1 12:0 13:0 14:0 15:0 16:0 17:0 18:0 19:0 
-0 -0 0 1 0 0 1 0:0 1:0 2:0 3:0 4:0 5:0 6:0 7:0 8:0 9:0 10:0 11:1 12:0 13:0 14:0 15:0 16:0 17:0 18:0 19:0 
-1 -0 0 0 1 0 0 0:0 1:0 2:0 3:0 4:0 5:0 6:0 7:0 8:1 9:0 10:0 11:1 12:0 13:0 14:0 15:0 16:0 17:0 18:0 19:0 
-1 -1 1 1 0.9429570391153538 1 1 0:0 1:0 2:0 3:0 4:0 5:0 6:0 7:0 8:1 9:0 10:0 11:0 12:0 13:0 14:0 15:0 16:0 17:0 18:0 19:0 
-0 -0 0 0.8928257166106736 0 0 0 0:0 1:0 2:0 3:0 4:0 5:0 6:0 7:0 8:0 9:0 10:1 11:1 12:0 13:0 14:0 15:0 16:0 17:0 18:0 19:0 
-1 -0.9704631856151462 1 1 1 1 1 0:0 1:0 2:0 3:0 4:1 5:0 6:0 7:0 8:0 9:0 10:0 11:0 12:0 13:0 14:0 15:0 16:0 17:0 18:0 19:0 
-0 -1 1 1 0 1 1 0:0 1:0 2:0 3:0 4:0 5:0 6:0 7:0 8:0 9:0 10:0 11:0 12:0 13:0 14:0 15:0 16:0 17:0 18:0 19:0 
-1 -0 0 0 0 0 0 0:0 1:0 2:0 3:0 4:0 5:0 6:0 7:0 8:0 9:0 10:1 11:1 12:0 13:0 14:0 15:0 16:0 17:1 18:0 19:0 
-1 -0 1 1 1 1 1 0:0 1:0 2:0 3:0 4:1 5:0 6:0 7:0 8:0 9:0 10:0 11:0 12:0 13:0 14:0 15:0 16:0 17:0 18:0 19:0 
-1 -0 0 0 0 0 0 0:0 1:0 2:0 3:0 4:0 5:0 6:0 7:0 8:0 9:0 10:1 11:1 12:0 13:0 14:0 15:0 16:0 17:1 18:0 19:0 
-1 -1 0 1 0 1 1 0:0 1:0 2:0 3:0 4:0 5:0 6:0 7:0 8:0 9:0 10:1 11:0 12:0 13:0 14:0 15:0 16:0 17:0 18:0 19:0 
-1 -0 0 0 1 0 0 0:0 1:0 2:0 3:0 4:0 5:0 6:0 7:0 8:1 9:0 10:0 11:1 12:0 13:0 14:0 15:0 16:0 17:0 18:0 19:0 
-0 -0 0 1 0 0 0 0:0 1:0 2:0 3:0 4:0 5:0 6:0 7:0 8:0 9:0 10:1 11:1 12:0 13:0 14:0 15:0 16:0 17:0 18:0 19:0 
-1 -0 0 0 0 0 0 0:0 1:0 2:0 3:0 4:0 5:0 6:0 7:0 8:0 9:0 10:1 11:1 12:0 13:0 14:0 15:0 16:0 17:1 18:0 19:0 
-1 -0 0 0 0 0 0 0:0 1:0 2:0 3:0 4:0 5:0 6:0 7:0 8:0 9:0 10:1 11:1 12:0 13:0 14:0 15:0 16:0 17:1 18:0 19:0 
-0 -1 1 1 0 1 1 0:0 1:0 2:0 3:0 4:0 5:0 6:0 7:0 8:0 9:0 10:0 11:0 12:0 13:0 14:0 15:0 16:0 17:0 18:0 19:0 
-0 -0 0 1 0 0 1 0:0 1:0 2:0 3:0 4:0 5:0 6:0 7:0 8:0 9:0 10:1 11:1 12:0 13:0 14:0 15:0 16:0 17:0 18:0 19:0 
-0 -0 0 1 1 0 0 0:0 1:0 2:0 3:0 4:1 5:0 6:0 7:0 8:0 9:0 10:0 11:1 12:0 13:0 14:0 15:0 16:0 17:0 18:0 19:0 
-0.8368108634671968 -0 0 0 1 0 0 0:0 1:0 2:0 3:0 4:0 5:0 6:0 7:0 8:1 9:0 10:0 11:1 12:0 13:0 14:0 15:0 16:0 17:0 18:0 19:0 
-1 -1 0 1 0 1 1 0:0 1:0 2:0 3:0 4:0 5:0 6:0 7:0 8:0 9:0 10:0 11:0 12:0 13:0 14:0 15:0 16:0 17:1 18:0 19:0 
-0 -0 0 1 0 0 1 0:0 1:0 2:0 3:0 4:0 5:0 6:0 7:0 8:0 9:0 10:1 11:1 12:0 13:0 14:0 15:0 16:0 17:0 18:0 19:0 
-1 -0 0 0 0 0 0.08433118044011627 0:0 1:0 2:0 3:0 4:0 5:0 6:0 7:0 8:0 9:0 10:1 11:1 12:0 13:0 14:0 15:0 16:0 17:1 18:0 19:0 
-1 -0 0 0 0 0 1 0:0 1:0 2:0 3:0 4:0 5:0 6:0 7:0 8:0 9:0 10:1 11:1 12:0 13:0 14:0 15:0 16:0 17:1 18:0 19:0 
-1 -1 0.9052146210929082 1 0 1 1 0:0 1:0 2:0 3:0 4:0 5:0 6:0 7:0 8:0 9:0 10:0 11:0 12:0 13:0 14:0 15:0 16:0 17:1 18:0 19:0 
-1 -0 0 0 0 0 1 0:0 1:0 2:0 3:0 4:0 5:0 6:0 7:0 8:0 9:0 10:1 11:1 12:0 13:0 14:0 15:0 16:0 17:1 18:0 19:0 
-0.3398225159524944 -1 1 1 0.3987725376642843 1 1 0:0 1:0 2:0 3:0 4:0 5:0 6:0 7:0 8:0 9:0 10:0 11:0 12:0 13:0 14:0 15:0 16:0 17:0 18:0 19:0 
-1 -0 0 0 0 0 0 0:0 1:0 2:0 3:0 4:1 5:0 6:0 7:0 8:0 9:0 10:1 11:1 12:0 13:0 14:0 15:0 16:0 17:1 18:0 19:0 
-0.1750771553838568 -0 0 0 0 0 0 0:0 1:0 2:0 3:0 4:1 5:0 6:0 7:0 8:0 9:0 10:1 11:1 12:0 13:0 14:0 15:0 16:0 17:1 18:0 19:0 
-0 -0.8024191990475402 0 1 0 0 0.1085903359766468 0:0 1:0 2:0 3:0 4:0 5:0 6:0 7:0 8:0 9:0 10:1 11:1 12:0 13:0 14:0 15:0 16:0 17:0 18:0 19:0 
-0.4786304177702018 -1 1 1 1 1 1 0:0 1:0 2:0 3:0 4:0 5:0 6:0 7:0 8:0 9:0 10:0 11:0 12:0 13:0 14:0 15:0 16:0 17:0 18:0 19:0 
-0 -0 0 0 0.1218787026542811 0 0 0:0 1:0 2:0 3:0 4:1 5:0 6:0 7:0 8:0 9:0 10:1 11:1 12:0 13:0 14:0 15:0 16:0 17:0 18:0 19:0 
-1 -1 1 1 0.5861673448474821 1 1 0:0 1:0 2:0 3:0 4:0 5:0 6:0 7:0 8:1 9:0 10:0 11:0 12:0 13:0 14:0 15:0 16:0 17:0 18:0 19:0 
-0 -0 0 1 0.3803667820088336 0 0 0:0 1:0 2:0 3:0 4:0 5:0 6:0 7:0 8:0 9:0 10:1 11:1 12:0 13:0 14:0 15:0 16:0 17:0 18:0 19:0 
-1 -1 0.3169150787648637 1 0 1 1 0:0 1:0 2:0 3:0 4:0 5:0 6:0 7:0 8:0 9:0 10:0 11:0 12:0 13:0 14:0 15:0 16:0 17:1 18:0 19:0 
-0 -0 -0 1 0 0 0 0:0 1:0 2:0 3:1 4:0 5:0 6:0 7:1 8:0 9:0 10:0 11:0 12:0 13:0 14:0 15:1 16:0 17:0 18:0 19:0 
-1 -1 -1 1 1 1 1 0:0 1:1 2:0 3:0 4:0 5:0 6:0 7:1 8:0 9:0 10:0 11:0 12:0 13:0 14:0 15:0 16:0 17:0 18:0 19:0 
-1 -0 -0 1 1 0 0 0:0 1:1 2:0 3:1 4:1 5:0 6:0 7:1 8:0 9:0 10:0 11:1 12:0 13:0 14:1 15:0 16:0 17:0 18:0 19:0 
-0 -0 -0 1 1 0 0 0:0 1:1 2:0 3:1 4:0 5:0 6:0 7:1 8:0 9:0 10:0 11:0 12:0 13:0 14:0 15:0 16:0 17:0 18:0 19:0 
-0.648329533146364 -0 -0 0 0 0 0 0:0 1:1 2:0 3:0 4:0 5:0 6:0 7:0 8:1 9:0 10:0 11:0 12:0 13:0 14:1 15:1 16:0 17:0 18:1 19:0 
-0 -0.4941024046623395 -0 1 0.5040151582206789 1 1 0:0 1:0 2:0 3:1 4:0 5:0 6:0 7:1 8:0 9:0 10:0 11:0 12:0 13:0 14:1 15:0 16:0 17:0 18:0 19:0 
-0 -0 -0 1 1 0 0 0:0 1:1 2:0 3:1 4:0 5:0 6:0 7:1 8:0 9:0 10:0 11:0 12:0 13:0 14:0 15:0 16:0 17:0 18:0 19:0 
-0 -0 -0.9236876506448345 1 0 0.1740561915022109 1 0:0 1:0 2:0 3:1 4:0 5:0 6:0 7:0 8:0 9:0 10:0 11:0 12:0 13:0 14:0 15:1 16:0 17:0 18:0 19:0 
-1 -1 -1 1 1 1 1 0:1 1:0 2:0 3:0 4:0 5:0 6:0 7:0 8:0 9:0 10:0 11:0 12:0 13:0 14:0 15:1 16:0 17:0 18:0 19:0 
-0 -1 -1 1 1 1 0.3863835073042236 0:0 1:0 2:0 3:0 4:0 5:0 6:0 7:1 8:0 9:0 10:0 11:0 12:0 13:0 14:0 15:1 16:0 17:0 18:0 19:0 
-1 -1 -1 1 1 1 1 0:0 1:0 2:0 3:0 4:0 5:0 6:0 7:0 8:0 9:0 10:0 11:0 12:0 13:0 14:0 15:1 16:0 17:0 18:0 19:0 
-0 -0 -1 1 0 1 1 0:0 1:0 2:0 3:1 4:0 5:0 6:0 7:0 8:0 9:0 10:0 11:0 12:0 13:0 14:0 15:1 16:0 17:0 18:0 19:0 
-1 -1 -1 1 1 1 1 0:0 1:1 2:0 3:0 4:0 5:0 6:0 7:0 8:0 9:0 10:0 11:0 12:0 13:0 14:0 15:0 16:0 17:0 18:0 19:0 
-0 -0.2299041864409594 -1 1 0 1 1 0:0 1:0 2:0 3:1 4:0 5:0 6:0 7:0 8:0 9:0 10:0 11:0 12:0 13:0 14:0 15:1 16:0 17:0 18:0 19:0 
-0.302146840105647 -1 -1 1 0 1 1 0:0 1:0 2:0 3:1 4:0 5:0 6:0 7:0 8:0 9:0 10:0 11:0 12:0 13:0 14:0 15:1 16:0 17:0 18:0 19:0 
-0 -0 -0 1 0 0 0 0:0 1:0 2:0 3:1 4:0 5:0 6:0 7:1 8:0 9:0 10:0 11:0 12:0 13:0 14:0 15:1 16:0 17:0 18:0 19:0 
-1 -1 -0.5901006784705947 1 0 0.9840109518117355 1 0:0 1:0 2:0 3:1 4:0 5:0 6:0 7:0 8:0 9:0 10:0 11:0 12:0 13:0 14:0 15:1 16:0 17:0 18:0 19:0 
-0 -1 -0 1 0.1591655046443262 1 1 0:1 1:0 2:0 3:0 4:0 5:0 6:0 7:0 8:0 9:0 10:0 11:0 12:0 13:0 14:1 15:1 16:0 17:0 18:0 19:0 
-1 -1 -1 1 1 0 1 0:0 1:0 2:0 3:1 4:0 5:0 6:0 7:1 8:1 9:0 10:0 11:0 12:0 13:0 14:0 15:0 16:0 17:0 18:0 19:0 
-1 -0 -0 0 0 1 0 0:0 1:0 2:0 3:0 4:1 5:0 6:0 7:0 8:1 9:0 10:0 11:0 12:0 13:0 14:1 15:1 16:0 17:0 18:1 19:0 
-1 -0 -0.8286397630707556 0 0 0.8756854217857023 0 0:0 1:0 2:0 3:0 4:1 5:0 6:0 7:0 8:1 9:0 10:0 11:0 12:0 13:0 14:1 15:1 16:0 17:0 18:1 19:0 
-1 -0 -0 0 0 1 0.4764869491095298 0:0 1:0 2:0 3:0 4:0 5:0 6:0 7:0 8:1 9:0 10:0 11:0 12:0 13:0 14:1 15:1 16:0 17:0 18:1 19:0 
-1 -1 -1 1 1 1 1 0:0 1:0 2:0 3:0 4:0 5:0 6:0 7:1 8:0 9:0 10:0 11:0 12:0 13:0 14:0 15:0 16:0 17:0 18:0 19:0 
-1 -1 -1 1 0 1 1 0:0 1:0 2:0 3:1 4:0 5:0 6:0 7:0 8:0 9:0 10:0 11:0 12:0 13:0 14:1 15:0 16:0 17:0 18:1 19:0 
-0 -0.1419755561595532 -0 1 1 0 0.5516418486769786 0:1 1:0 2:0 3:0 4:1 5:0 6:0 7:0 8:0 9:0 10:0 11:0 12:0 13:0 14:1 15:1 16:0 17:0 18:0 19:0 
-0 -0 -0 0 0 1 0 0:0 1:1 2:0 3:0 4:0 5:0 6:0 7:0 8:0 9:0 10:0 11:0 12:0 13:0 14:1 15:1 16:0 17:0 18:1 19:0 
-1 -1 -1 1 0 0.3085246512161171 1 0:0 1:1 2:0 3:1 4:0 5:0 6:0 7:0 8:0 9:0 10:0 11:0 12:0 13:0 14:0 15:0 16:0 17:0 18:0 19:0 
-0.6386046833605623 -0 -1 1 1 0 1 0:0 1:1 2:0 3:0 4:1 5:0 6:0 7:1 8:0 9:0 10:0 11:0 12:0 13:0 14:1 15:0 16:0 17:0 18:0 19:0 
-0 -0 -0.4748706539214516 1 1 0 0.7794581839051304 0:0 1:1 2:0 3:1 4:0 5:0 6:0 7:1 8:0 9:0 10:0 11:0 12:0 13:0 14:0 15:0 16:0 17:0 18:0 19:0 
-0.8838987731105024 -0 -0 0 0.179155443247028 0.7630639419775647 0 0:1 1:0 2:0 3:0 4:0 5:0 6:0 7:0 8:1 9:0 10:0 11:0 12:0 13:0 14:1 15:1 16:0 17:0 18:1 19:0 
-1 -0 -0 1 0.5658812403272826 0.9182924053487657 0 0:0 1:0 2:0 3:0 4:1 5:0 6:0 7:1 8:0 9:0 10:0 11:0 12:0 13:0 14:1 15:1 16:0 17:1 18:0 19:0 
-0 -0.948540470546772 -0.5326863503276474 1 1 0 1 0:1 1:0 2:0 3:0 4:1 5:0 6:0 7:0 8:0 9:0 10:0 11:0 12:0 13:0 14:1 15:1 16:0 17:0 18:0 19:0 
-0 -0 -0 0.2210665570343773 0 0.1264341806578143 0 0:0 1:1 2:0 3:0 4:0 5:0 6:0 7:0 8:0 9:0 10:0 11:0 12:0 13:0 14:1 15:1 16:1 17:0 18:0 19:0 
-0 -0 -0 0 0 1 0 0:0 1:1 2:0 3:0 4:0 5:0 6:0 7:0 8:0 9:0 10:0 11:0 12:0 13:0 14:1 15:1 16:0 17:0 18:1 19:0 
-0.6153841538753889 -1 -1 1 0 1 1 0:0 1:0 2:0 3:0 4:0 5:0 6:0 7:0 8:0 9:0 10:0 11:0 12:0 13:0 14:1 15:1 16:0 17:0 18:0 19:0 
-1 -0 -0 0 0 0 0 0:0 1:1 2:0 3:0 4:0 5:0 6:0 7:0 8:1 9:0 10:0 11:0 12:0 13:0 14:1 15:1 16:0 17:0 18:1 19:0 
-1 -1 -1 1 1 0 1 0:0 1:1 2:0 3:0 4:0 5:0 6:0 7:1 8:1 9:0 10:0 11:0 12:0 13:0 14:0 15:0 16:0 17:0 18:0 19:0 
-0 -0 -0 0 0 1 0 0:0 1:1 2:0 3:0 4:0 5:0 6:0 7:0 8:0 9:0 10:0 11:0 12:0 13:0 14:1 15:1 16:0 17:0 18:1 19:0 
-1 -0 -1 1 0 0 1 0:0 1:1 2:0 3:1 4:0 5:0 6:0 7:0 8:1 9:0 10:0 11:0 12:0 13:0 14:1 15:0 16:0 17:0 18:0 19:0 
-0 -0 -0 0 1 0 0 0:1 1:1 2:0 3:1 4:0 5:0 6:0 7:1 8:0 9:0 10:0 11:0 12:0 13:0 14:0 15:1 16:1 17:0 18:0 19:0 
-1 -0 -0 0 0 1 1 0:0 1:0 2:0 3:0 4:0 5:0 6:0 7:0 8:1 9:0 10:0 11:0 12:0 13:0 14:1 15:1 16:0 17:0 18:1 19:0 
-0 -0.9958336379222043 -0 1 1 0 0 0:1 1:1 2:0 3:0 4:0 5:0 6:0 7:1 8:0 9:0 10:0 11:0 12:0 13:0 14:0 15:1 16:1 17:0 18:0 19:0 
-1 -0 -0 0 1 1 0 0:1 1:0 2:0 3:0 4:0 5:0 6:0 7:0 8:1 9:0 10:0 11:0 12:0 13:0 14:1 15:1 16:0 17:0 18:1 19:0 
-0.9746613235349877 -0 -1 0.01853940216841669 0 0 0 0:0 1:1 2:0 3:0 4:0 5:0 6:0 7:0 8:0 9:0 10:0 11:0 12:0 13:0 14:0 15:1 16:0 17:0 18:0 19:0 
-0.6348694656895727 -0 -0 0.8710806929904468 0 1 0 0:0 1:0 2:0 3:1 4:1 5:0 6:0 7:0 8:0 9:0 10:0 11:0 12:0 13:0 14:1 15:1 16:0 17:0 18:1 19:0 
-0 -0 -0 0.4394257116791907 1 0 0 0:1 1:1 2:0 3:0 4:0 5:0 6:0 7:0 8:0 9:0 10:0 11:0 12:0 13:0 14:0 15:1 16:0 17:0 18:0 19:0 
-1 -0 -1 0 0 0.2151346637723471 1 0:0 1:0 2:0 3:0 4:0 5:0 6:0 7:0 8:1 9:0 10:0 11:0 12:0 13:0 14:1 15:1 16:0 17:0 18:0 19:0 
-1 -0 -1 1 0 1 1 0:0 1:1 2:0 3:0 4:0 5:0 6:0 7:0 8:1 9:0 10:0 11:0 12:0 13:0 14:1 15:0 16:0 17:0 18:1 19:0 
-1 -0.7847523792478397 -1 1 1 0 0.5277459067898993 0:1 1:1 2:0 3:0 4:0 5:0 6:0 7:0 8:1 9:0 10:0 11:0 12:0 13:0 14:1 15:0 16:0 17:0 18:1 19:0 
-0.9948581836684646 -0 -0 0 0 0 0 0:0 1:1 2:0 3:0 4:0 5:0 6:0 7:0 8:1 9:0 10:0 11:0 12:0 13:0 14:1 15:1 16:0 17:0 18:1 19:0 
-1 -1 -1 1 1 1 1 0:0 1:1 2:0 3:0 4:0 5:0 6:0 7:0 8:0 9:0 10:0 11:0 12:0 13:0 14:0 15:0 16:0 17:0 18:0 19:0 
-1 -0 -0 0 0 0 0 0:0 1:1 2:0 3:0 4:1 5:0 6:0 7:0 8:0 9:0 10:0 11:0 12:0 13:0 14:1 15:1 16:0 17:0 18:1 19:0 
-0 -0 -0 -1 0 0 0 0:0 1:0 2:0 3:1 4:0 5:0 6:0 7:1 8:0 9:0 10:0 11:0 12:0 13:0 14:1 15:0 16:0 17:0 18:0 19:1 
-0 -0 -0 -0 0 1 0 0:0 1:0 2:0 3:1 4:0 5:0 6:0 7:0 8:0 9:0 10:0 11:0 12:0 13:1 14:0 15:0 16:1 17:0 18:1 19:1 
-0.4343438890387604 -0 -0 -0 0 0 0 0:0 1:1 2:0 3:0 4:0 5:0 6:0 7:0 8:0 9:0 10:0 11:1 12:0 13:0 14:1 15:0 16:0 17:0 18:0 19:1 
-0 -0 -1 -0 1 0 0 0:1 1:1 2:0 3:0 4:0 5:0 6:0 7:0 8:0 9:0 10:1 11:1 12:0 13:0 14:0 15:0 16:0 17:0 18:0 19:1 
-0 -0.3746014912541341 -1 -0 0 1 0 0:0 1:0 2:0 3:0 4:0 5:1 6:0 7:0 8:0 9:0 10:0 11:1 12:0 13:1 14:0 15:0 16:0 17:0 18:0 19:0 
-1 -0 -0 -0 0 0 0 0:0 1:1 2:0 3:1 4:0 5:1 6:0 7:0 8:0 9:0 10:1 11:1 12:0 13:1 14:0 15:0 16:0 17:1 18:0 19:1 
-0 -0 -0 -1 1 0 0 0:1 1:1 2:0 3:0 4:0 5:0 6:0 7:0 8:0 9:0 10:0 11:1 12:0 13:0 14:1 15:0 16:0 17:0 18:0 19:1 
-0 -0 -0 -0 0.1319994552511771 0 0 0:1 1:1 2:0 3:0 4:0 5:1 6:0 7:0 8:0 9:0 10:0 11:1 12:0 13:0 14:1 15:0 16:0 17:0 18:0 19:1 
-0.4334908974140213 -0 -0 -0 0 0 0 0:1 1:0 2:0 3:1 4:0 5:1 6:0 7:0 8:0 9:0 10:1 11:1 12:0 13:1 14:0 15:0 16:0 17:1 18:0 19:0 
-1 -1 -1 -0 0 1 1 0:0 1:0 2:0 3:0 4:0 5:0 6:1 7:0 8:0 9:0 10:0 11:0 12:1 13:0 14:0 15:0 16:0 17:0 18:0 19:0 
-0 -0 -0 -0 1 0 0 0:1 1:0 2:0 3:0 4:1 5:1 6:0 7:1 8:0 9:0 10:0 11:0 12:0 13:1 14:0 15:0 16:0 17:0 18:0 19:1 
-1 -0 -0.3802308612816023 -0 0 0 0 0:0 1:1 2:0 3:0 4:0 5:0 6:0 7:0 8:0 9:0 10:0 11:1 12:0 13:0 14:1 15:0 16:0 17:0 18:0 19:1 
-1 -0 -1 -1 0.2482833967568742 0 1 0:0 1:0 2:0 3:0 4:1 5:0 6:0 7:0 8:0 9:0 10:0 11:0 12:0 13:0 14:0 15:0 16:0 17:0 18:0 19:0 
-0.2659161374433498 -0 -0 -0 1 0 0 0:1 1:1 2:0 3:0 4:0 5:0 6:0 7:0 8:0 9:0 10:0 11:1 12:1 13:1 14:0 15:0 16:0 17:0 18:0 19:0 
-0 -0 -0 -0 0 1 0 0:1 1:0 2:0 3:1 4:0 5:0 6:0 7:0 8:0 9:0 10:0 11:0 12:0 13:1 14:0 15:0 16:0 17:0 18:1 19:1 
-0 -0.8684937150972034 -0 -1 0 0 0 0:1 1:1 2:0 3:1 4:0 5:0 6:1 7:0 8:0 9:0 10:0 11:0 12:1 13:0 14:1 15:0 16:0 17:0 18:0 19:0 
-1 -0 -1 -1 0 0 0 0:0 1:1 2:0 3:1 4:0 5:0 6:0 7:0 8:0 9:0 10:1 11:1 12:1 13:0 14:0 15:0 16:0 17:0 18:0 19:0 
-1 -0.5865471864378311 -0.01870194534908078 -0 1 1 1 0:1 1:0 2:0 3:0 4:1 5:0 6:0 7:0 8:0 9:0 10:0 11:0 12:1 13:0 14:0 15:0 16:0 17:0 18:1 19:0 
-0 -0 -0 -0 0 1 0 0:0 1:0 2:0 3:1 4:0 5:0 6:1 7:1 8:0 9:0 10:0 11:0 12:1 13:1 14:0 15:0 16:0 17:0 18:0 19:1 
-0.08274888612778686 -0 -0 -0.5728697096387044 0 0.658129713237542 0 0:1 1:1 2:0 3:1 4:0 5:1 6:1 7:0 8:0 9:0 10:0 11:0 12:1 13:0 14:1 15:0 16:0 17:1 18:0 19:0 
-0 -1 -0 -0 1 0 0 0:0 1:0 2:0 3:1 4:0 5:1 6:1 7:1 8:0 9:0 10:0 11:0 12:1 13:0 14:0 15:0 16:1 17:0 18:0 19:0 
-1 -0 -1 -1 0 0 0 0:0 1:1 2:0 3:0 4:0 5:0 6:0 7:0 8:0 9:0 10:0 11:1 12:0 13:1 14:0 15:0 16:0 17:0 18:0 19:0 
-1 -1 -1 -0 0 1 0 0:0 1:0 2:0 3:0 4:0 5:1 6:0 7:0 8:0 9:0 10:1 11:1 12:0 13:0 14:0 15:0 16:0 17:1 18:0 19:0 
-0 -1 -0 -0 0.9432822468948886 1 0 0:0 1:0 2:0 3:1 4:0 5:1 6:1 7:1 8:0 9:1 10:0 11:0 12:1 13:0 14:0 15:0 16:0 17:0 18:0 19:0 
-0 -0.4369425234417524 -1 -0 1 0 1 0:1 1:0 2:0 3:0 4:0 5:0 6:0 7:0 8:0 9:0 10:0 11:1 12:0 13:0 14:0 15:0 16:0 17:0 18:0 19:0 
-0 -0 -1 -0 1 0 1 0:0 1:0 2:0 3:0 4:0 5:0 6:0 7:0 8:0 9:0 10:0 11:1 12:0 13:0 14:0 15:0 16:0 17:0 18:0 19:0 
-1 -1 -1 -1 0 1 1 0:0 1:1 2:0 3:0 4:0 5:0 6:0 7:0 8:0 9:0 10:0 11:0 12:0 13:0 14:0 15:0 16:0 17:0 18:0 19:0 
-1 -0 -1 -0 0 1 1 0:0 1:0 2:0 3:0 4:0 5:0 6:0 7:0 8:0 9:0 10:0 11:1 12:0 13:1 14:0 15:0 16:0 17:0 18:0 19:0 
-1 -1 -1 -0 0 1 1 0:0 1:0 2:0 3:0 4:0 5:0 6:0 7:0 8:0 9:0 10:0 11:0 12:0 13:0 14:0 15:0 16:0 17:0 18:0 19:0 
-1 -1 -1 -0 0 1 1 0:0 1:0 2:0 3:0 4:0 5:0 6:0 7:0 8:0 9:0 10:0 11:0 12:0 13:0 14:0 15:0 16:0 17:0 18:0 19:0 
-0 -1 -0 -0 1 0 1 0:1 1:0 2:0 3:0 4:0 5:1 6:0 7:0 8:0 9:0 10:0 11:0 12:0 13:0 14:0 15:0 16:0 17:0 18:0 19:0 
-0 -1 -0 -1 1 0 0 0:1 1:0 2:0 3:1 4:0 5:0 6:0 7:0 8:0 9:0 10:0 11:0 12:0 13:0 14:0 15:0 16:1 17:0 18:1 19:0 
-1 -1 -1 -1 0 1 1 0:0 1:0 2:0 3:0 4:0 5:0 6:0 7:0 8:0 9:0 10:0 11:0 12:0 13:0 14:0 15:0 16:0 17:0 18:0 19:0 
-1 -0 -0.08202656862003722 -0 0 0 0 0:0 1:0 2:0 3:0 4:1 5:1 6:0 7:0 8:0 9:0 10:1 11:0 12:0 13:0 14:0 15:0 16:1 17:1 18:0 19:1 
-0 -0.156614642412004 -0.3522051301908786 -0 0 1 0 0:0 1:0 2:0 3:0 4:1 5:1 6:0 7:0 8:0 9:0 10:0 11:0 12:0 13:1 14:0 15:0 16:0 17:0 18:0 19:0 
-1 -0 -1 -0.09399435837679727 0 0 1 0:0 1:0 2:0 3:1 4:0 5:0 6:0 7:0 8:0 9:0 10:1 11:1 12:0 13:0 14:0 15:0 16:0 17:0 18:0 19:0 
-0 -0 -1 -0 0 0 0 0:0 1:0 2:0 3:0 4:0 5:1 6:0 7:0 8:0 9:0 10:0 11:1 12:0 13:0 14:0 15:0 16:0 17:0 18:0 19:0 
-0 -0 -1 -0 0 0 0 0:0 1:0 2:0 3:0 4:0 5:1 6:0 7:0 8:0 9:0 10:0 11:1 12:0 13:0 14:0 15:0 16:0 17:0 18:0 19:0 
-1 -0.137997259104093 -0 -0.2644145672454463 0.8105091204114935 0.4354016676908023 0 0:0 1:0 2:1 3:1 4:1 5:0 6:0 7:0 8:0 9:0 10:0 11:0 12:0 13:0 14:1 15:0 16:1 17:0 18:1 19:1 
-0 -0 -0 -0 1 0 0 0:1 1:0 2:0 3:0 4:1 5:1 6:0 7:0 8:0 9:0 10:0 11:0 12:0 13:0 14:0 15:0 16:0 17:0 18:0 19:0 
-0 -1 -1 -0 0 1 1 0:0 1:0 2:0 3:0 4:0 5:1 6:0 7:0 8:0 9:0 10:0 11:0 12:0 13:0 14:0 15:0 16:0 17:0 18:0 19:0 
-0 -0 -0 -0 1 0 0 0:1 1:0 2:0 3:0 4:0 5:1 6:0 7:0 8:0 9:0 10:0 11:1 12:0 13:0 14:0 15:0 16:0 17:0 18:0 19:0 
-0 -0 -0 -0 1 0 0 0:1 1:0 2:0 3:0 4:0 5:1 6:0 7:0 8:0 9:0 10:0 11:1 12:0 13:1 14:0 15:0 16:0 17:0 18:0 19:0 
-0 -0 -0 -0 0.4053656016129328 0 0 0:1 1:1 2:0 3:1 4:0 5:1 6:0 7:0 8:0 9:0 10:0 11:1 12:0 13:0 14:0 15:0 16:0 17:0 18:0 19:1 
-1 -0 -1 -1 0 1 1 0:0 1:1 2:0 3:0 4:0 5:0 6:0 7:0 8:0 9:0 10:0 11:0 12:0 13:0 14:0 15:0 16:0 17:0 18:1 19:0 
-0 -0 -1 -0 0 0 1 0:0 1:0 2:0 3:0 4:1 5:1 6:0 7:0 8:0 9:0 10:0 11:0 12:0 13:0 14:0 15:0 16:0 17:0 18:0 19:0 
-0 -0 -0 -0 1 0 0 0:1 1:0 2:0 3:0 4:0 5:1 6:0 7:0 8:0 9:0 10:0 11:1 12:0 13:0 14:0 15:0 16:0 17:0 18:0 19:0 
-0 -0 -1 -1 0 0 1 0:0 1:1 2:0 3:1 4:0 5:0 6:0 7:0 8:0 9:0 10:0 11:0 12:0 13:0 14:0 15:0 16:0 17:0 18:0 19:0 
-1 -1 -1 -0 1 1 1 0:1 1:0 2:0 3:0 4:1 5:0 6:0 7:0 8:0 9:0 10:1 11:0 12:0 13:1 14:0 15:0 16:0 17:0 18:0 19:0 
-1 -1 -1 -0 1 0 1 0:1 1:0 2:0 3:0 4:0 5:0 6:0 7:0 8:0 9:0 10:1 11:1 12:0 13:0 14:0 15:0 16:0 17:0 18:0 19:0 
-1 -1 -1 -0 0 1 1 0:0 1:0 2:0 3:0 4:0 5:1 6:0 7:0 8:0 9:0 10:1 11:0 12:0 13:1 14:0 15:0 16:0 17:1 18:0 19:0 
-1 -0 -0 -1 0 1 1 0:0 1:1 2:0 3:1 4:0 5:0 6:1 7:0 8:0 9:0 10:0 11:0 12:1 13:0 14:1 15:0 16:0 17:0 18:0 19:0 
-0 -0 -0 -0 1 0 0 0:1 1:1 2:0 3:0 4:0 5:1 6:0 7:0 8:0 9:0 10:0 11:1 12:0 13:0 14:0 15:0 16:0 17:0 18:0 19:1 
-0 -0 -0 -0 0 1 1 0:0 1:0 2:0 3:0 4:0 5:0 6:0 7:0 8:0 9:0 10:0 11:0 12:0 13:0 14:1 15:0 16:1 17:0 18:0 19:1 
-0 -1 -0 -0 0 1 1 0:0 1:0 2:0 3:1 4:0 5:1 6:1 7:0 8:0 9:0 10:0 11:0 12:1 13:0 14:0 15:0 16:0 17:0 18:0 19:0 
-0 -1 -1 -1 1 0 1 0:1 1:0 2:0 3:0 4:0 5:0 6:0 7:0 8:0 9:0 10:0 11:0 12:0 13:0 14:0 15:0 16:0 17:0 18:0 19:0 
-1 -0 -1 -1 0 1 1 0:0 1:0 2:0 3:1 4:0 5:0 6:0 7:0 8:0 9:0 10:0 11:0 12:0 13:0 14:0 15:0 16:0 17:0 18:1 19:0 
-0 -1 -0 -0 0 1 1 0:0 1:0 2:0 3:0 4:0 5:1 6:1 7:0 8:0 9:0 10:0 11:0 12:1 13:0 14:0 15:0 16:0 17:0 18:0 19:0 
-0 -1 -0 -0 0 1 0 0:1 1:0 2:0 3:0 4:0 5:1 6:0 7:0 8:0 9:0 10:0 11:0 12:0 13:1 14:0 15:0 16:0 17:0 18:1 19:0 
-1 -0.7067485626542616 -1 -0 0 1 1 0:0 1:0 2:0 3:0 4:0 5:0 6:0 7:0 8:0 9:0 10:0 11:1 12:0 13:1 14:0 15:0 16:0 17:0 18:0 19:0 
-0 -0.449802531900329 -1 -1 1 0 1 0:0 1:0 2:0 3:0 4:0 5:0 6:0 7:1 8:0 9:0 10:0 11:0 12:0 13:0 14:0 15:0 16:0 17:0 18:0 19:0 
-0 -0 -0 -0 1 0 0 0:1 1:0 2:0 3:0 4:0 5:1 6:0 7:0 8:0 9:0 10:0 11:1 12:0 13:0 14:0 15:0 16:0 17:0 18:0 19:0 
-0 -0.1663287352439421 -0 -0 1 0 0 0:0 1:0 2:0 3:0 4:0 5:1 6:0 7:1 8:0 9:0 10:0 11:0 12:0 13:0 14:0 15:0 16:0 17:0 18:0 19:0 
-0 -0 -0 -0.2806159901527518 1 0 0 0:1 1:0 2:0 3:1 4:0 5:0 6:1 7:1 8:0 9:0 10:0 11:0 12:1 13:0 14:1 15:0 16:0 17:0 18:0 19:0 
-0 -0 -0 -1 0 0 1 0:0 1:0 2:0 3:1 4:0 5:1 6:0 7:0 8:0 9:0 10:0 11:0 12:0 13:0 14:0 15:0 16:0 17:1 18:0 19:0 
-0 -1 -0 -0 0 0 0 0:0 1:1 2:0 3:1 4:0 5:1 6:1 7:0 8:0 9:0 10:0 11:0 12:1 13:0 14:0 15:0 16:0 17:0 18:0 19:0 
-1 -1 -1 -0 0 1 1 0:0 1:0 2:0 3:0 4:0 5:0 6:1 7:0 8:0 9:1 10:0 11:0 12:1 13:0 14:0 15:0 16:0 17:0 18:0 19:0 
-0 -1 -0.2713827980402332 -1 0 0 1 0:0 1:1 2:0 3:0 4:0 5:1 6:0 7:0 8:0 9:0 10:0 11:0 12:0 13:0 14:0 15:0 16:0 17:0 18:0 19:0 
-0 -0 -1 -0 0 0 0 0:0 1:0 2:0 3:1 4:0 5:0 6:0 7:0 8:0 9:0 10:0 11:1 12:0 13:1 14:0 15:0 16:0 17:0 18:0 19:0 
-0 -0.8986512778251046 -1 -0 1 0 0.1160286422401542 0:1 1:0 2:0 3:0 4:0 5:0 6:0 7:0 8:0 9:0 10:0 11:1 12:0 13:0 14:0 15:0 16:0 17:0 18:0 19:0 
-1 -0 -1 -0 1 0 1 0:0 1:0 2:0 3:0 4:0 5:0 6:0 7:0 8:0 9:0 10:0 11:1 12:0 13:0 14:0 15:0 16:0 17:0 18:0 19:0 
-0 -1 -1 -0 1 0 1 0:0 1:0 2:0 3:0 4:0 5:0 6:0 7:0 8:0 9:0 10:0 11:0 12:0 13:0 14:0 15:0 16:1 17:0 18:0 19:0 
-1 -1 -1 -0 1 0 0 0:1 1:0 2:0 3:0 4:1 5:1 6:0 7:0 8:0 9:0 10:1 11:0 12:0 13:0 14:0 15:0 16:1 17:1 18:0 19:0 
-0 -0 -0 -1 1 0 0 0:1 1:0 2:0 3:1 4:0 5:0 6:0 7:1 8:0 9:0 10:0 11:0 12:0 13:0 14:1 15:0 16:1 17:0 18:0 19:0 
-1 -1 -1 -1 0 1 1 0:0 1:0 2:0 3:0 4:0 5:0 6:0 7:0 8:0 9:0 10:0 11:0 12:0 13:0 14:0 15:0 16:0 17:0 18:0 19:0 
-0 -0 -1 -0 0 0 1 0:0 1:0 2:0 3:1 4:0 5:0 6:0 7:0 8:0 9:0 10:0 11:1 12:0 13:1 14:0 15:0 16:0 17:0 18:0 19:0 
-0 -1 -0 -0 0 1 0 0:0 1:0 2:0 3:0 4:0 5:0 6:1 7:1 8:0 9:0 10:0 11:0 12:1 13:1 14:0 15:0 16:0 17:0 18:0 19:1 
-0 -0.7576931242581858 -0 -0 0 1 1 0:0 1:0 2:0 3:0 4:0 5:0 6:0 7:0 8:0 9:0 10:0 11:0 12:0 13:0 14:1 15:0 16:1 17:0 18:0 19:1 
-1 -0 -1 -1 1 0 1 0:0 1:0 2:0 3:0 4:1 5:0 6:0 7:0 8:0 9:0 10:0 11:0 12:0 13:0 14:0 15:0 16:0 17:0 18:0 19:0 
-0 -0 -0 -1 0 0 0 0:0 1:0 2:0 3:1 4:0 5:0 6:0 7:1 8:0 9:0 10:0 11:0 12:0 13:0 14:1 15:0 16:0 17:0 18:0 19:1 
-0 -0 -0 -1 0 0 0 0:0 1:0 2:0 3:1 4:1 5:0 6:0 7:1 8:0 9:0 10:0 11:0 12:0 13:0 14:1 15:0 16:0 17:0 18:0 19:1 
-0 -0 -0 -0 0 0.1927222450946272 0.7868767967235565 0:0 1:0 2:0 3:0 4:0 5:0 6:0 7:1 8:0 9:0 10:0 11:0 12:0 13:0 14:1 15:0 16:0 17:0 18:0 19:1 
-0 -1 -0 -0 0 1 1 0:0 1:0 2:0 3:0 4:0 5:0 6:0 7:1 8:0 9:0 10:0 11:0 12:0 13:1 14:0 15:0 16:0 17:0 18:0 19:0 
-0 -0 -0 -0 1 0 0 0:0 1:0 2:0 3:0 4:0 5:1 6:0 7:1 8:0 9:0 10:0 11:0 12:0 13:0 14:0 15:0 16:0 17:0 18:0 19:1 
-0 -1 -1 -0.2319196326070625 1 0 1 0:0 1:0 2:0 3:0 4:1 5:0 6:0 7:0 8:0 9:0 10:0 11:0 12:0 13:0 14:0 15:0 16:1 17:0 18:0 19:0 
-1 -0 -1 -1 1 1 1 0:0 1:0 2:0 3:0 4:0 5:0 6:0 7:1 8:0 9:0 10:0 11:0 12:0 13:0 14:1 15:0 16:0 17:0 18:0 19:0 
-0 -1 -0 -0 0 1 0.8793632053272196 0:0 1:0 2:0 3:0 4:0 5:0 6:0 7:0 8:0 9:0 10:0 11:0 12:0 13:1 14:0 15:0 16:1 17:0 18:0 19:1 
-0 -0 -1 -0 0 0 0.0511505937720937 0:0 1:0 2:0 3:1 4:1 5:0 6:0 7:0 8:0 9:0 10:1 11:0 12:0 13:0 14:0 15:0 16:0 17:0 18:0 19:1 
-0 -0 -0 -1 0 0 1 0:0 1:0 2:0 3:1 4:0 5:0 6:0 7:1 8:0 9:0 10:0 11:0 12:0 13:0 14:0 15:0 16:0 17:0 18:0 19:0 
-0 -1 -1 -1 1 0 1 0:0 1:0 2:0 3:0 4:0 5:0 6:0 7:1 8:0 9:0 10:0 11:0 12:0 13:0 14:0 15:0 16:0 17:0 18:0 19:0 
-0 -1 -1 -1 1 0 1 0:0 1:0 2:0 3:0 4:0 5:0 6:0 7:1 8:0 9:0 10:0 11:0 12:0 13:0 14:0 15:0 16:0 17:0 18:0 19:0 
-0 -0 -0 -0 0 1 0 0:0 1:0 2:0 3:1 4:0 5:0 6:1 7:1 8:0 9:0 10:0 11:0 12:1 13:1 14:0 15:0 16:0 17:0 18:0 19:1 
-1 -0 -1 -1 0.9556972295497445 1 1 0:0 1:0 2:0 3:0 4:0 5:0 6:0 7:1 8:0 9:0 10:0 11:0 12:0 13:0 14:1 15:0 16:0 17:0 18:0 19:0 
-1 -0 -1 -0 0 0 0 0:0 1:0 2:0 3:0 4:1 5:0 6:0 7:0 8:0 9:0 10:1 11:0 12:0 13:1 14:0 15:0 16:1 17:0 18:0 19:1 
-1 -0 -0.9991716615278614 -0.3894348530745907 0 0.07357145916225007 0 0:0 1:1 2:0 3:0 4:0 5:0 6:0 7:0 8:0 9:0 10:0 11:1 12:0 13:0 14:1 15:0 16:0 17:0 18:0 19:1 
-1 -0 -1 -0 1 0 1 0:0 1:0 2:0 3:0 4:0 5:0 6:0 7:0 8:0 9:0 10:0 11:1 12:0 13:0 14:0 15:0 16:0 17:0 18:0 19:0 
-0 -0 -0 -1 0.1385723461562811 0 1 0:0 1:0 2:0 3:1 4:0 5:0 6:0 7:1 8:0 9:0 10:0 11:0 12:0 13:0 14:0 15:0 16:0 17:0 18:0 19:0 
-0 -0 -0 -0 1 0 0 0:1 1:0 2:0 3:0 4:0 5:0 6:0 7:1 8:0 9:0 10:0 11:0 12:0 13:1 14:0 15:0 16:0 17:0 18:0 19:1 
-1 -0 -1 -0.1751657992318554 0 1 1 0:0 1:0 2:0 3:1 4:1 5:0 6:0 7:0 8:0 9:0 10:1 11:0 12:0 13:0 14:1 15:0 16:0 17:0 18:0 19:1 
-1 -0 -0.996658990423874 -0 0 0 0 0:0 1:0 2:0 3:1 4:1 5:0 6:0 7:0 8:0 9:0 10:1 11:0 12:0 13:1 14:0 15:0 16:0 17:0 18:0 19:1 
-0 -1 -0 -0 0 1 0.08033429644748778 0:0 1:0 2:0 3:0 4:0 5:0 6:0 7:0 8:0 9:0 10:0 11:0 12:0 13:1 14:0 15:0 16:1 17:0 18:0 19:1 
-0 -0 -0 -0 1 0 0 0:1 1:0 2:0 3:0 4:0 5:0 6:0 7:1 8:0 9:0 10:0 11:0 12:0 13:1 14:0 15:0 16:0 17:0 18:0 19:1 
-0 -1 -1 -1 1 0 1 0:0 1:0 2:0 3:0 4:0 5:0 6:0 7:1 8:0 9:0 10:0 11:0 12:0 13:0 14:0 15:0 16:0 17:0 18:0 19:0 
-1 -1 -1 -0.9810017163555421 0 1 1 0:0 1:0 2:0 3:0 4:0 5:0 6:0 7:0 8:0 9:0 10:0 11:0 12:0 13:0 14:0 15:0 16:0 17:0 18:0 19:0 
-0 -0.525812215516511 -0 -0.8692735534949694 0.04396432314080279 0.132645825786402 1 0:0 1:0 2:0 3:0 4:0 5:0 6:0 7:1 8:0 9:0 10:0 11:0 12:0 13:1 14:0 15:0 16:0 17:0 18:0 19:0 
-1 -0 -1 -0 1 0 1 0:0 1:0 2:0 3:0 4:0 5:0 6:0 7:0 8:0 9:0 10:0 11:1 12:0 13:0 14:0 15:0 16:0 17:0 18:0 19:0 
-1 -0 -0 -0 0 1 1 0:0 1:0 2:0 3:0 4:0 5:0 6:0 7:0 8:0 9:0 10:0 11:0 12:0 13:0 14:1 15:0 16:0 17:0 18:1 19:1 
-0 -1 -0 -0 0 1 1 0:0 1:0 2:0 3:0 4:0 5:0 6:0 7:0 8:0 9:0 10:0 11:0 12:0 13:0 14:1 15:0 16:1 17:0 18:0 19:1 
-0 -0 -0 -0 0 1 0 0:0 1:0 2:0 3:0 4:0 5:1 6:0 7:1 8:0 9:0 10:0 11:0 12:0 13:0 14:1 15:0 16:0 17:0 18:0 19:1 
-0.414061995355321 -0 -0 -0 0 0 0 0:0 1:1 2:0 3:1 4:0 5:1 6:0 7:0 8:0 9:0 10:1 11:1 12:0 13:0 14:0 15:0 16:0 17:1 18:0 19:1 
-0 -0.4683361014308935 -0 -0 0 0 0 0:0 1:0 2:0 3:1 4:0 5:0 6:0 7:0 8:0 9:0 10:1 11:0 12:0 13:1 14:0 15:0 16:1 17:0 18:0 19:1 
-0 -0 -0 -0.5726217821991021 0 1 0 0:1 1:0 2:0 3:1 4:0 5:0 6:0 7:0 8:0 9:0 10:0 11:0 12:0 13:0 14:1 15:0 16:0 17:0 18:1 19:1 
-0.7441651459880888 -0 -1 -0 1 0 1 0:0 1:0 2:0 3:0 4:0 5:0 6:0 7:0 8:0 9:0 10:0 11:1 12:0 13:0 14:0 15:0 16:0 17:0 18:0 19:0 
-1 -1 -1 -0.1188004014956097 1 1 1 0:0 1:0 2:1 3:0 4:0 5:0 6:0 7:0 8:0 9:0 10:0 11:0 12:0 13:0 14:0 15:0 16:0 17:0 18:0 19:0 
-0 -0 -0 -0 0 0 0.1590005424648131 0:0 1:0 2:0 3:1 4:0 5:0 6:0 7:0 8:0 9:0 10:0 11:0 12:0 13:0 14:1 15:0 16:1 17:0 18:0 19:1 
-0 -0 -0 -0 1 0 0 0:0 1:1 2:0 3:0 4:0 5:0 6:0 7:0 8:0 9:0 10:0 11:1 12:0 13:0 14:0 15:0 16:1 17:0 18:0 19:1 
-0.8713443086857517 -1 -0.7924477611771062 -0 0 1 1 0:0 1:0 2:0 3:0 4:0 5:0 6:0 7:0 8:0 9:0 10:1 11:0 12:0 13:1 14:0 15:0 16:1 17:0 18:0 19:1 
-0 -1 -0 -0 0 0 0 0:0 1:0 2:0 3:0 4:0 5:1 6:0 7:0 8:0 9:0 10:0 11:0 12:0 13:0 14:0 15:0 16:1 17:0 18:0 19:1 
-1 -1 -1 -0 1 0 0 0:0 1:0 2:0 3:0 4:1 5:1 6:0 7:0 8:0 9:0 10:1 11:0 12:0 13:0 14:0 15:0 16:1 17:1 18:0 19:0 
-1 -1 -1 -0 1 1 1 0:0 1:0 2:0 3:0 4:0 5:0 6:0 7:0 8:0 9:0 10:1 11:1 12:0 13:0 14:0 15:0 16:0 17:0 18:0 19:0 
-0 -1 -0 -0 0 0 0 0:0 1:0 2:0 3:0 4:0 5:1 6:0 7:0 8:0 9:0 10:0 11:0 12:0 13:0 14:0 15:0 16:1 17:0 18:0 19:1 
-1 -0.8054141936285241 -1 -1 1 0 1 0:0 1:0 2:0 3:0 4:1 5:0 6:0 7:0 8:0 9:0 10:0 11:0 12:0 13:0 14:0 15:0 16:0 17:0 18:0 19:0 
-0.0260360975127163 -1 -1 -1 -1 0 1 0:0 1:0 2:0 3:0 4:1 5:0 6:0 7:1 8:0 9:0 10:0 11:0 12:0 13:0 14:0 15:0 16:1 17:0 18:0 19:0 
-0 -1 -1 -0 -1 0 0 0:1 1:0 2:0 3:0 4:0 5:0 6:0 7:0 8:0 9:0 10:1 11:1 12:0 13:0 14:0 15:0 16:1 17:0 18:0 19:0 
-0.7600357972406044 -1 -1 -0.911686709765909 -1 1 0.8590671713773174 0:1 1:0 2:0 3:0 4:1 5:1 6:1 7:0 8:0 9:0 10:0 11:0 12:0 13:0 14:0 15:0 16:0 17:0 18:0 19:0 
-0 -1 -0 -0 -0 0 0 0:1 1:0 2:1 3:0 4:1 5:0 6:0 7:0 8:0 9:0 10:0 11:0 12:0 13:0 14:0 15:0 16:1 17:0 18:0 19:0 
-1 -1 -1 -0 -1 0 0.4885829605240375 0:1 1:0 2:1 3:0 4:1 5:0 6:0 7:0 8:0 9:0 10:0 11:0 12:0 13:0 14:0 15:0 16:0 17:0 18:0 19:0 
-1 -0 -1 -0 -0 0 0 0:0 1:0 2:1 3:0 4:0 5:0 6:0 7:1 8:1 9:0 10:0 11:1 12:0 13:0 14:0 15:0 16:0 17:0 18:0 19:0 
-0 -0 -0.1971360744284173 -0.7867443113600792 -0 0 0 0:1 1:0 2:0 3:0 4:1 5:0 6:0 7:1 8:1 9:0 10:0 11:0 12:0 13:0 14:0 15:0 16:0 17:0 18:0 19:0 
-0 -1 -0 -1 -1 0 0 0:1 1:0 2:0 3:0 4:0 5:0 6:0 7:1 8:0 9:0 10:0 11:0 12:0 13:0 14:0 15:0 16:1 17:0 18:0 19:0 
-1 -1 -1 -1 -1 1 1 0:1 1:0 2:0 3:0 4:0 5:0 6:0 7:0 8:0 9:0 10:0 11:0 12:0 13:0 14:0 15:0 16:0 17:0 18:0 19:0 
-1 -1 -1 -1 -1 1 1 0:0 1:0 2:0 3:0 4:1 5:0 6:0 7:0 8:0 9:0 10:1 11:0 12:0 13:0 14:0 15:0 16:1 17:0 18:0 19:0 
-1 -1 -1 -0 -1 0.9777913081250633 1 0:1 1:0 2:1 3:0 4:1 5:0 6:0 7:0 8:0 9:0 10:0 11:0 12:0 13:0 14:0 15:0 16:0 17:0 18:0 19:0 
-1 -0 -1 -0 -0 0 0 0:1 1:1 2:0 3:0 4:0 5:0 6:0 7:1 8:1 9:0 10:1 11:1 12:0 13:0 14:0 15:0 16:0 17:0 18:0 19:0 
-1 -1 -1 -0 -0.2817093411411288 0 0.3364505779874923 0:0 1:0 2:1 3:0 4:1 5:0 6:0 7:0 8:1 9:0 10:0 11:0 12:0 13:0 14:0 15:0 16:1 17:0 18:0 19:0 
-1 -1 -1 -1 -1 0.08218286175172461 1 0:0 1:0 2:0 3:0 4:1 5:0 6:0 7:1 8:0 9:0 10:0 11:0 12:0 13:0 14:0 15:0 16:1 17:0 18:0 19:0 
-1 -0.8203012680184976 -1 -0 -0 0 0 0:0 1:0 2:1 3:0 4:0 5:0 6:0 7:0 8:1 9:0 10:0 11:1 12:0 13:0 14:0 15:0 16:1 17:0 18:0 19:0 
-1 -1 -0 -0 -0.5077012100849898 1 0.3240175916385379 0:1 1:0 2:1 3:0 4:0 5:1 6:1 7:0 8:1 9:0 10:0 11:0 12:0 13:0 14:0 15:0 16:0 17:0 18:0 19:0 
-0 -1 -0 -0 -0 0 0 0:1 1:0 2:1 3:0 4:1 5:0 6:0 7:0 8:0 9:0 10:0 11:0 12:0 13:0 14:0 15:0 16:1 17:0 18:0 19:0 
-1 -0.4135251062178003 -1 -1 -1 1 1 0:0 1:1 2:1 3:0 4:0 5:0 6:0 7:0 8:1 9:0 10:0 11:1 12:0 13:0 14:0 15:0 16:0 17:0 18:0 19:0 
-0 -1 -0 -0.2204310808145529 -1 0 0.4403349529673637 0:1 1:0 2:0 3:0 4:0 5:0 6:0 7:1 8:0 9:0 10:0 11:0 12:0 13:0 14:0 15:0 16:1 17:0 18:0 19:0 
-0 -0 -0 -1 -0 0 0 0:1 1:1 2:0 3:0 4:0 5:0 6:0 7:1 8:0 9:0 10:0 11:1 12:0 13:0 14:0 15:0 16:0 17:0 18:0 19:0 
-1 -0 -1 -0 -0 0 0 0:0 1:0 2:1 3:0 4:0 5:0 6:0 7:1 8:1 9:0 10:0 11:1 12:0 13:0 14:0 15:0 16:0 17:0 18:0 19:0 
-0 -0 -0.300832175634562 -0 -1 0 0 0:0 1:0 2:0 3:0 4:0 5:0 6:0 7:1 8:0 9:0 10:0 11:1 12:0 13:0 14:0 15:0 16:1 17:0 18:0 19:0 
-0 -1 -0 -0 -0 0 0.02348194375829878 0:1 1:0 2:1 3:0 4:0 5:0 6:0 7:1 8:1 9:0 10:0 11:0 12:0 13:0 14:0 15:0 16:0 17:0 18:0 19:1 
-1 -1 -1 -0 -1 0 0 0:1 1:0 2:0 3:0 4:0 5:0 6:0 7:0 8:0 9:0 10:1 11:1 12:0 13:0 14:0 15:0 16:1 17:0 18:0 19:0 
-0 -0 -0 -0 -1 0 0 0:1 1:1 2:0 3:0 4:0 5:0 6:0 7:1 8:0 9:0 10:0 11:1 12:0 13:0 14:0 15:0 16:0 17:0 18:0 19:1 
-0.1510270454330581 -0 -0 -0 -1 0 0 0:1 1:0 2:0 3:0 4:1 5:0 6:0 7:1 8:1 9:0 10:0 11:0 12:0 13:0 14:0 15:0 16:0 17:0 18:0 19:1 
-0 -0 -0 -1 -0 0 0 0:1 1:1 2:0 3:0 4:0 5:0 6:0 7:1 8:0 9:0 10:0 11:1 12:0 13:0 14:0 15:0 16:0 17:0 18:0 19:0 
-0 -0 -0 -0 -1 0 0 0:1 1:1 2:0 3:0 4:0 5:0 6:0 7:1 8:0 9:0 10:0 11:1 12:0 13:0 14:0 15:0 16:0 17:0 18:0 19:1 
-0 -1 -0 -1 -1 1 1 0:0 1:0 2:1 3:0 4:0 5:0 6:0 7:1 8:0 9:0 10:0 11:0 12:0 13:0 14:0 15:0 16:1 17:0 18:0 19:0 
-0 -0 -0 -1 -1 0 0 0:1 1:0 2:0 3:0 4:1 5:0 6:0 7:1 8:0 9:0 10:0 11:0 12:0 13:0 14:0 15:0 16:0 17:0 18:0 19:0 
-0 -0 -0 -1 -1 0 0.08230737783037803 0:1 1:0 2:0 3:0 4:1 5:0 6:0 7:1 8:0 9:0 10:0 11:0 12:0 13:0 14:0 15:0 16:0 17:0 18:0 19:0 
-0 -0 -0 -0.4314821363764677 -1 1 0 0:1 1:0 2:0 3:0 4:1 5:0 6:0 7:1 8:0 9:0 10:0 11:0 12:0 13:0 14:0 15:0 16:0 17:0 18:0 19:1 
-1 -0 -1 -0.3431673945760531 -1 1 1 0:0 1:0 2:0 3:0 4:0 5:1 6:0 7:1 8:0 9:0 10:0 11:1 12:0 13:0 14:0 15:0 16:0 17:0 18:0 19:0 
-0 -1 -0 -0.3206836762983207 -1 0.0648068464850671 0 0:1 1:0 2:1 3:0 4:0 5:1 6:0 7:1 8:0 9:0 10:0 11:0 12:0 13:0 14:0 15:0 16:0 17:0 18:0 19:0 
-1 -1 -1 -0 -1 1 1 0:0 1:0 2:0 3:0 4:0 5:0 6:1 7:0 8:0 9:0 10:0 11:1 12:0 13:0 14:0 15:0 16:1 17:0 18:0 19:0 
-0 -1 -0 -0 -1 0 0 0:1 1:0 2:1 3:0 4:0 5:1 6:0 7:0 8:0 9:0 10:0 11:1 12:0 13:0 14:0 15:0 16:0 17:0 18:0 19:0 
-0 -1 -0 -0 -0 0 0 0:0 1:0 2:1 3:0 4:0 5:0 6:1 7:1 8:0 9:0 10:0 11:1 12:1 13:0 14:0 15:0 16:1 17:0 18:0 19:0 
-0 -0 -0 -0 -0.7230450603429757 0 0 0:1 1:0 2:0 3:0 4:1 5:1 6:1 7:1 8:0 9:0 10:0 11:0 12:0 13:0 14:0 15:0 16:0 17:0 18:0 19:0 
-0 -0 -0 -0 -1 0 0 0:1 1:0 2:0 3:0 4:1 5:1 6:1 7:1 8:0 9:0 10:0 11:0 12:0 13:0 14:0 15:0 16:0 17:0 18:0 19:0 
-0 -0 -0 -0 -1 0 0 0:1 1:0 2:0 3:0 4:0 5:0 6:0 7:1 8:0 9:0 10:0 11:1 12:0 13:0 14:0 15:0 16:0 17:0 18:0 19:0 
-1 -1 -1 -0.1853351645171855 -1 1 1 0:1 1:0 2:1 3:0 4:1 5:0 6:0 7:0 8:0 9:0 10:0 11:0 12:0 13:0 14:0 15:0 16:0 17:0 18:0 19:0 
-0 -1 -0 -0 -0 0 0 0:1 1:0 2:1 3:0 4:0 5:0 6:0 7:0 8:0 9:0 10:0 11:1 12:0 13:0 14:0 15:0 16:1 17:0 18:0 19:0 
-1 -1 -1 -0 -1 1 1 0:0 1:0 2:0 3:0 4:0 5:1 6:0 7:1 8:0 9:0 10:1 11:1 12:0 13:0 14:0 15:0 16:0 17:0 18:0 19:0 
-0 -0 -0 -0 -1 0 0 0:0 1:0 2:1 3:0 4:0 5:1 6:0 7:1 8:0 9:0 10:0 11:1 12:0 13:0 14:0 15:0 16:0 17:0 18:0 19:0 
-0 -1 -0 -0 -1 0 0 0:1 1:0 2:1 3:0 4:0 5:1 6:0 7:0 8:0 9:0 10:0 11:1 12:0 13:0 14:0 15:0 16:0 17:0 18:0 19:0 
-0 -0 -0 -0 -1 0 0 0:1 1:1 2:0 3:0 4:0 5:1 6:0 7:1 8:0 9:0 10:1 11:1 12:0 13:0 14:0 15:0 16:0 17:0 18:0 19:0 
-0 -0.1502987691527921 -0 -0 -1 0 0 0:1 1:0 2:0 3:0 4:1 5:1 6:1 7:1 8:0 9:0 10:0 11:0 12:0 13:0 14:0 15:0 16:0 17:0 18:0 19:0 
-0 -1 -1 -0 -1 1 0 0:0 1:0 2:0 3:0 4:0 5:1 6:1 7:1 8:0 9:0 10:0 11:1 12:0 13:0 14:0 15:0 16:0 17:0 18:0 19:0 
-0 -0 -0 -0.2086868727307475 -1 0 0 0:1 1:1 2:0 3:0 4:0 5:0 6:0 7:1 8:0 9:0 10:0 11:1 12:0 13:0 14:0 15:0 16:0 17:0 18:0 19:1 
-1 -1 -1 -1 -1 1 1 0:0 1:0 2:0 3:0 4:0 5:0 6:0 7:0 8:0 9:0 10:0 11:1 12:0 13:0 14:0 15:0 16:0 17:0 18:0 19:0 
-1 -1 -1 -1 -1 1 1 0:0 1:0 2:0 3:0 4:0 5:0 6:1 7:1 8:0 9:0 10:0 11:0 12:1 13:0 14:0 15:0 16:0 17:0 18:0 19:0 
-1 -1 -0 -0 -1 1 0 0:0 1:0 2:1 3:0 4:1 5:0 6:1 7:0 8:0 9:0 10:0 11:0 12:0 13:0 14:0 15:0 16:1 17:0 18:0 19:0 
-1 -0 -1 -0 -0 0 0 0:0 1:0 2:1 3:0 4:0 5:0 6:0 7:1 8:1 9:0 10:0 11:1 12:0 13:0 14:0 15:0 16:0 17:0 18:0 19:0 
-1 -0 -0.5607888332607788 -1 -0 0 0 0:0 1:1 2:1 3:0 4:0 5:0 6:0 7:1 8:1 9:0 10:0 11:1 12:0 13:0 14:0 15:0 16:0 17:0 18:0 19:1 
-1 -0 -1 -1 -1 1 1 0:0 1:0 2:0 3:0 4:0 5:0 6:0 7:0 8:1 9:0 10:0 11:1 12:0 13:0 14:0 15:0 16:0 17:0 18:0 19:0 
-0 -0 -0 -1 -0.5441461583093409 0 0 0:1 1:1 2:0 3:0 4:0 5:0 6:0 7:1 8:0 9:0 10:0 11:1 12:0 13:0 14:0 15:0 16:0 17:0 18:0 19:0 
-1 -0 -1 -1 -1 0 1 0:1 1:1 2:0 3:0 4:0 5:0 6:0 7:0 8:1 9:0 10:0 11:1 12:0 13:0 14:0 15:0 16:0 17:0 18:0 19:0 
-0 -0 -0 -0 -1 0 0 0:1 1:0 2:0 3:0 4:0 5:0 6:0 7:1 8:0 9:0 10:0 11:1 12:0 13:0 14:0 15:0 16:0 17:0 18:0 19:0 
-1 -1 -1 -0 -1 1 1 0:0 1:0 2:1 3:0 4:0 5:0 6:0 7:0 8:0 9:0 10:0 11:1 12:0 13:0 14:0 15:0 16:0 17:0 18:0 19:0 
-0 -0 -0 -1 -0.9901027710025059 0 0 0:1 1:1 2:0 3:0 4:0 5:0 6:0 7:1 8:0 9:0 10:0 11:1 12:0 13:0 14:0 15:0 16:0 17:0 18:0 19:0 
-0.9168530872491435 -1 -0 -0 -0.1814481402987173 0.3318342467398873 0 0:0 1:0 2:1 3:0 4:0 5:0 6:1 7:0 8:0 9:0 10:0 11:1 12:0 13:0 14:0 15:0 16:1 17:0 18:0 19:0 
-1 -1 -0.930479938418415 -1 -1 1 1 0:1 1:0 2:0 3:0 4:0 5:0 6:0 7:0 8:1 9:0 10:0 11:0 12:0 13:0 14:0 15:0 16:1 17:0 18:0 19:0 
-0 -0.9874355555604651 -0 -0 -0 0 0 0:1 1:0 2:1 3:0 4:0 5:0 6:0 7:0 8:0 9:0 10:0 11:1 12:0 13:0 14:0 15:0 16:1 17:0 18:0 19:0 
-0 -1 -0 -0 -1 0 0 0:1 1:0 2:0 3:0 4:0 5:0 6:0 7:0 8:0 9:0 10:0 11:1 12:0 13:0 14:0 15:0 16:1 17:0 18:0 19:0 
-0 -0 -1 -0 -0.5948396467455089 0 0 0:1 1:0 2:0 3:0 4:0 5:0 6:0 7:0 8:1 9:0 10:0 11:1 12:0 13:0 14:0 15:0 16:1 17:0 18:0 19:0 
-0 -0 -0.0734539109696746 -0 -0.8546813918490272 0 0 0:1 1:0 2:0 3:0 4:0 5:0 6:0 7:0 8:1 9:0 10:0 11:1 12:0 13:0 14:0 15:0 16:1 17:0 18:0 19:0 
-1 -1 -1 -0 -0.8037898406388662 -0.03410922726711216 1 0:0 1:0 2:0 3:0 4:0 5:0 6:1 7:0 8:0 9:1 10:1 11:0 12:0 13:0 14:0 15:0 16:0 17:1 18:0 19:0 
-1 -1 -1 -1 -1 -1 1 0:0 1:0 2:0 3:0 4:0 5:0 6:0 7:0 8:0 9:0 10:0 11:0 12:0 13:0 14:0 15:0 16:0 17:0 18:0 19:0 
-0 -1 -0.5394240719322113 -0 -1 -1 1 0:0 1:0 2:0 3:0 4:0 5:1 6:1 7:0 8:0 9:0 10:0 11:0 12:0 13:1 14:0 15:0 16:0 17:0 18:0 19:0 
-1 -1 -1 -0.1331779938802156 -0.9616687287365572 -1 1 0:0 1:0 2:0 3:0 4:0 5:0 6:1 7:0 8:0 9:1 10:1 11:0 12:0 13:0 14:0 15:0 16:0 17:1 18:0 19:0 
-1 -1 -1 -1 -1 -1 1 0:0 1:0 2:0 3:0 4:0 5:0 6:0 7:0 8:0 9:0 10:0 11:0 12:0 13:0 14:0 15:0 16:0 17:0 18:1 19:0 
-0.5549522664225512 -0 -0 -0 -0.6311331672965262 -0 0.03307071573923011 0:0 1:0 2:0 3:0 4:0 5:0 6:1 7:0 8:0 9:0 10:1 11:0 12:1 13:1 14:1 15:0 16:0 17:0 18:0 19:1 
-0.6737139109356531 -0.08030912275017914 -0 -0 -0 -0 0 0:0 1:0 2:0 3:0 4:0 5:1 6:1 7:0 8:0 9:1 10:1 11:0 12:1 13:1 14:1 15:0 16:0 17:1 18:0 19:1 
-1 -1 -1 -1 -1 -1 1 0:0 1:0 2:0 3:0 4:0 5:0 6:0 7:0 8:0 9:0 10:0 11:0 12:0 13:1 14:0 15:0 16:0 17:0 18:0 19:0 
-0 -0 -0 -1 -1 -0 0 0:0 1:0 2:0 3:0 4:0 5:1 6:0 7:0 8:0 9:0 10:0 11:0 12:0 13:0 14:1 15:1 16:0 17:0 18:1 19:1 
-0 -1 -0 -0 -0 -0 0 0:0 1:0 2:0 3:0 4:0 5:1 6:1 7:0 8:0 9:1 10:0 11:0 12:0 13:1 14:0 15:0 16:0 17:0 18:0 19:1 
-0 -0 -0 -0 -1 -0 0 0:0 1:0 2:0 3:1 4:0 5:0 6:1 7:0 8:0 9:0 10:0 11:0 12:1 13:1 14:1 15:0 16:0 17:0 18:1 19:1 
-1 -1 -0.6631103287843284 -0.9798949118363462 -1 -1 1 0:0 1:0 2:0 3:0 4:0 5:1 6:1 7:0 8:0 9:1 10:0 11:0 12:0 13:0 14:0 15:0 16:0 17:0 18:0 19:0 
-1 -0 -0 -0 -0 -0 0 0:0 1:0 2:0 3:0 4:0 5:0 6:0 7:0 8:0 9:0 10:1 11:0 12:1 13:1 14:1 15:1 16:0 17:0 18:1 19:0 
-0 -0 -0 -1 -0.9275596759173487 -0 0 0:0 1:0 2:0 3:0 4:0 5:0 6:0 7:0 8:0 9:0 10:0 11:0 12:0 13:0 14:1 15:1 16:0 17:0 18:1 19:1 
-1 -1 -1 -1 -1 -1 1 0:0 1:0 2:0 3:0 4:0 5:0 6:0 7:0 8:0 9:0 10:1 11:0 12:0 13:0 14:0 15:0 16:0 17:0 18:0 19:1 
-0 -0 -0 -0 -1 -0 0 0:0 1:0 2:0 3:0 4:0 5:0 6:1 7:0 8:0 9:0 10:0 11:0 12:0 13:1 14:0 15:0 16:0 17:0 18:0 19:1 
-0 -1 -1 -0 -1 -0 1 0:0 1:0 2:0 3:0 4:0 5:0 6:1 7:0 8:0 9:0 10:0 11:0 12:0 13:1 14:0 15:0 16:0 17:0 18:0 19:0 
-1 -1 -1 -0 -1 -1 1 0:0 1:0 2:0 3:0 4:0 5:0 6:1 7:0 8:0 9:0 10:1 11:0 12:0 13:0 14:0 15:0 16:0 17:0 18:0 19:1 
-0.3232422560949941 -0 -0 -0 -0 -0 0 0:0 1:0 2:0 3:0 4:0 5:1 6:1 7:0 8:0 9:1 10:1 11:0 12:1 13:1 14:0 15:0 16:0 17:1 18:1 19:1 
-1 -0 -0.243320879742013 -0 -1 -0 1 0:0 1:0 2:0 3:0 4:0 5:0 6:0 7:0 8:0 9:0 10:0 11:0 12:1 13:0 14:1 15:0 16:0 17:0 18:1 19:0 
-0 -0 -0 -1 -0 -0 0 0:0 1:0 2:0 3:0 4:0 5:0 6:0 7:0 8:0 9:0 10:0 11:0 12:0 13:1 14:1 15:1 16:0 17:0 18:1 19:0 
-1 -1 -0 -0 -0.6778540138723512 -0 0.05712463736605349 0:0 1:0 2:0 3:0 4:0 5:0 6:1 7:0 8:0 9:0 10:1 11:0 12:1 13:0 14:0 15:0 16:0 17:0 18:1 19:0 
-0.373038923648032 -0.459703635149433 -0 -0.4819681804917649 -1 -0.9212536442178735 0 0:0 1:0 2:1 3:1 4:0 5:1 6:0 7:0 8:0 9:0 10:0 11:0 12:0 13:0 14:1 15:0 16:0 17:0 18:1 19:1 
-0 -1 -0 -1 -1 -0.336486884946658 1 0:0 1:0 2:0 3:0 4:0 5:0 6:1 7:0 8:0 9:0 10:0 11:0 12:1 13:0 14:1 15:1 16:0 17:0 18:0 19:1 
-0 -1 -0.7115187422341828 -0 -1 -1 0.436209687383828 0:0 1:0 2:0 3:0 4:0 5:1 6:1 7:0 8:0 9:0 10:0 11:0 12:0 13:1 14:0 15:0 16:0 17:0 18:0 19:0 
-1 -1 -1 -0 -1 -0 1 0:0 1:0 2:0 3:0 4:0 5:0 6:0 7:0 8:0 9:0 10:1 11:0 12:0 13:1 14:0 15:0 16:0 17:0 18:0 19:1 
-0 -1 -0 -0 -0 -0 0 0:0 1:0 2:0 3:0 4:0 5:1 6:1 7:0 8:0 9:1 10:0 11:0 12:0 13:1 14:0 15:0 16:0 17:0 18:0 19:1 
-0 -0 -1 -0 -1 -0 0 0:0 1:0 2:0 3:0 4:0 5:1 6:0 7:0 8:0 9:0 10:0 11:0 12:0 13:0 14:0 15:0 16:0 17:0 18:1 19:1 
-0 -1 -1 -0 -1 -0.8472335490147164 1 0:0 1:0 2:0 3:0 4:0 5:0 6:1 7:0 8:0 9:0 10:0 11:0 12:0 13:1 14:0 15:0 16:0 17:0 18:0 19:0 
-1 -1 -1 -1 -1 -1 1 0:0 1:0 2:1 3:0 4:0 5:0 6:0 7:0 8:0 9:0 10:0 11:0 12:0 13:0 14:0 15:0 16:0 17:0 18:0 19:0 
-0 -1 -1 -0.7243806366497116 -1 -0 1 0:0 1:0 2:0 3:0 4:0 5:0 6:1 7:0 8:0 9:0 10:0 11:0 12:0 13:1 14:0 15:0 16:0 17:0 18:0 19:0 
-1 -1 -1 -0.2102778167080723 -1 -1 1 0:0 1:0 2:0 3:0 4:0 5:0 6:0 7:0 8:0 9:1 10:0 11:0 12:1 13:0 14:0 15:0 16:0 17:0 18:0 19:0 
-0 -1 -0 -0 -0.9955029379587034 -0 0 0:0 1:0 2:0 3:0 4:0 5:1 6:1 7:0 8:0 9:1 10:0 11:0 12:0 13:1 14:0 15:0 16:0 17:0 18:0 19:1 
-1 -0.8240628447074052 -0 -0 -1 -0 0 0:0 1:0 2:0 3:0 4:0 5:0 6:1 7:0 8:0 9:0 10:1 11:0 12:0 13:1 14:0 15:0 16:0 17:0 18:0 19:1 
-1 -1 -1 -1 -1 -1 1 0:0 1:0 2:0 3:0 4:0 5:0 6:0 7:0 8:0 9:0 10:0 11:0 12:0 13:0 14:0 15:0 16:0 17:0 18:0 19:0 
-0 -0 -0 -0 -1 -0 1 0:0 1:0 2:0 3:0 4:0 5:0 6:0 7:0 8:0 9:0 10:0 11:0 12:1 13:1 14:1 15:0 16:0 17:0 18:1 19:0 
-0 -0 -0 -1 -0 -0 1 0:0 1:0 2:0 3:0 4:0 5:0 6:0 7:0 8:0 9:0 10:0 11:0 12:1 13:0 14:1 15:1 16:0 17:0 18:1 19:0 
-1 -1 -0 -0 -0 -0 0 0:0 1:0 2:1 3:0 4:0 5:0 6:0 7:0 8:0 9:1 10:0 11:0 12:1 13:1 14:0 15:0 16:0 17:0 18:1 19:0 
-1 -1 -1 -1 -1 -1 1 0:0 1:0 2:1 3:0 4:0 5:0 6:0 7:0 8:0 9:0 10:0 11:0 12:0 13:0 14:1 15:0 16:0 17:0 18:1 19:0 
-1 -0.5063991134193144 -0 -0 -0 -0 1 0:0 1:0 2:0 3:0 4:0 5:0 6:0 7:0 8:0 9:1 10:0 11:0 12:1 13:0 14:1 15:0 16:0 17:0 18:1 19:0 
-0.4094851172012283 -0 -0 -1 -0 -0 0 0:0 1:0 2:0 3:0 4:0 5:0 6:0 7:0 8:0 9:1 10:0 11:0 12:1 13:0 14:1 15:1 16:0 17:0 18:1 19:0 
-0.7091667513807235 -0 -1 -1 -1 -0 1 0:0 1:0 2:0 3:1 4:0 5:0 6:0 7:0 8:0 9:0 10:0 11:0 12:0 13:0 14:1 15:1 16:0 17:0 18:1 19:0 
-1 -0 -0 -1 -0 -0 0 0:0 1:0 2:1 3:0 4:0 5:0 6:0 7:0 8:0 9:0 10:0 11:0 12:0 13:1 14:1 15:1 16:0 17:0 18:1 19:0 
-0 -0 -0 -1 -0 -0 1 0:0 1:0 2:0 3:0 4:0 5:0 6:0 7:0 8:0 9:0 10:0 11:0 12:1 13:0 14:1 15:1 16:0 17:0 18:1 19:0 
-1 -1 -1 -1 -1 -1 1 0:0 1:0 2:0 3:0 4:0 5:0 6:0 7:0 8:0 9:1 10:0 11:0 12:0 13:0 14:0 15:0 16:0 17:0 18:0 19:0 
-0 -0 -0 -1 -0 -0 0 0:0 1:0 2:0 3:0 4:0 5:0 6:0 7:0 8:0 9:0 10:0 11:0 12:0 13:1 14:1 15:1 16:0 17:0 18:1 19:0 
-1 -0 -0 -0 -0 -0 0 0:0 1:0 2:1 3:0 4:0 5:0 6:1 7:0 8:0 9:0 10:0 11:0 12:1 13:0 14:1 15:1 16:0 17:0 18:1 19:1 
-1 -1 -1 -1 -1 -1 1 0:0 1:0 2:0 3:0 4:0 5:0 6:0 7:0 8:0 9:0 10:0 11:0 12:0 13:1 14:0 15:0 16:0 17:0 18:0 19:0 
-0 -0 -0 -1 -0.372613984661785 -0 0 0:0 1:0 2:0 3:0 4:0 5:0 6:0 7:0 8:0 9:0 10:0 11:0 12:0 13:0 14:1 15:1 16:0 17:0 18:1 19:1 
-1 -1 -1 -0 -1 -0.06639385019076505 1 0:0 1:0 2:0 3:0 4:0 5:0 6:0 7:0 8:0 9:0 10:0 11:0 12:1 13:1 14:0 15:0 16:0 17:0 18:0 19:0 
-1 -1 -1 -0 -1 -0 1 0:0 1:0 2:0 3:0 4:0 5:0 6:0 7:0 8:0 9:1 10:0 11:0 12:0 13:1 14:0 15:0 16:0 17:0 18:0 19:0 
-1 -1 -1 -0 -1 -0 1 0:0 1:0 2:0 3:0 4:0 5:0 6:0 7:0 8:0 9:1 10:0 11:0 12:0 13:1 14:0 15:0 16:0 17:0 18:0 19:0 
-0 -1 -0 -0 -0 -0 0 0:0 1:0 2:0 3:0 4:0 5:1 6:1 7:0 8:0 9:0 10:0 11:0 12:1 13:0 14:1 15:0 16:0 17:0 18:1 19:0 
-1 -0 -0.7395686920783309 -0 -0 -0 1 0:0 1:0 2:0 3:0 4:0 5:0 6:0 7:0 8:0 9:0 10:1 11:0 12:0 13:1 14:1 15:0 16:0 17:1 18:1 19:0 
-1 -0.6845994432640596 -1 -1 -1 -0 1 0:0 1:0 2:0 3:0 4:0 5:0 6:0 7:0 8:0 9:0 10:0 11:0 12:0 13:1 14:1 15:1 16:0 17:0 18:0 19:0 
-1 -1 -0 -1 -1 -0 1 0:0 1:0 2:0 3:0 4:0 5:0 6:0 7:0 8:0 9:1 10:0 11:0 12:1 13:0 14:1 15:1 16:0 17:0 18:0 19:0 
-1 -0 -1 -0.2497561979877125 -1 -0 1 0:0 1:0 2:0 3:0 4:0 5:0 6:0 7:0 8:0 9:0 10:0 11:0 12:1 13:0 14:1 15:0 16:0 17:0 18:1 19:0 
-0.9457019511274791 -0 -0 -0 -0 -0.6620571214872628 0 0:0 1:0 2:1 3:0 4:0 5:1 6:0 7:0 8:0 9:0 10:0 11:0 12:0 13:0 14:1 15:1 16:0 17:0 18:1 19:1 
-0 -1 -0 -0 -0 -0 0 0:0 1:0 2:0 3:0 4:0 5:0 6:1 7:0 8:0 9:1 10:0 11:0 12:1 13:0 14:0 15:0 16:0 17:0 18:1 19:0 
-0 -0 -0 -0 -1 -0 0 0:0 1:0 2:0 3:0 4:0 5:1 6:0 7:0 8:0 9:0 10:0 11:0 12:0 13:1 14:1 15:0 16:0 17:0 18:1 19:1 
-0.6855625050591666 -1 -0 -0 -0 -0 0 0:0 1:0 2:0 3:0 4:0 5:0 6:1 7:0 8:0 9:1 10:0 11:0 12:1 13:0 14:0 15:0 16:0 17:0 18:1 19:0 
-0 -1 -0 -0 -1 -0.5890809859773546 0 0:0 1:0 2:0 3:0 4:0 5:0 6:1 7:0 8:0 9:0 10:0 11:0 12:1 13:0 14:0 15:0 16:0 17:0 18:1 19:0 
-1 -0 -0.04887452319337986 -0 -1 -0 1 0:0 1:0 2:0 3:0 4:0 5:1 6:0 7:0 8:0 9:0 10:1 11:0 12:0 13:0 14:1 15:0 16:0 17:1 18:1 19:1 
-0 -1 -0 -0 -1 -0 0 0:0 1:0 2:0 3:0 4:0 5:1 6:1 7:0 8:0 9:1 10:0 11:0 12:1 13:1 14:0 15:0 16:0 17:0 18:0 19:1 
-1 -0 -0 -0 -0 -0 0 0:0 1:0 2:0 3:0 4:0 5:0 6:0 7:0 8:0 9:0 10:1 11:0 12:0 13:1 14:1 15:0 16:0 17:0 18:1 19:1 
-1 -1 -0 -0 -0 -0 0 0:0 1:0 2:0 3:0 4:0 5:0 6:1 7:0 8:0 9:1 10:0 11:0 12:1 13:0 14:0 15:0 16:0 17:0 18:1 19:0 
-1 -1 -1 -1 -1 -1 1 0:0 1:0 2:0 3:0 4:0 5:0 6:0 7:0 8:0 9:0 10:0 11:0 12:0 13:0 14:0 15:0 16:0 17:0 18:1 19:0 
-0.7673155558736935 -0 -0 -0 -0.1223485618894857 -0 0 0:0 1:0 2:0 3:0 4:0 5:1 6:0 7:0 8:0 9:0 10:1 11:0 12:0 13:1 14:1 15:0 16:0 17:1 18:1 19:1 
-1 -0 -0 -0 -0 -0 0 0:0 1:0 2:0 3:0 4:0 5:0 6:0 7:0 8:0 9:0 10:1 11:0 12:0 13:1 14:1 15:0 16:0 17:0 18:1 19:1 
-1 -0.1375013664792108 -1 -1 -1 -0 1 0:0 1:0 2:0 3:0 4:0 5:0 6:0 7:0 8:0 9:0 10:1 11:0 12:0 13:0 14:1 15:0 16:0 17:1 18:1 19:0 
-1 -0 -0 -0.5857466705184342 -0 -0 0 0:0 1:0 2:0 3:0 4:0 5:1 6:0 7:0 8:0 9:0 10:1 11:0 12:0 13:0 14:1 15:1 16:0 17:1 18:1 19:1 
-1 -1 -0 -0 -0 -0 -1 0:0 1:0 2:0 3:0 4:0 5:0 6:0 7:0 8:0 9:1 10:0 11:0 12:1 13:0 14:0 15:0 16:0 17:0 18:0 19:0 
-0 -0 -0 -1 -1 -0 -0 0:0 1:0 2:0 3:1 4:0 5:0 6:0 7:0 8:0 9:0 10:0 11:0 12:0 13:0 14:0 15:0 16:0 17:0 18:0 19:0 
-0 -0 -0 -1 -1 -0 -0 0:0 1:0 2:0 3:1 4:0 5:0 6:0 7:0 8:0 9:0 10:0 11:0 12:0 13:0 14:0 15:0 16:0 17:0 18:0 19:0 
-1 -0 -1 -0 -0 -0 -0 0:0 1:0 2:0 3:0 4:0 5:0 6:0 7:0 8:0 9:0 10:0 11:0 12:0 13:0 14:0 15:0 16:0 17:1 18:0 19:0 
-0 -0 -0 -1 -1 -0 -0 0:0 1:0 2:0 3:1 4:0 5:0 6:0 7:0 8:0 9:0 10:0 11:0 12:0 13:0 14:0 15:0 16:0 17:0 18:0 19:0 
-1 -1 -0 -0 -0 -0 -1 0:0 1:0 2:0 3:0 4:0 5:0 6:0 7:0 8:0 9:1 10:0 11:0 12:1 13:0 14:0 15:0 16:0 17:0 18:0 19:0 
-1 -0.7418346420569308 -1 -0 -0 -0 -0 0:0 1:0 2:0 3:0 4:0 5:0 6:0 7:0 8:0 9:0 10:1 11:0 12:0 13:0 14:0 15:0 16:0 17:0 18:0 19:0 
-0.06948365026700827 -1 -0 -0 -1 -0 -1 0:0 1:0 2:0 3:0 4:0 5:0 6:0 7:0 8:0 9:0 10:0 11:0 12:0 13:1 14:0 15:0 16:0 17:0 18:0 19:0 
-1 -1 -0 -0 -1 -0 -1 0:0 1:0 2:0 3:0 4:0 5:0 6:0 7:0 8:0 9:0 10:0 11:0 12:0 13:1 14:0 15:0 16:0 17:0 18:0 19:0 
-1 -0.1482380118886715 -1 -1 -0 -1 -0 0:0 1:0 2:0 3:0 4:0 5:0 6:0 7:0 8:1 9:0 10:0 11:0 12:0 13:0 14:0 15:0 16:0 17:0 18:0 19:0 
-1 -1 -1 -0 -1 -0 -1 0:0 1:0 2:0 3:0 4:0 5:0 6:0 7:0 8:0 9:0 10:1 11:0 12:0 13:0 14:0 15:0 16:0 17:1 18:0 19:0 
-1 -1 -1 -0 -0 -0 -0 0:0 1:0 2:0 3:0 4:0 5:0 6:0 7:0 8:0 9:0 10:1 11:0 12:0 13:0 14:0 15:0 16:0 17:0 18:0 19:0 
-1 -1 -1 -0 -0 -0 -0 0:0 1:0 2:0 3:0 4:0 5:0 6:0 7:0 8:0 9:0 10:1 11:0 12:0 13:0 14:0 15:0 16:0 17:0 18:0 19:0 
-1 -1 -1 -0 -0 -0 -0 0:0 1:0 2:0 3:0 4:0 5:0 6:0 7:0 8:0 9:0 10:1 11:0 12:0 13:0 14:0 15:0 16:0 17:0 18:0 19:0 
-1 -0 -1 -0 -0 -0 -0 0:0 1:0 2:0 3:0 4:0 5:0 6:0 7:0 8:0 9:0 10:0 11:0 12:0 13:0 14:0 15:0 16:0 17:1 18:0 19:0 
-1 -1 -1 -0 -0.8930759394009319 -0 -1 0:0 1:0 2:0 3:0 4:0 5:0 6:0 7:0 8:0 9:0 10:1 11:0 12:0 13:0 14:0 15:0 16:0 17:1 18:0 19:0 
-1 -1 -1 -0 -0 -0 -0 0:0 1:0 2:0 3:0 4:0 5:0 6:0 7:0 8:0 9:0 10:1 11:0 12:0 13:0 14:0 15:0 16:0 17:0 18:0 19:0 
-1 -0.6873203879709497 -1 -1 -1 -0.633029638271555 -0.4712388614543424 0:0 1:0 2:0 3:1 4:0 5:0 6:0 7:0 8:0 9:0 10:1 11:0 12:0 13:0 14:0 15:0 16:0 17:0 18:0 19:0 
-1 -1 -0.6076807223710515 -0 -1 -0 -1 0:0 1:0 2:0 3:0 4:0 5:0 6:0 7:0 8:0 9:0 10:0 11:0 12:0 13:1 14:0 15:0 16:0 17:0 18:0 19:0 
-1 -0.9499049822425227 -1 -1 -0.8950887907670352 -1 -0.5735687248290311 0:0 1:0 2:0 3:0 4:0 5:0 6:0 7:0 8:1 9:0 10:0 11:0 12:0 13:0 14:0 15:0 16:0 17:0 18:0 19:0 
-0 -0 -0 -1 -1 -0 -0 0:0 1:0 2:0 3:1 4:0 5:0 6:0 7:0 8:0 9:0 10:0 11:0 12:0 13:0 14:0 15:0 16:0 17:0 18:0 19:0 
-0 -0 -0 -0 -0 -0 -1 0:0 1:0 2:0 3:0 4:0 5:0 6:0 7:0 8:0 9:0 10:0 11:0 12:1 13:0 14:1 15:0 16:0 17:0 18:0 19:0 
-1 -1 -1 -0 -1 -0 -1 0:0 1:0 2:0 3:0 4:0 5:0 6:0 7:0 8:0 9:0 10:0 11:0 12:0 13:1 14:0 15:0 16:0 17:0 18:0 19:0 
-1 -1 -0 -0 -0 -0 -1 0:0 1:0 2:0 3:0 4:0 5:0 6:0 7:0 8:0 9:1 10:0 11:0 12:1 13:0 14:0 15:0 16:0 17:0 18:0 19:0 
-1 -1 -1 -0.02281818383437833 -0 -0.6093544774023538 -1 0:0 1:0 2:0 3:0 4:0 5:0 6:0 7:0 8:0 9:0 10:1 11:0 12:0 13:0 14:0 15:0 16:0 17:1 18:0 19:0 
-1 -0 -0 -0 -0 -0 -0 0:0 1:0 2:0 3:0 4:0 5:0 6:0 7:0 8:0 9:0 10:0 11:0 12:0 13:0 14:1 15:0 16:0 17:1 18:0 19:0 
-1 -1 -1 -0 -0 -0 -0 0:0 1:0 2:0 3:0 4:0 5:0 6:0 7:0 8:0 9:0 10:1 11:0 12:0 13:0 14:0 15:0 16:0 17:0 18:0 19:0 
-0.9488449088284264 -1 -1 -1 -1 -0.3982692457384991 -1 0:0 1:0 2:0 3:0 4:0 5:0 6:0 7:0 8:0 9:0 10:0 11:0 12:0 13:1 14:0 15:0 16:0 17:0 18:0 19:0 
-0.571369346575492 -0 -0 -0 -0 -0 -0.06008816994908293 0:0 1:0 2:0 3:0 4:0 5:0 6:0 7:0 8:0 9:0 10:1 11:0 12:0 13:0 14:1 15:0 16:0 17:0 18:0 19:0 
-1 -0 -0.8827184937100783 -0 -0 -0 -1 0:0 1:0 2:0 3:0 4:0 5:0 6:0 7:0 8:0 9:0 10:1 11:0 12:0 13:0 14:1 15:0 16:0 17:0 18:0 19:0 
-1 -1 -0 -0 -0.01533030853959337 -0 -1 0:0 1:0 2:0 3:0 4:0 5:0 6:0 7:0 8:0 9:1 10:0 11:0 12:1 13:0 14:0 15:0 16:0 17:0 18:0 19:0 
-1 -1 -0 -0.5380033485519309 -0.8154622785541789 -0 -1 0:0 1:0 2:0 3:0 4:0 5:0 6:0 7:0 8:0 9:1 10:0 11:0 12:1 13:0 14:1 15:0 16:0 17:0 18:0 19:0 
-1 -1 -1 -0 -0.719729414916506 -0 -0.8820875499392276 0:0 1:0 2:0 3:0 4:0 5:0 6:0 7:0 8:0 9:0 10:1 11:0 12:0 13:0 14:0 15:0 16:0 17:0 18:0 19:0 
-1 -0 -1 -0 -0.7571494654793061 -0 -1 0:0 1:0 2:0 3:0 4:0 5:0 6:0 7:0 8:0 9:0 10:1 11:0 12:0 13:0 14:1 15:0 16:0 17:0 18:0 19:0 
-1 -0 -0 -0 -0 -0 -1 0:0 1:0 2:0 3:0 4:0 5:0 6:0 7:0 8:0 9:0 10:0 11:0 12:0 13:0 14:1 15:0 16:0 17:1 18:0 19:0 
-0 -0 -0 -0 -1 -0 -0 0:0 1:0 2:0 3:0 4:0 5:0 6:0 7:0 8:0 9:0 10:0 11:0 12:0 13:0 14:0 15:0 16:0 17:0 18:0 19:0 
-0 -1 -0 -0 -0 -0 -0 0:0 1:0 2:0 3:0 4:0 5:0 6:0 7:0 8:0 9:0 10:0 11:0 12:1 13:0 14:0 15:0 16:0 17:0 18:0 19:0 
-0 -0 -1 -0 -1 -0 -0 0:0 1:0 2:0 3:0 4:0 5:0 6:0 7:0 8:0 9:0 10:0 11:0 12:0 13:0 14:0 15:0 16:0 17:0 18:0 19:0 
-0 -0 -1 -0 -1 -0 -0 0:0 1:0 2:0 3:0 4:0 5:0 6:0 7:0 8:0 9:0 10:0 11:0 12:0 13:0 14:0 15:0 16:0 17:0 18:0 19:0 
-1 -0.0969770196452036 -0.989144081977133 -0.08647666970868705 -1 -0 -1 0:0 1:0 2:0 3:0 4:0 5:0 6:0 7:0 8:0 9:0 10:1 11:0 12:0 13:0 14:1 15:0 16:0 17:0 18:0 19:0 
-0 -0 -1 -0 -1 -0 -0 0:0 1:0 2:0 3:0 4:0 5:0 6:0 7:0 8:0 9:0 10:0 11:0 12:0 13:0 14:0 15:0 16:0 17:0 18:0 19:0 
-0 -0 -1 -0 -1 -0 -0 0:0 1:0 2:0 3:0 4:0 5:0 6:0 7:0 8:0 9:0 10:0 11:0 12:0 13:0 14:0 15:0 16:0 17:0 18:0 19:0 
-0 -0 -1 -0 -1 -0 -0 0:0 1:0 2:0 3:0 4:0 5:0 6:0 7:0 8:0 9:0 10:0 11:0 12:0 13:0 14:0 15:0 16:0 17:0 18:0 19:0 
-0 -0 -0 -0 -0.2270164862138688 -0 -1 0:0 1:0 2:0 3:0 4:0 5:0 6:0 7:0 8:0 9:0 10:0 11:0 12:1 13:0 14:1 15:0 16:0 17:0 18:0 19:0 
-0 -0 -0 -0 -0 -0 -1 0:0 1:0 2:0 3:0 4:0 5:0 6:0 7:0 8:0 9:0 10:0 11:0 12:1 13:0 14:1 15:0 16:0 17:0 18:0 19:0 
-0 -0 -1 -0 -1 -0 -0 0:0 1:0 2:0 3:0 4:0 5:0 6:0 7:0 8:0 9:0 10:0 11:0 12:0 13:0 14:0 15:0 16:0 17:0 18:0 19:0 
-1 -0.1746168090799992 -0 -0.1283989124211815 -0.8958693900451407 -0 -0.8462885342587956 0:0 1:0 2:0 3:0 4:0 5:0 6:0 7:0 8:0 9:0 10:0 11:0 12:1 13:0 14:1 15:0 16:0 17:1 18:0 19:0 
-0 -0 -1 -0 -1 -0 -0 0:0 1:0 2:0 3:0 4:0 5:0 6:0 7:0 8:0 9:0 10:0 11:0 12:0 13:0 14:0 15:0 16:0 17:0 18:0 19:0 
-1 -0 -1 -0 -0 -0 -0 0:0 1:0 2:0 3:0 4:0 5:0 6:0 7:0 8:0 9:0 10:0 11:0 12:0 13:0 14:0 15:0 16:0 17:1 18:0 19:0 
-1 -0 -1 -0 -0 -0 -0 0:0 1:0 2:0 3:0 4:0 5:0 6:0 7:0 8:0 9:0 10:0 11:0 12:0 13:0 14:0 15:0 16:0 17:1 18:0 19:0 
-0 -0 -1 -0 -1 -0 -0 0:0 1:0 2:0 3:0 4:0 5:0 6:0 7:0 8:0 9:0 10:0 11:0 12:0 13:0 14:0 15:0 16:0 17:0 18:0 19:0 
-0 -0 -1 -0 -1 -0 -0 0:0 1:0 2:0 3:0 4:0 5:0 6:0 7:0 8:0 9:0 10:0 11:0 12:0 13:0 14:0 15:0 16:0 17:0 18:0 19:0 
-0 -0 -1 -0 -1 -0 -0 0:0 1:0 2:0 3:0 4:0 5:0 6:0 7:0 8:0 9:0 10:0 11:0 12:0 13:0 14:0 15:0 16:0 17:0 18:0 19:0 
-1 -1 -1 -0 -1 -0 -0 0:0 1:0 2:0 3:0 4:0 5:0 6:0 7:0 8:0 9:0 10:1 11:0 12:0 13:0 14:0 15:0 16:0 17:0 18:0 19:0 
-0 -0 -0 -0.1061926302855847 -0 -0 -0 0:0 1:0 2:0 3:0 4:0 5:0 6:0 7:0 8:0 9:0 10:0 11:0 12:0 13:0 14:1 15:0 16:0 17:0 18:0 19:0 
-0 -0 -0 -1 -0 -0 -0 0:0 1:0 2:0 3:0 4:0 5:0 6:0 7:0 8:0 9:0 10:0 11:0 12:0 13:0 14:1 15:0 16:0 17:0 18:0 19:0 
-1 -0 -1 -1 -0 -1 -0 0:0 1:0 2:0 3:0 4:0 5:0 6:0 7:0 8:1 9:0 10:0 11:0 12:0 13:0 14:1 15:0 16:0 17:0 18:0 19:0 
-0 -0 -1 -0 -1 -0 -0 0:0 1:0 2:0 3:0 4:0 5:0 6:0 7:0 8:0 9:0 10:0 11:0 12:0 13:0 14:0 15:0 16:0 17:0 18:0 19:0 
-0 -0 -0 -1 -0 -0 -0 0:0 1:0 2:0 3:0 4:0 5:0 6:0 7:0 8:0 9:0 10:0 11:0 12:0 13:0 14:1 15:0 16:0 17:0 18:0 19:0 
-0 -0 -0 -1 -1 -0 -0 0:0 1:0 2:0 3:0 4:0 5:0 6:0 7:0 8:0 9:0 10:0 11:0 12:0 13:0 14:1 15:0 16:0 17:0 18:0 19:0 
-1 -1 -1 -0 -0.8659381072050878 -0.9730746965215956 -0 0:0 1:0 2:0 3:0 4:0 5:0 6:0 7:0 8:0 9:0 10:1 11:0 12:0 13:0 14:0 15:0 16:0 17:0 18:0 19:0 
-1 -0.04561857774819885 -1 -1 -0.9336491230588027 -1 -0.5146718389833523 0:0 1:0 2:0 3:0 4:0 5:0 6:0 7:0 8:1 9:0 10:0 11:0 12:0 13:0 14:1 15:0 16:0 17:0 18:0 19:0 
-0 -0 -0 -1 -1 -0 -0 0:0 1:0 2:0 3:0 4:0 5:0 6:0 7:0 8:0 9:0 10:0 11:0 12:0 13:0 14:1 15:0 16:0 17:0 18:0 19:0 
-0 -0 -1 -0 -1 -0 -0 0:0 1:0 2:0 3:0 4:0 5:0 6:0 7:0 8:0 9:0 10:0 11:0 12:0 13:0 14:0 15:0 16:0 17:0 18:0 19:0 
-0 -0 -0 -1 -1 -0 -0.9004430460667756 0:0 1:0 2:0 3:1 4:0 5:0 6:0 7:0 8:0 9:0 10:0 11:0 12:0 13:0 14:0 15:0 16:0 17:0 18:0 19:0 
-1 -1 -1 -0.02484687141536842 -1 -0.6678952887435652 -1 0:0 1:0 2:0 3:0 4:0 5:0 6:0 7:0 8:0 9:0 10:1 11:0 12:0 13:1 14:0 15:0 16:0 17:0 18:0 19:0 
-0 -0 -0 -1 -1 -0 -1 0:0 1:0 2:0 3:0 4:0 5:0 6:0 7:0 8:0 9:0 10:0 11:0 12:0 13:0 14:1 15:0 16:0 17:0 18:0 19:0 
-0 -0.4840472603126404 -0.828483195397001 -1 -1 -0.4346105566724062 -0.5697883737602765 0:0 1:0 2:0 3:1 4:0 5:0 6:0 7:0 8:0 9:0 10:0 11:0 12:0 13:0 14:0 15:0 16:0 17:0 18:0 19:0 
-0 -0 -1 -0 -1 -0 -0 0:0 1:0 2:0 3:0 4:0 5:0 6:0 7:0 8:0 9:0 10:0 11:0 12:0 13:0 14:0 15:0 16:0 17:0 18:0 19:0 
-0 -0 -0 -1 -1 -0 -1 0:0 1:0 2:0 3:0 4:0 5:0 6:0 7:0 8:0 9:0 10:0 11:0 12:0 13:0 14:1 15:0 16:0 17:0 18:0 19:0 
-1 -0 -0 -0.4809487134154111 -0.1261182656722111 -0 -0.7452123760891084 0:0 1:0 2:0 3:0 4:0 5:0 6:0 7:0 8:0 9:0 10:0 11:0 12:0 13:0 14:1 15:0 16:0 17:1 18:0 19:0 
-0 -0 -1 -0 -1 -0 -0 0:0 1:0 2:0 3:0 4:0 5:0 6:0 7:0 8:0 9:0 10:0 11:0 12:0 13:0 14:0 15:0 16:0 17:0 18:0 19:0 
-0 -1 -0 -0 -0.4260975051195617 -0 -0 0:0 1:0 2:0 3:0 4:0 5:0 6:0 7:0 8:0 9:0 10:0 11:0 12:1 13:0 14:0 15:0 16:0 17:0 18:0 19:0 
-0 -0 -0 -1 -1 -0 -1 0:0 1:0 2:0 3:0 4:0 5:0 6:0 7:0 8:0 9:0 10:0 11:0 12:0 13:0 14:1 15:0 16:0 17:0 18:0 19:0 
-0 -1 -0 -0 -1 -0 -0 0:0 1:0 2:0 3:0 4:0 5:0 6:0 7:0 8:0 9:0 10:0 11:0 12:1 13:0 14:0 15:0 16:0 17:0 18:0 19:0 
-0 -1 -1 -0 -1 -1 -0 0:0 1:0 2:0 3:0 4:0 5:0 6:0 7:0 8:0 9:0 10:0 11:0 12:0 13:0 14:0 15:0 16:0 17:0 18:0 19:0 
-1 -1 -0 -0 -1 -0.0457491845624254 -1 0:0 1:0 2:0 3:0 4:0 5:0 6:0 7:0 8:0 9:1 10:0 11:0 12:1 13:0 14:0 15:0 16:0 17:0 18:0 19:0 
-0 -1 -1 -0 -1 -1 -0 0:0 1:0 2:0 3:0 4:0 5:0 6:0 7:0 8:0 9:0 10:0 11:0 12:0 13:0 14:0 15:0 16:0 17:0 18:0 19:0 
-0 -1 -1 -0 -1 -1 -0 0:0 1:0 2:0 3:0 4:0 5:0 6:0 7:0 8:0 9:0 10:0 11:0 12:0 13:0 14:0 15:0 16:0 17:0 18:0 19:0 
-0 -1 -1 -0 -1 -1 -0 0:0 1:0 2:0 3:0 4:0 5:0 6:0 7:0 8:0 9:0 10:0 11:0 12:0 13:0 14:0 15:0 16:0 17:0 18:0 19:0 
-0 -1 -1 -0 -1 -1 -0 0:0 1:0 2:0 3:0 4:0 5:0 6:0 7:0 8:0 9:0 10:0 11:0 12:0 13:0 14:0 15:0 16:0 17:0 18:0 19:0 
-0 -1 -0.4502931024471018 -1 -1 -1 -1 0:0 1:0 2:0 3:0 4:0 5:0 6:0 7:0 8:0 9:0 10:0 11:0 12:0 13:0 14:0 15:0 16:0 17:0 18:0 19:0 
-1 -0 -1 -0 -0 -0 -0 0:0 1:0 2:0 3:0 4:0 5:0 6:0 7:0 8:0 9:0 10:0 11:0 12:0 13:0 14:0 15:0 16:0 17:1 18:0 19:0 
-1 -0 -1 -0 -0 -0 -0 0:0 1:0 2:0 3:0 4:0 5:0 6:0 7:0 8:0 9:0 10:0 11:0 12:0 13:0 14:0 15:0 16:0 17:1 18:0 19:0 
-0 -0.6564774963100665 -0 -1 -1 -1 -1 0:0 1:0 2:0 3:0 4:0 5:0 6:0 7:0 8:0 9:0 10:0 11:0 12:0 13:0 14:0 15:0 16:0 17:0 18:0 19:0 
-1 -0.9164172870753333 -1 -0 -0 -0 -0 0:0 1:0 2:0 3:0 4:0 5:0 6:0 7:0 8:0 9:0 10:0 11:0 12:0 13:0 14:0 15:0 16:0 17:1 18:0 19:0 
-0 -0 -0 -1 -1 -1 -1 0:0 1:0 2:0 3:0 4:0 5:0 6:0 7:0 8:0 9:0 10:0 11:0 12:0 13:0 14:0 15:0 16:0 17:0 18:0 19:0 
-1 -1 -1 -0.4274357550492747 -0.8099951652971001 -0.461470899734487 -0 0:0 1:0 2:0 3:0 4:0 5:0 6:0 7:0 8:0 9:0 10:0 11:0 12:0 13:0 14:0 15:0 16:0 17:1 18:0 19:0 
-0 -1 -0 -0 -1 -0 -0 0:0 1:0 2:0 3:0 4:0 5:0 6:0 7:0 8:0 9:0 10:0 11:0 12:1 13:0 14:0 15:0 16:0 17:0 18:0 19:0 
-0.5396300428400572 -1 -0.04707786675515856 -0 -1 -0.9500441759617145 -0 0:0 1:0 2:0 3:0 4:0 5:0 6:0 7:0 8:0 9:0 10:0 11:0 12:1 13:0 14:0 15:0 16:0 17:0 18:0 19:0 
-0 -0 -0 -1 -1 -1 -0.3502601459769328 0:0 1:0 2:0 3:0 4:0 5:0 6:0 7:0 8:0 9:0 10:0 11:0 12:0 13:0 14:0 15:0 16:0 17:0 18:0 19:0 
-0 -0 -0 -0.4289864150812477 -0.4267221283412531 -0.3904727206592077 -0.1120609351509438 0:0 1:0 2:0 3:0 4:0 5:0 6:0 7:0 8:0 9:0 10:0 11:0 12:0 13:0 14:0 15:0 16:0 17:0 18:0 19:0 
-1 -1 -0.9259055485167146 -0.4776088960226981 -0.9493713879695752 -0.9902716918156161 -1 0:0 1:0 2:0 3:0 4:0 5:0 6:0 7:0 8:0 9:1 10:0 11:0 12:1 13:0 14:0 15:0 16:0 17:0 18:0 19:0 
-0 -0 -0 -0 -0 -0 -1 0:0 1:0 2:0 3:0 4:0 5:0 6:0 7:0 8:0 9:0 10:0 11:0 12:0 13:0 14:0 15:0 16:0 17:0 18:0 19:0 
-0 -0 -0 -1 -0.3161403203951724 -0 -0.5006964840312429 0:0 1:0 2:0 3:0 4:0 5:0 6:0 7:0 8:0 9:0 10:0 11:0 12:0 13:0 14:1 15:0 16:0 17:0 18:0 19:0 
